network olcm - cond_12 {
}

variable hs180 {
	type discrete[2] { 1, 2 };
}

variable hs190 {
	type discrete[2] { 1, 2 };
}

variable hh081 {
	type discrete[3] { 1, 2, 3 };
}

variable db100 {
	type discrete[3] { 1, 2, 3 };
}

variable hs050 {
	type discrete[2] { 1, 2 };
}

variable h79_u {
	type discrete[2] { 1, 2 };
}

variable hs060 {
	type discrete[2] { 1, 2 };
}

variable hs070 {
	type discrete[3] { 1, 2, 3 };
}

variable hs100 {
	type discrete[3] { 1, 2, 3 };
}

variable hs040 {
	type discrete[2] { 1, 2 };
}

variable family_size {
	type discrete[5] { 1, 2, 3, 4, 5 };
}

variable hc190 {
	type discrete[2] { 1, 2 };
}

variable variable234 {
	type discrete[2] { state0, state1 };
}

variable variable367 {
	type discrete[2] { state0, state1 };
}

variable variable498 {
	type discrete[2] { state0, state1 };
}

variable variable119 {
	type discrete[3] { state0, state1, state2 };
}

variable variable531 {
	type discrete[2] { state0, state1 };
}

variable variable681 {
	type discrete[2] { state0, state1 };
}

probability ( hs180 | variable234, variable531 ) {
	(state0, state0) 0.6884229382049785, 0.31157706179502165;
	(state0, state1) 0.03284598098331537, 0.9671540190166846;
	(state1, state0) 0.1282554011215261, 0.8717445988784739;
	(state1, state1) 0.021967981208645012, 0.9780320187913549;
}

probability ( hs190 | variable234, variable531 ) {
	(state0, state0) 0.5114641198630188, 0.48853588013698124;
	(state0, state1) 0.10494423461518874, 0.8950557653848112;
	(state1, state0) 0.1715634240904422, 0.8284365759095577;
	(state1, state1) 0.012605513691621337, 0.9873944863083787;
}

probability ( hh081 | variable234 ) {
	(state0) 0.9950091761515207, 6.212341106350244E-4, 0.0043695897378441635;
	(state1) 0.9953121337096438, 0.00236959649167096, 0.0023182697986852347;
}

probability ( db100 | variable531, variable119 ) {
	(state0, state0) 0.7670674628983302, 0.16822382010416403, 0.06470871699750577;
	(state0, state1) 0.7748214445248995, 0.13493235121155908, 0.0902462042635414;
	(state0, state2) 0.7131155572029783, 0.19941064021433888, 0.08747380258268274;
	(state1, state0) 0.5033810980126027, 0.21850795911414664, 0.2781109428732506;
	(state1, state1) 0.4765223563552336, 0.2855124759416673, 0.23796516770309906;
	(state1, state2) 0.2622736588585253, 0.20519276018944543, 0.5325335809520292;
}

probability ( hs050 | variable119, variable367 ) {
	(state0, state0) 0.9674319454707492, 0.032568054529250816;
	(state0, state1) 0.9990065880320839, 9.934119679160193E-4;
	(state1, state0) 0.14033922602384455, 0.8596607739761555;
	(state1, state1) 0.9251417527193427, 0.07485824728065726;
	(state2, state0) 0.7913376388641594, 0.20866236113584063;
	(state2, state1) 0.9750028758042114, 0.024997124195788617;
}

probability ( h79_u | variable234, variable119, variable367 ) {
	(state0, state0, state0) 0.08742210917368408, 0.9125778908263159;
	(state0, state0, state1) 0.0032315953982693627, 0.9967684046017307;
	(state0, state1, state0) 0.6922408575744781, 0.3077591424255219;
	(state0, state1, state1) 0.8504396407032047, 0.14956035929679534;
	(state0, state2, state0) 0.3061537550263219, 0.6938462449736781;
	(state0, state2, state1) 0.04523540276329864, 0.9547645972367013;
	(state1, state0, state0) 0.031104289858997956, 0.968895710141002;
	(state1, state0, state1) 0.00144305655133983, 0.9985569434486601;
	(state1, state1, state0) 0.8686035963935237, 0.13139640360647642;
	(state1, state1, state1) 0.07888919398499492, 0.9211108060150051;
	(state1, state2, state0) 0.1814645996180668, 0.8185354003819333;
	(state1, state2, state1) 0.014831259734687614, 0.9851687402653124;
}

probability ( hs060 | variable531, variable119 ) {
	(state0, state0) 0.8261504860896612, 0.1738495139103387;
	(state0, state1) 0.014305739919435456, 0.9856942600805646;
	(state0, state2) 0.1726855825860705, 0.8273144174139295;
	(state1, state0) 0.916068070638923, 0.08393192936107688;
	(state1, state1) 0.008164195016951425, 0.9918358049830486;
	(state1, state2) 0.39476428186579865, 0.6052357181342014;
}

probability ( hs070 | variable681 ) {
	(state0) 0.670183061877644, 0.04816391682656068, 0.28165302129579534;
	(state1) 0.996831944523718, 8.143602924094346E-4, 0.002353695183872607;
}

probability ( hs100 | variable234, variable681 ) {
	(state0, state0) 0.7411966594241076, 0.05321537382688133, 0.20558796674901111;
	(state0, state1) 0.9957978818301406, 0.0032554353029569188, 9.466828669025004E-4;
	(state1, state0) 0.9398198172773985, 0.008867200293984422, 0.051312982428617156;
	(state1, state1) 0.9993822905187044, 2.0501938791737362E-4, 4.126900933782629E-4;
}

probability ( hs040 | variable119 ) {
	(state0) 0.9359959867404465, 0.06400401325955345;
	(state1) 0.09931172152539676, 0.9006882784746033;
	(state2) 0.019312251859424225, 0.9806877481405757;
}

probability ( family_size | variable498, variable681 ) {
	(state0, state0) 0.7324291438888234, 0.1255138041275748, 0.06972196992802367, 0.023920234176414482, 0.04841484787916343;
	(state0, state1) 0.23397773983622577, 0.24861214186538017, 0.23135038027933796, 0.23512168059923438, 0.050938057419821846;
	(state1, state0) 0.47559375315401387, 0.38263146871178266, 0.036047366141771967, 0.06595131771996474, 0.03977609427246678;
	(state1, state1) 0.14247961831338377, 0.5208064656029783, 0.20403177817036025, 0.050778772017815714, 0.08190336589546204;
}

probability ( hc190 | variable498, variable119 ) {
	(state0, state0) 0.07003741140560525, 0.9299625885943947;
	(state0, state1) 0.15956228979016832, 0.8404377102098317;
	(state0, state2) 0.12525130482426772, 0.8747486951757322;
	(state1, state0) 0.30247187241164847, 0.6975281275883514;
	(state1, state1) 0.379237406142994, 0.6207625938570058;
	(state1, state2) 0.7943270457985895, 0.2056729542014105;
}

probability ( variable234 ) {
	table 0.3473791380802676, 0.6526208619197323;
}

probability ( variable367 ) {
	table 0.054913993652849574, 0.9450860063471503;
}

probability ( variable498 ) {
	table 0.7329744128273968, 0.2670255871726033;
}

probability ( variable119 ) {
	table 0.6477625868399706, 0.14686929808228916, 0.20536811507774017;
}

probability ( variable531 ) {
	table 0.2389942697119303, 0.7610057302880697;
}

probability ( variable681 ) {
	table 0.03030557059326286, 0.9696944294067371;
}

