network LCM {
}

variable scm1lue {
	type discrete[4] { 0, 1, 2, 3 };
}

variable scm1rue {
	type discrete[4] { 0, 1, 2, 3 };
}

variable scm2lue {
	type discrete[4] { 0, 1, 2, 3 };
}

variable scm2rue {
	type discrete[4] { 0, 1, 2, 3 };
}

variable scm5rise {
	type discrete[4] { 0, 1, 2, 3 };
}

variable scm6post {
	type discrete[4] { 0, 1, 2, 3 };
}

variable scm7gait {
	type discrete[4] { 0, 1, 2, 3 };
}

variable scm16wal {
	type discrete[4] { 0, 1, 2, 3 };
}

variable scm11spe {
	type discrete[4] { 0, 1, 2, 3 };
}

variable scm10swa {
	type discrete[4] { 0, 1, 2, 3 };
}

variable scm8spee {
	type discrete[4] { 0, 1, 2, 3 };
}

variable scm14hyg {
	type discrete[4] { 0, 1, 2, 3 };
}

variable scm21fsv {
	type discrete[4] { 0, 1, 2, 3 };
}

variable scm18dpr {
	type discrete[4] { 0, 1, 2, 3 };
}

variable scm19dsv {
	type discrete[4] { 0, 1, 2, 3 };
}

variable variable51 {
	type discrete[14] { state0, state1, state2, state3, state4, state5, state6, state7, state8, state9, state10, state11, state12, state13 };
}

probability ( scm1lue | variable51 ) {
	(state0) 0.23557433090833696, 0.4131512237100992, 0.26627012341900347, 0.08500432196256036;
	(state1) 0.15208144815077856, 0.48777219282329304, 0.25855757353179587, 0.10158878549413261;
	(state2) 0.811118186842682, 0.1614505854353882, 0.021330122544883017, 0.0061011051770467695;
	(state3) 0.5118044157914396, 0.26159618108944543, 0.192666769314434, 0.033932633804680985;
	(state4) 0.01952067261701771, 0.5623342590080795, 0.34293885065668867, 0.07520621771821406;
	(state5) 0.8047303692892467, 0.13997079126119488, 0.05271636368607396, 0.002582475763484633;
	(state6) 0.5866613011852158, 0.2578253959349742, 0.12692348493271072, 0.02858981794709919;
	(state7) 0.08807114633797028, 0.5413098451293166, 0.2973936670396842, 0.07322534149302895;
	(state8) 0.781846848359151, 0.16080846147226438, 0.05427585303261769, 0.003068837135967003;
	(state9) 0.11287547096397657, 0.46617794472278007, 0.3072967435847949, 0.11364984072844841;
	(state10) 0.7671380234948668, 0.1548837182902612, 0.07256872280574293, 0.005409535409129035;
	(state11) 0.5368053372163143, 0.295983532532598, 0.12934941268797362, 0.03786171756311406;
	(state12) 0.8206876021258213, 0.11985789213858826, 0.04323729681125743, 0.01621720892433304;
	(state13) 0.7594452861830493, 0.19038222489645074, 0.04276139517296692, 0.0074110937475330985;
}

probability ( scm1rue | variable51 ) {
	(state0) 0.16724769462320274, 0.4002654604779446, 0.3097345365194673, 0.12275230837938529;
	(state1) 0.09247406082909987, 0.4918181537613297, 0.34140034731453345, 0.07430743809503701;
	(state2) 0.835728789374318, 0.11858996568223024, 0.03686313794557059, 0.008818106997881076;
	(state3) 0.4298591380433832, 0.367691102645865, 0.15551313925836371, 0.0469366200523881;
	(state4) 0.07830552659103303, 0.5079908529421943, 0.28574176674546364, 0.12796185372130903;
	(state5) 0.7548594786314384, 0.16896143751278306, 0.058816913885714854, 0.017362169970063505;
	(state6) 0.574273655808788, 0.2545124089123626, 0.13418775798262866, 0.03702617729622066;
	(state7) 0.18577961722167785, 0.46422701037133185, 0.2814284071919507, 0.06856496521503969;
	(state8) 0.7264937662032858, 0.1751947087251547, 0.08517076496922907, 0.013140760102330486;
	(state9) 0.14847636118748594, 0.43276385210375923, 0.31305474560798424, 0.10570504110077061;
	(state10) 0.8079179724086348, 0.11546952842587477, 0.06664339519293634, 0.009969103972554069;
	(state11) 0.5597663708192385, 0.2824645937189169, 0.12316289402922774, 0.03460614143261685;
	(state12) 0.6882146362642271, 0.19186173292222375, 0.10229788599204825, 0.017625744821501012;
	(state13) 0.6504410459318274, 0.20619251656318233, 0.12198290253656942, 0.021383534968420895;
}

probability ( scm2lue | variable51 ) {
	(state0) 0.1262036293391206, 0.6167043913774912, 0.21745582017289705, 0.039636159110491134;
	(state1) 0.10608988208551462, 0.6129421746640787, 0.23978084521756557, 0.041187098032841186;
	(state2) 0.8356853610111725, 0.1323282149224941, 0.024980381539980116, 0.007006042526353483;
	(state3) 0.46924004791428764, 0.3443653343705552, 0.15408653735198835, 0.03230808036316889;
	(state4) 0.057692141282428916, 0.6605332709645341, 0.20347366854776627, 0.0783009192052707;
	(state5) 0.8577256619428268, 0.1192639636574884, 0.01844606136763329, 0.004564313032051519;
	(state6) 0.5497557859696043, 0.3394972261780958, 0.08771822141988327, 0.02302876643241674;
	(state7) 0.07174537818679147, 0.6458107320353392, 0.22676483779382134, 0.05567905198404795;
	(state8) 0.7772294526094038, 0.18837450121833021, 0.0327636211176778, 0.0016324250545882188;
	(state9) 0.036361140575638426, 0.6342686705074253, 0.2707835426129001, 0.05858664630403627;
	(state10) 0.7607452806486968, 0.21253630793575823, 0.02417641292920622, 0.002541998486338722;
	(state11) 0.5336591075887837, 0.3586640978182627, 0.08594458217840822, 0.02173221241454543;
	(state12) 0.8118273349338517, 0.13784098616656565, 0.03403577351114053, 0.016295905388442087;
	(state13) 0.7688422575958974, 0.20395998793818226, 0.024532429322544753, 0.002665325143375725;
}

probability ( scm2rue | variable51 ) {
	(state0) 0.05975687367776299, 0.6626397440018917, 0.20868127882808996, 0.06892210349225533;
	(state1) 0.03478408358973772, 0.6258966931519702, 0.291232011207178, 0.048087212051114096;
	(state2) 0.8686476522540817, 0.11295130153238092, 0.013165032280396352, 0.005236013933140904;
	(state3) 0.45395944286089374, 0.38514671850449544, 0.10819321113284658, 0.0527006275017642;
	(state4) 0.05408765626949252, 0.6630798909265678, 0.238074889371986, 0.044757563431953834;
	(state5) 0.8071748396382241, 0.15256791420031604, 0.024688102417084426, 0.015569143744375534;
	(state6) 0.582560086824566, 0.31255470236371596, 0.0711415735645554, 0.03374363724716262;
	(state7) 0.09122998739194095, 0.6585136621270995, 0.19589174243999796, 0.05436460804096151;
	(state8) 0.7727427441373439, 0.18078251080012908, 0.03539148365531863, 0.011083261407208575;
	(state9) 0.05567118466008368, 0.641386846104289, 0.23375699229191133, 0.06918497694371584;
	(state10) 0.8009108455400582, 0.17718654604987655, 0.015338418061575165, 0.0065641903484900095;
	(state11) 0.5422545499189244, 0.3513882360296372, 0.0877108484430432, 0.018646365608395183;
	(state12) 0.744349747768946, 0.19680645032046545, 0.034362952555375345, 0.024480849355213236;
	(state13) 0.7290185563908564, 0.22110174056237905, 0.04076920608861059, 0.009110496958153868;
}

probability ( scm5rise | variable51 ) {
	(state0) 0.07956091919835662, 0.26483924035403733, 0.5425449067849856, 0.11305493366262036;
	(state1) 0.4493152360823259, 0.5017294453577513, 0.040633338021995064, 0.008321980537927804;
	(state2) 0.06420764070038083, 0.2538762645961399, 0.579470299650411, 0.10244579505306838;
	(state3) 0.6371909202573132, 0.344140358598551, 0.013675862301432088, 0.004992858842703815;
	(state4) 0.02423514839317031, 0.03413674623946519, 0.09723195318187842, 0.844396152185486;
	(state5) 0.9618016633064108, 0.03119847952763326, 0.004364210647238612, 0.002635646518717277;
	(state6) 0.9509154830104051, 0.033656853220244164, 0.012857144747126957, 0.002570519022223836;
	(state7) 0.9341010513557642, 0.04737796848262841, 0.012175623572804663, 0.006345356588802789;
	(state8) 0.4535207023884494, 0.5057401847313407, 0.037775306332099017, 0.0029638065481107415;
	(state9) 0.41848293838188033, 0.5542914081300622, 0.022333941768093855, 0.004891711719963685;
	(state10) 0.45260923438242684, 0.522206366126749, 0.022949156337012076, 0.0022352431538120976;
	(state11) 0.04288545791464371, 0.28691687810953537, 0.5994035835175531, 0.07079408045826774;
	(state12) 0.025071175064294078, 0.017492365831206433, 0.13121118238190516, 0.8262252767225944;
	(state13) 0.4387972206127678, 0.5064907016555624, 0.050900380316434915, 0.003811697415234758;
}

probability ( scm6post | variable51 ) {
	(state0) 0.04701596504351546, 0.25427484331155237, 0.6538008970914344, 0.0449082945534977;
	(state1) 0.5385352368850529, 0.3577629935114486, 0.09963354397219498, 0.004068225631303635;
	(state2) 0.07227466591831698, 0.22256045216858797, 0.6688958443290411, 0.03626903758405386;
	(state3) 0.6853794633638508, 0.25128415582803015, 0.058232936476504744, 0.0051034443316141246;
	(state4) 0.027383120748664516, 0.02120174362850935, 0.17085550018770343, 0.7805596354351227;
	(state5) 0.9179899365099644, 0.0720857357497908, 0.0068210015861865465, 0.003103326154058211;
	(state6) 0.9296711776142303, 0.052927985190764595, 0.012689046536668264, 0.004711790658336789;
	(state7) 0.8779297071485548, 0.08743976140782908, 0.024412091911483393, 0.010218439532132823;
	(state8) 0.4345332663023803, 0.4636363287087435, 0.09294717615500017, 0.00888322883387607;
	(state9) 0.4243693240422899, 0.48054040054646835, 0.09105908127825098, 0.004031194132990702;
	(state10) 0.4778243702318343, 0.4214177445373808, 0.09101682981568977, 0.009741055415095172;
	(state11) 0.05452893536771451, 0.21539088349848895, 0.6826433813212782, 0.04743679981251835;
	(state12) 0.04177712646743975, 0.026951834319581383, 0.2136820902950252, 0.7175889489179538;
	(state13) 0.5061139848761865, 0.41880816599357085, 0.07285865622064862, 0.0022191929095939787;
}

probability ( scm7gait | variable51 ) {
	(state0) 0.005526109646716108, 0.13523059706017107, 0.8473170600827881, 0.011926233210324832;
	(state1) 0.12703988095056903, 0.799027408502768, 0.07129832807710114, 0.0026343824695617356;
	(state2) 0.007476245225942696, 0.17129993449494035, 0.8092229167874532, 0.01200090349166383;
	(state3) 0.3623198000921425, 0.5978549757383087, 0.02564059405345357, 0.01418463011609515;
	(state4) 0.022253497773989803, 0.028286151131537134, 0.3205575534104599, 0.6289027976840132;
	(state5) 0.8016254422060042, 0.18988325327847075, 0.004921210296538525, 0.0035700942189865327;
	(state6) 0.8479574321069041, 0.13705318632521768, 0.012383098421910406, 0.0026062831459677947;
	(state7) 0.7589237182113457, 0.22440159055840586, 0.012056724552535132, 0.004617966677713136;
	(state8) 0.0832954658426178, 0.8479361021222211, 0.06473036905849086, 0.004038062976670299;
	(state9) 0.04520039668465323, 0.8986044246599774, 0.051715437870723024, 0.004479740784646351;
	(state10) 0.08461698865445905, 0.8585558899121444, 0.052830299547127355, 0.003996821886269192;
	(state11) 0.017377324629729417, 0.16508066477239672, 0.8126470471114848, 0.004894963486389084;
	(state12) 0.022252458856253533, 0.011440745954795785, 0.41610931225969744, 0.5501974829292533;
	(state13) 0.10174910700678427, 0.8148522879758366, 0.08108416618750632, 0.002314438829872775;
}

probability ( scm16wal | variable51 ) {
	(state0) 0.03507894815786539, 0.23697608262529268, 0.7109291652863925, 0.01701580393044949;
	(state1) 0.0867217800080747, 0.8181782782755164, 0.0924872206624349, 0.0026127210539740047;
	(state2) 0.021036797012733307, 0.30325439355723854, 0.6582963768392929, 0.0174124325907355;
	(state3) 0.31162448307481994, 0.6395529223057422, 0.038649385089000156, 0.010173209530437733;
	(state4) 0.08094587661230929, 0.01592700660266808, 0.3067730899277831, 0.5963540268572395;
	(state5) 0.8027596827976204, 0.19007577151039645, 0.002722887491190279, 0.004441658200792893;
	(state6) 0.8031968065436234, 0.17605516664589, 0.012208886340672138, 0.008539140469814372;
	(state7) 0.6640911863024656, 0.31453444028169025, 0.016340934872283882, 0.005033438543560261;
	(state8) 0.02590084406099709, 0.8631983469635529, 0.10789604642273308, 0.003004762552716839;
	(state9) 0.020428106407799074, 0.8991051308899429, 0.07567483154768044, 0.00479193115457759;
	(state10) 0.03730398671916031, 0.8925317961139203, 0.06508981831063433, 0.005074398856285089;
	(state11) 0.03258194855924345, 0.2110855232261475, 0.7443073163010558, 0.012025211913553319;
	(state12) 0.041935562719810235, 0.04478645764103289, 0.2144222859567538, 0.6988556936824031;
	(state13) 0.05303420362260459, 0.8526899046050356, 0.08694394604795062, 0.007331945724409123;
}

probability ( scm11spe | variable51 ) {
	(state0) 0.34941361025358514, 0.4751347288101795, 0.13895712050413275, 0.03649454043210257;
	(state1) 0.4281221050181725, 0.5474913959774226, 0.021444294437473515, 0.00294220456693138;
	(state2) 0.41800037593347195, 0.4197688623962632, 0.13209004591246404, 0.03014071575780074;
	(state3) 0.006288276293939972, 0.03658509080170514, 0.7809244433205816, 0.1762021895837733;
	(state4) 0.2895800104014132, 0.4951422901231002, 0.16226115658238413, 0.05301654289310242;
	(state5) 0.3093159712790059, 0.5078759442904359, 0.14269119240833755, 0.04011689202222071;
	(state6) 0.4359479195546728, 0.50347026281562, 0.0567270195005184, 0.003854798129188793;
	(state7) 0.3497160470716731, 0.5074706950436806, 0.12841080430895147, 0.014402453575694878;
	(state8) 0.004660376456786597, 0.7658839209805612, 0.19861773576690234, 0.030837966795749863;
	(state9) 0.32911391586031874, 0.4941946269114258, 0.14444983598109246, 0.03224162124716294;
	(state10) 0.44267540912273823, 0.5036000431883, 0.04569662261014203, 0.008027925078819742;
	(state11) 0.317056877506932, 0.504534898367277, 0.16042704570468666, 0.017981178421104287;
	(state12) 0.43990625096915364, 0.40835441910604925, 0.12813462001236145, 0.023604709912435722;
	(state13) 0.9382668643604878, 0.05138576909309915, 0.004165897427779651, 0.006181469118633274;
}

probability ( scm10swa | variable51 ) {
	(state0) 0.6123071250313624, 0.24348232452380084, 0.11624077234833341, 0.027969778096503473;
	(state1) 0.6681858806347417, 0.2752319689107362, 0.05168829983744145, 0.0048938506170804405;
	(state2) 0.6553293502782721, 0.2400491229934797, 0.08476794035421542, 0.019853586374032683;
	(state3) 0.27511835724277195, 0.37386451486196853, 0.29644667386190776, 0.05457045403335177;
	(state4) 0.5058349435479477, 0.35117850631176084, 0.12925972727497603, 0.013726822865315434;
	(state5) 0.6202606447928006, 0.2839327491710614, 0.07329187439063975, 0.022514731645498044;
	(state6) 0.6741879576929917, 0.2674627402763601, 0.05541003277746325, 0.0029392692531849535;
	(state7) 0.6660910975739038, 0.24330722619202294, 0.0789629812438463, 0.011638694990227018;
	(state8) 0.4930030079186473, 0.39106508511845056, 0.10165047460045352, 0.014281432362448486;
	(state9) 0.6318430213659254, 0.27418606726614814, 0.07988099510969159, 0.014089916258234941;
	(state10) 0.7183990486376328, 0.24549627015340633, 0.024289333789883523, 0.01181534741907719;
	(state11) 0.5940969351266638, 0.29262839233590054, 0.09991512995750736, 0.013359542579928283;
	(state12) 0.6867473446039192, 0.21354371956068136, 0.08342656650533022, 0.016282369330069383;
	(state13) 0.904832895701176, 0.0730558407970649, 0.01993949888192961, 0.0021717646198294994;
}

probability ( scm8spee | variable51 ) {
	(state0) 0.3038043221269462, 0.5126182312005629, 0.15296333289491362, 0.030614113777577168;
	(state1) 0.33505845233134685, 0.6217317090418132, 0.03643237337942277, 0.006777465247417219;
	(state2) 0.3336946812075776, 0.5419795188277756, 0.09950315121906557, 0.024822648745581127;
	(state3) 0.009480252218663028, 0.03895602799778765, 0.8422412369511504, 0.10932248283239897;
	(state4) 0.1649251453310846, 0.6367404460476741, 0.15830464757017995, 0.04002976105106141;
	(state5) 0.25580739278093084, 0.5560210577060434, 0.16668750981284328, 0.02148403970018236;
	(state6) 0.32254317299619584, 0.6106970415298398, 0.05620490875969006, 0.010554876714274294;
	(state7) 0.2963432982211611, 0.5550317200602322, 0.12568382411360002, 0.022941157605006788;
	(state8) 0.007585517926337008, 0.7583864466333752, 0.18867591082110735, 0.045352124619180596;
	(state9) 0.2335295144891622, 0.6040482151850836, 0.14353745694454043, 0.018884813381213707;
	(state10) 0.34342624787948567, 0.6032862032383414, 0.04293356586486264, 0.010353983017310333;
	(state11) 0.20318060411143535, 0.6059317526326923, 0.14076132630190796, 0.05012631695396437;
	(state12) 0.3333548732661367, 0.4850513700178339, 0.14862406947899334, 0.032969687237036055;
	(state13) 0.7536532812476242, 0.23687760307332598, 0.00721872417775721, 0.002250391501292706;
}

probability ( scm14hyg | variable51 ) {
	(state0) 0.04359236317447186, 0.37239768817542895, 0.5356601791969436, 0.04834976945315555;
	(state1) 0.17880495767371835, 0.7286980334057273, 0.08512683720817697, 0.007370171712377323;
	(state2) 0.017398809069444552, 0.42901449965172217, 0.5122605446978884, 0.04132614658094484;
	(state3) 0.33722388365787626, 0.5892468177444801, 0.06697332559322748, 0.0065559730044161876;
	(state4) 0.03142892781321969, 0.08934832825929329, 0.25323675447478966, 0.6259859894526973;
	(state5) 0.5795123079762586, 0.411834481210985, 0.002111700080706159, 0.006541510732050253;
	(state6) 0.6136604776936053, 0.349247324637061, 0.024557779306122057, 0.012534418363211577;
	(state7) 0.48879557038363763, 0.498877990561317, 0.006645392649725995, 0.005681046405319389;
	(state8) 0.14690558422783273, 0.7747487088576078, 0.07622555577382477, 0.0021201511407346637;
	(state9) 0.1856053995413671, 0.7333732887209634, 0.07876775265023318, 0.002253559087436295;
	(state10) 0.14762680838519743, 0.7583257002679927, 0.08709591529930265, 0.006951576047507272;
	(state11) 0.034216495407688445, 0.4227740110393837, 0.5122890242510062, 0.03072046930192158;
	(state12) 0.049256200926913296, 0.10160822721509621, 0.30209075061635593, 0.5470448212416346;
	(state13) 0.19892554912712873, 0.7046654692169066, 0.08776406102812748, 0.00864492062783712;
}

probability ( scm21fsv | variable51 ) {
	(state0) 0.6459577368891167, 0.1984319047638333, 0.12076728690046533, 0.034843071446584654;
	(state1) 0.16754080850064632, 0.3946077670801651, 0.32048479759596454, 0.11736662682322416;
	(state2) 0.5944881007012908, 0.2353079528490327, 0.15336546031699924, 0.016838486132677317;
	(state3) 0.11583281395062539, 0.35422312610980267, 0.39407228190013727, 0.13587177803943462;
	(state4) 0.4816584510492737, 0.2637429989046892, 0.1591971581489325, 0.09540139189710456;
	(state5) 0.6498064140993818, 0.21844263417563645, 0.09418884854499936, 0.03756210317998262;
	(state6) 0.13942344409053817, 0.3577115331326408, 0.3853868368781458, 0.1174781858986752;
	(state7) 0.5930302171572388, 0.26688730865215854, 0.11668263943041607, 0.0233998347601867;
	(state8) 0.6801021206517612, 0.20176566214427305, 0.08990182189841506, 0.02823039530555062;
	(state9) 0.6788947612367803, 0.2166552571624229, 0.08354565837797572, 0.020904323222821052;
	(state10) 0.1373379040680025, 0.35560887034419414, 0.36514584426524416, 0.14190738132255928;
	(state11) 0.1291160060465711, 0.3963279178451951, 0.3572829363246185, 0.11727313978361528;
	(state12) 0.4736392332835187, 0.28320030223618226, 0.21103385387608645, 0.03212661060421264;
	(state13) 0.6669813178179518, 0.20957869866342124, 0.10276600264172109, 0.020673980876905956;
}

probability ( scm18dpr | variable51 ) {
	(state0) 0.9690485841790678, 0.01720008942190558, 0.004759855770176997, 0.008991470628849538;
	(state1) 0.015331414312646084, 0.6232733370586864, 0.24103669286876253, 0.12035855575990506;
	(state2) 0.9562253251979751, 0.014036284004280641, 0.017926024043325314, 0.011812366754418947;
	(state3) 0.039352183658544544, 0.6033001427573577, 0.24122411074707184, 0.11612356283702589;
	(state4) 0.570188214896366, 0.20420477117582458, 0.15883457837393852, 0.06677243555387107;
	(state5) 0.9796800525418378, 0.014047782411953594, 0.004295764420637643, 0.0019764006255710603;
	(state6) 0.009605181704602186, 0.5821333156326027, 0.2746904733958388, 0.1335710292669563;
	(state7) 0.9633925688669297, 0.02229369336088323, 0.008643138738427729, 0.0056705990337592915;
	(state8) 0.9782334650829898, 0.012324507320488844, 0.003583146231504984, 0.005858881365016366;
	(state9) 0.9796318601575217, 0.014388910985036604, 0.003272351258282254, 0.0027068775991594637;
	(state10) 0.018381467349026737, 0.5652831853100831, 0.29330318133478084, 0.12303216600610928;
	(state11) 0.006041128336418093, 0.604077566428699, 0.28685378421366287, 0.10302752102122004;
	(state12) 0.6205343171469937, 0.207224049071432, 0.1347032112514327, 0.037538422530141634;
	(state13) 0.9703792338700825, 0.01899540331823728, 0.006253765898975039, 0.004371596912705166;
}

probability ( scm19dsv | variable51 ) {
	(state0) 0.9702214541843728, 0.007407928105948913, 0.0119253663308633, 0.010445251378815017;
	(state1) 0.018748154268764746, 0.6279943366518971, 0.2665406686346939, 0.08671684044464427;
	(state2) 0.962382453637115, 0.010975855440037808, 0.014590493350254117, 0.012051197572593013;
	(state3) 0.06507564088821845, 0.510715370307046, 0.3281179552884318, 0.09609103351630387;
	(state4) 0.5485055617766137, 0.22340280259936618, 0.18604609498682564, 0.04204554063719458;
	(state5) 0.9771595631340594, 0.009861308001268892, 0.0071794915673340344, 0.00579963729733774;
	(state6) 0.009105898260531854, 0.5795403831962603, 0.3041294601076919, 0.10722425843551606;
	(state7) 0.9781668890224339, 0.010041979731338226, 0.00444850241755556, 0.007342628828672321;
	(state8) 0.9781298482592903, 0.010654676426733683, 0.0027533314231189482, 0.00846214389085707;
	(state9) 0.9800271791007431, 0.004412403644000583, 0.013284167035443153, 0.002276250219813218;
	(state10) 0.012653415220712947, 0.5561027699044777, 0.3253164832948812, 0.10592733157992822;
	(state11) 0.012628373730224234, 0.590886609367145, 0.2704313284596138, 0.12605368844301698;
	(state12) 0.6452337125180383, 0.19794271019661683, 0.11912150386161581, 0.037702073423729034;
	(state13) 0.9824377880450396, 0.00794743230738708, 0.004994390934590133, 0.004620388712983359;
}

probability ( variable51 ) {
	table 0.04951316145262778, 0.07628212784691793, 0.05124359852364585, 0.04093952902362056, 0.0144259056641786, 0.11194462376064625, 0.07717112922672129, 0.08068918527924368, 0.13282270339782362, 0.0991363973868301, 0.09877610587969723, 0.050247296741272963, 0.024182368802716847, 0.09262586701405738;
}

