network LCM {
}

variable scm1lue {
	type discrete[4] { 0, 1, 2, 3 };
}

variable scm1rue {
	type discrete[4] { 0, 1, 2, 3 };
}

variable scm2lue {
	type discrete[4] { 0, 1, 2, 3 };
}

variable scm2rue {
	type discrete[4] { 0, 1, 2, 3 };
}

variable scm5rise {
	type discrete[4] { 0, 1, 2, 3 };
}

variable scm6post {
	type discrete[4] { 0, 1, 2, 3 };
}

variable scm7gait {
	type discrete[4] { 0, 1, 2, 3 };
}

variable scm16wal {
	type discrete[4] { 0, 1, 2, 3 };
}

variable scm11spe {
	type discrete[4] { 0, 1, 2, 3 };
}

variable scm10swa {
	type discrete[4] { 0, 1, 2, 3 };
}

variable scm8spee {
	type discrete[4] { 0, 1, 2, 3 };
}

variable scm14hyg {
	type discrete[4] { 0, 1, 2, 3 };
}

variable scm21fsv {
	type discrete[4] { 0, 1, 2, 3 };
}

variable scm18dpr {
	type discrete[4] { 0, 1, 2, 3 };
}

variable scm19dsv {
	type discrete[4] { 0, 1, 2, 3 };
}

variable variable91 {
	type discrete[12] { state0, state1, state2, state3, state4, state5, state6, state7, state8, state9, state10, state11 };
}

probability ( scm1lue | variable91 ) {
	(state0) 0.7961066895868725, 0.15258165641615845, 0.04914994802485538, 0.0021617059721135835;
	(state1) 0.09590113576978762, 0.5377368966500085, 0.2947635789349585, 0.07159838864524529;
	(state2) 0.5244663327454082, 0.2840349339596404, 0.14769421323267157, 0.043804520062279854;
	(state3) 0.53884775641541, 0.2963897948851924, 0.12755992038317487, 0.03720252831622262;
	(state4) 0.7704054966378356, 0.15348953619693917, 0.07121018615474757, 0.004894781010477692;
	(state5) 0.5555256368802768, 0.27171541125420046, 0.14482531452846611, 0.027933637337056668;
	(state6) 0.7750773854276904, 0.18040205388174885, 0.03765448173409812, 0.006866078956462616;
	(state7) 0.1735664256256188, 0.4627857554472563, 0.2626823026199316, 0.10096551630719337;
	(state8) 0.11575256242303043, 0.46665501172798773, 0.3087835857686725, 0.10880884008030932;
	(state9) 0.510086413025409, 0.2990550199953067, 0.1573893150093059, 0.033469251969978374;
	(state10) 0.8181498116417885, 0.12680904990382036, 0.052158268649740894, 0.002882869804650448;
	(state11) 0.5663004731524811, 0.2829468143684547, 0.11691198901773583, 0.03384072346132832;
}

probability ( scm1rue | variable91 ) {
	(state0) 0.741785229465502, 0.1673056281538006, 0.07567646767730411, 0.015232674703393418;
	(state1) 0.1978478056395444, 0.455992949531963, 0.2809241310382667, 0.06523511379022588;
	(state2) 0.4935755560279481, 0.2610787529491684, 0.17810506371228377, 0.06724062731059965;
	(state3) 0.5613853118407915, 0.28177175490097806, 0.12246465936528286, 0.03437827389294751;
	(state4) 0.8057029387746832, 0.12935848299296304, 0.05582725657558536, 0.009111321656768295;
	(state5) 0.5356574716430942, 0.27816298240765686, 0.15267640195823368, 0.033503143991015304;
	(state6) 0.6740085580217747, 0.19351216259776885, 0.11207506180549458, 0.020404217574961823;
	(state7) 0.09401188803796458, 0.4931282964624123, 0.3293011254288363, 0.08355869007078684;
	(state8) 0.1336143939063097, 0.44018056923025545, 0.3222932248565597, 0.10391181200687523;
	(state9) 0.4562023562945699, 0.31985616312698895, 0.16937586866567275, 0.05456561191276847;
	(state10) 0.7548764727000256, 0.17011104888356335, 0.059644558768698765, 0.015367919647712353;
	(state11) 0.5733619498072503, 0.25208402784767897, 0.1365903989974781, 0.037963623347592595;
}

probability ( scm2lue | variable91 ) {
	(state0) 0.7972347044602509, 0.1728135343658388, 0.028052297863044938, 0.0018994633108651976;
	(state1) 0.07354646125322539, 0.6493614416580508, 0.22544327031309555, 0.05164882677562833;
	(state2) 0.47299259313896724, 0.3796327635936147, 0.1241526855134726, 0.023221957753945362;
	(state3) 0.5383404806657558, 0.3542280850788654, 0.08493205218227279, 0.022499382073105822;
	(state4) 0.7647436049956382, 0.20245299936736147, 0.02886150580067064, 0.003941889836329601;
	(state5) 0.5228622989151209, 0.3563174569828354, 0.09690639983182948, 0.02391384427021417;
	(state6) 0.7878340907370674, 0.18634675529246802, 0.0233001540825569, 0.0025189998879076316;
	(state7) 0.11842302932052944, 0.5951944355282863, 0.24594576966313, 0.04043676548805415;
	(state8) 0.042090351368545414, 0.6408371417693105, 0.2600241840859432, 0.05704832277620091;
	(state9) 0.5227667621147796, 0.34701495795677206, 0.09641742412953318, 0.033800855798915105;
	(state10) 0.8787645618149357, 0.10159511948576508, 0.01494082513659908, 0.004699493562700205;
	(state11) 0.5362048601875192, 0.3342274816203506, 0.10543590267358048, 0.02413175551854981;
}

probability ( scm2rue | variable91 ) {
	(state0) 0.7946250667402117, 0.16439563676415023, 0.03332813642195846, 0.007651160073679571;
	(state1) 0.09292964291007388, 0.6613186804714675, 0.1925638274695236, 0.05318784914893502;
	(state2) 0.4537904935912143, 0.3967654105326132, 0.11379249074739407, 0.035651605128778324;
	(state3) 0.5454524667005847, 0.3465345130120954, 0.08952689819537052, 0.01848612209194942;
	(state4) 0.8103874668605164, 0.1723959328256657, 0.012636963014323313, 0.004579637299494595;
	(state5) 0.5555257243786569, 0.33241405632089294, 0.08070804982917629, 0.031352169471273846;
	(state6) 0.7556887788778007, 0.19886238926697256, 0.03727618596681515, 0.008172645888411592;
	(state7) 0.0315803180384667, 0.6231856084458609, 0.2838968324436871, 0.06133724107198532;
	(state8) 0.054009325161617244, 0.6395111813911343, 0.2337225293851883, 0.07275696406206014;
	(state9) 0.47634520837535566, 0.386841069140817, 0.10983049957398536, 0.026983222909842154;
	(state10) 0.8048841228627268, 0.15546774726156903, 0.024429988501251436, 0.01521814137445273;
	(state11) 0.5668325982895056, 0.32622734502433726, 0.07343953110555888, 0.033500525580598184;
}

probability ( scm5rise | variable91 ) {
	(state0) 0.4547646563153751, 0.49832063436477214, 0.04084914961394697, 0.00606555970590579;
	(state1) 0.9410705982131162, 0.04622268265182725, 0.010008975958343352, 0.002697743176713117;
	(state2) 0.05309164018973614, 0.2254531750789795, 0.6060463718899588, 0.11540881284132556;
	(state3) 0.04622227858005706, 0.28934668536628044, 0.5846560153824765, 0.07977502067118605;
	(state4) 0.4676436310970581, 0.5107886463531321, 0.019661161751136552, 0.0019065607986732645;
	(state5) 0.9568450430984499, 0.028706494629384734, 0.012167240544265118, 0.0022812217279003133;
	(state6) 0.4188497281455312, 0.510814900415827, 0.06552622412453515, 0.00480914731410667;
	(state7) 0.44944337804762263, 0.5089468903988756, 0.03539063766350007, 0.006219093890001678;
	(state8) 0.40932809798341896, 0.5572197362174002, 0.030976855618892737, 0.002475310180288131;
	(state9) 0.020440529973514112, 0.01899137949735593, 0.1131089706125884, 0.8474591199165415;
	(state10) 0.9618151178643825, 0.03169617758715658, 0.0041767378128608, 0.0023119667356000973;
	(state11) 0.567573446169739, 0.36902688622715946, 0.0445899979488219, 0.018809669654279635;
}

probability ( scm6post | variable91 ) {
	(state0) 0.4319663165614148, 0.45773712589036697, 0.09927022826209715, 0.011026329286120958;
	(state1) 0.8768408259329331, 0.08794783266245285, 0.024739450372132748, 0.010471891032481272;
	(state2) 0.048075501124593946, 0.23156240380829074, 0.6837861283830474, 0.03657596668406781;
	(state3) 0.05441186583255706, 0.21380486227232753, 0.6807140026989401, 0.051069269196175215;
	(state4) 0.5060727346329238, 0.39650905313252105, 0.08882768752369956, 0.008590524710855493;
	(state5) 0.9364672148963599, 0.04914056221808797, 0.010136372420634735, 0.004255850464917518;
	(state6) 0.4863841275207462, 0.4186759992307826, 0.09260556440852287, 0.0023343088399482726;
	(state7) 0.5361036089391926, 0.37120616963838177, 0.08978304484829822, 0.002907176574127521;
	(state8) 0.4020763611757613, 0.4782455537022018, 0.1144252191857956, 0.0052528659362413264;
	(state9) 0.03167039805116166, 0.01663810022041906, 0.19096149897021658, 0.7607300027582028;
	(state10) 0.9253482503962355, 0.06780432913379679, 0.0047513234245393976, 0.002096097045428303;
	(state11) 0.5615823039391616, 0.3365807764209834, 0.08780748100181529, 0.014029438638039559;
}

probability ( scm7gait | variable91 ) {
	(state0) 0.08832933554257652, 0.8230828286659492, 0.08515860415473242, 0.0034292316367419175;
	(state1) 0.751290406379513, 0.2352734869334947, 0.009058855406301183, 0.004377251280690982;
	(state2) 0.00371306335732151, 0.10824524964786847, 0.8797793472721879, 0.008262339722622108;
	(state3) 0.01780840730806075, 0.16762363451352671, 0.8087066791857231, 0.005861278992689387;
	(state4) 0.09897952290064113, 0.850126890549364, 0.047253385910685744, 0.0036402006393090594;
	(state5) 0.8652242381375677, 0.12059883097214666, 0.009807172182955237, 0.004369758707330581;
	(state6) 0.09288143010302613, 0.8095678172374303, 0.09528213116568786, 0.0022686214938557898;
	(state7) 0.122239537582235, 0.8120027384990387, 0.063393273417318, 0.0023644505014081434;
	(state8) 0.04173660395776817, 0.8739856918381945, 0.0777340023094, 0.006543701894637274;
	(state9) 0.017558440608366973, 0.012592793085257762, 0.3713387237237644, 0.5985100425826108;
	(state10) 0.8030860465356455, 0.18819095437864877, 0.004723125957494071, 0.0039998731282117105;
	(state11) 0.27561121779525033, 0.667958575616767, 0.04629210070004688, 0.010138105887935966;
}

probability ( scm16wal | variable91 ) {
	(state0) 0.028933242120879835, 0.851870953554851, 0.11554561073309703, 0.003650193591172165;
	(state1) 0.6680548597980982, 0.31578941825614126, 0.011001667099956628, 0.005154054845803996;
	(state2) 0.02489655090763342, 0.24130808266965145, 0.7160357601757985, 0.017759606246916547;
	(state3) 0.03315330461194875, 0.21773685696553277, 0.7348645746578785, 0.014245263764640055;
	(state4) 0.04933388412382855, 0.8893182755205239, 0.056406254389925636, 0.0049415859657219036;
	(state5) 0.8147831990069743, 0.16795904763125097, 0.009993063391235303, 0.007264689970539418;
	(state6) 0.04408910480768139, 0.8433977251139877, 0.10517119510006509, 0.007341974978265801;
	(state7) 0.07971672644694237, 0.8303307382688834, 0.08765518498014663, 0.002297350304027638;
	(state8) 0.016766792752191926, 0.8761279288130405, 0.10122476778830221, 0.005880510646465372;
	(state9) 0.05305064147727997, 0.023057781050467418, 0.2505528558348806, 0.6733387216373721;
	(state10) 0.8158529763453779, 0.17661611901064989, 0.0023347461026227184, 0.005196158541349563;
	(state11) 0.22745809552169396, 0.6837402619423407, 0.08161443190859019, 0.007187210627375112;
}

probability ( scm11spe | variable91 ) {
	(state0) 0.010767069033094195, 0.9488530461005787, 0.03746715079397465, 0.0029127340723525074;
	(state1) 0.3700188938109018, 0.5411783349673412, 0.0767981921058895, 0.012004579115867354;
	(state2) 0.3817251152232313, 0.450314901341845, 0.14015228802080273, 0.027807695414120936;
	(state3) 0.3284430701033183, 0.4957957711698579, 0.15668202060307673, 0.019079138123746932;
	(state4) 0.3942194735667401, 0.4534217174512709, 0.1187302953580659, 0.03362851362392302;
	(state5) 0.3737048791815209, 0.4333364405698535, 0.16323508003307913, 0.02972360021554647;
	(state6) 0.945529368499819, 0.04023128703473803, 0.005600279506194056, 0.008639064959248871;
	(state7) 0.3659264523860522, 0.4822305489198024, 0.13677689258356032, 0.01506610611058507;
	(state8) 0.37638493907208864, 0.5301923388632941, 0.07453831041897936, 0.018884411645637825;
	(state9) 0.39036509352120463, 0.4436111846352614, 0.13498093335044448, 0.03104278849308952;
	(state10) 0.351631762489217, 0.5446448111522159, 0.08666017226682576, 0.017063254091741406;
	(state11) 0.00489730296156223, 0.008351357168445652, 0.8165237508666812, 0.17022758900331086;
}

probability ( scm10swa | variable91 ) {
	(state0) 0.5442512300936623, 0.40046472648994647, 0.05229739197264699, 0.0029866514437443914;
	(state1) 0.6958713381017605, 0.2416614025576983, 0.05412326317468866, 0.00834399616585257;
	(state2) 0.6371307693995404, 0.24522201761266407, 0.0973336474526284, 0.02031356553516713;
	(state3) 0.6038244566943245, 0.2854631251561818, 0.09786320722456122, 0.012849210924932537;
	(state4) 0.6733961638195142, 0.2565835227604513, 0.05272697627305144, 0.017293337146982952;
	(state5) 0.6132699830639705, 0.2867347013724651, 0.09038958367217274, 0.009605731891391595;
	(state6) 0.8999285538686019, 0.0762056495968633, 0.021503293155133232, 0.002362503379401541;
	(state7) 0.6200199427196171, 0.28841730936804344, 0.08311989831526269, 0.008442849597076762;
	(state8) 0.6777286202149182, 0.26213898111943607, 0.04621254646840716, 0.013919852197238616;
	(state9) 0.6257922984975223, 0.2677317526714445, 0.0960220391810862, 0.010453909649947147;
	(state10) 0.6648884905719885, 0.27338974852372827, 0.04754826076997601, 0.014173500134307246;
	(state11) 0.2431725769382621, 0.3302468894618971, 0.35592973472564343, 0.07065079887419734;
}

probability ( scm8spee | variable91 ) {
	(state0) 0.01541657901671449, 0.9250682714979973, 0.053976534925531165, 0.005538614559756902;
	(state1) 0.31320965947915924, 0.5916612096808509, 0.07761756372263205, 0.017511567117357872;
	(state2) 0.3212421814579701, 0.5268880629028975, 0.12315938031490717, 0.028710375324225212;
	(state3) 0.2156261278358849, 0.5998430168778826, 0.13767981502777527, 0.04685104025845727;
	(state4) 0.3053167623482739, 0.5407067922337847, 0.13726842512083712, 0.016708020297104335;
	(state5) 0.27647301734891727, 0.5240565400296544, 0.17046259137831465, 0.02900785124311364;
	(state6) 0.7560306292490101, 0.2333751810054571, 0.008174887351614243, 0.002419302393918641;
	(state7) 0.2905014097877531, 0.5480939227950837, 0.13827969422333397, 0.02312497319382927;
	(state8) 0.26571146648867483, 0.65285540377974, 0.07371933033832405, 0.007713799393261121;
	(state9) 0.2722982325038221, 0.5480486135263825, 0.14821800944064598, 0.031435144529149445;
	(state10) 0.29157289348281085, 0.596029373372589, 0.10376718446520254, 0.0086305486793976;
	(state11) 0.004706655169296806, 0.041118554670491116, 0.7897308502323483, 0.16444393992786377;
}

probability ( scm14hyg | variable91 ) {
	(state0) 0.15634445693662416, 0.7600248665295637, 0.07938012343035476, 0.0042505531034572755;
	(state1) 0.5029928645321522, 0.4840658309037634, 0.006875219136559577, 0.006066085427524719;
	(state2) 0.018980214945939825, 0.3788684683099426, 0.5551361890155405, 0.04701512772857719;
	(state3) 0.03305430428487818, 0.4255263179833442, 0.5072691123182036, 0.034150265413574035;
	(state4) 0.16104021134854354, 0.7489338113335242, 0.08416417749195314, 0.005861799825979048;
	(state5) 0.6233113733407284, 0.34691804786893643, 0.018649712129968313, 0.011120866660366952;
	(state6) 0.19196129571700357, 0.7023193777282549, 0.0971871034303514, 0.008532223124390007;
	(state7) 0.17680570083672834, 0.7251641749749, 0.09113258217495926, 0.006897542013412388;
	(state8) 0.18261443856984508, 0.7247915766729998, 0.08930949780724202, 0.0032844869499132185;
	(state9) 0.0415041531040394, 0.09019589432859336, 0.28112579190348974, 0.5871741606638775;
	(state10) 0.5867559569084092, 0.40344210917226875, 0.002411134965030418, 0.007390798954291624;
	(state11) 0.21872280563550042, 0.7040728372208281, 0.07335064094445745, 0.0038537161992140325;
}

probability ( scm21fsv | variable91 ) {
	(state0) 0.6702700824891741, 0.20673790811899034, 0.09442656756869412, 0.028565441823141666;
	(state1) 0.591815125069893, 0.26707379258537584, 0.11623483508942994, 0.024876247255301347;
	(state2) 0.632404111851329, 0.21623410259679116, 0.12628042322632638, 0.025081362325553296;
	(state3) 0.13231203333513458, 0.3867162484071611, 0.36813441147862636, 0.11283730677907798;
	(state4) 0.13860425093795337, 0.35342593356151303, 0.37375154875134226, 0.13421826674919138;
	(state5) 0.12902354730037194, 0.36518711929891373, 0.3887041821711023, 0.11708515122961205;
	(state6) 0.6556196558999177, 0.21462440704626298, 0.1090622360374961, 0.020693701016323198;
	(state7) 0.15377559683316827, 0.37658587615499334, 0.3334179642151941, 0.1362205627966443;
	(state8) 0.6800826511639004, 0.2170560987995932, 0.08154828528224817, 0.021312964754258108;
	(state9) 0.4912341660599834, 0.2737461081524058, 0.18228990361734743, 0.05272982217026349;
	(state10) 0.6543299865922362, 0.21203355840574656, 0.09583924008951332, 0.037797214912503915;
	(state11) 0.6275963514237786, 0.24028410099967862, 0.10368727432223682, 0.02843227325430583;
}

probability ( scm18dpr | variable91 ) {
	(state0) 0.9741194093005153, 0.013888400874982953, 0.003946128593468509, 0.008046061231033132;
	(state1) 0.9600866074531845, 0.02464388623840417, 0.00897455330730295, 0.006294953001108201;
	(state2) 0.9752380579707243, 0.010068776578743999, 0.006584727630946728, 0.00810843781958491;
	(state3) 0.013202321359593771, 0.5979484684827789, 0.28697970728874567, 0.10186950286888168;
	(state4) 0.012585179412677954, 0.5920935585583856, 0.27572360668376056, 0.11959765534517582;
	(state5) 0.011211417164647866, 0.5860094800690201, 0.2762935313492444, 0.12648557141708772;
	(state6) 0.9669763663351736, 0.0205156814172887, 0.007976017469965686, 0.0045319347775720316;
	(state7) 0.01299710473715497, 0.6038738539080233, 0.24995918758579985, 0.13316985376902177;
	(state8) 0.9757214414424075, 0.01837115522388167, 0.003362220668593252, 0.0025451826651176255;
	(state9) 0.6205109536045458, 0.19546775654938742, 0.1393848315558393, 0.044636458290227436;
	(state10) 0.9766003268489667, 0.015372894239629885, 0.005792710927695364, 0.0022340679837079477;
	(state11) 0.9292141502503549, 0.04303289891325308, 0.023577776717734027, 0.004175174118658157;
}

probability ( scm19dsv | variable91 ) {
	(state0) 0.9719169558822912, 0.012906991058606682, 0.005430435877593101, 0.00974561718150904;
	(state1) 0.9776163619605368, 0.010546751107184385, 0.004173070805957896, 0.007663816126320949;
	(state2) 0.9800618358069928, 0.004816820893300548, 0.008515568623096497, 0.006605774676610296;
	(state3) 0.022574992132875175, 0.579948471695776, 0.27142136184676974, 0.12605517432457902;
	(state4) 0.011027484543202558, 0.5742074985321542, 0.31926305558138773, 0.09550196134325552;
	(state5) 0.006717998333412776, 0.563986912106205, 0.3148986718958641, 0.11439641766451801;
	(state6) 0.9782387518447051, 0.009645433597740775, 0.0056486335314294865, 0.00646718102612472;
	(state7) 0.011580546075021564, 0.6102196997799594, 0.2854123237793816, 0.09278743036563747;
	(state8) 0.9789422898655609, 0.007259779928941958, 0.011535488755053192, 0.002262441450443977;
	(state9) 0.6283427581364717, 0.2006666720575884, 0.1369107173435656, 0.03407985246237418;
	(state10) 0.9761359700328838, 0.009079320280996731, 0.00826743083028155, 0.00651727885583793;
	(state11) 0.9439396828073304, 0.025184035478087924, 0.021963375448004047, 0.008912906266577503;
}

probability ( variable91 ) {
	table 0.11275767270289035, 0.07804432598551664, 0.0865387768441496, 0.053451477612195764, 0.11244814203269315, 0.08702286062514532, 0.09141963457329733, 0.08671287613732659, 0.09764743450583245, 0.03772838900949015, 0.10095460807567022, 0.05527380189579234;
}

