network LCM {
}

variable scm1lue {
	type discrete[4] { 0, 1, 2, 3 };
}

variable scm1rue {
	type discrete[4] { 0, 1, 2, 3 };
}

variable scm2lue {
	type discrete[4] { 0, 1, 2, 3 };
}

variable scm2rue {
	type discrete[4] { 0, 1, 2, 3 };
}

variable scm5rise {
	type discrete[4] { 0, 1, 2, 3 };
}

variable scm6post {
	type discrete[4] { 0, 1, 2, 3 };
}

variable scm7gait {
	type discrete[4] { 0, 1, 2, 3 };
}

variable scm16wal {
	type discrete[4] { 0, 1, 2, 3 };
}

variable scm11spe {
	type discrete[4] { 0, 1, 2, 3 };
}

variable scm10swa {
	type discrete[4] { 0, 1, 2, 3 };
}

variable scm8spee {
	type discrete[4] { 0, 1, 2, 3 };
}

variable scm14hyg {
	type discrete[4] { 0, 1, 2, 3 };
}

variable scm21fsv {
	type discrete[4] { 0, 1, 2, 3 };
}

variable scm18dpr {
	type discrete[4] { 0, 1, 2, 3 };
}

variable scm19dsv {
	type discrete[4] { 0, 1, 2, 3 };
}

variable variable125 {
	type discrete[14] { state0, state1, state2, state3, state4, state5, state6, state7, state8, state9, state10, state11, state12, state13 };
}

probability ( scm1lue | variable125 ) {
	(state0) 0.20105546533363308, 0.5044192648044327, 0.21667756372094685, 0.0778477061409875;
	(state1) 0.7470651235918546, 0.1874757241189067, 0.062001204535895735, 0.0034579477533429647;
	(state2) 0.7496824310661278, 0.20160540631687365, 0.04269761323331495, 0.006014549383683607;
	(state3) 0.0640820573745852, 0.504196656157399, 0.3239686698880119, 0.10775261658000401;
	(state4) 0.5474185344974554, 0.28454877254241606, 0.1298424323856995, 0.03819026057442909;
	(state5) 0.675386401755112, 0.2061697370975642, 0.10225415772745843, 0.016189703419865517;
	(state6) 0.7781134692261508, 0.14587261191801762, 0.07022054171428235, 0.00579337714154908;
	(state7) 0.5954558699826745, 0.24799166230288802, 0.12760481989448705, 0.028947647819950403;
	(state8) 0.76069363374929, 0.17429976341122355, 0.06054680020459745, 0.004459802634888854;
	(state9) 0.5205456358269385, 0.28801257427483706, 0.15811879872181206, 0.033322991176412395;
	(state10) 0.23885318303642566, 0.41645172318127627, 0.2492018896966255, 0.09549320408567268;
	(state11) 0.5118742095017088, 0.26348560257864206, 0.19161735017883613, 0.03302283774081287;
	(state12) 0.19062295712499153, 0.43545917506522164, 0.2801100458490209, 0.09380782196076598;
	(state13) 0.8182743259727127, 0.15557805448421666, 0.020567811572520224, 0.005579807970550371;
}

probability ( scm1rue | variable125 ) {
	(state0) 0.1056181569235252, 0.5610038621576441, 0.2673990918962422, 0.06597888902258855;
	(state1) 0.7349874384168897, 0.16157712495432022, 0.08277886654119485, 0.020656570087595246;
	(state2) 0.6356314495381675, 0.2123862437433542, 0.1280635943541326, 0.023918712364345684;
	(state3) 0.12030054095906091, 0.46373448657628485, 0.3216247419312086, 0.09434023053344577;
	(state4) 0.5717995397789642, 0.27727013889502455, 0.11632024535904745, 0.03461007596696378;
	(state5) 0.6435885172954535, 0.25372595177191365, 0.08298217920480391, 0.019703351727829;
	(state6) 0.8478888464410645, 0.09437671140907519, 0.049021615714555815, 0.008712826435304561;
	(state7) 0.5898017314140954, 0.23947094852785764, 0.1300993591650877, 0.04062796089295942;
	(state8) 0.7107507336090725, 0.18907858626474042, 0.08429148966420055, 0.015879190461986478;
	(state9) 0.45775013380869745, 0.3216649423219177, 0.16478691003271412, 0.05579801383667062;
	(state10) 0.16974360543009057, 0.3924988205073972, 0.37102874944902864, 0.06672882461348355;
	(state11) 0.42809528435961847, 0.37053472989161845, 0.1553104955818388, 0.04605949016692427;
	(state12) 0.15717024346967645, 0.4061621691091821, 0.3121436207418542, 0.12452396667928713;
	(state13) 0.8202363520444004, 0.11841908907157278, 0.046769399016139204, 0.014575159867887643;
}

probability ( scm2lue | variable125 ) {
	(state0) 0.10561141369655273, 0.6609871086527705, 0.18204609680865316, 0.051355380842023596;
	(state1) 0.7789434540819226, 0.1863171819121855, 0.02667954414870687, 0.008059819857185183;
	(state2) 0.750443710918315, 0.21889387974719007, 0.027881594803833794, 0.0027808145306612553;
	(state3) 0.03019573107573039, 0.6298280059864615, 0.27503764098539035, 0.06493862195241781;
	(state4) 0.5477460938220696, 0.34465704369883804, 0.08741905513552146, 0.02017780734357085;
	(state5) 0.7138160827086752, 0.23269325290914136, 0.04108614458687291, 0.012404519795310548;
	(state6) 0.7968191938870777, 0.18397549729877416, 0.016768622011905678, 0.002436686802242585;
	(state7) 0.5606604799698602, 0.33156509501004117, 0.08646154052333903, 0.02131288449675957;
	(state8) 0.741113496476314, 0.21484336958336084, 0.04222730395183695, 0.0018158299884883024;
	(state9) 0.5304431867818142, 0.3422515938787777, 0.09380342738099849, 0.03350179195840967;
	(state10) 0.19302006083783388, 0.5337004746170484, 0.24285672899771116, 0.030422735547406442;
	(state11) 0.4710525622942291, 0.3453749610532405, 0.15255699335260944, 0.031015483299920946;
	(state12) 0.0928782911022798, 0.6362275175848342, 0.22968673010189253, 0.041207461210993536;
	(state13) 0.8322943849492952, 0.1327701523336684, 0.027718145599358365, 0.0072173171176780765;
}

probability ( scm2rue | variable125 ) {
	(state0) 0.036393124220667886, 0.6498112529595301, 0.2691137991063286, 0.044681823713473276;
	(state1) 0.7543953505856488, 0.1951830719900672, 0.03182228453258359, 0.018599292891700366;
	(state2) 0.7049041416065133, 0.23841279490918404, 0.04691475368413416, 0.009768309800168356;
	(state3) 0.04439750125202899, 0.6500766759762836, 0.23880161405786218, 0.06672420871382524;
	(state4) 0.5585129917526107, 0.3350754570961633, 0.0863646938785219, 0.020046857272704104;
	(state5) 0.6722938908590192, 0.26018459735023686, 0.044163774427891954, 0.02335773736285199;
	(state6) 0.8718992789623283, 0.11347636766315511, 0.010633902364373218, 0.003990451010143357;
	(state7) 0.6017502307031845, 0.2995101123513542, 0.06677298396675393, 0.03196667297870733;
	(state8) 0.7418565010823401, 0.20807608200470473, 0.0389222181616955, 0.011145198751259768;
	(state9) 0.4804579910295333, 0.38131881668721307, 0.11021404270061502, 0.028009149582638736;
	(state10) 0.08133604146587609, 0.6213126209792237, 0.24616450979259655, 0.051186827762303724;
	(state11) 0.45261588967961286, 0.38759896150021256, 0.10778404068884581, 0.05200110813132871;
	(state12) 0.0579575227282315, 0.6619543273348427, 0.20949162319487646, 0.07059652674204926;
	(state13) 0.843528752274799, 0.1325965224386405, 0.018168287437696353, 0.005706437848864296;
}

probability ( scm5rise | variable125 ) {
	(state0) 0.48167394624630167, 0.44332811920159826, 0.05242098366208451, 0.022576950890015615;
	(state1) 0.9477615335590244, 0.039087003717943804, 0.006456696720929621, 0.006694766002102279;
	(state2) 0.40097672376901494, 0.5408564536631887, 0.05437055480354886, 0.0037962677642475635;
	(state3) 0.6555333203173653, 0.3291391022208059, 0.01252621342671287, 0.0028013640351158805;
	(state4) 0.04228649116254202, 0.2819133290945314, 0.600233425673402, 0.07556675406952464;
	(state5) 0.9458524506358379, 0.04215162340775786, 0.008425666590681296, 0.0035702593657230912;
	(state6) 0.4579221905538244, 0.5168468336223097, 0.02280367801563076, 0.0024272978082352462;
	(state7) 0.9540560322283823, 0.03180360296258224, 0.011414776383139699, 0.0027255884258957992;
	(state8) 0.42127228343446127, 0.5372376897691075, 0.039162642198862625, 0.002327384597568711;
	(state9) 0.018329958392079678, 0.012951451221194238, 0.1117415059594446, 0.8569770844272815;
	(state10) 0.44716872549640824, 0.5060630329979073, 0.042769397317134084, 0.0039988441885503755;
	(state11) 0.6355932720442361, 0.34703705671632845, 0.012237797710408341, 0.00513187352902711;
	(state12) 0.09082665568399616, 0.3044981702264705, 0.4866623458147919, 0.11801282827474135;
	(state13) 0.06029137064365744, 0.2353842870095966, 0.5890207736337665, 0.11530356871297945;
}

probability ( scm6post | variable125 ) {
	(state0) 0.5146859042249555, 0.32393994748408406, 0.15297096161367513, 0.008403186677285204;
	(state1) 0.9035608158016318, 0.08150178183468638, 0.010501977487405972, 0.004435424876275775;
	(state2) 0.4701841595745859, 0.445576536270914, 0.08196004940390043, 0.002279254750599655;
	(state3) 0.638329031923327, 0.30591056615830275, 0.04925828101564532, 0.006502120902724871;
	(state4) 0.0491036296749766, 0.20961453325911675, 0.6894009971584147, 0.051880839907491885;
	(state5) 0.9049516872910193, 0.08194628233777265, 0.009565209761518527, 0.003536820609689736;
	(state6) 0.48116711403047563, 0.41659489292748164, 0.09161413256599958, 0.010623860476043205;
	(state7) 0.9381243490993505, 0.04787729268266313, 0.010205629812964656, 0.003792728405021773;
	(state8) 0.40489206686366286, 0.4839059711610832, 0.10238415101524223, 0.008817810960011765;
	(state9) 0.03360489996109361, 0.014734650007681363, 0.17524316164648973, 0.7764172883847353;
	(state10) 0.5514601153538882, 0.37743814638292844, 0.06416886295856691, 0.006932875304616475;
	(state11) 0.6829665717458128, 0.2530593972687391, 0.058847167336498495, 0.005126863648949543;
	(state12) 0.04978515227364112, 0.2846350248863301, 0.6141689073942943, 0.0514109154457347;
	(state13) 0.07036455247139403, 0.21373966784765042, 0.672986044555897, 0.04290973512505874;
}

probability ( scm7gait | variable125 ) {
	(state0) 0.14183448589564582, 0.7557796749541799, 0.0975692323355304, 0.004816606814643997;
	(state1) 0.7708936074986995, 0.21682778064990388, 0.009949330222023997, 0.0023292816293725605;
	(state2) 0.052757992997302404, 0.8585114000830839, 0.08642065023707783, 0.002309956682535835;
	(state3) 0.3394739998566994, 0.6295457355161679, 0.02677803960519052, 0.004202225021942218;
	(state4) 0.01798050585682086, 0.1570154799757915, 0.818566347438879, 0.0064376667285086855;
	(state5) 0.8122953599166671, 0.1754340852802413, 0.005082039353407215, 0.0071885154496843535;
	(state6) 0.09316100414647006, 0.8455495855393774, 0.05689236283850363, 0.00439704747564897;
	(state7) 0.8628641748812667, 0.12502051065727368, 0.009347616936998525, 0.0027676975244611797;
	(state8) 0.059045828104747275, 0.8701814498194596, 0.06681135173009707, 0.003961370345695945;
	(state9) 0.016581071767138748, 0.007539454314980156, 0.3559764065892579, 0.6199030673286231;
	(state10) 0.14526249195575114, 0.7936912526566564, 0.0572354244693613, 0.003810830918231123;
	(state11) 0.3559134619578354, 0.603283846677074, 0.02629668208515265, 0.014506009279937906;
	(state12) 0.005980635689685079, 0.193238156874177, 0.7879362862203384, 0.012844921215799481;
	(state13) 0.007678025747416693, 0.15198750868464322, 0.8235899583925088, 0.016744507175431387;
}

probability ( scm16wal | variable125 ) {
	(state0) 0.1047370533149415, 0.7665641683717613, 0.12405595109858693, 0.004642827214710253;
	(state1) 0.7423097905701169, 0.24795408054097007, 0.00714333089852475, 0.0025927979903882814;
	(state2) 0.027017760527817004, 0.8697484435389178, 0.09522617645048957, 0.008007619482775539;
	(state3) 0.27629210734129717, 0.67886851794596, 0.0408493577131609, 0.003990016999581702;
	(state4) 0.029370968071210576, 0.2072109630503728, 0.7482907708192649, 0.015127298059151837;
	(state5) 0.7787327225298414, 0.2076800437605753, 0.006151999924200953, 0.007435233785382419;
	(state6) 0.04620600189878526, 0.8810024418905511, 0.06711582934667414, 0.005675726863989541;
	(state7) 0.8187386605185283, 0.16066413827964715, 0.011665276438074508, 0.008931924763750267;
	(state8) 0.012036191247721742, 0.8730473702734961, 0.11193360906725736, 0.002982829411524871;
	(state9) 0.049138848982916976, 0.022569181097391852, 0.23972706681379932, 0.6885649031058918;
	(state10) 0.10299219848040991, 0.8258957213319003, 0.06708477930283321, 0.004027300884856689;
	(state11) 0.3072032967337753, 0.6436956303955342, 0.038820574923292016, 0.010280497947398532;
	(state12) 0.034483173909193136, 0.2751915383635348, 0.6672101556713482, 0.023115132055923863;
	(state13) 0.022822260734908836, 0.2881801053922616, 0.6590579966366024, 0.029939637236227355;
}

probability ( scm11spe | variable125 ) {
	(state0) 0.9024201381116438, 0.07471422786090962, 0.01798129688433235, 0.004884337143114249;
	(state1) 0.021858543752052213, 0.700613320699982, 0.21873485728366784, 0.058793278264298005;
	(state2) 0.9195493306128767, 0.06885410234967283, 0.004551464249580292, 0.0070451027878699925;
	(state3) 0.3219228869498755, 0.5126447459785826, 0.14258384004749347, 0.022848527024048652;
	(state4) 0.30007163948118415, 0.5157576549621466, 0.16595598679130621, 0.018214718765362913;
	(state5) 0.8639942759451726, 0.1172959078797525, 0.014615493955266033, 0.0040943222198089125;
	(state6) 0.46811622174772316, 0.4772268090890354, 0.04543707625155293, 0.00921989291168841;
	(state7) 0.4311579466369036, 0.5037708740344049, 0.06062172467386154, 0.004449454654829951;
	(state8) 0.005006349389635164, 0.7654263703403713, 0.1986232292382604, 0.030944051031732953;
	(state9) 0.3853200021910175, 0.4437246759538219, 0.14133127066118073, 0.02962405119397985;
	(state10) 0.009681513452574534, 0.9457603005451367, 0.040133103922489685, 0.004425082079798867;
	(state11) 0.007256790951468424, 0.03058860436644578, 0.783586257119971, 0.17856834756211493;
	(state12) 0.33710447229643975, 0.49596292701626743, 0.13286211000914308, 0.03407049067814984;
	(state13) 0.4219124270706294, 0.4144600626287451, 0.13114589683896002, 0.032481613461665455;
}

probability ( scm10swa | variable125 ) {
	(state0) 0.8920560895766602, 0.0818915575941946, 0.021307182948122172, 0.004745169881023128;
	(state1) 0.4675958336556537, 0.4016978839367468, 0.10623291842265341, 0.024473363984945977;
	(state2) 0.8954711936641143, 0.08054167901388003, 0.02177784240276762, 0.0022092849192380457;
	(state3) 0.6397289347979654, 0.26455240400838376, 0.08488233370471543, 0.010836327488935414;
	(state4) 0.5881210728440579, 0.296893394340772, 0.10138030853723376, 0.013605224277936333;
	(state5) 0.896034429789748, 0.07647016617987115, 0.014147414730211937, 0.013347989300168938;
	(state6) 0.7377191321188097, 0.23098253058069426, 0.018522609551620713, 0.0127757277488753;
	(state7) 0.6783697386428176, 0.26270403252310903, 0.05594453393349354, 0.0029816949005797926;
	(state8) 0.5004579278247862, 0.3841544328557942, 0.09912915818545956, 0.016258481133959966;
	(state9) 0.6241114028623211, 0.26538366555688125, 0.09930177443617483, 0.01120315714462285;
	(state10) 0.4468314476697919, 0.4605737883620474, 0.08489083587555525, 0.007703928092605587;
	(state11) 0.2779673263339523, 0.36483079962033155, 0.30152417690420186, 0.055677697141514396;
	(state12) 0.6088729789323523, 0.2529949204886858, 0.11205203670162842, 0.026080063877333665;
	(state13) 0.6584129880514582, 0.23341708044286524, 0.08646973690619852, 0.021700194599477994;
}

probability ( scm8spee | variable125 ) {
	(state0) 0.7204644873962804, 0.2573232668709314, 0.0138460795644638, 0.00836616616832442;
	(state1) 0.026374542552915853, 0.6936723272449205, 0.24733065094384463, 0.03262247925831924;
	(state2) 0.7252219730300643, 0.26258591544709786, 0.009881055371617655, 0.0023110561512200345;
	(state3) 0.24507276653233387, 0.5925321008047842, 0.14283861078631543, 0.01955652187656649;
	(state4) 0.19199040511537344, 0.6125002254650432, 0.14521911075988436, 0.050290258659698925;
	(state5) 0.7197813765992244, 0.26328325546763914, 0.012584374317144587, 0.004350993615991814;
	(state6) 0.36013455547241935, 0.5814574354037729, 0.04651620389091695, 0.01189180523289063;
	(state7) 0.3139302647815497, 0.6132755772025974, 0.06133449025372932, 0.011459667762123612;
	(state8) 0.007091279169226887, 0.7612603387177997, 0.18540049528393338, 0.0462478868290399;
	(state9) 0.26591594835498034, 0.5483533362785767, 0.15447580080721973, 0.031254914559223315;
	(state10) 0.007839222644065377, 0.9272513657521883, 0.05601772591846427, 0.008891685685282235;
	(state11) 0.01150412729971221, 0.034058398321638185, 0.8446804512717373, 0.10975702310691227;
	(state12) 0.28595372719739204, 0.5395042491406352, 0.14768595345629196, 0.026856070205680947;
	(state13) 0.3403974318178898, 0.5289381594678707, 0.10233255654289417, 0.028331852171345272;
}

probability ( scm14hyg | variable125 ) {
	(state0) 0.1754552245043708, 0.7208584892874953, 0.09893961612055854, 0.004746670087575318;
	(state1) 0.5708244699272861, 0.4218036657003079, 0.0026081415871794093, 0.0047637227852265936;
	(state2) 0.1859569680843156, 0.7136812195100415, 0.09254452480914442, 0.007817287596498272;
	(state3) 0.3189096945228612, 0.6398002833733198, 0.03844627868268312, 0.002843743421135669;
	(state4) 0.030674821581088002, 0.41698738963884063, 0.5161405650923414, 0.0361972236877299;
	(state5) 0.5174657063000973, 0.4614973017115687, 0.008856882337666027, 0.012180109650667887;
	(state6) 0.14852949714955016, 0.7577310209400987, 0.08759920463488094, 0.006140277275470261;
	(state7) 0.6267618107771511, 0.3380191118157526, 0.022356592604089395, 0.012862484803006759;
	(state8) 0.12990785670540356, 0.7836245554681822, 0.08432062057601011, 0.002146967250404165;
	(state9) 0.03596791499562824, 0.08225658584045929, 0.2739365981805077, 0.6078389009834048;
	(state10) 0.20349584983653413, 0.7029910864746537, 0.07977725645596705, 0.013735807232845046;
	(state11) 0.33381751053249287, 0.5933931666017612, 0.06645226787242461, 0.006337054993321281;
	(state12) 0.049979520441249425, 0.3949994577129821, 0.5041092706305766, 0.05091175121519182;
	(state13) 0.017829563398122725, 0.41703323391069463, 0.5219668121258095, 0.04317039056537318;
}

probability ( scm21fsv | variable125 ) {
	(state0) 0.20236691269936563, 0.3795414449781021, 0.31178819090147897, 0.10630345142105334;
	(state1) 0.6483814096937796, 0.22850853720845174, 0.09007409636197303, 0.03303595673579564;
	(state2) 0.6721092625530235, 0.20501882095430007, 0.1022447216087638, 0.020627194883912642;
	(state3) 0.6434010601606233, 0.2390116844342796, 0.09891572686513368, 0.018671528539963334;
	(state4) 0.12635185678335123, 0.39611747914002515, 0.3603149211339819, 0.11721574294264175;
	(state5) 0.6219123887130489, 0.228699744921912, 0.10547755692149459, 0.04391030944354439;
	(state6) 0.1379408080883443, 0.3553782641846784, 0.3720349276041083, 0.13464600012286893;
	(state7) 0.13524738632185176, 0.3593316652732878, 0.3848899200996612, 0.1205310283051993;
	(state8) 0.6836475313973587, 0.2006741618709776, 0.0869202341982819, 0.028758072533381692;
	(state9) 0.46618257535119517, 0.2851812345896128, 0.1930081797569235, 0.055628010302268424;
	(state10) 0.14533830677296147, 0.39207819039222236, 0.3269032944769293, 0.13568020835788688;
	(state11) 0.11364533431096353, 0.3509331688077803, 0.3993578603959049, 0.13606363648535133;
	(state12) 0.6572429604986548, 0.19565817278112888, 0.11392073209708409, 0.03317813462313211;
	(state13) 0.6012623520548219, 0.2289419546578882, 0.1525288382793704, 0.017266855007919323;
}

probability ( scm18dpr | variable125 ) {
	(state0) 0.03283597548045925, 0.6212603098535008, 0.22294095283356835, 0.12296276183247165;
	(state1) 0.977785677349373, 0.01156542474838978, 0.007398457253921877, 0.003250440648315209;
	(state2) 0.9703783881512993, 0.018897702451835353, 0.006295678233122385, 0.004428231163743128;
	(state3) 0.9802213722464134, 0.014497459771465054, 0.0027355466004254174, 0.0025456213816961743;
	(state4) 0.006006609521464031, 0.6046413918306134, 0.28870947219761633, 0.10064252645030626;
	(state5) 0.9757762079971334, 0.015385144266407863, 0.0050723550304236946, 0.0037662927060351133;
	(state6) 0.02052714665616189, 0.572825818018668, 0.28492096125147354, 0.1217260740736966;
	(state7) 0.007641973904965994, 0.5738599766601894, 0.2828140427942266, 0.13568400664061786;
	(state8) 0.9791720896140047, 0.011660126557272003, 0.0031247694744198076, 0.00604301435430345;
	(state9) 0.6002637360862585, 0.20494619315775706, 0.147444608690586, 0.04734546206539839;
	(state10) 0.012317537599411734, 0.5998113601404622, 0.2693623242370112, 0.11850877802311482;
	(state11) 0.03279341570597432, 0.6098513024210938, 0.23973575888534943, 0.11761952298758258;
	(state12) 0.9709682711765242, 0.016453827499617074, 0.004181598777307945, 0.008396302546550513;
	(state13) 0.9577508446404087, 0.013963747794644158, 0.017174164670831958, 0.011111242894115378;
}

probability ( scm19dsv | variable125 ) {
	(state0) 0.023292021086685127, 0.6323661594391708, 0.2767133809601345, 0.06762843851400947;
	(state1) 0.9757035395084405, 0.011632998610194034, 0.006732071865848855, 0.005931390015516742;
	(state2) 0.9862330613568646, 0.006148922883881111, 0.0034490775469117377, 0.004168938212342476;
	(state3) 0.9867929790720961, 0.004292089270220341, 0.006017928571095036, 0.00289700308658865;
	(state4) 0.01279013088357784, 0.5847998357356339, 0.2771374026430703, 0.12527263073771794;
	(state5) 0.9655434044605359, 0.010758159457595413, 0.01208543852556068, 0.0116129975563079;
	(state6) 0.014757484710125751, 0.5634315063456897, 0.3168854709908131, 0.10492553795337144;
	(state7) 0.016575310389328402, 0.5681337635799099, 0.30630857489407154, 0.10898235113669019;
	(state8) 0.9775926696431552, 0.01024428210561558, 0.003909600097815246, 0.008253448153414009;
	(state9) 0.6111313339051151, 0.2117015125162781, 0.14106118923235578, 0.03610596434625111;
	(state10) 0.027451189854260663, 0.5925392438177717, 0.27393464360383224, 0.10607492272413538;
	(state11) 0.05727853489997009, 0.5143804355035795, 0.33121052663136374, 0.09713050296508668;
	(state12) 0.9672076290464444, 0.005617861905960331, 0.016721479159321186, 0.01045302988827393;
	(state13) 0.9639088949638233, 0.011377683380332921, 0.013379997089620546, 0.0113334245662233;
}

probability ( variable125 ) {
	table 0.042552257057524356, 0.08925842543191037, 0.09147068980113665, 0.1430735067682023, 0.04940935728699415, 0.05597233501945909, 0.08966623439866582, 0.07263435290185637, 0.13231372346433215, 0.03562963930611356, 0.051884125830395644, 0.0396988155410054, 0.053528245156779, 0.052908292035625096;
}

