network LCM {
}

variable scm1lue {
	type discrete[4] { 0, 1, 2, 3 };
}

variable scm1rue {
	type discrete[4] { 0, 1, 2, 3 };
}

variable scm2lue {
	type discrete[4] { 0, 1, 2, 3 };
}

variable scm2rue {
	type discrete[4] { 0, 1, 2, 3 };
}

variable scm5rise {
	type discrete[4] { 0, 1, 2, 3 };
}

variable scm6post {
	type discrete[4] { 0, 1, 2, 3 };
}

variable scm7gait {
	type discrete[4] { 0, 1, 2, 3 };
}

variable scm16wal {
	type discrete[4] { 0, 1, 2, 3 };
}

variable scm11spe {
	type discrete[4] { 0, 1, 2, 3 };
}

variable scm10swa {
	type discrete[4] { 0, 1, 2, 3 };
}

variable scm8spee {
	type discrete[4] { 0, 1, 2, 3 };
}

variable scm14hyg {
	type discrete[4] { 0, 1, 2, 3 };
}

variable scm21fsv {
	type discrete[4] { 0, 1, 2, 3 };
}

variable scm18dpr {
	type discrete[4] { 0, 1, 2, 3 };
}

variable scm19dsv {
	type discrete[4] { 0, 1, 2, 3 };
}

variable variable165 {
	type discrete[12] { state0, state1, state2, state3, state4, state5, state6, state7, state8, state9, state10, state11 };
}

probability ( scm1lue | variable165 ) {
	(state0) 0.06684407994087081, 0.5444931705365116, 0.3121965164500314, 0.07646623307258615;
	(state1) 0.7480459214449041, 0.17995185677107442, 0.06868476908605099, 0.0033174526979704183;
	(state2) 0.7764420783267528, 0.1664740158923048, 0.0536914679174974, 0.0033924378634450037;
	(state3) 0.8095703892833745, 0.16256736542065336, 0.022042282553951718, 0.00581996274202031;
	(state4) 0.18978499672662377, 0.43638664383226267, 0.28208429594387163, 0.09174406349724192;
	(state5) 0.5226140952961021, 0.28669618345179043, 0.15728977426173638, 0.03339994699037113;
	(state6) 0.5382838764822568, 0.29636773007639755, 0.12834378226659643, 0.037004611174749256;
	(state7) 0.3153309887122081, 0.3879724371124025, 0.2198351101167265, 0.07686146405866279;
	(state8) 0.8073525949865336, 0.13894837700657117, 0.05022191105455179, 0.0034771169523434443;
	(state9) 0.7670449215689347, 0.14794897990216513, 0.07425215332191713, 0.010753945206983079;
	(state10) 0.5434865938618216, 0.2835711933676357, 0.14663577888618537, 0.02630643388435743;
	(state11) 0.0838937301461042, 0.4934308010949901, 0.30183800460359034, 0.12083746415531528;
}

probability ( scm1rue | variable165 ) {
	(state0) 0.19056135448997605, 0.4584805759466277, 0.28078133585013565, 0.07017673371326065;
	(state1) 0.7025842999604134, 0.19765723515389566, 0.08208111339127752, 0.017677351494413497;
	(state2) 0.8208522631769269, 0.13240637249861922, 0.04387110223508838, 0.002870262089365458;
	(state3) 0.7922617115974362, 0.13815967875169222, 0.05508388572305546, 0.014494723927816077;
	(state4) 0.15568617994977085, 0.4073423580332333, 0.3149873383994006, 0.12198412361759532;
	(state5) 0.46007797500780595, 0.3201341537343817, 0.16378590681564056, 0.05600196444217189;
	(state6) 0.5643832947208621, 0.2796731471191424, 0.12093782390206351, 0.03500573425793211;
	(state7) 0.1816732049131574, 0.4181243747938484, 0.30749126853632724, 0.09271115175666696;
	(state8) 0.7404019959837772, 0.17585190531158718, 0.0671691777689873, 0.016576920935648394;
	(state9) 0.7682212555761082, 0.13699317280566942, 0.0832646190074767, 0.01152095261074557;
	(state10) 0.5224978152655083, 0.2834203491451054, 0.1595803476131393, 0.03450148797624692;
	(state11) 0.07496078145723828, 0.4973326590832273, 0.3401820542462995, 0.08752450521323492;
}

probability ( scm2lue | variable165 ) {
	(state0) 0.0554067242219062, 0.6447233676614985, 0.2383040883319373, 0.061565819784658075;
	(state1) 0.7182736825804327, 0.22819578322680806, 0.04710716786014683, 0.006423366332612335;
	(state2) 0.8175061049665141, 0.15784603578714568, 0.0234259464353356, 0.001221912811004676;
	(state3) 0.8181895085207606, 0.14341312628623615, 0.031602045493903, 0.0067953196991002475;
	(state4) 0.0956957271435202, 0.6373440925226853, 0.22374669073543002, 0.04321348959836441;
	(state5) 0.5331106163466335, 0.3401829022631273, 0.09311397450850076, 0.033592506881738544;
	(state6) 0.5374003512417216, 0.35626556331821685, 0.08481454018493176, 0.02151954525512974;
	(state7) 0.2189986083662396, 0.5441282664630278, 0.19758273695089454, 0.03929038821983816;
	(state8) 0.8470652883624573, 0.12883852972782123, 0.019982850245667007, 0.004113331664054476;
	(state9) 0.7488178752132971, 0.22935045007227162, 0.018095230668254383, 0.0037364440461770633;
	(state10) 0.5082057103179771, 0.3677779951257768, 0.0982115328426925, 0.02580476171355339;
	(state11) 0.052668427362697764, 0.6213481265120193, 0.27822666630315984, 0.047756779822123244;
}

probability ( scm2rue | variable165 ) {
	(state0) 0.0991576881102807, 0.6435481698818887, 0.1978692563023499, 0.05942488570548078;
	(state1) 0.7047779118116013, 0.2591661994500485, 0.025819229483724483, 0.010236659254625647;
	(state2) 0.9392885171353946, 0.05304965942210314, 0.0058476171966423025, 0.001814206245859975;
	(state3) 0.8248697846526443, 0.14941043151930916, 0.020555533661597392, 0.005164250166449055;
	(state4) 0.054727898592137274, 0.6648508151469048, 0.2092459394986241, 0.07117534676233385;
	(state5) 0.4834301563082007, 0.37866281318132083, 0.1098138653795973, 0.028093165130881146;
	(state6) 0.5486997963284476, 0.34369206234714356, 0.08822941300094331, 0.01937872832346551;
	(state7) 0.05800480834885636, 0.6755121098825454, 0.20925349462098958, 0.05722958714760858;
	(state8) 0.7935181376853397, 0.1649023502933387, 0.025321877678763285, 0.016257634342558128;
	(state9) 0.7643318217772643, 0.19821877479823474, 0.030845920140612878, 0.006603483283888106;
	(state10) 0.5344139657932385, 0.3495138457694029, 0.0834566509012266, 0.03261553753613206;
	(state11) 0.027619952877713173, 0.5943335665593452, 0.3096806771508626, 0.06836580341207908;
}

probability ( scm5rise | variable165 ) {
	(state0) 0.9347964982569167, 0.04739115346792732, 0.012095040213244649, 0.005717308061911195;
	(state1) 0.4775156353017108, 0.4986257316439898, 0.021047402326506058, 0.0028112307277933916;
	(state2) 0.4214030574784194, 0.5336262047701356, 0.04312361181417063, 0.0018471259372744994;
	(state3) 0.06484382798250736, 0.25235819676428795, 0.5727263239186426, 0.11007165133456198;
	(state4) 0.08747679010344733, 0.274678530052106, 0.5094301827133668, 0.12841449713107986;
	(state5) 0.017813643511344898, 0.012984739462675117, 0.11195901394887446, 0.8572426030771055;
	(state6) 0.04513545459152362, 0.2855512858794626, 0.5893010145827237, 0.08001224494629006;
	(state7) 0.4388289073111343, 0.5307748501312857, 0.026883728570083483, 0.003512513987496675;
	(state8) 0.9531651429388573, 0.03890520972870083, 0.004938640465555524, 0.002991006866886261;
	(state9) 0.48940903162033306, 0.4845018724845873, 0.022541879251502823, 0.003547216643576669;
	(state10) 0.9661279016148924, 0.0201106389885326, 0.011201456239376012, 0.002560003157198969;
	(state11) 0.4679262888191633, 0.4825814814428697, 0.041462913114400764, 0.008029316623566138;
}

probability ( scm6post | variable165 ) {
	(state0) 0.8805037798569901, 0.08440349789698927, 0.024833570233527266, 0.010259152012493361;
	(state1) 0.5414839844090331, 0.35668911072730586, 0.08990736112710598, 0.011919543736554955;
	(state2) 0.44075700962353415, 0.46449487388888877, 0.08846451284590623, 0.006283603641670885;
	(state3) 0.08325991992013368, 0.2215268850956622, 0.6568254295794661, 0.03838776540473805;
	(state4) 0.0431698109362846, 0.2561469752487726, 0.6421999999836331, 0.058483213831309735;
	(state5) 0.033640917601946534, 0.014724592230075969, 0.17448346742641913, 0.7771510227415583;
	(state6) 0.05341075447321757, 0.21342557203004903, 0.6811702301020413, 0.05199344339469218;
	(state7) 0.44254745702728104, 0.4736559106236294, 0.08007355872952045, 0.0037230736195690236;
	(state8) 0.9105761299463467, 0.07885696687420192, 0.007429771932378405, 0.0031371312470728917;
	(state9) 0.499249148650808, 0.4155445999000835, 0.08161355210299817, 0.003592699346110486;
	(state10) 0.9473124408908294, 0.04106817959399692, 0.007203924154070311, 0.004415455361103382;
	(state11) 0.5446332874835886, 0.3532435886557768, 0.09818858114211762, 0.003934542718516827;
}

probability ( scm7gait | variable165 ) {
	(state0) 0.7527824068526223, 0.2274099712152068, 0.010631746075712737, 0.00917587585645819;
	(state1) 0.12979999106364742, 0.8325168846411415, 0.032011463385480325, 0.005671660909730725;
	(state2) 0.06950036035837186, 0.8578214681573892, 0.07000907171806112, 0.002669099766177824;
	(state3) 0.008029596753078088, 0.16881817412214065, 0.8060518324783033, 0.01710039664647796;
	(state4) 0.007156656896736145, 0.14443694913420355, 0.8334769744486087, 0.014929419520451645;
	(state5) 0.016146282226132142, 0.007804228974210011, 0.354337124347426, 0.6217123644522319;
	(state6) 0.017668862186635922, 0.16261548012210483, 0.8139435314314066, 0.005772126259852799;
	(state7) 0.05720812901873726, 0.8884396926541106, 0.052553912762112194, 0.0017982655650399123;
	(state8) 0.7836852045736151, 0.2076490424966064, 0.00527852520711892, 0.00338722772265972;
	(state9) 0.12199711563766229, 0.8133579109335535, 0.06112651961207101, 0.0035184538167133046;
	(state10) 0.89425142547913, 0.09039146978481337, 0.011386509281729068, 0.0039705954543275985;
	(state11) 0.14419311870305349, 0.7788875086566451, 0.07411256786174843, 0.0028068047785528667;
}

probability ( scm16wal | variable165 ) {
	(state0) 0.6588640530847059, 0.3201548205756229, 0.015855021633433324, 0.005126104706237962;
	(state1) 0.07747410310494593, 0.8626473876595473, 0.0491666324223366, 0.010711876813170056;
	(state2) 0.021581504163905262, 0.8673604455450955, 0.10596804989429773, 0.005090000396701492;
	(state3) 0.022721864368017042, 0.3077676135501813, 0.6400845941861601, 0.029425927895641628;
	(state4) 0.03836643955373473, 0.23877400014547118, 0.6978319614418924, 0.02502759885890175;
	(state5) 0.048405609264426754, 0.022887382031871503, 0.2386820058622223, 0.6900250028414794;
	(state6) 0.03274249073331194, 0.20991500173084846, 0.7425859795389466, 0.014756527996892907;
	(state7) 0.026585823480175425, 0.8947410604821104, 0.07561116854393475, 0.003061947493779289;
	(state8) 0.7668695680243138, 0.22467450713500667, 0.004995811052094353, 0.0034601137885850687;
	(state9) 0.07991341743389867, 0.842017074289816, 0.07466673918387913, 0.003402769092406213;
	(state10) 0.853058563038954, 0.13332214825179933, 0.007482923496977788, 0.00613636521226887;
	(state11) 0.09751945942173487, 0.8081081641359489, 0.0917287262582654, 0.002643650184050785;
}

probability ( scm11spe | variable165 ) {
	(state0) 0.35054339852143584, 0.49919999669716186, 0.13552227599664987, 0.014734328784752383;
	(state1) 0.012514480433631504, 0.704216933905087, 0.2283813478782579, 0.054887237783023554;
	(state2) 0.36219684561012844, 0.5050615228554881, 0.11176940813279003, 0.020972223401593423;
	(state3) 0.4320115259468784, 0.398324687516303, 0.13617516850491745, 0.03348861803190122;
	(state4) 0.3373475399178519, 0.4906576610055635, 0.13771657172874827, 0.034278227347836414;
	(state5) 0.3849770032784536, 0.4438748472598678, 0.1416398588100561, 0.029508290651622384;
	(state6) 0.319546972756332, 0.504771804401277, 0.15796569232210037, 0.017715530520290505;
	(state7) 0.361260329619599, 0.4694198368204749, 0.14212658493227917, 0.027193248627646764;
	(state8) 0.33072465964060993, 0.4870269120503472, 0.14236711409931, 0.039881314209732906;
	(state9) 0.9063726555805561, 0.07730873761946139, 0.008777665864725111, 0.007540940935257304;
	(state10) 0.36472035476328407, 0.43442191555212756, 0.17075995571759545, 0.03009777396699313;
	(state11) 0.3803247436079629, 0.4832676199329637, 0.12379184331932437, 0.012615793139749022;
}

probability ( scm10swa | variable165 ) {
	(state0) 0.6579049451882037, 0.2471994779172078, 0.08320429522386315, 0.011691281670725338;
	(state1) 0.46216622040295374, 0.40451594214624964, 0.10779177583446296, 0.02552606161633367;
	(state2) 0.6709721286790371, 0.2554212341024737, 0.06692118607390216, 0.00668545114458702;
	(state3) 0.6587525384420415, 0.22356384317847774, 0.09330152170811547, 0.024382096671365195;
	(state4) 0.5990052885288147, 0.2616280448203353, 0.11289585839611495, 0.026470808254735106;
	(state5) 0.6250132505900655, 0.2641730069214972, 0.09954254752416755, 0.011271194964269855;
	(state6) 0.6075211899305928, 0.28618775633032567, 0.09402821059774902, 0.012262843141332547;
	(state7) 0.6411420693098682, 0.2721730076949258, 0.07421233681735673, 0.012472586177849252;
	(state8) 0.6223357282322981, 0.28313774405411835, 0.0735216860139138, 0.021004841699669607;
	(state9) 0.8829806761635536, 0.09400290880587184, 0.012866751657794249, 0.010149663372780282;
	(state10) 0.613750052190101, 0.2825406179670128, 0.09319407180874788, 0.010515258034138272;
	(state11) 0.6366639190022307, 0.2787355320341495, 0.07696707246760959, 0.007633476496010213;
}

probability ( scm8spee | variable165 ) {
	(state0) 0.29778934851149275, 0.5449622908819585, 0.13458859167413567, 0.022659768932412894;
	(state1) 0.006935359811078955, 0.7130782335203916, 0.25786964440285565, 0.022116762265673693;
	(state2) 0.2891932560512028, 0.5720482163528222, 0.1122401465891788, 0.026518381006796293;
	(state3) 0.3511637489537907, 0.510329036716796, 0.10992129274902715, 0.02858592158038629;
	(state4) 0.2938192368601131, 0.5286733567265332, 0.14968954284590638, 0.027817863567447327;
	(state5) 0.26523908827995163, 0.549580231565794, 0.1542327055085414, 0.030947974645712868;
	(state6) 0.20369644026307657, 0.6053953180527838, 0.14235838360213196, 0.04854985808200773;
	(state7) 0.2651347936318219, 0.5779287027395713, 0.13335541604333995, 0.02358108758526689;
	(state8) 0.27627222634866067, 0.5383922705433208, 0.16449752889928623, 0.020837974208732325;
	(state9) 0.7350551881773665, 0.24509547837819556, 0.008980739387884929, 0.010868594056552907;
	(state10) 0.25818356424047484, 0.5358112704351898, 0.1757430928484158, 0.0302620724759197;
	(state11) 0.2965085775059021, 0.5521243986334096, 0.12497757348013047, 0.02638945038055775;
}

probability ( scm14hyg | variable165 ) {
	(state0) 0.4902780899735648, 0.4977328524358462, 0.006204449818515667, 0.005784607772073168;
	(state1) 0.16400120263382628, 0.7434559095182885, 0.0836110310384733, 0.008931856809411791;
	(state2) 0.162430588748768, 0.7607272866184711, 0.0723901693856763, 0.0044519552470846675;
	(state3) 0.022517709705175137, 0.41895301080100383, 0.5189410107121651, 0.039588268781655916;
	(state4) 0.050563221539015976, 0.3693236451850865, 0.5239430334342478, 0.05617009984164973;
	(state5) 0.035565957358186524, 0.08175316539374389, 0.27216035693603624, 0.6105205203120333;
	(state6) 0.03133936346160775, 0.42589209879707174, 0.5105371861353715, 0.03223135160594915;
	(state7) 0.17675796939752303, 0.7376025938820285, 0.08383661650285074, 0.0018028202175975623;
	(state8) 0.5592503140977518, 0.4307054045130933, 0.0029755707648882203, 0.007068710624266655;
	(state9) 0.20408260576663653, 0.7139934709323654, 0.0771829638009601, 0.0047409595000377745;
	(state10) 0.6496538242400857, 0.3213481229301135, 0.01683164740001313, 0.01216640542978764;
	(state11) 0.17957686259356437, 0.7168649347016247, 0.09528399553564837, 0.008274207169162637;
}

probability ( scm21fsv | variable165 ) {
	(state0) 0.5919133234935585, 0.26818177501532214, 0.11685856556905687, 0.023046335922062497;
	(state1) 0.1456057247798785, 0.3374581886693776, 0.38811707043003346, 0.12881901612071042;
	(state2) 0.6792998029538215, 0.20203663969219315, 0.09147079969781795, 0.02719275765616735;
	(state3) 0.6089873110488775, 0.22716921399550094, 0.1469656571564644, 0.01687781779915713;
	(state4) 0.6508687438790977, 0.19538557393978037, 0.11882462094437102, 0.03492106123675097;
	(state5) 0.46478763171207965, 0.2859542753576555, 0.19360514033222315, 0.05565295259804162;
	(state6) 0.12917290330630424, 0.3914626643030994, 0.3640312448532, 0.11533318753739641;
	(state7) 0.6817498626769828, 0.2171626252139072, 0.08077312140013285, 0.02031439070897705;
	(state8) 0.6501973276132541, 0.21954420356504234, 0.09501735034768943, 0.035241118474014094;
	(state9) 0.1451881749714306, 0.37820296974640644, 0.3465187172912457, 0.13009013799091707;
	(state10) 0.124833067357565, 0.36061637173529437, 0.391433592876658, 0.12311696803048261;
	(state11) 0.16097244622467194, 0.3882223929076886, 0.32354632390832927, 0.1272588369593102;
}

probability ( scm18dpr | variable165 ) {
	(state0) 0.9597345962512869, 0.025550647449762598, 0.009195870277345046, 0.005518886021605439;
	(state1) 0.032897645976068604, 0.5762116958574062, 0.2777378489312384, 0.11315280923528684;
	(state2) 0.9857471051738925, 0.0072784836872097185, 0.0037256131767516684, 0.003248797962146074;
	(state3) 0.9593969852308216, 0.013226543049794535, 0.016485393284923003, 0.010891078434460976;
	(state4) 0.9687885473992672, 0.016995793312666, 0.0045975721488704414, 0.009618087139196369;
	(state5) 0.5984686925422652, 0.20562703314248587, 0.1485103160290682, 0.04739395828618074;
	(state6) 0.00616982891984308, 0.6036398887543554, 0.2873756962679896, 0.10281458605781196;
	(state7) 0.9811968493179147, 0.015145058598185114, 0.001829258063028372, 0.001828834020871699;
	(state8) 0.9790884121308777, 0.012980995725276258, 0.006111650402446048, 0.001818941741399953;
	(state9) 0.023626449986531007, 0.5825382888734179, 0.25601161786890186, 0.13782364327114907;
	(state10) 0.012799380251836886, 0.5792038965620473, 0.28034285251842966, 0.12765387066768621;
	(state11) 0.017889893502423808, 0.6176134987679388, 0.24149091448018037, 0.12300569324945698;
}

probability ( scm19dsv | variable165 ) {
	(state0) 0.9739023076406149, 0.010604083692062762, 0.008014787349352813, 0.00747882131796962;
	(state1) 0.03574636519495298, 0.5716656178089105, 0.2949633026600764, 0.0976247143360602;
	(state2) 0.9885973879248368, 0.00278037335512889, 0.00204016854541941, 0.006582070174614954;
	(state3) 0.9662643397064865, 0.010881040228812578, 0.013237656173986192, 0.009616963890714788;
	(state4) 0.9661733813388109, 0.006123720774845455, 0.0167561832248112, 0.010946714661532419;
	(state5) 0.6094652515253781, 0.21331577493801007, 0.14104536784724742, 0.036173605689364376;
	(state6) 0.011397838222507345, 0.5866231230400876, 0.27373978229560714, 0.12823925644179793;
	(state7) 0.9869799354718178, 0.004141200129653583, 0.007396010128162026, 0.0014828542703664155;
	(state8) 0.9770493363177651, 0.01005658536552639, 0.008151307397840566, 0.004742770918867867;
	(state9) 0.03028451518298697, 0.5278357183490423, 0.34306513051282933, 0.09881463595514137;
	(state10) 0.010470394323718431, 0.5588681492238124, 0.3116280405854709, 0.11903341586699832;
	(state11) 0.020721973732717093, 0.6281924241132418, 0.26764858523688534, 0.08343701691715555;
}

probability ( variable165 ) {
	table 0.07925653392856588, 0.08409163928345824, 0.16576117938191573, 0.05719896644488706, 0.048699795905557494, 0.03549991876293551, 0.05116134563314399, 0.1433218990319382, 0.12334508760644902, 0.058765245097186884, 0.0774238929480797, 0.07547449597588222;
}

