network LCM {
}

variable scm1lue {
	type discrete[4] { 0, 1, 2, 3 };
}

variable scm1rue {
	type discrete[4] { 0, 1, 2, 3 };
}

variable scm2lue {
	type discrete[4] { 0, 1, 2, 3 };
}

variable scm2rue {
	type discrete[4] { 0, 1, 2, 3 };
}

variable scm5rise {
	type discrete[4] { 0, 1, 2, 3 };
}

variable scm6post {
	type discrete[4] { 0, 1, 2, 3 };
}

variable scm7gait {
	type discrete[4] { 0, 1, 2, 3 };
}

variable scm16wal {
	type discrete[4] { 0, 1, 2, 3 };
}

variable scm11spe {
	type discrete[4] { 0, 1, 2, 3 };
}

variable scm10swa {
	type discrete[4] { 0, 1, 2, 3 };
}

variable scm8spee {
	type discrete[4] { 0, 1, 2, 3 };
}

variable scm14hyg {
	type discrete[4] { 0, 1, 2, 3 };
}

variable scm21fsv {
	type discrete[4] { 0, 1, 2, 3 };
}

variable scm18dpr {
	type discrete[4] { 0, 1, 2, 3 };
}

variable scm19dsv {
	type discrete[4] { 0, 1, 2, 3 };
}

variable variable199 {
	type discrete[8] { state0, state1, state2, state3, state4, state5, state6, state7 };
}

probability ( scm1lue | variable199 ) {
	(state0) 0.5059370011901624, 0.30384411825742796, 0.1454977280290806, 0.04472115252332889;
	(state1) 0.7773240328463645, 0.1631079089978394, 0.05580856281238399, 0.0037594953434121744;
	(state2) 0.742070128761207, 0.18682336625956766, 0.06683779110213199, 0.004268713877093254;
	(state3) 0.7612490896952414, 0.19224287391223854, 0.03959735770297411, 0.0069106786895459455;
	(state4) 0.5416376873643919, 0.27136428889771763, 0.15174050225251096, 0.03525752148537954;
	(state5) 0.5255982547015735, 0.28430366179426325, 0.14936946883063731, 0.040728614673525794;
	(state6) 0.07041494279941904, 0.503543260102408, 0.32202476895650556, 0.10401702814166731;
	(state7) 0.5202967460602393, 0.29286275683810103, 0.15315551453417253, 0.03368498256748692;
}

probability ( scm1rue | variable199 ) {
	(state0) 0.501878931984019, 0.278901924978268, 0.16439496273112758, 0.05482418030658548;
	(state1) 0.7251293184389932, 0.1775758300804352, 0.0826498255864121, 0.014645025894159383;
	(state2) 0.7203007739614063, 0.19154880152192674, 0.06931956179369692, 0.01883086272296997;
	(state3) 0.6557262113731442, 0.20205454973699605, 0.12092688602137175, 0.021292352868487956;
	(state4) 0.5258593286082096, 0.2821849833853908, 0.15505740486170813, 0.03689828314469152;
	(state5) 0.5071361392803592, 0.28322182674592566, 0.16977072862464537, 0.039871305349069755;
	(state6) 0.12387461656075385, 0.46134965828604313, 0.32104693163285997, 0.09372879352034301;
	(state7) 0.46546408375161996, 0.3089267682979726, 0.17189262701873015, 0.05371652093167733;
}

probability ( scm2lue | variable199 ) {
	(state0) 0.47780611827546915, 0.38406643722052997, 0.11573422631422067, 0.02239321818978027;
	(state1) 0.7617658670777512, 0.19748087409361045, 0.03912971665399748, 0.0016235421746407768;
	(state2) 0.7800099446742554, 0.18581333051757484, 0.027629657657270098, 0.006547067150899647;
	(state3) 0.7614715844695873, 0.2105006696624164, 0.02562836935129517, 0.002399376516701151;
	(state4) 0.5071362107222193, 0.35586257483947725, 0.11292689261274616, 0.024074321825557205;
	(state5) 0.4957835594502692, 0.3719820122038034, 0.11461538894687162, 0.017619039399055802;
	(state6) 0.03521941727762899, 0.6401975786190536, 0.2625127731314637, 0.06207023097185357;
	(state7) 0.5303614428428478, 0.3381134574177548, 0.09682083350821187, 0.034704266231185596;
}

probability ( scm2rue | variable199 ) {
	(state0) 0.46557337283877576, 0.39354274459717714, 0.11011221458991825, 0.03077166797412884;
	(state1) 0.7615900126781517, 0.19049614234560236, 0.03709600527142069, 0.010817839704825308;
	(state2) 0.7446528131466628, 0.20648178564458258, 0.03129137291162565, 0.01757402829712912;
	(state3) 0.7256675639334452, 0.22363562287242678, 0.041744768195104254, 0.008952044999023766;
	(state4) 0.5367547487520903, 0.3331020406045748, 0.09580267648083504, 0.03434053416249987;
	(state5) 0.4813262616356893, 0.3712711493664755, 0.12239237525337167, 0.025010213744463553;
	(state6) 0.047927921051682254, 0.653597559690567, 0.23066079114420945, 0.06781372811354124;
	(state7) 0.4893749910832053, 0.37861273476786433, 0.10596627828759764, 0.026045995861332688;
}

probability ( scm5rise | variable199 ) {
	(state0) 0.04026161916251482, 0.24758656676498852, 0.6186650186474361, 0.09348679542506053;
	(state1) 0.42968005038522206, 0.517431068884779, 0.04634783995371019, 0.006541040776288721;
	(state2) 0.962327825802656, 0.0312764755598085, 0.004311421138817326, 0.0020842774987182328;
	(state3) 0.4061862802807032, 0.5132945437876385, 0.07500975249317167, 0.00550942343848649;
	(state4) 0.9425025083386627, 0.0438239616405786, 0.011753140042379718, 0.0019203899783791691;
	(state5) 0.4184406140889832, 0.5509170181999351, 0.02814019852882618, 0.002502169182255479;
	(state6) 0.6398796974149571, 0.33481137761682406, 0.019695463870877304, 0.005613461097341641;
	(state7) 0.02084714158543762, 0.02072619884842469, 0.12181659753263538, 0.8366100620335024;
}

probability ( scm6post | variable199 ) {
	(state0) 0.04595515581864623, 0.22485503719312194, 0.6948389265487163, 0.034350880439515494;
	(state1) 0.41247140718586156, 0.46423205728191314, 0.11114137190272462, 0.012155163629500487;
	(state2) 0.918415558125643, 0.07166715429865939, 0.007378821597625672, 0.0025384659780718307;
	(state3) 0.47085667120685665, 0.4241879279484966, 0.10262494758846798, 0.002330453256178945;
	(state4) 0.9192236891996854, 0.06108213683481878, 0.014732371190746166, 0.004961802774749447;
	(state5) 0.48247234708709785, 0.4086180390202628, 0.10390741759893045, 0.005002196293708976;
	(state6) 0.6128676683761755, 0.3124792835529913, 0.0678141960252572, 0.006838852045575946;
	(state7) 0.03128665030078417, 0.022285130584263735, 0.20415752318560026, 0.7422706959293518;
}

probability ( scm7gait | variable199 ) {
	(state0) 0.0049825018251865695, 0.12388797296385556, 0.8670086681623896, 0.004120857048568335;
	(state1) 0.07197189182806434, 0.8403126132844569, 0.08366566580747466, 0.004049829080004163;
	(state2) 0.8059596195909741, 0.18658316222579363, 0.004355020415685663, 0.003102197767546434;
	(state3) 0.08057238439918298, 0.8138932565344463, 0.10336466228650633, 0.0021696967798643025;
	(state4) 0.8163353345085823, 0.1693771595231447, 0.010410910246876202, 0.003876595721396898;
	(state5) 0.06750510456389543, 0.8661301691633225, 0.06424851453026827, 0.002116211742513836;
	(state6) 0.3266885155155818, 0.6194348579601926, 0.04792978287662917, 0.005946843647596331;
	(state7) 0.01872275802391315, 0.015652139170305973, 0.3960974848237649, 0.5695276179820159;
}

probability ( scm16wal | variable199 ) {
	(state0) 0.02598191355096815, 0.23293992262584245, 0.7304501087914265, 0.010628055031763036;
	(state1) 0.019993440370927817, 0.8532163451257712, 0.12295234800660364, 0.0038378664966974164;
	(state2) 0.797454293513541, 0.19645545942472548, 0.002388452494813694, 0.003701794566919879;
	(state3) 0.03972458316700289, 0.8386843555716196, 0.11410704687012296, 0.007484014391254583;
	(state4) 0.7512146855277482, 0.22972972832719768, 0.011690188394839384, 0.007365397750214743;
	(state5) 0.0303505073674823, 0.8811252485393669, 0.08621643646490487, 0.0023078076282458857;
	(state6) 0.2718530783063192, 0.6665729133987934, 0.05702829607504883, 0.004545712219838426;
	(state7) 0.05176777232397441, 0.027133455075272626, 0.26880603622611293, 0.6522927363746401;
}

probability ( scm11spe | variable199 ) {
	(state0) 0.3696662075789669, 0.4593158488850761, 0.14573851139699773, 0.02527943213895939;
	(state1) 0.004484429833712202, 0.7581706215674225, 0.20359900438021689, 0.03374594421864826;
	(state2) 0.32101493277660603, 0.500998534245522, 0.13979289002993744, 0.038193642947934606;
	(state3) 0.9301986001034164, 0.05922926918755526, 0.0036603963933521354, 0.006911734315676102;
	(state4) 0.3645268424227457, 0.4435552079582509, 0.16333375012058035, 0.0285841994984231;
	(state5) 0.37828840515332385, 0.4674370848442673, 0.1279015878032744, 0.02637292219913442;
	(state6) 0.34032984354390916, 0.4954580920723403, 0.14187969808253376, 0.022332366301216787;
	(state7) 0.3823450598908654, 0.450512670625883, 0.13667983050833427, 0.03046243897491729;
}

probability ( scm10swa | variable199 ) {
	(state0) 0.6266122043251202, 0.2592690726042935, 0.09817926741441016, 0.01593945565617616;
	(state1) 0.4880959717148259, 0.38853221182506353, 0.10457947874614316, 0.01879233771396744;
	(state2) 0.6323597190831004, 0.2794920831450554, 0.06820279849677544, 0.019945399275068963;
	(state3) 0.8994985854029351, 0.07786640933669102, 0.020322543379719664, 0.0023124618806541655;
	(state4) 0.6046890683321812, 0.3004271016926011, 0.08563993419450423, 0.009243895780713406;
	(state5) 0.6539830637951491, 0.2629465089701429, 0.06999550149737406, 0.013074925737333968;
	(state6) 0.641337777763115, 0.2599629166444082, 0.086060148128564, 0.012639157463912852;
	(state7) 0.626274949260679, 0.26680239775010384, 0.09666827952106874, 0.010254373468148394;
}

probability ( scm8spee | variable199 ) {
	(state0) 0.28721385764948054, 0.5475278854639797, 0.131145577361301, 0.03411267952523883;
	(state1) 0.009337920848252372, 0.7523770185110831, 0.19326459633294174, 0.04502046430772275;
	(state2) 0.264986071333167, 0.5547652439977452, 0.16000387806033473, 0.020244806608753288;
	(state3) 0.7372714819100629, 0.25362246141630873, 0.0069739568407354595, 0.0021320998328929657;
	(state4) 0.27174186595457617, 0.5251209951333127, 0.17538846901848634, 0.027748669893624824;
	(state5) 0.2947131607569549, 0.5480645276176418, 0.13825122945043142, 0.01897108217497187;
	(state6) 0.2630689020311291, 0.574327000575043, 0.1425037250491532, 0.02010037234467466;
	(state7) 0.26997988597646205, 0.5527490236228465, 0.14550176518464625, 0.031769325216045106;
}

probability ( scm14hyg | variable199 ) {
	(state0) 0.020733404165500336, 0.3926806236570993, 0.5503133119737452, 0.03627266020365533;
	(state1) 0.13650620624755136, 0.7694962903665178, 0.08938809220921864, 0.004609411176712126;
	(state2) 0.573535808077435, 0.41818597277821024, 0.0019029739631322088, 0.006375245181222518;
	(state3) 0.1833969903892407, 0.704815702617325, 0.10371917431199777, 0.00806813268143653;
	(state4) 0.5799937726498595, 0.3877355861687326, 0.02257937119743642, 0.00969126998397152;
	(state5) 0.14971326129543464, 0.7494806645767107, 0.09506495616529928, 0.005741117962555444;
	(state6) 0.309624111701676, 0.6393380088731463, 0.04726352678095399, 0.003774352644223605;
	(state7) 0.03950924891941023, 0.10056151716919766, 0.2933155813743326, 0.5666136525370594;
}

probability ( scm21fsv | variable199 ) {
	(state0) 0.44578937656821954, 0.28044577833892576, 0.21545610624677675, 0.05830873884607812;
	(state1) 0.6770642621335023, 0.20083815288136989, 0.09509085572632157, 0.027006729258806053;
	(state2) 0.6384178464992089, 0.22599009726999583, 0.09649895179827889, 0.0390931044325164;
	(state3) 0.6664333724068808, 0.20684589748973317, 0.10631892675146234, 0.02040180335192358;
	(state4) 0.13667691888410796, 0.3713306203436796, 0.3790477843873372, 0.11294467638487539;
	(state5) 0.13853867191922772, 0.36379833011375884, 0.35906962873010806, 0.13859336923690532;
	(state6) 0.6383398201833232, 0.24622410638539974, 0.09732254056446067, 0.018113532866816322;
	(state7) 0.4878332119648335, 0.27273864505317647, 0.18924342517788237, 0.05018471780410764;
}

probability ( scm18dpr | variable199 ) {
	(state0) 0.6206328757318907, 0.23516229049263887, 0.10253636972264492, 0.04166846405282526;
	(state1) 0.970575787054375, 0.01758725021436674, 0.005631003937505109, 0.006205958793753091;
	(state2) 0.9784063586915027, 0.012705043961556655, 0.006890430952838925, 0.0019981663941017174;
	(state3) 0.9675209015484582, 0.020070364380100226, 0.00814025120006235, 0.004268482871379136;
	(state4) 0.009970833102806994, 0.5954595324288019, 0.274944154361462, 0.11962548010692921;
	(state5) 0.009071533800855047, 0.5899820830658696, 0.2720934898498576, 0.12885289328341765;
	(state6) 0.9672768581965001, 0.026116751089370147, 0.0040610143979326, 0.002545376316197193;
	(state7) 0.6211257288137919, 0.1961537432276271, 0.13813500574289816, 0.04458552221568286;
}

probability ( scm19dsv | variable199 ) {
	(state0) 0.6263463800839059, 0.22344969803342646, 0.10061175020149765, 0.049592171681170104;
	(state1) 0.9746081300305813, 0.012634177378558686, 0.0036221871640934587, 0.009135505426766445;
	(state2) 0.9765976114557008, 0.009762931742298333, 0.007597191464512644, 0.006042265337488297;
	(state3) 0.9825548216359927, 0.006646322424101904, 0.004948357193528131, 0.005850498746377289;
	(state4) 0.014047715504885946, 0.5680041133384928, 0.3121073317298573, 0.10584083942676406;
	(state5) 0.0033702997788378724, 0.5892063351311462, 0.30988410974565384, 0.09753925534436204;
	(state6) 0.9765527907264229, 0.01021926073037867, 0.009959524785045689, 0.0032684237581528186;
	(state7) 0.6282035588782398, 0.19798250677835916, 0.13916197994133078, 0.03465195440207036;
}

probability ( variable199 ) {
	table 0.13260648993431445, 0.1437300539091669, 0.13016751191087567, 0.0991332355157304, 0.10494871729676572, 0.18511729256080836, 0.1641252217910923, 0.040171477081246014;
}

