network olcm - egypt_15_v1 {
}

variable bank {
	type discrete[2] { 1, 2 };
}

variable nonbank {
	type discrete[2] { 1, 2 };
}

variable other {
	type discrete[2] { 1, 2 };
}

variable k15d {
	type discrete[2] { 1, 2 };
}

variable k3 {
	type discrete[6] { 1, 2, 3, 4, 5, 6 };
}

variable h1 {
	type discrete[2] { 1, 2 };
}

variable h5 {
	type discrete[2] { 1, 2 };
}

variable h3 {
	type discrete[2] { 1, 2 };
}

variable h4a {
	type discrete[2] { 1, 2 };
}

variable a7a {
	type discrete[2] { 1, 2 };
}

variable k4 {
	type discrete[2] { 1, 2 };
}

variable mnaf3 {
	type discrete[2] { 1, 2 };
}

variable mnak4a {
	type discrete[2] { 1, 2 };
}

variable mnaq53 {
	type discrete[2] { 1, 2 };
}

variable e6 {
	type discrete[2] { 1, 2 };
}

variable variable16 {
	type discrete[2] { state0, state1 };
}

variable variable104 {
	type discrete[4] { state0, state1, state2, state3 };
}

probability ( bank | variable104, variable16 ) {
	(state0, state0) 0.9465067165870449, 0.0534932834129552;
	(state0, state1) 0.8299307817511031, 0.17006921824889695;
	(state1, state0) 0.051102556945418154, 0.9488974430545819;
	(state1, state1) 0.32323158880863073, 0.6767684111913694;
	(state2, state0) 0.039621422200426956, 0.9603785777995729;
	(state2, state1) 0.9914725488281281, 0.0085274511718719;
	(state3, state0) 0.015055427491411805, 0.9849445725085881;
	(state3, state1) 0.9557384065360882, 0.04426159346391189;
}

probability ( nonbank | variable16 ) {
	(state0) 0.0021347569866766508, 0.9978652430133234;
	(state1) 0.9722812315933552, 0.02771876840664471;
}

probability ( other | variable104, variable16 ) {
	(state0, state0) 0.07558060935123385, 0.9244193906487661;
	(state0, state1) 0.6632173632169956, 0.33678263678300435;
	(state1, state0) 0.9820269661590916, 0.01797303384090843;
	(state1, state1) 0.22340471694334949, 0.7765952830566505;
	(state2, state0) 0.01136738050594293, 0.9886326194940571;
	(state2, state1) 0.9642058757498888, 0.03579412425011113;
	(state3, state0) 0.047365528099762175, 0.9526344719002378;
	(state3, state1) 0.8680704916537497, 0.13192950834625033;
}

probability ( k15d | variable104 ) {
	(state0) 0.3528791759633898, 0.6471208240366102;
	(state1) 0.05454642910694253, 0.9454535708930575;
	(state2) 0.019057818147018436, 0.9809421818529815;
	(state3) 0.06115445008718857, 0.9388455499128114;
}

probability ( k3 | variable104 ) {
	(state0) 0.4477100056082808, 0.2696484700498307, 0.13981211665501106, 0.019018935733501215, 0.11421602097497678, 0.009594450978399484;
	(state1) 0.4451855733585462, 0.010239777431944085, 0.01917162053247998, 0.029517857769907126, 0.06461966352637788, 0.43126550738074476;
	(state2) 0.9430618784370903, 0.001631756569199785, 8.147429063552061E-4, 7.404099441567835E-4, 0.052789853687390725, 9.613584558073274E-4;
	(state3) 0.9049769351506773, 0.005217086917131759, 0.003234608123236196, 0.0037140479428189955, 0.07698268336280559, 0.005874638503330278;
}

probability ( h1 | variable104 ) {
	(state0) 0.45941825346753035, 0.5405817465324697;
	(state1) 0.20957640843424472, 0.7904235915657553;
	(state2) 0.09546711775971052, 0.9045328822402895;
	(state3) 0.6700586415191777, 0.3299413584808223;
}

probability ( h5 | variable104 ) {
	(state0) 0.34660157232895406, 0.653398427671046;
	(state1) 0.06180080965158458, 0.9381991903484154;
	(state2) 0.05628338937559477, 0.9437166106244053;
	(state3) 0.29502426263904846, 0.7049757373609515;
}

probability ( h3 | variable104 ) {
	(state0) 0.4216752184635585, 0.5783247815364415;
	(state1) 0.07931932615622588, 0.9206806738437742;
	(state2) 0.02085224744249667, 0.9791477525575033;
	(state3) 0.8077413240918041, 0.1922586759081959;
}

probability ( h4a | variable104 ) {
	(state0) 0.142483306622996, 0.857516693377004;
	(state1) 0.054176858736584704, 0.9458231412634153;
	(state2) 0.03595158316592604, 0.964048416834074;
	(state3) 0.3770089014377823, 0.6229910985622176;
}

probability ( a7a ) {
	table 0.8019699326075687, 0.1980300673924313;
}

probability ( k4 | variable104 ) {
	(state0) 0.5038844627270974, 0.49611553727290253;
	(state1) 0.08307799231101892, 0.9169220076889811;
	(state2) 0.11097801637108978, 0.8890219836289102;
	(state3) 0.5117991029384592, 0.4882008970615408;
}

probability ( mnaf3 | variable104 ) {
	(state0) 0.9073973008086047, 0.09260269919139526;
	(state1) 0.6535176326592869, 0.3464823673407132;
	(state2) 0.7459180093133657, 0.2540819906866342;
	(state3) 0.8869025775276373, 0.11309742247236265;
}

probability ( mnak4a ) {
	table 0.09486780715396578, 0.9051321928460342;
}

probability ( mnaq53 | variable104 ) {
	(state0) 0.21823251643426161, 0.7817674835657384;
	(state1) 0.017718161270549117, 0.982281838729451;
	(state2) 0.028082479162306148, 0.9719175208376938;
	(state3) 0.03969321153269001, 0.96030678846731;
}

probability ( e6 | variable104 ) {
	(state0) 0.25399973927217606, 0.746000260727824;
	(state1) 0.058669153394338695, 0.9413308466056614;
	(state2) 0.045358486440338776, 0.9546415135596612;
	(state3) 0.1383586372462154, 0.8616413627537846;
}

probability ( variable16 ) {
	table 0.9140180833853488, 0.0859819166146511;
}

probability ( variable104 ) {
	table 0.05459586620306622, 0.061914121498631944, 0.7201725910375735, 0.1633174212607283;
}

