<?xml version="1.0" encoding="US-ASCII"?>


<!--
	Bayesian network in XMLBIF v0.3 (BayesNet Interchange Format)
	Produced by JavaBayes (http://www.cs.cmu.edu/~javabayes/
	Output created Wed May 16 11:53:49 CEST 2018
-->



<!-- DTD for the XMLBIF 0.3 format -->
<!DOCTYPE BIF [
	<!ELEMENT BIF ( NETWORK )*>
	      <!ATTLIST BIF VERSION CDATA #REQUIRED>
	<!ELEMENT NETWORK ( NAME, ( PROPERTY | VARIABLE | DEFINITION )* )>
	<!ELEMENT NAME (#PCDATA)>
	<!ELEMENT VARIABLE ( NAME, ( OUTCOME |  PROPERTY )* ) >
	      <!ATTLIST VARIABLE TYPE (nature|decision|utility) "nature">
	<!ELEMENT OUTCOME (#PCDATA)>
	<!ELEMENT DEFINITION ( FOR | GIVEN | TABLE | PROPERTY )* >
	<!ELEMENT FOR (#PCDATA)>
	<!ELEMENT GIVEN (#PCDATA)>
	<!ELEMENT TABLE (#PCDATA)>
	<!ELEMENT PROPERTY (#PCDATA)>
]>


<BIF VERSION="0.3">
<NETWORK>
<NAME>olcm_egypt_15_v3</NAME>

<!-- Variables -->
<VARIABLE TYPE="nature">
	<NAME>bank</NAME>
	<OUTCOME>1</OUTCOME>
	<OUTCOME>2</OUTCOME>
	<PROPERTY>position = (100, 100)</PROPERTY>
</VARIABLE>

<VARIABLE TYPE="nature">
	<NAME>other</NAME>
	<OUTCOME>1</OUTCOME>
	<OUTCOME>2</OUTCOME>
	<PROPERTY>position = (100, 100)</PROPERTY>
</VARIABLE>

<VARIABLE TYPE="nature">
	<NAME>nonbank</NAME>
	<OUTCOME>1</OUTCOME>
	<OUTCOME>2</OUTCOME>
	<PROPERTY>position = (100, 100)</PROPERTY>
</VARIABLE>

<VARIABLE TYPE="nature">
	<NAME>k15d</NAME>
	<OUTCOME>1</OUTCOME>
	<OUTCOME>2</OUTCOME>
	<PROPERTY>position = (100, 100)</PROPERTY>
</VARIABLE>

<VARIABLE TYPE="nature">
	<NAME>h1</NAME>
	<OUTCOME>1</OUTCOME>
	<OUTCOME>2</OUTCOME>
	<PROPERTY>position = (100, 100)</PROPERTY>
</VARIABLE>

<VARIABLE TYPE="nature">
	<NAME>h5</NAME>
	<OUTCOME>1</OUTCOME>
	<OUTCOME>2</OUTCOME>
	<PROPERTY>position = (100, 100)</PROPERTY>
</VARIABLE>

<VARIABLE TYPE="nature">
	<NAME>h3</NAME>
	<OUTCOME>1</OUTCOME>
	<OUTCOME>2</OUTCOME>
	<PROPERTY>position = (100, 100)</PROPERTY>
</VARIABLE>

<VARIABLE TYPE="nature">
	<NAME>mnaf3</NAME>
	<OUTCOME>1</OUTCOME>
	<OUTCOME>2</OUTCOME>
	<PROPERTY>position = (100, 100)</PROPERTY>
</VARIABLE>

<VARIABLE TYPE="nature">
	<NAME>mnaq53</NAME>
	<OUTCOME>1</OUTCOME>
	<OUTCOME>2</OUTCOME>
	<PROPERTY>position = (100, 100)</PROPERTY>
</VARIABLE>

<VARIABLE TYPE="nature">
	<NAME>e6</NAME>
	<OUTCOME>1</OUTCOME>
	<OUTCOME>2</OUTCOME>
	<PROPERTY>position = (100, 100)</PROPERTY>
</VARIABLE>

<VARIABLE TYPE="nature">
	<NAME>j30c</NAME>
	<OUTCOME>1</OUTCOME>
	<OUTCOME>2</OUTCOME>
	<OUTCOME>3</OUTCOME>
	<OUTCOME>4</OUTCOME>
	<OUTCOME>5</OUTCOME>
	<PROPERTY>position = (100, 100)</PROPERTY>
</VARIABLE>

<VARIABLE TYPE="nature">
	<NAME>d30b</NAME>
	<OUTCOME>1</OUTCOME>
	<OUTCOME>2</OUTCOME>
	<OUTCOME>3</OUTCOME>
	<OUTCOME>4</OUTCOME>
	<OUTCOME>5</OUTCOME>
	<PROPERTY>position = (100, 100)</PROPERTY>
</VARIABLE>

<VARIABLE TYPE="nature">
	<NAME>d30a</NAME>
	<OUTCOME>1</OUTCOME>
	<OUTCOME>2</OUTCOME>
	<OUTCOME>3</OUTCOME>
	<OUTCOME>4</OUTCOME>
	<OUTCOME>5</OUTCOME>
	<PROPERTY>position = (100, 100)</PROPERTY>
</VARIABLE>

<VARIABLE TYPE="nature">
	<NAME>l30a</NAME>
	<OUTCOME>1</OUTCOME>
	<OUTCOME>2</OUTCOME>
	<OUTCOME>3</OUTCOME>
	<OUTCOME>4</OUTCOME>
	<OUTCOME>5</OUTCOME>
	<PROPERTY>position = (100, 100)</PROPERTY>
</VARIABLE>

<VARIABLE TYPE="nature">
	<NAME>l30b</NAME>
	<OUTCOME>1</OUTCOME>
	<OUTCOME>2</OUTCOME>
	<OUTCOME>3</OUTCOME>
	<OUTCOME>4</OUTCOME>
	<OUTCOME>5</OUTCOME>
	<PROPERTY>position = (100, 100)</PROPERTY>
</VARIABLE>

<VARIABLE TYPE="nature">
	<NAME>variable16</NAME>
	<OUTCOME>state0</OUTCOME>
	<OUTCOME>state1</OUTCOME>
	<PROPERTY>position = (100, 100)</PROPERTY>
</VARIABLE>

<VARIABLE TYPE="nature">
	<NAME>variable98</NAME>
	<OUTCOME>state0</OUTCOME>
	<OUTCOME>state1</OUTCOME>
	<PROPERTY>position = (100, 100)</PROPERTY>
</VARIABLE>

<VARIABLE TYPE="nature">
	<NAME>variable243</NAME>
	<OUTCOME>state0</OUTCOME>
	<OUTCOME>state1</OUTCOME>
	<OUTCOME>state2</OUTCOME>
	<OUTCOME>state3</OUTCOME>
	<PROPERTY>position = (100, 100)</PROPERTY>
</VARIABLE>


<!-- Probability distributions -->
<DEFINITION>
	<FOR>bank</FOR>
	<GIVEN>variable16</GIVEN>
	<GIVEN>variable98</GIVEN>
	<TABLE>0.3422894177121688 0.6577105822878312 0.03930419855508603 0.960695801444914 0.9546471688110557 0.045352831188944245 0.9911861366217711 0.0088138633782288 </TABLE>
</DEFINITION>

<DEFINITION>
	<FOR>other</FOR>
	<GIVEN>variable16</GIVEN>
	<GIVEN>variable243</GIVEN>
	<TABLE>0.07212664386136866 0.9278733561386314 0.15360524506327872 0.8463947549367213 0.03251165463075069 0.9674883453692493 0.03766115047509467 0.9623388495249054 0.989575905790351 0.010424094209648958 0.7886725601229312 0.2113274398770689 0.8683265505471331 0.13167344945286694 0.8373821564441216 0.16261784355587838 </TABLE>
</DEFINITION>

<DEFINITION>
	<FOR>nonbank</FOR>
	<GIVEN>variable16</GIVEN>
	<TABLE>0.0057220951101377105 0.9942779048898622 0.9585808141298376 0.04141918587016226 </TABLE>
</DEFINITION>

<DEFINITION>
	<FOR>k15d</FOR>
	<GIVEN>variable98</GIVEN>
	<TABLE>0.22130421387370053 0.7786957861262995 0.015978425044126044 0.984021574955874 </TABLE>
</DEFINITION>

<DEFINITION>
	<FOR>h1</FOR>
	<GIVEN>variable243</GIVEN>
	<GIVEN>variable98</GIVEN>
	<TABLE>0.6080264358025154 0.3919735641974847 0.0954672795229149 0.9045327204770851 0.4616456837238884 0.5383543162761115 0.05012277225603208 0.9498772277439679 0.3970947116818349 0.6029052883181651 0.020320426432038567 0.9796795735679614 0.9072842967811999 0.09271570321880003 0.5026670467715002 0.4973329532284999 </TABLE>
</DEFINITION>

<DEFINITION>
	<FOR>h5</FOR>
	<GIVEN>variable243</GIVEN>
	<GIVEN>variable98</GIVEN>
	<TABLE>0.30125245411067414 0.6987475458893259 0.05384004287029455 0.9461599571297055 0.3679202263816976 0.6320797736183024 0.04152571861686196 0.9584742813831381 0.07536082307545702 0.9246391769245429 0.009376021834302655 0.9906239781656974 0.5841755617482982 0.4158244382517018 0.18980002978986737 0.8101999702101327 </TABLE>
</DEFINITION>

<DEFINITION>
	<FOR>h3</FOR>
	<GIVEN>variable243</GIVEN>
	<GIVEN>variable98</GIVEN>
	<TABLE>0.4485112769695444 0.5514887230304556 0.05836148119675179 0.9416385188032482 0.45500737543892156 0.5449926245610783 0.01693526626885028 0.9830647337311497 0.10838968869672301 0.8916103113032771 0.010933309592489702 0.9890666904075103 0.9049468308630134 0.09505316913698669 0.47245442240116453 0.5275455775988355 </TABLE>
</DEFINITION>

<DEFINITION>
	<FOR>mnaf3</FOR>
	<GIVEN>variable243</GIVEN>
	<TABLE>0.7579299175850663 0.24207008241493372 0.8615917495087528 0.13840825049124722 0.413541960977675 0.5864580390223251 0.881150600756436 0.11884939924356398 </TABLE>
</DEFINITION>

<DEFINITION>
	<FOR>mnaq53</FOR>
	<GIVEN>variable98</GIVEN>
	<TABLE>0.1349825594692747 0.8650174405307253 0.022649266065107226 0.9773507339348928 </TABLE>
</DEFINITION>

<DEFINITION>
	<FOR>e6</FOR>
	<GIVEN>variable98</GIVEN>
	<TABLE>0.2831754648491133 0.7168245351508866 0.03641802435125435 0.9635819756487456 </TABLE>
</DEFINITION>

<DEFINITION>
	<FOR>j30c</FOR>
	<GIVEN>variable243</GIVEN>
	<TABLE>0.8442250794529723 0.0631824318160361 0.04882431882404818 0.025386877555873443 0.018381292351069917 0.17408983180271195 0.38836901469142665 0.34114092724056816 0.07953286716773353 0.016867359097559535 0.20903601341028796 0.05266655361627352 0.042246641164204034 0.6012932097998388 0.0947575820093957 0.4396839289253084 0.04628063022559768 0.19470752864137905 0.1275630006292948 0.1917649115784201 </TABLE>
</DEFINITION>

<DEFINITION>
	<FOR>d30b</FOR>
	<GIVEN>variable243</GIVEN>
	<TABLE>0.9146760066061684 0.048839394241984184 0.01834358933724233 0.010353372504068337 0.007787637310536578 0.342258541214662 0.29784457486496174 0.2637852091803958 0.0885944793048747 0.0075171954351058255 0.8421180956918801 0.014122734856666024 0.03501027515434262 0.08381246380470057 0.024936430492410705 0.5401381445259994 0.05815110181863015 0.14612126843686452 0.13868708092640572 0.11690240429210026 </TABLE>
</DEFINITION>

<DEFINITION>
	<FOR>d30a</FOR>
	<GIVEN>variable243</GIVEN>
	<TABLE>0.7664831824042719 0.09826496503955008 0.08345983425187542 0.033915164153145695 0.017876854151156772 0.1857610556202526 0.33169280459690303 0.3065442327892033 0.15498358360808637 0.021018323385554732 0.815695893524219 0.014655834326182685 0.04160676314458807 0.08699524475728204 0.041046264247728136 0.2392279417174416 0.13491149016871695 0.1658779335971142 0.2598991354471887 0.2000834990695386 </TABLE>
</DEFINITION>

<DEFINITION>
	<FOR>l30a</FOR>
	<GIVEN>variable243</GIVEN>
	<TABLE>0.9399666510726691 0.04115436417399787 0.005037806251802001 0.0033389899067844515 0.0105021885947467 0.2137932916211785 0.3178514801004014 0.3797657599430614 0.07196583539749164 0.016623632937867124 0.19388286717435232 0.06542821471741293 0.08791543837042712 0.5788172019011006 0.073956277836707 0.40727692088682343 0.09171981402143196 0.19450370243286277 0.1523973134968092 0.15410224916207252 </TABLE>
</DEFINITION>

<DEFINITION>
	<FOR>l30b</FOR>
	<GIVEN>variable243</GIVEN>
	<TABLE>0.8909207397765626 0.05402899907683382 0.03191389639607073 0.01976858500445364 0.00336777974607925 0.2600330415506005 0.41012619396100347 0.23946054474546066 0.07811041160633765 0.012269808136597652 0.611104838025661 0.06965477255841905 0.09915792755310979 0.16748980804843067 0.05259265381437957 0.3794092236623955 0.07498282077326977 0.16229227779455216 0.19681073859310602 0.18650493917667674 </TABLE>
</DEFINITION>

<DEFINITION>
	<FOR>variable16</FOR>
	<TABLE>0.9162174242408327 0.08378257575916717 </TABLE>
</DEFINITION>

<DEFINITION>
	<FOR>variable98</FOR>
	<TABLE>0.14376206214337933 0.8562379378566207 </TABLE>
</DEFINITION>

<DEFINITION>
	<FOR>variable243</FOR>
	<TABLE>0.46607507438935925 0.2482506622595153 0.09983091879467623 0.18584334455644924 </TABLE>
</DEFINITION>


</NETWORK>
</BIF>
