<?xml version="1.0" encoding="US-ASCII"?>


<!--
	Bayesian network in XMLBIF v0.3 (BayesNet Interchange Format)
	Produced by JavaBayes (http://www.cs.cmu.edu/~javabayes/
	Output created Wed May 16 11:52:59 CEST 2018
-->



<!-- DTD for the XMLBIF 0.3 format -->
<!DOCTYPE BIF [
	<!ELEMENT BIF ( NETWORK )*>
	      <!ATTLIST BIF VERSION CDATA #REQUIRED>
	<!ELEMENT NETWORK ( NAME, ( PROPERTY | VARIABLE | DEFINITION )* )>
	<!ELEMENT NAME (#PCDATA)>
	<!ELEMENT VARIABLE ( NAME, ( OUTCOME |  PROPERTY )* ) >
	      <!ATTLIST VARIABLE TYPE (nature|decision|utility) "nature">
	<!ELEMENT OUTCOME (#PCDATA)>
	<!ELEMENT DEFINITION ( FOR | GIVEN | TABLE | PROPERTY )* >
	<!ELEMENT FOR (#PCDATA)>
	<!ELEMENT GIVEN (#PCDATA)>
	<!ELEMENT TABLE (#PCDATA)>
	<!ELEMENT PROPERTY (#PCDATA)>
]>


<BIF VERSION="0.3">
<NETWORK>
<NAME>olcm_d897_filtered_10</NAME>

<!-- Variables -->
<VARIABLE TYPE="nature">
	<NAME>scm19dsv</NAME>
	<OUTCOME>0</OUTCOME>
	<OUTCOME>1</OUTCOME>
	<OUTCOME>2</OUTCOME>
	<OUTCOME>3</OUTCOME>
	<PROPERTY>position = (100, 100)</PROPERTY>
</VARIABLE>

<VARIABLE TYPE="nature">
	<NAME>scm18dpr</NAME>
	<OUTCOME>0</OUTCOME>
	<OUTCOME>1</OUTCOME>
	<OUTCOME>2</OUTCOME>
	<OUTCOME>3</OUTCOME>
	<PROPERTY>position = (100, 100)</PROPERTY>
</VARIABLE>

<VARIABLE TYPE="nature">
	<NAME>scm11spe</NAME>
	<OUTCOME>0</OUTCOME>
	<OUTCOME>1</OUTCOME>
	<OUTCOME>2</OUTCOME>
	<OUTCOME>3</OUTCOME>
	<PROPERTY>position = (100, 100)</PROPERTY>
</VARIABLE>

<VARIABLE TYPE="nature">
	<NAME>scm8spee</NAME>
	<OUTCOME>0</OUTCOME>
	<OUTCOME>1</OUTCOME>
	<OUTCOME>2</OUTCOME>
	<OUTCOME>3</OUTCOME>
	<PROPERTY>position = (100, 100)</PROPERTY>
</VARIABLE>

<VARIABLE TYPE="nature">
	<NAME>scm1lue</NAME>
	<OUTCOME>0</OUTCOME>
	<OUTCOME>1</OUTCOME>
	<OUTCOME>2</OUTCOME>
	<OUTCOME>3</OUTCOME>
	<PROPERTY>position = (100, 100)</PROPERTY>
</VARIABLE>

<VARIABLE TYPE="nature">
	<NAME>scm1rue</NAME>
	<OUTCOME>0</OUTCOME>
	<OUTCOME>1</OUTCOME>
	<OUTCOME>2</OUTCOME>
	<OUTCOME>3</OUTCOME>
	<PROPERTY>position = (100, 100)</PROPERTY>
</VARIABLE>

<VARIABLE TYPE="nature">
	<NAME>scm2rue</NAME>
	<OUTCOME>0</OUTCOME>
	<OUTCOME>1</OUTCOME>
	<OUTCOME>2</OUTCOME>
	<OUTCOME>3</OUTCOME>
	<PROPERTY>position = (100, 100)</PROPERTY>
</VARIABLE>

<VARIABLE TYPE="nature">
	<NAME>scm5rise</NAME>
	<OUTCOME>0</OUTCOME>
	<OUTCOME>1</OUTCOME>
	<OUTCOME>2</OUTCOME>
	<OUTCOME>3</OUTCOME>
	<PROPERTY>position = (100, 100)</PROPERTY>
</VARIABLE>

<VARIABLE TYPE="nature">
	<NAME>scm6post</NAME>
	<OUTCOME>0</OUTCOME>
	<OUTCOME>1</OUTCOME>
	<OUTCOME>2</OUTCOME>
	<OUTCOME>3</OUTCOME>
	<PROPERTY>position = (100, 100)</PROPERTY>
</VARIABLE>

<VARIABLE TYPE="nature">
	<NAME>scm7gait</NAME>
	<OUTCOME>0</OUTCOME>
	<OUTCOME>1</OUTCOME>
	<OUTCOME>2</OUTCOME>
	<OUTCOME>3</OUTCOME>
	<PROPERTY>position = (100, 100)</PROPERTY>
</VARIABLE>

<VARIABLE TYPE="nature">
	<NAME>variable211</NAME>
	<OUTCOME>state0</OUTCOME>
	<OUTCOME>state1</OUTCOME>
	<OUTCOME>state2</OUTCOME>
	<PROPERTY>position = (100, 100)</PROPERTY>
</VARIABLE>

<VARIABLE TYPE="nature">
	<NAME>variable11</NAME>
	<OUTCOME>state0</OUTCOME>
	<OUTCOME>state1</OUTCOME>
	<OUTCOME>state2</OUTCOME>
	<PROPERTY>position = (100, 100)</PROPERTY>
</VARIABLE>

<VARIABLE TYPE="nature">
	<NAME>variable66</NAME>
	<OUTCOME>state0</OUTCOME>
	<OUTCOME>state1</OUTCOME>
	<OUTCOME>state2</OUTCOME>
	<PROPERTY>position = (100, 100)</PROPERTY>
</VARIABLE>

<VARIABLE TYPE="nature">
	<NAME>variable278</NAME>
	<OUTCOME>state0</OUTCOME>
	<OUTCOME>state1</OUTCOME>
	<OUTCOME>state2</OUTCOME>
	<OUTCOME>state3</OUTCOME>
	<PROPERTY>position = (100, 100)</PROPERTY>
</VARIABLE>


<!-- Probability distributions -->
<DEFINITION>
	<FOR>scm19dsv</FOR>
	<GIVEN>variable11</GIVEN>
	<TABLE>0.02225720789582152 0.8035055390520444 0.16376432956745712 0.010472923484676969 0.9882989208349418 0.004613206655905228 0.005326173977319933 0.001761698531832984 0.014593242023563914 0.08078402919559961 0.5865914425591969 0.3180312862216395 </TABLE>
</DEFINITION>

<DEFINITION>
	<FOR>scm18dpr</FOR>
	<GIVEN>variable11</GIVEN>
	<TABLE>0.012004808953112693 0.8666336668341549 0.09794213864711337 0.023419385565619108 0.981512234898646 0.012788098484753773 0.0026342082247722766 0.0030654583918279855 0.0161308143139023 0.04834724652940467 0.6407374419808978 0.2947844971757953 </TABLE>
</DEFINITION>

<DEFINITION>
	<FOR>scm11spe</FOR>
	<GIVEN>variable66</GIVEN>
	<TABLE>0.06562493836309295 0.8857637314911815 0.04637655540816847 0.002234774737557074 0.018415160352880593 0.0420908694254634 0.805850461997126 0.13364350822453008 0.928926047965108 0.060332187068322926 0.0076827830280989376 0.003058981938470134 </TABLE>
</DEFINITION>

<DEFINITION>
	<FOR>scm8spee</FOR>
	<GIVEN>variable66</GIVEN>
	<TABLE>0.027818525195949143 0.9092057007347815 0.06072371561481763 0.0022520584544517574 0.015345106076711489 0.04499819380132542 0.7726002024239683 0.16705649769799488 0.762422083879457 0.22559070196579478 0.008923810650775021 0.003063403503973208 </TABLE>
</DEFINITION>

<DEFINITION>
	<FOR>scm1lue</FOR>
	<GIVEN>variable211</GIVEN>
	<TABLE>0.18141545418100355 0.22397693250126718 0.39716648640477586 0.19744112691295346 0.3179593848717351 0.48270066791340377 0.16388832316193283 0.03545162405292841 0.7430582795002582 0.17581163155480506 0.0696464648755297 0.011483624069407122 </TABLE>
</DEFINITION>

<DEFINITION>
	<FOR>scm1rue</FOR>
	<GIVEN>variable211</GIVEN>
	<TABLE>0.021554255306272342 0.03504300602423843 0.5864957433804957 0.35690699528899356 0.02731228631435513 0.7108965283799126 0.2561670226774272 0.005624162628305005 0.9165055984073556 0.0656340432377986 0.015695849690310248 0.0021645086645355645 </TABLE>
</DEFINITION>

<DEFINITION>
	<FOR>scm2rue</FOR>
	<GIVEN>variable211</GIVEN>
	<TABLE>0.04482356730077666 0.11321183949783804 0.6500190816624585 0.19194551153892672 0.14047844815213087 0.7672081092120795 0.08880219764667979 0.0035112449891098814 0.8352317042251328 0.15466005860571283 0.008125263405558806 0.001982973763595481 </TABLE>
</DEFINITION>

<DEFINITION>
	<FOR>scm5rise</FOR>
	<GIVEN>variable278</GIVEN>
	<TABLE>0.027304174237703403 0.02701238052210399 0.080179068499749 0.8655043767404437 0.076448165112227 0.18378992083539086 0.6369711212039502 0.10279079284843193 0.24415398655733864 0.7055448842874112 0.047357124352321214 0.0029440048029288008 0.9522947024558853 0.03903761723989398 0.006108236026762807 0.002559444277457867 </TABLE>
</DEFINITION>

<DEFINITION>
	<FOR>scm6post</FOR>
	<GIVEN>variable278</GIVEN>
	<TABLE>0.025179210458673645 0.0308634546301548 0.21453995587974903 0.7294173790314226 0.058164736695896106 0.13131937496906063 0.7755772274986736 0.03493866083636956 0.31668278097950836 0.5641612927313614 0.11509254693549714 0.00406337935363311 0.8996767578028042 0.08199117136093788 0.014101449995426448 0.004230620840831443 </TABLE>
</DEFINITION>

<DEFINITION>
	<FOR>scm7gait</FOR>
	<GIVEN>variable278</GIVEN>
	<TABLE>0.02419596886569191 0.02937731890421188 0.40076412225132174 0.5456625899787744 0.011321467550926573 0.1011841195441363 0.8784723521188158 0.009022060786121394 0.048011402627977186 0.8383436106257941 0.11084386367929476 0.002801123066933896 0.5869719911831469 0.40391053333876364 0.006559062696535817 0.0025584127815537388 </TABLE>
</DEFINITION>

<DEFINITION>
	<FOR>variable211</FOR>
	<TABLE>0.10626227859427016 0.33133845316308896 0.5623992682426409 </TABLE>
</DEFINITION>

<DEFINITION>
	<FOR>variable11</FOR>
	<TABLE>0.24181491856751913 0.6368827312180859 0.12130235021439491 </TABLE>
</DEFINITION>

<DEFINITION>
	<FOR>variable66</FOR>
	<TABLE>0.5045985051606268 0.1293705161491363 0.366030978690237 </TABLE>
</DEFINITION>

<DEFINITION>
	<FOR>variable278</FOR>
	<TABLE>0.043228449124400985 0.13316190147905874 0.39309416024444893 0.43051548915209137 </TABLE>
</DEFINITION>


</NETWORK>
</BIF>
