network olcm_egypt_15_v3 {
}

variable bank {
	type discrete[2] { 1, 2 };
}

variable other {
	type discrete[2] { 1, 2 };
}

variable nonbank {
	type discrete[2] { 1, 2 };
}

variable k15d {
	type discrete[2] { 1, 2 };
}

variable h1 {
	type discrete[2] { 1, 2 };
}

variable h5 {
	type discrete[2] { 1, 2 };
}

variable h3 {
	type discrete[2] { 1, 2 };
}

variable mnaf3 {
	type discrete[2] { 1, 2 };
}

variable mnaq53 {
	type discrete[2] { 1, 2 };
}

variable e6 {
	type discrete[2] { 1, 2 };
}

variable j30c {
	type discrete[5] { 1, 2, 3, 4, 5 };
}

variable d30b {
	type discrete[5] { 1, 2, 3, 4, 5 };
}

variable d30a {
	type discrete[5] { 1, 2, 3, 4, 5 };
}

variable l30a {
	type discrete[5] { 1, 2, 3, 4, 5 };
}

variable l30b {
	type discrete[5] { 1, 2, 3, 4, 5 };
}

variable variable16 {
	type discrete[2] { state0, state1 };
}

variable variable98 {
	type discrete[2] { state0, state1 };
}

variable variable243 {
	type discrete[4] { state0, state1, state2, state3 };
}

probability ( bank | variable16, variable98 ) {
	(state0, state0) 0.3422894177121688, 0.6577105822878312;
	(state0, state1) 0.03930419855508603, 0.960695801444914;
	(state1, state0) 0.9546471688110557, 0.045352831188944245;
	(state1, state1) 0.9911861366217711, 0.0088138633782288;
}

probability ( other | variable16, variable243 ) {
	(state0, state0) 0.07212664386136866, 0.9278733561386314;
	(state0, state1) 0.15360524506327872, 0.8463947549367213;
	(state0, state2) 0.03251165463075069, 0.9674883453692493;
	(state0, state3) 0.03766115047509467, 0.9623388495249054;
	(state1, state0) 0.989575905790351, 0.010424094209648958;
	(state1, state1) 0.7886725601229312, 0.2113274398770689;
	(state1, state2) 0.8683265505471331, 0.13167344945286694;
	(state1, state3) 0.8373821564441216, 0.16261784355587838;
}

probability ( nonbank | variable16 ) {
	(state0) 0.0057220951101377105, 0.9942779048898622;
	(state1) 0.9585808141298376, 0.04141918587016226;
}

probability ( k15d | variable98 ) {
	(state0) 0.22130421387370053, 0.7786957861262995;
	(state1) 0.015978425044126044, 0.984021574955874;
}

probability ( h1 | variable243, variable98 ) {
	(state0, state0) 0.6080264358025154, 0.3919735641974847;
	(state0, state1) 0.0954672795229149, 0.9045327204770851;
	(state1, state0) 0.4616456837238884, 0.5383543162761115;
	(state1, state1) 0.05012277225603208, 0.9498772277439679;
	(state2, state0) 0.3970947116818349, 0.6029052883181651;
	(state2, state1) 0.020320426432038567, 0.9796795735679614;
	(state3, state0) 0.9072842967811999, 0.09271570321880003;
	(state3, state1) 0.5026670467715002, 0.4973329532284999;
}

probability ( h5 | variable243, variable98 ) {
	(state0, state0) 0.30125245411067414, 0.6987475458893259;
	(state0, state1) 0.05384004287029455, 0.9461599571297055;
	(state1, state0) 0.3679202263816976, 0.6320797736183024;
	(state1, state1) 0.04152571861686196, 0.9584742813831381;
	(state2, state0) 0.07536082307545702, 0.9246391769245429;
	(state2, state1) 0.009376021834302655, 0.9906239781656974;
	(state3, state0) 0.5841755617482982, 0.4158244382517018;
	(state3, state1) 0.18980002978986737, 0.8101999702101327;
}

probability ( h3 | variable243, variable98 ) {
	(state0, state0) 0.4485112769695444, 0.5514887230304556;
	(state0, state1) 0.05836148119675179, 0.9416385188032482;
	(state1, state0) 0.45500737543892156, 0.5449926245610783;
	(state1, state1) 0.01693526626885028, 0.9830647337311497;
	(state2, state0) 0.10838968869672301, 0.8916103113032771;
	(state2, state1) 0.010933309592489702, 0.9890666904075103;
	(state3, state0) 0.9049468308630134, 0.09505316913698669;
	(state3, state1) 0.47245442240116453, 0.5275455775988355;
}

probability ( mnaf3 | variable243 ) {
	(state0) 0.7579299175850663, 0.24207008241493372;
	(state1) 0.8615917495087528, 0.13840825049124722;
	(state2) 0.413541960977675, 0.5864580390223251;
	(state3) 0.881150600756436, 0.11884939924356398;
}

probability ( mnaq53 | variable98 ) {
	(state0) 0.1349825594692747, 0.8650174405307253;
	(state1) 0.022649266065107226, 0.9773507339348928;
}

probability ( e6 | variable98 ) {
	(state0) 0.2831754648491133, 0.7168245351508866;
	(state1) 0.03641802435125435, 0.9635819756487456;
}

probability ( j30c | variable243 ) {
	(state0) 0.8442250794529723, 0.0631824318160361, 0.04882431882404818, 0.025386877555873443, 0.018381292351069917;
	(state1) 0.17408983180271195, 0.38836901469142665, 0.34114092724056816, 0.07953286716773353, 0.016867359097559535;
	(state2) 0.20903601341028796, 0.05266655361627352, 0.042246641164204034, 0.6012932097998388, 0.0947575820093957;
	(state3) 0.4396839289253084, 0.04628063022559768, 0.19470752864137905, 0.1275630006292948, 0.1917649115784201;
}

probability ( d30b | variable243 ) {
	(state0) 0.9146760066061684, 0.048839394241984184, 0.01834358933724233, 0.010353372504068337, 0.007787637310536578;
	(state1) 0.342258541214662, 0.29784457486496174, 0.2637852091803958, 0.0885944793048747, 0.0075171954351058255;
	(state2) 0.8421180956918801, 0.014122734856666024, 0.03501027515434262, 0.08381246380470057, 0.024936430492410705;
	(state3) 0.5401381445259994, 0.05815110181863015, 0.14612126843686452, 0.13868708092640572, 0.11690240429210026;
}

probability ( d30a | variable243 ) {
	(state0) 0.7664831824042719, 0.09826496503955008, 0.08345983425187542, 0.033915164153145695, 0.017876854151156772;
	(state1) 0.1857610556202526, 0.33169280459690303, 0.3065442327892033, 0.15498358360808637, 0.021018323385554732;
	(state2) 0.815695893524219, 0.014655834326182685, 0.04160676314458807, 0.08699524475728204, 0.041046264247728136;
	(state3) 0.2392279417174416, 0.13491149016871695, 0.1658779335971142, 0.2598991354471887, 0.2000834990695386;
}

probability ( l30a | variable243 ) {
	(state0) 0.9399666510726691, 0.04115436417399787, 0.005037806251802001, 0.0033389899067844515, 0.0105021885947467;
	(state1) 0.2137932916211785, 0.3178514801004014, 0.3797657599430614, 0.07196583539749164, 0.016623632937867124;
	(state2) 0.19388286717435232, 0.06542821471741293, 0.08791543837042712, 0.5788172019011006, 0.073956277836707;
	(state3) 0.40727692088682343, 0.09171981402143196, 0.19450370243286277, 0.1523973134968092, 0.15410224916207252;
}

probability ( l30b | variable243 ) {
	(state0) 0.8909207397765626, 0.05402899907683382, 0.03191389639607073, 0.01976858500445364, 0.00336777974607925;
	(state1) 0.2600330415506005, 0.41012619396100347, 0.23946054474546066, 0.07811041160633765, 0.012269808136597652;
	(state2) 0.611104838025661, 0.06965477255841905, 0.09915792755310979, 0.16748980804843067, 0.05259265381437957;
	(state3) 0.3794092236623955, 0.07498282077326977, 0.16229227779455216, 0.19681073859310602, 0.18650493917667674;
}

probability ( variable16 ) {
	table 0.9162174242408327, 0.08378257575916717;
}

probability ( variable98 ) {
	table 0.14376206214337933, 0.8562379378566207;
}

probability ( variable243 ) {
	table 0.46607507438935925, 0.2482506622595153, 0.09983091879467623, 0.18584334455644924;
}

