network olcm_d897_filtered_10 {
}

variable scm19dsv {
	type discrete[4] { 0, 1, 2, 3 };
}

variable scm18dpr {
	type discrete[4] { 0, 1, 2, 3 };
}

variable scm11spe {
	type discrete[4] { 0, 1, 2, 3 };
}

variable scm8spee {
	type discrete[4] { 0, 1, 2, 3 };
}

variable scm1lue {
	type discrete[4] { 0, 1, 2, 3 };
}

variable scm1rue {
	type discrete[4] { 0, 1, 2, 3 };
}

variable scm2rue {
	type discrete[4] { 0, 1, 2, 3 };
}

variable scm5rise {
	type discrete[4] { 0, 1, 2, 3 };
}

variable scm6post {
	type discrete[4] { 0, 1, 2, 3 };
}

variable scm7gait {
	type discrete[4] { 0, 1, 2, 3 };
}

variable variable211 {
	type discrete[3] { state0, state1, state2 };
}

variable variable11 {
	type discrete[3] { state0, state1, state2 };
}

variable variable66 {
	type discrete[3] { state0, state1, state2 };
}

variable variable278 {
	type discrete[4] { state0, state1, state2, state3 };
}

probability ( scm19dsv | variable11 ) {
	(state0) 0.02225720789582152, 0.8035055390520444, 0.16376432956745712, 0.010472923484676969;
	(state1) 0.9882989208349418, 0.004613206655905228, 0.005326173977319933, 0.001761698531832984;
	(state2) 0.014593242023563914, 0.08078402919559961, 0.5865914425591969, 0.3180312862216395;
}

probability ( scm18dpr | variable11 ) {
	(state0) 0.012004808953112693, 0.8666336668341549, 0.09794213864711337, 0.023419385565619108;
	(state1) 0.981512234898646, 0.012788098484753773, 0.0026342082247722766, 0.0030654583918279855;
	(state2) 0.0161308143139023, 0.04834724652940467, 0.6407374419808978, 0.2947844971757953;
}

probability ( scm11spe | variable66 ) {
	(state0) 0.06562493836309295, 0.8857637314911815, 0.04637655540816847, 0.002234774737557074;
	(state1) 0.018415160352880593, 0.0420908694254634, 0.805850461997126, 0.13364350822453008;
	(state2) 0.928926047965108, 0.060332187068322926, 0.0076827830280989376, 0.003058981938470134;
}

probability ( scm8spee | variable66 ) {
	(state0) 0.027818525195949143, 0.9092057007347815, 0.06072371561481763, 0.0022520584544517574;
	(state1) 0.015345106076711489, 0.04499819380132542, 0.7726002024239683, 0.16705649769799488;
	(state2) 0.762422083879457, 0.22559070196579478, 0.008923810650775021, 0.003063403503973208;
}

probability ( scm1lue | variable211 ) {
	(state0) 0.18141545418100355, 0.22397693250126718, 0.39716648640477586, 0.19744112691295346;
	(state1) 0.3179593848717351, 0.48270066791340377, 0.16388832316193283, 0.03545162405292841;
	(state2) 0.7430582795002582, 0.17581163155480506, 0.0696464648755297, 0.011483624069407122;
}

probability ( scm1rue | variable211 ) {
	(state0) 0.021554255306272342, 0.03504300602423843, 0.5864957433804957, 0.35690699528899356;
	(state1) 0.02731228631435513, 0.7108965283799126, 0.2561670226774272, 0.005624162628305005;
	(state2) 0.9165055984073556, 0.0656340432377986, 0.015695849690310248, 0.0021645086645355645;
}

probability ( scm2rue | variable211 ) {
	(state0) 0.04482356730077666, 0.11321183949783804, 0.6500190816624585, 0.19194551153892672;
	(state1) 0.14047844815213087, 0.7672081092120795, 0.08880219764667979, 0.0035112449891098814;
	(state2) 0.8352317042251328, 0.15466005860571283, 0.008125263405558806, 0.001982973763595481;
}

probability ( scm5rise | variable278 ) {
	(state0) 0.027304174237703403, 0.02701238052210399, 0.080179068499749, 0.8655043767404437;
	(state1) 0.076448165112227, 0.18378992083539086, 0.6369711212039502, 0.10279079284843193;
	(state2) 0.24415398655733864, 0.7055448842874112, 0.047357124352321214, 0.0029440048029288008;
	(state3) 0.9522947024558853, 0.03903761723989398, 0.006108236026762807, 0.002559444277457867;
}

probability ( scm6post | variable278 ) {
	(state0) 0.025179210458673645, 0.0308634546301548, 0.21453995587974903, 0.7294173790314226;
	(state1) 0.058164736695896106, 0.13131937496906063, 0.7755772274986736, 0.03493866083636956;
	(state2) 0.31668278097950836, 0.5641612927313614, 0.11509254693549714, 0.00406337935363311;
	(state3) 0.8996767578028042, 0.08199117136093788, 0.014101449995426448, 0.004230620840831443;
}

probability ( scm7gait | variable278 ) {
	(state0) 0.02419596886569191, 0.02937731890421188, 0.40076412225132174, 0.5456625899787744;
	(state1) 0.011321467550926573, 0.1011841195441363, 0.8784723521188158, 0.009022060786121394;
	(state2) 0.048011402627977186, 0.8383436106257941, 0.11084386367929476, 0.002801123066933896;
	(state3) 0.5869719911831469, 0.40391053333876364, 0.006559062696535817, 0.0025584127815537388;
}

probability ( variable211 ) {
	table 0.10626227859427016, 0.33133845316308896, 0.5623992682426409;
}

probability ( variable11 ) {
	table 0.24181491856751913, 0.6368827312180859, 0.12130235021439491;
}

probability ( variable66 ) {
	table 0.5045985051606268, 0.1293705161491363, 0.366030978690237;
}

probability ( variable278 ) {
	table 0.043228449124400985, 0.13316190147905874, 0.39309416024444893, 0.43051548915209137;
}

