<?xml version="1.0" encoding="US-ASCII"?>


<!--
	Bayesian network in XMLBIF v0.3 (BayesNet Interchange Format)
	Produced by JavaBayes (http://www.cs.cmu.edu/~javabayes/
	Output created Thu Apr 26 12:34:54 CEST 2018
-->



<!-- DTD for the XMLBIF 0.3 format -->
<!DOCTYPE BIF [
	<!ELEMENT BIF ( NETWORK )*>
	      <!ATTLIST BIF VERSION CDATA #REQUIRED>
	<!ELEMENT NETWORK ( NAME, ( PROPERTY | VARIABLE | DEFINITION )* )>
	<!ELEMENT NAME (#PCDATA)>
	<!ELEMENT VARIABLE ( NAME, ( OUTCOME |  PROPERTY )* ) >
	      <!ATTLIST VARIABLE TYPE (nature|decision|utility) "nature">
	<!ELEMENT OUTCOME (#PCDATA)>
	<!ELEMENT DEFINITION ( FOR | GIVEN | TABLE | PROPERTY )* >
	<!ELEMENT FOR (#PCDATA)>
	<!ELEMENT GIVEN (#PCDATA)>
	<!ELEMENT TABLE (#PCDATA)>
	<!ELEMENT PROPERTY (#PCDATA)>
]>


<BIF VERSION="0.3">
<NETWORK>
<NAME>olcm</NAME>

<!-- Variables -->
<VARIABLE TYPE="nature">
	<NAME>hs160</NAME>
	<OUTCOME>1</OUTCOME>
	<OUTCOME>2</OUTCOME>
	<PROPERTY>position = (100, 100)</PROPERTY>
</VARIABLE>

<VARIABLE TYPE="nature">
	<NAME>hs170</NAME>
	<OUTCOME>1</OUTCOME>
	<OUTCOME>2</OUTCOME>
	<PROPERTY>position = (100, 100)</PROPERTY>
</VARIABLE>

<VARIABLE TYPE="nature">
	<NAME>hs180</NAME>
	<OUTCOME>1</OUTCOME>
	<OUTCOME>2</OUTCOME>
	<PROPERTY>position = (100, 100)</PROPERTY>
</VARIABLE>

<VARIABLE TYPE="nature">
	<NAME>hs190</NAME>
	<OUTCOME>1</OUTCOME>
	<OUTCOME>2</OUTCOME>
	<PROPERTY>position = (100, 100)</PROPERTY>
</VARIABLE>

<VARIABLE TYPE="nature">
	<NAME>hh040</NAME>
	<OUTCOME>1</OUTCOME>
	<OUTCOME>2</OUTCOME>
	<PROPERTY>position = (100, 100)</PROPERTY>
</VARIABLE>

<VARIABLE TYPE="nature">
	<NAME>hs050</NAME>
	<OUTCOME>1</OUTCOME>
	<OUTCOME>2</OUTCOME>
	<PROPERTY>position = (100, 100)</PROPERTY>
</VARIABLE>

<VARIABLE TYPE="nature">
	<NAME>hs060</NAME>
	<OUTCOME>1</OUTCOME>
	<OUTCOME>2</OUTCOME>
	<PROPERTY>position = (100, 100)</PROPERTY>
</VARIABLE>

<VARIABLE TYPE="nature">
	<NAME>hh050</NAME>
	<OUTCOME>1</OUTCOME>
	<OUTCOME>2</OUTCOME>
	<PROPERTY>position = (100, 100)</PROPERTY>
</VARIABLE>

<VARIABLE TYPE="nature">
	<NAME>h79_u</NAME>
	<OUTCOME>1</OUTCOME>
	<OUTCOME>2</OUTCOME>
	<PROPERTY>position = (100, 100)</PROPERTY>
</VARIABLE>

<VARIABLE TYPE="nature">
	<NAME>h80_u</NAME>
	<OUTCOME>1</OUTCOME>
	<OUTCOME>2</OUTCOME>
	<PROPERTY>position = (100, 100)</PROPERTY>
</VARIABLE>

<VARIABLE TYPE="nature">
	<NAME>variable69</NAME>
	<OUTCOME>state0</OUTCOME>
	<OUTCOME>state1</OUTCOME>
	<PROPERTY>position = (100, 100)</PROPERTY>
</VARIABLE>

<VARIABLE TYPE="nature">
	<NAME>variable145</NAME>
	<OUTCOME>state0</OUTCOME>
	<OUTCOME>state1</OUTCOME>
	<PROPERTY>position = (100, 100)</PROPERTY>
</VARIABLE>

<VARIABLE TYPE="nature">
	<NAME>variable11</NAME>
	<OUTCOME>state0</OUTCOME>
	<OUTCOME>state1</OUTCOME>
	<OUTCOME>state2</OUTCOME>
	<PROPERTY>position = (100, 100)</PROPERTY>
</VARIABLE>


<!-- Probability distributions -->
<DEFINITION>
	<FOR>hs160</FOR>
	<GIVEN>variable145</GIVEN>
	<GIVEN>variable11</GIVEN>
	<TABLE>0.05642694764740428 0.9435730523525957 0.281183625311727 0.7188163746882729 0.24803818673553296 0.751961813264467 0.004707931931508593 0.9952920680684915 0.07415682597360644 0.9258431740263936 0.09947395746854878 0.9005260425314512 </TABLE>
</DEFINITION>

<DEFINITION>
	<FOR>hs170</FOR>
	<GIVEN>variable145</GIVEN>
	<GIVEN>variable11</GIVEN>
	<TABLE>0.4644977897619013 0.5355022102380986 0.7492729112384302 0.25072708876156974 0.6915929280901922 0.3084070719098079 0.02159904170771632 0.9784009582922837 0.10735776808522117 0.8926422319147788 0.09838123712745094 0.901618762872549 </TABLE>
</DEFINITION>

<DEFINITION>
	<FOR>hs180</FOR>
	<GIVEN>variable145</GIVEN>
	<GIVEN>variable11</GIVEN>
	<TABLE>0.2512300221965342 0.7487699778034658 0.6793088453638617 0.3206911546361382 0.6688439282168701 0.33115607178312984 0.009745604119738696 0.9902543958802613 0.036874889138008855 0.963125110861991 0.04134026784651733 0.9586597321534828 </TABLE>
</DEFINITION>

<DEFINITION>
	<FOR>hs190</FOR>
	<GIVEN>variable145</GIVEN>
	<GIVEN>variable11</GIVEN>
	<TABLE>0.19672735486143014 0.8032726451385698 0.5789028995369763 0.4210971004630238 0.589518445461394 0.41048155453860596 0.031696373766882724 0.9683036262331173 0.08039003968719241 0.9196099603128077 0.08324006063072666 0.9167599393692734 </TABLE>
</DEFINITION>

<DEFINITION>
	<FOR>hh040</FOR>
	<GIVEN>variable145</GIVEN>
	<GIVEN>variable11</GIVEN>
	<TABLE>0.14660840332696168 0.8533915966730382 0.5884746899938424 0.4115253100061576 0.3865183968903593 0.6134816031096406 0.04595347757559364 0.9540465224244064 0.2537290508858394 0.7462709491141606 0.39262939498539406 0.6073706050146059 </TABLE>
</DEFINITION>

<DEFINITION>
	<FOR>hs050</FOR>
	<GIVEN>variable69</GIVEN>
	<GIVEN>variable11</GIVEN>
	<TABLE>0.9778420951817474 0.022157904818252607 0.08629869667618426 0.9137013033238158 0.7789498782774003 0.22105012172259975 0.999115112081643 8.848879183567956E-4 0.9558134504642288 0.044186549535771155 0.9960148534510994 0.0039851465489005675 </TABLE>
</DEFINITION>

<DEFINITION>
	<FOR>hs060</FOR>
	<GIVEN>variable69</GIVEN>
	<GIVEN>variable11</GIVEN>
	<TABLE>0.17809878280777844 0.8219012171922216 0.029889254447820663 0.9701107455521792 0.3659118726326496 0.6340881273673503 0.863077694214722 0.136922305785278 0.024554880039536108 0.9754451199604638 0.559685160271491 0.44031483972850904 </TABLE>
</DEFINITION>

<DEFINITION>
	<FOR>hh050</FOR>
	<GIVEN>variable69</GIVEN>
	<GIVEN>variable11</GIVEN>
	<TABLE>0.7896449815858462 0.2103550184141538 0.04638747524644616 0.9536125247535538 0.24311616982798748 0.7568838301720124 0.995973687426555 0.004026312573444893 0.6604573110893788 0.3395426889106211 0.9646764096547848 0.03532359034521509 </TABLE>
</DEFINITION>

<DEFINITION>
	<FOR>h79_u</FOR>
	<GIVEN>variable11</GIVEN>
	<TABLE>0.004053150231561282 0.9959468497684387 0.6276932529618066 0.3723067470381934 0.019622758142027755 0.9803772418579723 </TABLE>
</DEFINITION>

<DEFINITION>
	<FOR>h80_u</FOR>
	<GIVEN>variable11</GIVEN>
	<TABLE>7.579960268157646E-4 0.9992420039731843 0.2844213371871302 0.7155786628128699 0.004168063285406832 0.9958319367145932 </TABLE>
</DEFINITION>

<DEFINITION>
	<FOR>variable69</FOR>
	<TABLE>0.1525108035604535 0.8474891964395465 </TABLE>
</DEFINITION>

<DEFINITION>
	<FOR>variable145</FOR>
	<TABLE>0.23009951354079836 0.7699004864592016 </TABLE>
</DEFINITION>

<DEFINITION>
	<FOR>variable11</FOR>
	<TABLE>0.7390007815613363 0.0956790858006578 0.16532013263800585 </TABLE>
</DEFINITION>


</NETWORK>
</BIF>
