<?xml version="1.0" encoding="US-ASCII"?>


<!--
	Bayesian network in XMLBIF v0.3 (BayesNet Interchange Format)
	Produced by JavaBayes (http://www.cs.cmu.edu/~javabayes/
	Output created Wed May 16 11:54:09 CEST 2018
-->



<!-- DTD for the XMLBIF 0.3 format -->
<!DOCTYPE BIF [
	<!ELEMENT BIF ( NETWORK )*>
	      <!ATTLIST BIF VERSION CDATA #REQUIRED>
	<!ELEMENT NETWORK ( NAME, ( PROPERTY | VARIABLE | DEFINITION )* )>
	<!ELEMENT NAME (#PCDATA)>
	<!ELEMENT VARIABLE ( NAME, ( OUTCOME |  PROPERTY )* ) >
	      <!ATTLIST VARIABLE TYPE (nature|decision|utility) "nature">
	<!ELEMENT OUTCOME (#PCDATA)>
	<!ELEMENT DEFINITION ( FOR | GIVEN | TABLE | PROPERTY )* >
	<!ELEMENT FOR (#PCDATA)>
	<!ELEMENT GIVEN (#PCDATA)>
	<!ELEMENT TABLE (#PCDATA)>
	<!ELEMENT PROPERTY (#PCDATA)>
]>


<BIF VERSION="0.3">
<NETWORK>
<NAME>olcm_olcm10MVs_train_5000</NAME>

<!-- Variables -->
<VARIABLE TYPE="nature">
	<NAME>hs160</NAME>
	<OUTCOME>1</OUTCOME>
	<OUTCOME>2</OUTCOME>
	<PROPERTY>position = (100, 100)</PROPERTY>
</VARIABLE>

<VARIABLE TYPE="nature">
	<NAME>hs170</NAME>
	<OUTCOME>1</OUTCOME>
	<OUTCOME>2</OUTCOME>
	<PROPERTY>position = (100, 100)</PROPERTY>
</VARIABLE>

<VARIABLE TYPE="nature">
	<NAME>hs180</NAME>
	<OUTCOME>1</OUTCOME>
	<OUTCOME>2</OUTCOME>
	<PROPERTY>position = (100, 100)</PROPERTY>
</VARIABLE>

<VARIABLE TYPE="nature">
	<NAME>hs190</NAME>
	<OUTCOME>1</OUTCOME>
	<OUTCOME>2</OUTCOME>
	<PROPERTY>position = (100, 100)</PROPERTY>
</VARIABLE>

<VARIABLE TYPE="nature">
	<NAME>hh040</NAME>
	<OUTCOME>1</OUTCOME>
	<OUTCOME>2</OUTCOME>
	<PROPERTY>position = (100, 100)</PROPERTY>
</VARIABLE>

<VARIABLE TYPE="nature">
	<NAME>hs050</NAME>
	<OUTCOME>1</OUTCOME>
	<OUTCOME>2</OUTCOME>
	<PROPERTY>position = (100, 100)</PROPERTY>
</VARIABLE>

<VARIABLE TYPE="nature">
	<NAME>hs060</NAME>
	<OUTCOME>1</OUTCOME>
	<OUTCOME>2</OUTCOME>
	<PROPERTY>position = (100, 100)</PROPERTY>
</VARIABLE>

<VARIABLE TYPE="nature">
	<NAME>hh050</NAME>
	<OUTCOME>1</OUTCOME>
	<OUTCOME>2</OUTCOME>
	<PROPERTY>position = (100, 100)</PROPERTY>
</VARIABLE>

<VARIABLE TYPE="nature">
	<NAME>h79_u</NAME>
	<OUTCOME>1</OUTCOME>
	<OUTCOME>2</OUTCOME>
	<PROPERTY>position = (100, 100)</PROPERTY>
</VARIABLE>

<VARIABLE TYPE="nature">
	<NAME>h80_u</NAME>
	<OUTCOME>1</OUTCOME>
	<OUTCOME>2</OUTCOME>
	<PROPERTY>position = (100, 100)</PROPERTY>
</VARIABLE>

<VARIABLE TYPE="nature">
	<NAME>variable81</NAME>
	<OUTCOME>state0</OUTCOME>
	<OUTCOME>state1</OUTCOME>
	<PROPERTY>position = (100, 100)</PROPERTY>
</VARIABLE>

<VARIABLE TYPE="nature">
	<NAME>variable260</NAME>
	<OUTCOME>state0</OUTCOME>
	<OUTCOME>state1</OUTCOME>
	<PROPERTY>position = (100, 100)</PROPERTY>
</VARIABLE>

<VARIABLE TYPE="nature">
	<NAME>variable304</NAME>
	<OUTCOME>state0</OUTCOME>
	<OUTCOME>state1</OUTCOME>
	<PROPERTY>position = (100, 100)</PROPERTY>
</VARIABLE>


<!-- Probability distributions -->
<DEFINITION>
	<FOR>hs160</FOR>
	<GIVEN>variable81</GIVEN>
	<GIVEN>variable304</GIVEN>
	<TABLE>0.28523441660391635 0.7147655833960836 0.08755683452244813 0.9124431654775519 0.134092445573983 0.8659075544260171 0.013330544111577596 0.9866694558884224 </TABLE>
</DEFINITION>

<DEFINITION>
	<FOR>hs170</FOR>
	<GIVEN>variable81</GIVEN>
	<GIVEN>variable304</GIVEN>
	<TABLE>0.804809580545256 0.19519041945474405 0.1729461419777189 0.827053858022281 0.5619633163431407 0.4380366836568593 0.043904815267302895 0.9560951847326972 </TABLE>
</DEFINITION>

<DEFINITION>
	<FOR>hs180</FOR>
	<GIVEN>variable81</GIVEN>
	<GIVEN>variable304</GIVEN>
	<TABLE>0.779978219981103 0.22002178001889708 0.05147315094027894 0.9485268490597211 0.3798853239845729 0.6201146760154271 0.019442458613070562 0.9805575413869295 </TABLE>
</DEFINITION>

<DEFINITION>
	<FOR>hs190</FOR>
	<GIVEN>variable81</GIVEN>
	<GIVEN>variable304</GIVEN>
	<TABLE>0.7014982781051363 0.2985017218948636 0.1224581931449516 0.8775418068550485 0.3155939914982976 0.6844060085017024 0.049157028598723125 0.9508429714012768 </TABLE>
</DEFINITION>

<DEFINITION>
	<FOR>hh040</FOR>
	<GIVEN>variable81</GIVEN>
	<GIVEN>variable304</GIVEN>
	<GIVEN>variable260</GIVEN>
	<TABLE>0.39883928287910775 0.6011607171208923 0.6032969646098891 0.3967030353901108 0.24675647323981315 0.7532435267601869 0.24475324491050685 0.7552467550894931 0.46425268565733147 0.5357473143426684 0.24860587371746448 0.7513941262825357 0.22240239404554124 0.7775976059544588 0.06357035987389675 0.9364296401261033 </TABLE>
</DEFINITION>

<DEFINITION>
	<FOR>hs050</FOR>
	<GIVEN>variable81</GIVEN>
	<GIVEN>variable260</GIVEN>
	<TABLE>0.11865358434177543 0.8813464156582246 0.9696149806783033 0.030385019321696675 0.9582815185195871 0.04171848148041299 0.9993322975989133 6.677024010867883E-4 </TABLE>
</DEFINITION>

<DEFINITION>
	<FOR>hs060</FOR>
	<GIVEN>variable81</GIVEN>
	<GIVEN>variable260</GIVEN>
	<TABLE>0.06176391913168147 0.9382360808683184 0.06450701257030751 0.9354929874296926 0.29711840710669035 0.7028815928933095 0.8292271148371932 0.17077288516280673 </TABLE>
</DEFINITION>

<DEFINITION>
	<FOR>hh050</FOR>
	<GIVEN>variable81</GIVEN>
	<GIVEN>variable260</GIVEN>
	<TABLE>0.06887064511065129 0.9311293548893487 0.6884909817142183 0.31150901828578165 0.7290964101725174 0.2709035898274827 0.9954836635734409 0.004516336426559076 </TABLE>
</DEFINITION>

<DEFINITION>
	<FOR>h79_u</FOR>
	<GIVEN>variable81</GIVEN>
	<TABLE>0.5626801120889403 0.4373198879110596 0.004723078159971168 0.9952769218400288 </TABLE>
</DEFINITION>

<DEFINITION>
	<FOR>h80_u</FOR>
	<GIVEN>variable81</GIVEN>
	<TABLE>0.28354488178321025 0.7164551182167898 3.281185423510991E-4 0.999671881457649 </TABLE>
</DEFINITION>

<DEFINITION>
	<FOR>variable81</FOR>
	<TABLE>0.10240698300685326 0.8975930169931468 </TABLE>
</DEFINITION>

<DEFINITION>
	<FOR>variable260</FOR>
	<TABLE>0.17793321213109267 0.8220667878689074 </TABLE>
</DEFINITION>

<DEFINITION>
	<FOR>variable304</FOR>
	<TABLE>0.17700001604477217 0.8229999839552279 </TABLE>
</DEFINITION>


</NETWORK>
</BIF>
