<?xml version="1.0" encoding="US-ASCII"?>


<!--
	Bayesian network in XMLBIF v0.3 (BayesNet Interchange Format)
	Produced by JavaBayes (http://www.cs.cmu.edu/~javabayes/
	Output created Wed May 16 11:54:40 CEST 2018
-->



<!-- DTD for the XMLBIF 0.3 format -->
<!DOCTYPE BIF [
	<!ELEMENT BIF ( NETWORK )*>
	      <!ATTLIST BIF VERSION CDATA #REQUIRED>
	<!ELEMENT NETWORK ( NAME, ( PROPERTY | VARIABLE | DEFINITION )* )>
	<!ELEMENT NAME (#PCDATA)>
	<!ELEMENT VARIABLE ( NAME, ( OUTCOME |  PROPERTY )* ) >
	      <!ATTLIST VARIABLE TYPE (nature|decision|utility) "nature">
	<!ELEMENT OUTCOME (#PCDATA)>
	<!ELEMENT DEFINITION ( FOR | GIVEN | TABLE | PROPERTY )* >
	<!ELEMENT FOR (#PCDATA)>
	<!ELEMENT GIVEN (#PCDATA)>
	<!ELEMENT TABLE (#PCDATA)>
	<!ELEMENT PROPERTY (#PCDATA)>
]>


<BIF VERSION="0.3">
<NETWORK>
<NAME>olcm_parkinson_10_learn</NAME>

<!-- Variables -->
<VARIABLE TYPE="nature">
	<NAME>scm19dsv</NAME>
	<OUTCOME>0</OUTCOME>
	<OUTCOME>1</OUTCOME>
	<OUTCOME>2</OUTCOME>
	<OUTCOME>3</OUTCOME>
	<PROPERTY>position = (100, 100)</PROPERTY>
</VARIABLE>

<VARIABLE TYPE="nature">
	<NAME>scm18dpr</NAME>
	<OUTCOME>0</OUTCOME>
	<OUTCOME>1</OUTCOME>
	<OUTCOME>2</OUTCOME>
	<OUTCOME>3</OUTCOME>
	<PROPERTY>position = (100, 100)</PROPERTY>
</VARIABLE>

<VARIABLE TYPE="nature">
	<NAME>scm11spe</NAME>
	<OUTCOME>0</OUTCOME>
	<OUTCOME>1</OUTCOME>
	<OUTCOME>2</OUTCOME>
	<OUTCOME>3</OUTCOME>
	<PROPERTY>position = (100, 100)</PROPERTY>
</VARIABLE>

<VARIABLE TYPE="nature">
	<NAME>scm8spee</NAME>
	<OUTCOME>0</OUTCOME>
	<OUTCOME>1</OUTCOME>
	<OUTCOME>2</OUTCOME>
	<OUTCOME>3</OUTCOME>
	<PROPERTY>position = (100, 100)</PROPERTY>
</VARIABLE>

<VARIABLE TYPE="nature">
	<NAME>scm1lue</NAME>
	<OUTCOME>0</OUTCOME>
	<OUTCOME>1</OUTCOME>
	<OUTCOME>2</OUTCOME>
	<OUTCOME>3</OUTCOME>
	<PROPERTY>position = (100, 100)</PROPERTY>
</VARIABLE>

<VARIABLE TYPE="nature">
	<NAME>scm1rue</NAME>
	<OUTCOME>0</OUTCOME>
	<OUTCOME>1</OUTCOME>
	<OUTCOME>2</OUTCOME>
	<OUTCOME>3</OUTCOME>
	<PROPERTY>position = (100, 100)</PROPERTY>
</VARIABLE>

<VARIABLE TYPE="nature">
	<NAME>scm2rue</NAME>
	<OUTCOME>0</OUTCOME>
	<OUTCOME>1</OUTCOME>
	<OUTCOME>2</OUTCOME>
	<OUTCOME>3</OUTCOME>
	<PROPERTY>position = (100, 100)</PROPERTY>
</VARIABLE>

<VARIABLE TYPE="nature">
	<NAME>scm5rise</NAME>
	<OUTCOME>0</OUTCOME>
	<OUTCOME>1</OUTCOME>
	<OUTCOME>2</OUTCOME>
	<OUTCOME>3</OUTCOME>
	<PROPERTY>position = (100, 100)</PROPERTY>
</VARIABLE>

<VARIABLE TYPE="nature">
	<NAME>scm6post</NAME>
	<OUTCOME>0</OUTCOME>
	<OUTCOME>1</OUTCOME>
	<OUTCOME>2</OUTCOME>
	<OUTCOME>3</OUTCOME>
	<PROPERTY>position = (100, 100)</PROPERTY>
</VARIABLE>

<VARIABLE TYPE="nature">
	<NAME>scm7gait</NAME>
	<OUTCOME>0</OUTCOME>
	<OUTCOME>1</OUTCOME>
	<OUTCOME>2</OUTCOME>
	<OUTCOME>3</OUTCOME>
	<PROPERTY>position = (100, 100)</PROPERTY>
</VARIABLE>

<VARIABLE TYPE="nature">
	<NAME>variable284</NAME>
	<OUTCOME>state0</OUTCOME>
	<OUTCOME>state1</OUTCOME>
	<OUTCOME>state2</OUTCOME>
	<OUTCOME>state3</OUTCOME>
	<PROPERTY>position = (100, 100)</PROPERTY>
</VARIABLE>

<VARIABLE TYPE="nature">
	<NAME>variable126</NAME>
	<OUTCOME>state0</OUTCOME>
	<OUTCOME>state1</OUTCOME>
	<OUTCOME>state2</OUTCOME>
	<PROPERTY>position = (100, 100)</PROPERTY>
</VARIABLE>

<VARIABLE TYPE="nature">
	<NAME>variable205</NAME>
	<OUTCOME>state0</OUTCOME>
	<OUTCOME>state1</OUTCOME>
	<OUTCOME>state2</OUTCOME>
	<PROPERTY>position = (100, 100)</PROPERTY>
</VARIABLE>

<VARIABLE TYPE="nature">
	<NAME>variable71</NAME>
	<OUTCOME>state0</OUTCOME>
	<OUTCOME>state1</OUTCOME>
	<OUTCOME>state2</OUTCOME>
	<PROPERTY>position = (100, 100)</PROPERTY>
</VARIABLE>


<!-- Probability distributions -->
<DEFINITION>
	<FOR>scm19dsv</FOR>
	<GIVEN>variable71</GIVEN>
	<TABLE>0.9900176346250922 0.003988855594640646 0.003013383800843519 0.0029801259794235693 0.015732173979967845 0.09886867343217898 0.5850182741413763 0.3003808784464768 0.021210786163224412 0.8020387094869577 0.1598029592602296 0.016947545089588362 </TABLE>
</DEFINITION>

<DEFINITION>
	<FOR>scm18dpr</FOR>
	<GIVEN>variable71</GIVEN>
	<TABLE>0.9790713127328239 0.013032457003209118 0.002370955391640612 0.005525274872326439 0.015429313383654178 0.07193348676612721 0.6043177186414999 0.30831948120871866 0.009726632661993589 0.8453948669114296 0.1122691039617682 0.03260939646480855 </TABLE>
</DEFINITION>

<DEFINITION>
	<FOR>scm11spe</FOR>
	<GIVEN>variable126</GIVEN>
	<TABLE>0.05496097929456478 0.9018600264430046 0.0408119233488491 0.002367070913581621 0.016570183089629136 0.03579622119151181 0.830187672956853 0.117445922762006 0.9248945382915519 0.06486450547792404 0.006219944264919838 0.004021011965604133 </TABLE>
</DEFINITION>

<DEFINITION>
	<FOR>scm8spee</FOR>
	<GIVEN>variable126</GIVEN>
	<TABLE>0.029183352866188225 0.9042963844527709 0.06458233201746325 0.0019379306635777004 0.01417578369529774 0.05115328531073789 0.7543324766433344 0.18033845435063006 0.7568366357125133 0.23283705533357332 0.006768450758056189 0.0035578581958572663 </TABLE>
</DEFINITION>

<DEFINITION>
	<FOR>scm1lue</FOR>
	<GIVEN>variable205</GIVEN>
	<TABLE>0.32420936696716834 0.485028923351814 0.1602314771042085 0.030530232576809153 0.20024338434766453 0.26377816147927435 0.3404145553665726 0.1955638988064885 0.7470378943889634 0.16410849742659175 0.07465710993783246 0.014196498246612477 </TABLE>
</DEFINITION>

<DEFINITION>
	<FOR>scm1rue</FOR>
	<GIVEN>variable205</GIVEN>
	<TABLE>0.03878629431612415 0.7059095872703802 0.2433280287457459 0.011976089667749672 0.01370320789996782 0.026797350932289417 0.5918222469044093 0.3676771942633334 0.9103601560023781 0.07069807710265631 0.01728534670499516 0.0016564201899704216 </TABLE>
</DEFINITION>

<DEFINITION>
	<FOR>scm2rue</FOR>
	<GIVEN>variable205</GIVEN>
	<TABLE>0.12727460953406072 0.7747721654422048 0.09517284541147672 0.0027803796122577136 0.05267602918951211 0.11684689812337581 0.6160539089761502 0.214423163710962 0.8499751277123238 0.13912545836532633 0.00805081484013295 0.002848599082216974 </TABLE>
</DEFINITION>

<DEFINITION>
	<FOR>scm5rise</FOR>
	<GIVEN>variable284</GIVEN>
	<TABLE>0.08099145945997416 0.20127784180572758 0.6534003650482404 0.06433033368605784 0.035146015121344854 0.02934428401646084 0.07825481650024975 0.8572548843619446 0.9386834122120149 0.04256455902130264 0.014024525008778954 0.0047275037579034415 0.260073112582798 0.6752835260225143 0.06031818451221098 0.00432517688247656 </TABLE>
</DEFINITION>

<DEFINITION>
	<FOR>scm6post</FOR>
	<GIVEN>variable284</GIVEN>
	<TABLE>0.05409937838906631 0.13959433881111794 0.7570789778258515 0.04922730497396432 0.012759857830675776 0.02585568515665393 0.25323002234893266 0.7081544346637376 0.9015521418556158 0.07194537016652483 0.022873649137817465 0.0036288388400418656 0.3034766844941378 0.5814647040771709 0.11138684567095322 0.0036717657577381452 </TABLE>
</DEFINITION>

<DEFINITION>
	<FOR>scm7gait</FOR>
	<GIVEN>variable284</GIVEN>
	<TABLE>0.018531642149436305 0.06546896104843293 0.909388469114785 0.006610927687345898 0.009055575726765339 0.04799391422901113 0.3797506433446207 0.5631998666996028 0.5906250293627162 0.394925781371348 0.01237449984258848 0.0020746894233475734 0.04560107679935757 0.8393584375202198 0.10885524475973235 0.006185240920690251 </TABLE>
</DEFINITION>

<DEFINITION>
	<FOR>variable284</FOR>
	<TABLE>0.13174933366943414 0.04946946728974599 0.4303573724451847 0.38842382659563524 </TABLE>
</DEFINITION>

<DEFINITION>
	<FOR>variable126</FOR>
	<TABLE>0.5052786262093425 0.12633802820476633 0.36838334558589125 </TABLE>
</DEFINITION>

<DEFINITION>
	<FOR>variable205</FOR>
	<TABLE>0.32780534689850155 0.10410901964457661 0.5680856334569218 </TABLE>
</DEFINITION>

<DEFINITION>
	<FOR>variable71</FOR>
	<TABLE>0.6358937932916741 0.12178001483823749 0.2423261918700885 </TABLE>
</DEFINITION>


</NETWORK>
</BIF>
