<?xml version="1.0" encoding="US-ASCII"?>


<!--
	Bayesian network in XMLBIF v0.3 (BayesNet Interchange Format)
	Produced by JavaBayes (http://www.cs.cmu.edu/~javabayes/
	Output created Wed May 16 11:54:25 CEST 2018
-->



<!-- DTD for the XMLBIF 0.3 format -->
<!DOCTYPE BIF [
	<!ELEMENT BIF ( NETWORK )*>
	      <!ATTLIST BIF VERSION CDATA #REQUIRED>
	<!ELEMENT NETWORK ( NAME, ( PROPERTY | VARIABLE | DEFINITION )* )>
	<!ELEMENT NAME (#PCDATA)>
	<!ELEMENT VARIABLE ( NAME, ( OUTCOME |  PROPERTY )* ) >
	      <!ATTLIST VARIABLE TYPE (nature|decision|utility) "nature">
	<!ELEMENT OUTCOME (#PCDATA)>
	<!ELEMENT DEFINITION ( FOR | GIVEN | TABLE | PROPERTY )* >
	<!ELEMENT FOR (#PCDATA)>
	<!ELEMENT GIVEN (#PCDATA)>
	<!ELEMENT TABLE (#PCDATA)>
	<!ELEMENT PROPERTY (#PCDATA)>
]>


<BIF VERSION="0.3">
<NETWORK>
<NAME>olcm_olcm_15MVs_egypt_train_5000</NAME>

<!-- Variables -->
<VARIABLE TYPE="nature">
	<NAME>bank</NAME>
	<OUTCOME>1</OUTCOME>
	<OUTCOME>2</OUTCOME>
	<PROPERTY>position = (100, 100)</PROPERTY>
</VARIABLE>

<VARIABLE TYPE="nature">
	<NAME>other</NAME>
	<OUTCOME>1</OUTCOME>
	<OUTCOME>2</OUTCOME>
	<PROPERTY>position = (100, 100)</PROPERTY>
</VARIABLE>

<VARIABLE TYPE="nature">
	<NAME>nonbank</NAME>
	<OUTCOME>1</OUTCOME>
	<OUTCOME>2</OUTCOME>
	<PROPERTY>position = (100, 100)</PROPERTY>
</VARIABLE>

<VARIABLE TYPE="nature">
	<NAME>k15d</NAME>
	<OUTCOME>1</OUTCOME>
	<OUTCOME>2</OUTCOME>
	<PROPERTY>position = (100, 100)</PROPERTY>
</VARIABLE>

<VARIABLE TYPE="nature">
	<NAME>h1</NAME>
	<OUTCOME>1</OUTCOME>
	<OUTCOME>2</OUTCOME>
	<PROPERTY>position = (100, 100)</PROPERTY>
</VARIABLE>

<VARIABLE TYPE="nature">
	<NAME>h5</NAME>
	<OUTCOME>1</OUTCOME>
	<OUTCOME>2</OUTCOME>
	<PROPERTY>position = (100, 100)</PROPERTY>
</VARIABLE>

<VARIABLE TYPE="nature">
	<NAME>h3</NAME>
	<OUTCOME>1</OUTCOME>
	<OUTCOME>2</OUTCOME>
	<PROPERTY>position = (100, 100)</PROPERTY>
</VARIABLE>

<VARIABLE TYPE="nature">
	<NAME>mnaf3</NAME>
	<OUTCOME>1</OUTCOME>
	<OUTCOME>2</OUTCOME>
	<PROPERTY>position = (100, 100)</PROPERTY>
</VARIABLE>

<VARIABLE TYPE="nature">
	<NAME>mnaq53</NAME>
	<OUTCOME>1</OUTCOME>
	<OUTCOME>2</OUTCOME>
	<PROPERTY>position = (100, 100)</PROPERTY>
</VARIABLE>

<VARIABLE TYPE="nature">
	<NAME>e6</NAME>
	<OUTCOME>1</OUTCOME>
	<OUTCOME>2</OUTCOME>
	<PROPERTY>position = (100, 100)</PROPERTY>
</VARIABLE>

<VARIABLE TYPE="nature">
	<NAME>j30c</NAME>
	<OUTCOME>1</OUTCOME>
	<OUTCOME>2</OUTCOME>
	<OUTCOME>3</OUTCOME>
	<OUTCOME>4</OUTCOME>
	<OUTCOME>5</OUTCOME>
	<PROPERTY>position = (100, 100)</PROPERTY>
</VARIABLE>

<VARIABLE TYPE="nature">
	<NAME>d30b</NAME>
	<OUTCOME>1</OUTCOME>
	<OUTCOME>2</OUTCOME>
	<OUTCOME>3</OUTCOME>
	<OUTCOME>4</OUTCOME>
	<OUTCOME>5</OUTCOME>
	<PROPERTY>position = (100, 100)</PROPERTY>
</VARIABLE>

<VARIABLE TYPE="nature">
	<NAME>d30a</NAME>
	<OUTCOME>1</OUTCOME>
	<OUTCOME>2</OUTCOME>
	<OUTCOME>3</OUTCOME>
	<OUTCOME>4</OUTCOME>
	<OUTCOME>5</OUTCOME>
	<PROPERTY>position = (100, 100)</PROPERTY>
</VARIABLE>

<VARIABLE TYPE="nature">
	<NAME>l30a</NAME>
	<OUTCOME>1</OUTCOME>
	<OUTCOME>2</OUTCOME>
	<OUTCOME>3</OUTCOME>
	<OUTCOME>4</OUTCOME>
	<OUTCOME>5</OUTCOME>
	<PROPERTY>position = (100, 100)</PROPERTY>
</VARIABLE>

<VARIABLE TYPE="nature">
	<NAME>l30b</NAME>
	<OUTCOME>1</OUTCOME>
	<OUTCOME>2</OUTCOME>
	<OUTCOME>3</OUTCOME>
	<OUTCOME>4</OUTCOME>
	<OUTCOME>5</OUTCOME>
	<PROPERTY>position = (100, 100)</PROPERTY>
</VARIABLE>

<VARIABLE TYPE="nature">
	<NAME>variable1797</NAME>
	<OUTCOME>state0</OUTCOME>
	<OUTCOME>state1</OUTCOME>
	<PROPERTY>position = (100, 100)</PROPERTY>
</VARIABLE>

<VARIABLE TYPE="nature">
	<NAME>variable686</NAME>
	<OUTCOME>state0</OUTCOME>
	<OUTCOME>state1</OUTCOME>
	<PROPERTY>position = (100, 100)</PROPERTY>
</VARIABLE>

<VARIABLE TYPE="nature">
	<NAME>variable859</NAME>
	<OUTCOME>state0</OUTCOME>
	<OUTCOME>state1</OUTCOME>
	<OUTCOME>state2</OUTCOME>
	<OUTCOME>state3</OUTCOME>
	<PROPERTY>position = (100, 100)</PROPERTY>
</VARIABLE>


<!-- Probability distributions -->
<DEFINITION>
	<FOR>bank</FOR>
	<GIVEN>variable686</GIVEN>
	<GIVEN>variable1797</GIVEN>
	<TABLE>0.9845448652573014 0.015455134742698573 0.978041134228288 0.021958865771711994 0.039318719481733995 0.960681280518266 0.36580298970513064 0.6341970102948693 </TABLE>
</DEFINITION>

<DEFINITION>
	<FOR>other</FOR>
	<GIVEN>variable686</GIVEN>
	<GIVEN>variable859</GIVEN>
	<TABLE>0.8251674862021526 0.17483251379784728 0.8473108825051896 0.15268911749481037 0.9880111352512783 0.011988864748721698 0.7181412124027355 0.28185878759726446 0.1490486480873192 0.8509513519126808 0.038293640952426475 0.9617063590475736 0.07689881693644042 0.9231011830635595 0.03635877567468673 0.9636412243253133 </TABLE>
</DEFINITION>

<DEFINITION>
	<FOR>nonbank</FOR>
	<GIVEN>variable686</GIVEN>
	<TABLE>0.9601565863458249 0.03984341365417515 0.006949922466801977 0.993050077533198 </TABLE>
</DEFINITION>

<DEFINITION>
	<FOR>k15d</FOR>
	<GIVEN>variable1797</GIVEN>
	<TABLE>0.020370880610664367 0.9796291193893355 0.20428949770492544 0.7957105022950746 </TABLE>
</DEFINITION>

<DEFINITION>
	<FOR>h1</FOR>
	<GIVEN>variable1797</GIVEN>
	<GIVEN>variable859</GIVEN>
	<TABLE>0.06973971106635578 0.9302602889336442 0.5110488942292525 0.4889511057707475 0.09793170459331274 0.9020682954066873 0.021355333949759896 0.9786446660502401 0.48734557915486604 0.512654420845134 0.8991004149772965 0.10089958502270342 0.6372290340398415 0.36277096596015845 0.2820843635577235 0.7179156364422765 </TABLE>
</DEFINITION>

<DEFINITION>
	<FOR>h5</FOR>
	<GIVEN>variable1797</GIVEN>
	<GIVEN>variable859</GIVEN>
	<TABLE>0.044677919177874705 0.9553220808221253 0.19685954729080168 0.8031404527091982 0.06303572727631905 0.9369642727236809 0.005936604194496331 0.9940633958055037 0.4277667523027208 0.5722332476972791 0.5174476821110217 0.48255231788897823 0.28370748901259824 0.7162925109874019 0.10551761876744017 0.8944823812325599 </TABLE>
</DEFINITION>

<DEFINITION>
	<FOR>h3</FOR>
	<GIVEN>variable1797</GIVEN>
	<GIVEN>variable859</GIVEN>
	<TABLE>0.017346116637471324 0.9826538833625286 0.48010435658229456 0.5198956434177054 0.05310509561006177 0.9468949043899382 0.0255736937000703 0.9744263062999297 0.48586943207701244 0.5141305679229875 0.8816770999140213 0.11832290008597865 0.4539980144936014 0.5460019855063986 0.08647540446378904 0.9135245955362109 </TABLE>
</DEFINITION>

<DEFINITION>
	<FOR>mnaf3</FOR>
	<GIVEN>variable859</GIVEN>
	<TABLE>0.88810561894116 0.11189438105884005 0.8861097517644567 0.11389024823554332 0.7451743235618162 0.25482567643818377 0.39054595228806877 0.6094540477119312 </TABLE>
</DEFINITION>

<DEFINITION>
	<FOR>mnaq53</FOR>
	<GIVEN>variable1797</GIVEN>
	<TABLE>0.020790263476157735 0.9792097365238422 0.1356386304240323 0.8643613695759677 </TABLE>
</DEFINITION>

<DEFINITION>
	<FOR>e6</FOR>
	<GIVEN>variable1797</GIVEN>
	<TABLE>0.03294421648389357 0.9670557835161065 0.29402227830303523 0.7059777216969647 </TABLE>
</DEFINITION>

<DEFINITION>
	<FOR>j30c</FOR>
	<GIVEN>variable859</GIVEN>
	<TABLE>0.18698201094565298 0.3799290764825137 0.3382323334559624 0.06955054180456252 0.02530603731130849 0.4414642054735235 0.04528291242092514 0.16697787067408423 0.1504553465701439 0.1958196648613232 0.8214787719526687 0.07245690382600642 0.048438345248531196 0.03771328449463367 0.019912694478160145 0.16089301493202945 0.057280615879032486 0.06112566092241396 0.6412432271674171 0.07945748109910702 </TABLE>
</DEFINITION>

<DEFINITION>
	<FOR>d30b</FOR>
	<GIVEN>variable859</GIVEN>
	<TABLE>0.3482478150807856 0.2968445154607192 0.24683520376947793 0.10085611450725614 0.007216351181761194 0.546392067330131 0.05818494433990363 0.145487241471787 0.13062546852832857 0.11931027832984982 0.9050480627186791 0.05048116843393604 0.019958412379454896 0.011543908247392737 0.012968448220537127 0.8267243921671243 0.02210435884771193 0.03896520567795208 0.08350024463652787 0.028705798670683753 </TABLE>
</DEFINITION>

<DEFINITION>
	<FOR>d30a</FOR>
	<GIVEN>variable859</GIVEN>
	<TABLE>0.1812270206686423 0.3432768919043654 0.29648586700419594 0.15893479292623328 0.020075427496563172 0.23884894101216705 0.13651535744737828 0.1585956885524066 0.2743612487060662 0.191678764281982 0.7702011578438506 0.09340915188216603 0.0865521962804625 0.030028913680329252 0.019808580313191725 0.8360477982933904 0.00850134928975785 0.049897779074469996 0.08279959740182084 0.022753475940560867 </TABLE>
</DEFINITION>

<DEFINITION>
	<FOR>l30a</FOR>
	<GIVEN>variable859</GIVEN>
	<TABLE>0.20411222411068924 0.2948572451874876 0.40806605711775984 0.07724724922803503 0.0157172243560281 0.3925169975268667 0.08769296045351307 0.2236594002787728 0.14351734484827294 0.15261329689257452 0.9424360569026157 0.034804927437115996 0.005639357930091565 0.003373631372067716 0.013746026358109007 0.1413975319337266 0.05423659682320942 0.10923329558554298 0.6187850128606033 0.07634756279691776 </TABLE>
</DEFINITION>

<DEFINITION>
	<FOR>l30b</FOR>
	<GIVEN>variable859</GIVEN>
	<TABLE>0.2827687336198314 0.41690985667318686 0.22845242657560763 0.05941028261229349 0.012458700519080518 0.36993271275516204 0.06504125614188494 0.19804121703229793 0.17536998726045322 0.19161482681020187 0.8818682168478934 0.05989914107781207 0.029484301463481292 0.024935608967001643 0.003812731643811532 0.6086137276447015 0.07125232499869104 0.1277971064596649 0.16877644502239042 0.023560395874552196 </TABLE>
</DEFINITION>

<DEFINITION>
	<FOR>variable1797</FOR>
	<TABLE>0.8522978623836174 0.14770213761638268 </TABLE>
</DEFINITION>

<DEFINITION>
	<FOR>variable686</FOR>
	<TABLE>0.08206256858217417 0.9179374314178259 </TABLE>
</DEFINITION>

<DEFINITION>
	<FOR>variable859</FOR>
	<TABLE>0.23365072843792994 0.19083423626932786 0.47889395137894825 0.09662108391379377 </TABLE>
</DEFINITION>


</NETWORK>
</BIF>
