network olcm - olcm_15MVs_parkinson_train_5000 {
}

variable scm1lue {
	type discrete[4] { 0, 1, 2, 3 };
}

variable scm1rue {
	type discrete[4] { 0, 1, 2, 3 };
}

variable scm2lue {
	type discrete[4] { 0, 1, 2, 3 };
}

variable scm2rue {
	type discrete[4] { 0, 1, 2, 3 };
}

variable scm5rise {
	type discrete[4] { 0, 1, 2, 3 };
}

variable scm6post {
	type discrete[4] { 0, 1, 2, 3 };
}

variable scm7gait {
	type discrete[4] { 0, 1, 2, 3 };
}

variable scm16wal {
	type discrete[4] { 0, 1, 2, 3 };
}

variable scm11spe {
	type discrete[4] { 0, 1, 2, 3 };
}

variable scm10swa {
	type discrete[4] { 0, 1, 2, 3 };
}

variable scm8spee {
	type discrete[4] { 0, 1, 2, 3 };
}

variable scm14hyg {
	type discrete[4] { 0, 1, 2, 3 };
}

variable scm21fsv {
	type discrete[4] { 0, 1, 2, 3 };
}

variable scm18dpr {
	type discrete[4] { 0, 1, 2, 3 };
}

variable scm19dsv {
	type discrete[4] { 0, 1, 2, 3 };
}

variable variable2884 {
	type discrete[3] { state0, state1, state2 };
}

variable variable3468 {
	type discrete[4] { state0, state1, state2, state3 };
}

variable variable2799 {
	type discrete[3] { state0, state1, state2 };
}

variable variable3023 {
	type discrete[5] { state0, state1, state2, state3, state4 };
}

probability ( scm1lue | variable3023 ) {
	(state0) 0.05305612559876871, 0.03933084466842013, 0.6300007785665771, 0.277612251166234;
	(state1) 0.8341250700252765, 0.12559357480467911, 0.03851964282001003, 0.001761712350034558;
	(state2) 0.110261321986635, 0.6933326420738295, 0.16695186052606042, 0.029454175413475104;
	(state3) 0.8120935651067187, 0.15660940616835006, 0.024759653149629864, 0.0065373755753013515;
	(state4) 0.41951576861324447, 0.3939085561453239, 0.1701140664693699, 0.016461608772061664;
}

probability ( scm1rue | variable3023 ) {
	(state0) 0.12418002115635515, 0.1538790148583739, 0.4638119176030277, 0.25812904638224315;
	(state1) 0.8272632634145369, 0.12952927892916336, 0.04027716558313571, 0.0029302920731639585;
	(state2) 0.016925115694295476, 0.6807997866422177, 0.28406572876661274, 0.018209368896873926;
	(state3) 0.03561920753321614, 0.46325838460578955, 0.38550317470237544, 0.11561923315861881;
	(state4) 0.8509286022537166, 0.12117221968690772, 0.020211436377205905, 0.007687741682169936;
}

probability ( scm2lue | variable3023 ) {
	(state0) 0.016670544082319244, 0.16602382075844266, 0.6511657977896252, 0.16613983736961285;
	(state1) 0.9681835024458945, 0.020969425198631694, 0.007746595835843563, 0.003100476519630217;
	(state2) 0.047696151775556535, 0.8565002845498021, 0.08364578498028316, 0.01215777869435809;
	(state3) 0.8606300835344899, 0.1119477303544077, 0.020970513637472567, 0.006451672473629818;
	(state4) 0.040367533462139664, 0.8241347568254452, 0.13135346359009237, 0.004144246122322746;
}

probability ( scm2rue | variable3023 ) {
	(state0) 0.10002955139570255, 0.25659522898748993, 0.4565106815298884, 0.18686453808691916;
	(state1) 0.9300324748898384, 0.06274200553301171, 0.006289883261192713, 9.356363159572789E-4;
	(state2) 0.011415253283255737, 0.8137322523989888, 0.16394444967752644, 0.010908044640229004;
	(state3) 0.06738027263148191, 0.6568799414228478, 0.20170715441160028, 0.07403263153406991;
	(state4) 0.5519593078525457, 0.4274188361434311, 0.014835095265183628, 0.0057867607388395114;
}

probability ( scm5rise | variable3468 ) {
	(state0) 0.43191759382669814, 0.5385549125922836, 0.028098154146979654, 0.0014293394340384837;
	(state1) 0.07346250932920632, 0.29030787963537913, 0.5541317457489675, 0.08209786528644701;
	(state2) 0.9490867935942483, 0.04196585740253812, 0.007123957135854755, 0.0018233918673588735;
	(state3) 0.019942940298937256, 0.01979822299265559, 0.1389015715443338, 0.8213572651640734;
}

probability ( scm6post | variable3468 ) {
	(state0) 0.4672431156254449, 0.44654139737428195, 0.08198824406507507, 0.004227242935197945;
	(state1) 0.0641877794006424, 0.24583585352753085, 0.6593607246881793, 0.030615642383647418;
	(state2) 0.9098281842470634, 0.07311980353348801, 0.012702430979271625, 0.004349581240176881;
	(state3) 0.03376936449739553, 0.026233313158958802, 0.21465090725773905, 0.7253464150859066;
}

probability ( scm7gait | variable3468 ) {
	(state0) 0.06343553455229661, 0.8859314671093005, 0.048882804241707094, 0.0017501940966958235;
	(state1) 0.009379499968256934, 0.17492915671598464, 0.8101102607869188, 0.005581082528839556;
	(state2) 0.7927661255397317, 0.19568936982020743, 0.008424760726481554, 0.0031197439135794112;
	(state3) 0.019264118550927835, 0.008898235651795485, 0.4208671563110979, 0.5509704894861788;
}

probability ( scm16wal | variable3468 ) {
	(state0) 0.023031585087162857, 0.8932354587234534, 0.07999316911811208, 0.0037397870712717867;
	(state1) 0.027659078730162878, 0.28180448042383566, 0.6841134958628694, 0.006422944983132024;
	(state2) 0.7408094574506034, 0.2482825519419092, 0.007635396757507506, 0.0032725938499798724;
	(state3) 0.05527559947892049, 0.0231531771933257, 0.2797627020716719, 0.6418085212560819;
}

probability ( scm11spe | variable2884 ) {
	(state0) 0.9227651873546495, 0.06342729896590703, 0.007097674400989686, 0.0067098392784538125;
	(state1) 0.10328914246681756, 0.8465259992994332, 0.04739102389824064, 0.002793834335508722;
	(state2) 0.015496257939842049, 0.06315372452232576, 0.7664513854821089, 0.1548986320557234;
}

probability ( scm10swa ) {
	table 0.6418864908073542, 0.26798561151079137, 0.07793764988009592, 0.012190247801758593;
}

probability ( scm8spee | variable2884 ) {
	(state0) 0.8020343905433512, 0.18615075895522004, 0.008593493458090925, 0.0032213570433377663;
	(state1) 0.02874501920135439, 0.9216329184562086, 0.0466186769080745, 0.003003385434362475;
	(state2) 0.014876212448901234, 0.04721671788756941, 0.7882364043670133, 0.1496706652965161;
}

probability ( scm14hyg ) {
	table 0.2561950439648281, 0.5769384492406076, 0.13529176658673062, 0.03157474020783373;
}

probability ( scm21fsv ) {
	table 0.4712230215827338, 0.27378097521982414, 0.19484412470023982, 0.06015187849720224;
}

probability ( scm18dpr | variable2799 ) {
	(state0) 0.022844135479474986, 0.06802551291081005, 0.6267476771852778, 0.2823826744244372;
	(state1) 0.014601704994422083, 0.8601666517383139, 0.0897049215983116, 0.03552672166895231;
	(state2) 0.9816841110686518, 0.011748011816812285, 0.003910117003635881, 0.0026577601109001097;
}

probability ( scm19dsv | variable2799 ) {
	(state0) 0.01805191220194538, 0.09757877916125403, 0.6136848986091421, 0.27068441002765853;
	(state1) 0.02322710069627457, 0.8207396558149105, 0.14122732414179917, 0.014805919347015696;
	(state2) 0.9853215090358743, 0.005788819237012318, 0.00467430788995847, 0.004215363837154805;
}

probability ( variable2884 ) {
	table 0.3330517284701119, 0.525020595207512, 0.1419276763223763;
}

probability ( variable3468 ) {
	table 0.49118601040277027, 0.16044367663092168, 0.3067518854073174, 0.04161842755899062;
}

probability ( variable2799 ) {
	table 0.12257504162374529, 0.2383932358683992, 0.6390317225078554;
}

probability ( variable3023 ) {
	table 0.09556343915577101, 0.4361168741488184, 0.20865205796148495, 0.09612587508509476, 0.1635417536488309;
}

