network olcm - parkinson_10_learn {
}

variable scm19dsv {
	type discrete[4] { 0, 1, 2, 3 };
}

variable scm18dpr {
	type discrete[4] { 0, 1, 2, 3 };
}

variable scm11spe {
	type discrete[4] { 0, 1, 2, 3 };
}

variable scm8spee {
	type discrete[4] { 0, 1, 2, 3 };
}

variable scm1lue {
	type discrete[4] { 0, 1, 2, 3 };
}

variable scm1rue {
	type discrete[4] { 0, 1, 2, 3 };
}

variable scm2rue {
	type discrete[4] { 0, 1, 2, 3 };
}

variable scm5rise {
	type discrete[4] { 0, 1, 2, 3 };
}

variable scm6post {
	type discrete[4] { 0, 1, 2, 3 };
}

variable scm7gait {
	type discrete[4] { 0, 1, 2, 3 };
}

variable variable284 {
	type discrete[4] { state0, state1, state2, state3 };
}

variable variable126 {
	type discrete[3] { state0, state1, state2 };
}

variable variable205 {
	type discrete[3] { state0, state1, state2 };
}

variable variable71 {
	type discrete[3] { state0, state1, state2 };
}

variable variable402 {
	type discrete[2] { state0, state1 };
}

probability ( scm19dsv | variable71 ) {
	(state0) 0.015730529678263376, 0.0989591909758521, 0.5849656436673362, 0.3003446356785484;
	(state1) 0.990017683112727, 0.003988654136569022, 0.0030134711274961367, 0.0029801916232079103;
	(state2) 0.02121536694109855, 0.8020423950666026, 0.15979746476671472, 0.01694477322558408;
}

probability ( scm18dpr | variable71 ) {
	(state0) 0.0154278546164157, 0.07194926789810105, 0.6043097484145417, 0.30831312907094166;
	(state1) 0.9790725930876536, 0.01303102576442848, 0.0023710204189242826, 0.00552536072899362;
	(state2) 0.00972707301365146, 0.8454444714123901, 0.11223642527384825, 0.03259203030011021;
}

probability ( scm11spe | variable126 ) {
	(state0) 0.016043382596214767, 0.03623223264039465, 0.8302762682976105, 0.11744811646578003;
	(state1) 0.9260715663358428, 0.06368299808302738, 0.006208547690029146, 0.0040368878911006085;
	(state2) 0.060409526234907175, 0.896728343146244, 0.04050264090609668, 0.0023594897127522073;
}

probability ( scm8spee | variable126 ) {
	(state0) 0.01410238205584166, 0.05150041533367307, 0.7541263213704711, 0.1802708812400142;
	(state1) 0.7630135435062556, 0.2268803305968219, 0.006500484527652603, 0.0036056413692700014;
	(state2) 0.029924206223797514, 0.9037827460463367, 0.06437248352303802, 0.0019205642068277037;
}

probability ( scm1lue | variable402, variable205 ) {
	(state0, state0) 0.17844308903917952, 0.3780662553786074, 0.3078364759167072, 0.13565417966550594;
	(state0, state1) 0.21285974927970988, 0.2302848697842446, 0.17017163693273255, 0.38668374400331296;
	(state0, state2) 0.22934950425638698, 0.3634380943410358, 0.22305710376671758, 0.18415529763585958;
	(state1, state0) 0.7520541026342964, 0.16333929956693632, 0.07232058278905024, 0.012286015009717051;
	(state1, state1) 0.32566838205918963, 0.49118967328832297, 0.1592437021075915, 0.023898242544895816;
	(state1, state2) 0.20138109953775324, 0.26099763300880163, 0.34710280784449227, 0.19051845960895283;
}

probability ( scm1rue | variable402, variable205 ) {
	(state0, state0) 0.2764864650129272, 0.35798946008753824, 0.2911312488353975, 0.07439282606413714;
	(state0, state1) 0.1696694698110943, 0.18279949989176758, 0.5031806322530663, 0.14435039804407188;
	(state0, state2) 0.20049146505836138, 0.2173466006048806, 0.2793350524857425, 0.3028268818510156;
	(state1, state0) 0.9066783751356117, 0.07395811944706154, 0.017729475788524806, 0.0016340296288020436;
	(state1, state1) 0.03481910837693345, 0.7114463562232654, 0.24047918986005146, 0.013255345539749741;
	(state1, state2) 0.011345634924828324, 0.024921138770123752, 0.5927878221551048, 0.37094540414994315;
}

probability ( scm2rue | variable205 ) {
	(state0) 0.8502701237528035, 0.13910332613515153, 0.007867983267015335, 0.0027585668450296075;
	(state1) 0.10196917087117227, 0.7981962094515038, 0.09719497886145975, 0.0026396408158641453;
	(state2) 0.02799772255271331, 0.08025684738999314, 0.6608184719120292, 0.23092695814526415;
}

probability ( scm5rise | variable284 ) {
	(state0) 0.2600731125827988, 0.6752835260225135, 0.06031818451221099, 0.004325176882476561;
	(state1) 0.08099145945997409, 0.20127784180572764, 0.6534003650482405, 0.06433033368605794;
	(state2) 0.9386834122120151, 0.04256455902130235, 0.014024525008778894, 0.004727503757903439;
	(state3) 0.035146015121344874, 0.029344284016460834, 0.07825481650024971, 0.8572548843619446;
}

probability ( scm6post | variable284 ) {
	(state0) 0.30347668449413845, 0.5814647040771703, 0.11138684567095315, 0.0036717657577381452;
	(state1) 0.05409937838906624, 0.13959433881111794, 0.7570789778258514, 0.04922730497396435;
	(state2) 0.9015521418556162, 0.07194537016652446, 0.022873649137817396, 0.0036288388400418634;
	(state3) 0.012759857830675778, 0.02585568515665389, 0.2532300223489326, 0.7081544346637378;
}

probability ( scm7gait | variable284 ) {
	(state0) 0.045601076799357744, 0.8393584375202198, 0.10885524475973221, 0.00618524092069024;
	(state1) 0.01853164214943629, 0.06546896104843282, 0.9093884691147851, 0.006610927687345901;
	(state2) 0.5906250293627168, 0.3949257813713473, 0.012374499842588413, 0.0020746894233475716;
	(state3) 0.009055575726765347, 0.047993914229011156, 0.37975064334462044, 0.5631998666996031;
}

probability ( variable284 ) {
	table 0.38842382659563607, 0.1317493336694341, 0.4303573724451839, 0.049469467289745946;
}

probability ( variable126 ) {
	table 0.12637060163376515, 0.3647765236687364, 0.5088528746974984;
}

probability ( variable205 ) {
	table 0.5817135685810079, 0.3213275750120099, 0.09695885640698215;
}

probability ( variable71 ) {
	table 0.1217978510457885, 0.635892921500234, 0.24230922745397748;
}

probability ( variable402 ) {
	table 0.027582110338195166, 0.9724178896618048;
}

