network olcm - egypt_12_v3 {
}

variable j30a {
	type discrete[5] { 1, 2, 3, 4, 5 };
}

variable d30b {
	type discrete[5] { 1, 2, 3, 4, 5 };
}

variable j30f {
	type discrete[5] { 1, 2, 3, 4, 5 };
}

variable l30b {
	type discrete[5] { 1, 2, 3, 4, 5 };
}

variable j30e {
	type discrete[5] { 1, 2, 3, 4, 5 };
}

variable e1 {
	type discrete[3] { 1, 2, 3 };
}

variable mnal4c {
	type discrete[3] { 1, 2, 3 };
}

variable bank {
	type discrete[2] { 1, 2 };
}

variable nonbank {
	type discrete[2] { 1, 2 };
}

variable other {
	type discrete[2] { 1, 2 };
}

variable mnaq53 {
	type discrete[2] { 1, 2 };
}

variable h7 {
	type discrete[2] { 1, 2 };
}

variable variable1963 {
	type discrete[2] { state0, state1 };
}

variable variable2075 {
	type discrete[4] { state0, state1, state2, state3 };
}

variable variable2377 {
	type discrete[2] { state0, state1 };
}

probability ( j30a | variable2075 ) {
	(state0) 0.21038239577721837, 0.11656580302047405, 0.19722737799835133, 0.23492882518873567, 0.24089559801522048;
	(state1) 0.09074314171902384, 0.34619333002360647, 0.40954553327971055, 0.1382023778791943, 0.015315617098464848;
	(state2) 0.4981842453018095, 0.053121039563519705, 0.17351693826402256, 0.22175914382357262, 0.05341863304707551;
	(state3) 0.48041283295480663, 0.19943604631188214, 0.18448021634783315, 0.12377602269869888, 0.011894881686779211;
}

probability ( d30b | variable2075 ) {
	(state0) 0.6423592579994962, 0.09904394172812986, 0.12114963171977121, 0.06506916692000947, 0.0723780016325932;
	(state1) 0.22390100638123114, 0.37136017561426593, 0.3190913809450517, 0.07672828930993461, 0.00891914774951658;
	(state2) 0.7887952156748115, 0.008236463222005937, 0.06689262301030306, 0.12460542064165092, 0.011470277451228746;
	(state3) 0.9029515404899182, 0.06514622184972102, 0.015169687512303768, 0.0077334148435811495, 0.008999135304475861;
}

probability ( j30f | variable2075 ) {
	(state0) 0.016728259468459593, 0.004648304742679571, 0.031782126309064275, 0.057812584161988534, 0.8890287253178082;
	(state1) 0.07613938225822241, 0.15463868901916628, 0.3704470640465009, 0.3552530654463625, 0.04352179922974789;
	(state2) 0.057321467938100217, 0.008253599751637038, 0.07795063446285294, 0.801946074140855, 0.05452822370655486;
	(state3) 0.45100855295769116, 0.2205478317599695, 0.2452842125958153, 0.03793573080561683, 0.04522367188090725;
}

probability ( l30b | variable2075 ) {
	(state0) 0.4780436908556142, 0.1575171222941661, 0.13672324311167008, 0.11452023179675143, 0.11319571194179831;
	(state1) 0.2374037592715366, 0.39807628569175274, 0.25661302323904284, 0.10358921423607652, 0.004317717561591446;
	(state2) 0.6573228280669953, 0.08160169819984432, 0.11656829181242012, 0.11123785984359845, 0.03326932207714167;
	(state3) 0.8837217751093994, 0.06755088238943256, 0.025726789483564157, 0.02066114973028411, 0.0023394032873195933;
}

probability ( j30e | variable2075 ) {
	(state0) 0.007292231480592684, 0.004933372134875921, 0.010744637128886982, 0.06792255772845911, 0.9091072015271853;
	(state1) 0.01397995059333296, 0.10247528892642443, 0.3890857104944709, 0.3704283351267855, 0.12403071485898616;
	(state2) 0.009781889270504994, 0.012787447267043998, 0.04119825184769421, 0.664684685779308, 0.27154772583544895;
	(state3) 0.09212273927956492, 0.08552737960956355, 0.14258832529183074, 0.3706420610739744, 0.3091194947450664;
}

probability ( e1 | variable2377 ) {
	(state0) 0.4007613390375855, 0.5430139178491565, 0.05622474311325788;
	(state1) 0.22460191875211868, 0.35960445322730084, 0.41579362802058034;
}

probability ( mnal4c ) {
	table 0.7533678756476684, 0.030569948186528497, 0.21606217616580312;
}

probability ( bank | variable2377, variable1963 ) {
	(state0, state0) 0.05001979084964065, 0.9499802091503593;
	(state0, state1) 0.9919473953529113, 0.008052604647088617;
	(state1, state0) 0.527799886765218, 0.4722001132347819;
	(state1, state1) 0.9113250074540693, 0.08867499254593074;
}

probability ( nonbank | variable1963 ) {
	(state0) 0.005748978052129862, 0.9942510219478701;
	(state1) 0.9640305763534207, 0.03596942364657931;
}

probability ( other | variable2075, variable1963 ) {
	(state0, state0) 0.04770956158888232, 0.9522904384111176;
	(state0, state1) 0.938616093723327, 0.061383906276672916;
	(state1, state0) 0.22353699104769267, 0.7764630089523074;
	(state1, state1) 0.6463343013395331, 0.35366569866046693;
	(state2, state0) 0.019519947399636223, 0.9804800526003637;
	(state2, state1) 0.9584233901192889, 0.04157660988071104;
	(state3, state0) 0.09268054424363303, 0.907319455756367;
	(state3, state1) 0.9796372056219901, 0.020362794378009988;
}

probability ( mnaq53 | variable2377 ) {
	(state0) 0.02156599466969866, 0.9784340053303013;
	(state1) 0.27165570177032583, 0.7283442982296743;
}

probability ( h7 | variable2075, variable2377 ) {
	(state0, state0) 0.0960479587579315, 0.9039520412420686;
	(state0, state1) 0.6695586961196524, 0.33044130388034765;
	(state1, state0) 0.02529537247220818, 0.9747046275277917;
	(state1, state1) 0.4010487577559257, 0.5989512422440743;
	(state2, state0) 0.024288178809673062, 0.975711821190327;
	(state2, state1) 0.28326998711457496, 0.716730012885425;
	(state3, state0) 0.010886429086059825, 0.9891135709139401;
	(state3, state1) 0.32036299711555827, 0.6796370028844417;
}

probability ( variable1963 ) {
	table 0.9167225626553834, 0.0832774373446165;
}

probability ( variable2075 ) {
	table 0.3204895858090201, 0.14616798778700765, 0.21274956446388935, 0.3205928619400829;
}

probability ( variable2377 ) {
	table 0.9313756361164098, 0.0686243638835902;
}

