<?xml version="1.0" encoding="US-ASCII"?>


<!--
	Bayesian network in XMLBIF v0.3 (BayesNet Interchange Format)
	Produced by JavaBayes (http://www.cs.cmu.edu/~javabayes/
	Output created Mon May 07 20:20:24 CEST 2018
-->



<!-- DTD for the XMLBIF 0.3 format -->
<!DOCTYPE BIF [
	<!ELEMENT BIF ( NETWORK )*>
	      <!ATTLIST BIF VERSION CDATA #REQUIRED>
	<!ELEMENT NETWORK ( NAME, ( PROPERTY | VARIABLE | DEFINITION )* )>
	<!ELEMENT NAME (#PCDATA)>
	<!ELEMENT VARIABLE ( NAME, ( OUTCOME |  PROPERTY )* ) >
	      <!ATTLIST VARIABLE TYPE (nature|decision|utility) "nature">
	<!ELEMENT OUTCOME (#PCDATA)>
	<!ELEMENT DEFINITION ( FOR | GIVEN | TABLE | PROPERTY )* >
	<!ELEMENT FOR (#PCDATA)>
	<!ELEMENT GIVEN (#PCDATA)>
	<!ELEMENT TABLE (#PCDATA)>
	<!ELEMENT PROPERTY (#PCDATA)>
]>


<BIF VERSION="0.3">
<NETWORK>
<NAME>HLCM3131</NAME>

<!-- Variables -->
<VARIABLE TYPE="nature">
	<NAME>hs180</NAME>
	<OUTCOME>1</OUTCOME>
	<OUTCOME>2</OUTCOME>
	<PROPERTY>position = (100, 100)</PROPERTY>
</VARIABLE>

<VARIABLE TYPE="nature">
	<NAME>hs190</NAME>
	<OUTCOME>1</OUTCOME>
	<OUTCOME>2</OUTCOME>
	<PROPERTY>position = (100, 100)</PROPERTY>
</VARIABLE>

<VARIABLE TYPE="nature">
	<NAME>hh081</NAME>
	<OUTCOME>1</OUTCOME>
	<OUTCOME>2</OUTCOME>
	<OUTCOME>3</OUTCOME>
	<PROPERTY>position = (100, 100)</PROPERTY>
</VARIABLE>

<VARIABLE TYPE="nature">
	<NAME>db100</NAME>
	<OUTCOME>1</OUTCOME>
	<OUTCOME>2</OUTCOME>
	<OUTCOME>3</OUTCOME>
	<PROPERTY>position = (100, 100)</PROPERTY>
</VARIABLE>

<VARIABLE TYPE="nature">
	<NAME>hs050</NAME>
	<OUTCOME>1</OUTCOME>
	<OUTCOME>2</OUTCOME>
	<PROPERTY>position = (100, 100)</PROPERTY>
</VARIABLE>

<VARIABLE TYPE="nature">
	<NAME>h79_u</NAME>
	<OUTCOME>1</OUTCOME>
	<OUTCOME>2</OUTCOME>
	<PROPERTY>position = (100, 100)</PROPERTY>
</VARIABLE>

<VARIABLE TYPE="nature">
	<NAME>hs060</NAME>
	<OUTCOME>1</OUTCOME>
	<OUTCOME>2</OUTCOME>
	<PROPERTY>position = (100, 100)</PROPERTY>
</VARIABLE>

<VARIABLE TYPE="nature">
	<NAME>hs070</NAME>
	<OUTCOME>1</OUTCOME>
	<OUTCOME>2</OUTCOME>
	<OUTCOME>3</OUTCOME>
	<PROPERTY>position = (100, 100)</PROPERTY>
</VARIABLE>

<VARIABLE TYPE="nature">
	<NAME>hs100</NAME>
	<OUTCOME>1</OUTCOME>
	<OUTCOME>2</OUTCOME>
	<OUTCOME>3</OUTCOME>
	<PROPERTY>position = (100, 100)</PROPERTY>
</VARIABLE>

<VARIABLE TYPE="nature">
	<NAME>hs040</NAME>
	<OUTCOME>1</OUTCOME>
	<OUTCOME>2</OUTCOME>
	<PROPERTY>position = (100, 100)</PROPERTY>
</VARIABLE>

<VARIABLE TYPE="nature">
	<NAME>family_size</NAME>
	<OUTCOME>1</OUTCOME>
	<OUTCOME>2</OUTCOME>
	<OUTCOME>3</OUTCOME>
	<OUTCOME>4</OUTCOME>
	<OUTCOME>5</OUTCOME>
	<PROPERTY>position = (100, 100)</PROPERTY>
</VARIABLE>

<VARIABLE TYPE="nature">
	<NAME>hc190</NAME>
	<OUTCOME>1</OUTCOME>
	<OUTCOME>2</OUTCOME>
	<PROPERTY>position = (100, 100)</PROPERTY>
</VARIABLE>

<VARIABLE TYPE="nature">
	<NAME>variable76</NAME>
	<OUTCOME>state0</OUTCOME>
	<OUTCOME>state1</OUTCOME>
	<OUTCOME>state2</OUTCOME>
	<PROPERTY>position = (100, 100)</PROPERTY>
</VARIABLE>

<VARIABLE TYPE="nature">
	<NAME>variable77</NAME>
	<OUTCOME>state0</OUTCOME>
	<OUTCOME>state1</OUTCOME>
	<OUTCOME>state2</OUTCOME>
	<OUTCOME>state3</OUTCOME>
	<PROPERTY>position = (100, 100)</PROPERTY>
</VARIABLE>

<VARIABLE TYPE="nature">
	<NAME>variable78</NAME>
	<OUTCOME>state0</OUTCOME>
	<OUTCOME>state1</OUTCOME>
	<OUTCOME>state2</OUTCOME>
	<PROPERTY>position = (100, 100)</PROPERTY>
</VARIABLE>


<!-- Probability distributions -->
<DEFINITION>
	<FOR>hs050</FOR>
	<GIVEN>variable76</GIVEN>
	<TABLE>0.9705202736252814 0.029479726374718664 0.9979918217734279 0.0020081782265719762 0.7965896209559996 0.20341037904400028 </TABLE>
</DEFINITION>

<DEFINITION>
	<FOR>h79_u</FOR>
	<GIVEN>variable76</GIVEN>
	<TABLE>0.047626559520553294 0.9523734404794467 0.003486050585127169 0.9965139494148728 0.6179056076122569 0.3820943923877431 </TABLE>
</DEFINITION>

<DEFINITION>
	<FOR>hs060</FOR>
	<GIVEN>variable76</GIVEN>
	<TABLE>0.2435064007803029 0.756493599219697 0.9161051135777106 0.08389488642228943 0.0019216593605308463 0.9980783406394692 </TABLE>
</DEFINITION>

<DEFINITION>
	<FOR>hh081</FOR>
	<GIVEN>variable77</GIVEN>
	<TABLE>0.9973570123156498 6.74761287553057E-91 0.002642987684350236 0.9770665601281174 0.012587914236330522 0.010345525635551987 0.9929757780619676 0.0029721821517936548 0.004052039786238828 0.9984959295298348 1.4014770655538716E-52 0.0015040704701652276 </TABLE>
</DEFINITION>

<DEFINITION>
	<FOR>hs070</FOR>
	<GIVEN>variable77</GIVEN>
	<TABLE>0.9910959383158886 2.225357962648147E-115 0.008904061684111399 0.9063074782291256 0.0019392563103895308 0.09175326546048489 0.9800001489882966 0.006032439706547825 0.013967411305155648 0.9986143774852096 2.1770925243434656E-43 0.001385622514790255 </TABLE>
</DEFINITION>

<DEFINITION>
	<FOR>hs100</FOR>
	<GIVEN>variable77</GIVEN>
	<TABLE>1.0 1.520094356436833E-54 2.970943368081409E-40 0.9579144959925198 5.402527069815206E-52 0.04208550400748023 0.9908910655298695 0.004839942045945762 0.0042689924241846346 0.9998633069459183 1.362179151481542E-4 4.751389334938155E-7 </TABLE>
</DEFINITION>

<DEFINITION>
	<FOR>hs040</FOR>
	<GIVEN>variable77</GIVEN>
	<TABLE>0.8491475288083508 0.15085247119164913 0.8569723024487536 0.1430276975512464 0.03663914734581989 0.96336085265418 0.9377564990375696 0.06224350096243042 </TABLE>
</DEFINITION>

<DEFINITION>
	<FOR>family_size</FOR>
	<GIVEN>variable77</GIVEN>
	<TABLE>0.109634555324575 0.5071354404752918 0.23099527350908602 0.08455694189371475 0.06767778879733237 0.7900989814009703 0.16352104421204777 0.01787426725349412 0.002132837750189919 0.026372869383297852 0.23951363348409702 0.28626700256161913 0.21734169528379926 0.17086045035138886 0.08601721831909566 0.17816693084744023 0.3223827114632066 0.23703232509140637 0.21942293979574953 0.04299509280219732 </TABLE>
</DEFINITION>

<DEFINITION>
	<FOR>hc190</FOR>
	<GIVEN>variable77</GIVEN>
	<TABLE>0.7535043628600969 0.24649563713990302 0.10152514528439875 0.8984748547156013 0.26088807549311954 0.7391119245068805 0.0475415683672201 0.9524584316327799 </TABLE>
</DEFINITION>

<DEFINITION>
	<FOR>hs180</FOR>
	<GIVEN>variable78</GIVEN>
	<TABLE>0.01503574223241039 0.9849642577675897 0.04582608712277975 0.9541739128772203 0.5238355504729609 0.476164449527039 </TABLE>
</DEFINITION>

<DEFINITION>
	<FOR>hs190</FOR>
	<GIVEN>variable78</GIVEN>
	<TABLE>0.033415855140018075 0.966584144859982 0.05281557625578549 0.9471844237442145 0.5052284631152444 0.4947715368847556 </TABLE>
</DEFINITION>

<DEFINITION>
	<FOR>db100</FOR>
	<GIVEN>variable78</GIVEN>
	<TABLE>0.1230890913885265 0.2316514239067025 0.645259484704771 0.6232021194774677 0.21293670114868396 0.16386117937384823 0.745201672227618 0.16973646966014752 0.0850618581122344 </TABLE>
</DEFINITION>

<DEFINITION>
	<FOR>variable76</FOR>
	<TABLE>0.2834056625517963 0.6349740173417179 0.08162032010648576 </TABLE>
</DEFINITION>

<DEFINITION>
	<FOR>variable77</FOR>
	<GIVEN>variable76</GIVEN>
	<TABLE>0.004654273994510396 0.04889272548599512 0.9075621758005797 0.0388908247189148 0.12697763056198064 0.05516825351842212 6.651039261977524E-4 0.8171890119933994 0.005807539553246177 0.01148540620291703 0.9438915577614674 0.03881549648236933 </TABLE>
</DEFINITION>

<DEFINITION>
	<FOR>variable78</FOR>
	<GIVEN>variable76</GIVEN>
	<TABLE>0.4241150006043186 0.45093762421982153 0.1249473751758599 0.1556782968256318 0.7570260092886427 0.08729569388572547 0.1001629428167162 0.533702870935304 0.3661341862479799 </TABLE>
</DEFINITION>


</NETWORK>
</BIF>
