<?xml version="1.0" encoding="US-ASCII"?>


<!--
	Bayesian network in XMLBIF v0.3 (BayesNet Interchange Format)
	Produced by JavaBayes (http://www.cs.cmu.edu/~javabayes/
	Output created Wed May 09 11:36:13 CEST 2018
-->



<!-- DTD for the XMLBIF 0.3 format -->
<!DOCTYPE BIF [
	<!ELEMENT BIF ( NETWORK )*>
	      <!ATTLIST BIF VERSION CDATA #REQUIRED>
	<!ELEMENT NETWORK ( NAME, ( PROPERTY | VARIABLE | DEFINITION )* )>
	<!ELEMENT NAME (#PCDATA)>
	<!ELEMENT VARIABLE ( NAME, ( OUTCOME |  PROPERTY )* ) >
	      <!ATTLIST VARIABLE TYPE (nature|decision|utility) "nature">
	<!ELEMENT OUTCOME (#PCDATA)>
	<!ELEMENT DEFINITION ( FOR | GIVEN | TABLE | PROPERTY )* >
	<!ELEMENT FOR (#PCDATA)>
	<!ELEMENT GIVEN (#PCDATA)>
	<!ELEMENT TABLE (#PCDATA)>
	<!ELEMENT PROPERTY (#PCDATA)>
]>


<BIF VERSION="0.3">
<NETWORK>
<NAME>HLCM8982</NAME>

<!-- Variables -->
<VARIABLE TYPE="nature">
	<NAME>variable12</NAME>
	<OUTCOME>state0</OUTCOME>
	<OUTCOME>state1</OUTCOME>
	<PROPERTY>position = (100, 100)</PROPERTY>
</VARIABLE>

<VARIABLE TYPE="nature">
	<NAME>hs180</NAME>
	<OUTCOME>1</OUTCOME>
	<OUTCOME>2</OUTCOME>
	<PROPERTY>position = (100, 100)</PROPERTY>
</VARIABLE>

<VARIABLE TYPE="nature">
	<NAME>hs190</NAME>
	<OUTCOME>1</OUTCOME>
	<OUTCOME>2</OUTCOME>
	<PROPERTY>position = (100, 100)</PROPERTY>
</VARIABLE>

<VARIABLE TYPE="nature">
	<NAME>hh081</NAME>
	<OUTCOME>1</OUTCOME>
	<OUTCOME>2</OUTCOME>
	<OUTCOME>3</OUTCOME>
	<PROPERTY>position = (100, 100)</PROPERTY>
</VARIABLE>

<VARIABLE TYPE="nature">
	<NAME>db100</NAME>
	<OUTCOME>1</OUTCOME>
	<OUTCOME>2</OUTCOME>
	<OUTCOME>3</OUTCOME>
	<PROPERTY>position = (100, 100)</PROPERTY>
</VARIABLE>

<VARIABLE TYPE="nature">
	<NAME>hs050</NAME>
	<OUTCOME>1</OUTCOME>
	<OUTCOME>2</OUTCOME>
	<PROPERTY>position = (100, 100)</PROPERTY>
</VARIABLE>

<VARIABLE TYPE="nature">
	<NAME>h79_u</NAME>
	<OUTCOME>1</OUTCOME>
	<OUTCOME>2</OUTCOME>
	<PROPERTY>position = (100, 100)</PROPERTY>
</VARIABLE>

<VARIABLE TYPE="nature">
	<NAME>hs060</NAME>
	<OUTCOME>1</OUTCOME>
	<OUTCOME>2</OUTCOME>
	<PROPERTY>position = (100, 100)</PROPERTY>
</VARIABLE>

<VARIABLE TYPE="nature">
	<NAME>hs070</NAME>
	<OUTCOME>1</OUTCOME>
	<OUTCOME>2</OUTCOME>
	<OUTCOME>3</OUTCOME>
	<PROPERTY>position = (100, 100)</PROPERTY>
</VARIABLE>

<VARIABLE TYPE="nature">
	<NAME>hs100</NAME>
	<OUTCOME>1</OUTCOME>
	<OUTCOME>2</OUTCOME>
	<OUTCOME>3</OUTCOME>
	<PROPERTY>position = (100, 100)</PROPERTY>
</VARIABLE>

<VARIABLE TYPE="nature">
	<NAME>hs040</NAME>
	<OUTCOME>1</OUTCOME>
	<OUTCOME>2</OUTCOME>
	<PROPERTY>position = (100, 100)</PROPERTY>
</VARIABLE>

<VARIABLE TYPE="nature">
	<NAME>family_size</NAME>
	<OUTCOME>1</OUTCOME>
	<OUTCOME>2</OUTCOME>
	<OUTCOME>3</OUTCOME>
	<OUTCOME>4</OUTCOME>
	<OUTCOME>5</OUTCOME>
	<PROPERTY>position = (100, 100)</PROPERTY>
</VARIABLE>

<VARIABLE TYPE="nature">
	<NAME>hc190</NAME>
	<OUTCOME>1</OUTCOME>
	<OUTCOME>2</OUTCOME>
	<PROPERTY>position = (100, 100)</PROPERTY>
</VARIABLE>

<VARIABLE TYPE="nature">
	<NAME>variable14</NAME>
	<OUTCOME>state0</OUTCOME>
	<OUTCOME>state1</OUTCOME>
	<PROPERTY>position = (100, 100)</PROPERTY>
</VARIABLE>

<VARIABLE TYPE="nature">
	<NAME>variable24</NAME>
	<OUTCOME>state0</OUTCOME>
	<OUTCOME>state1</OUTCOME>
	<PROPERTY>position = (100, 100)</PROPERTY>
</VARIABLE>

<VARIABLE TYPE="nature">
	<NAME>variable26</NAME>
	<OUTCOME>state0</OUTCOME>
	<OUTCOME>state1</OUTCOME>
	<OUTCOME>state2</OUTCOME>
	<PROPERTY>position = (100, 100)</PROPERTY>
</VARIABLE>


<!-- Probability distributions -->
<DEFINITION>
	<FOR>variable12</FOR>
	<GIVEN>variable26</GIVEN>
	<TABLE>0.534824225492922 0.465175774507078 0.808396498425895 0.1916035015741051 0.003082935486364712 0.9969170645136353 </TABLE>
</DEFINITION>

<DEFINITION>
	<FOR>hs180</FOR>
	<GIVEN>variable14</GIVEN>
	<TABLE>0.02963742307360454 0.9703625769263955 0.5263411149616274 0.47365888503837256 </TABLE>
</DEFINITION>

<DEFINITION>
	<FOR>hs190</FOR>
	<GIVEN>variable14</GIVEN>
	<TABLE>0.04637987893324666 0.9536201210667533 0.46694556369350526 0.5330544363064946 </TABLE>
</DEFINITION>

<DEFINITION>
	<FOR>hh081</FOR>
	<GIVEN>variable26</GIVEN>
	<TABLE>0.9399731348906638 0.04807123986389963 0.011955625245436611 0.9981637937231921 6.407291347152951E-85 0.0018362062768079775 0.9927180471172822 4.945894353330653E-81 0.007281952882717892 </TABLE>
</DEFINITION>

<DEFINITION>
	<FOR>db100</FOR>
	<GIVEN>variable14</GIVEN>
	<TABLE>0.4884360896227629 0.2183032402312459 0.2932606701459912 0.7546579282734533 0.1713097712421694 0.07403230048437734 </TABLE>
</DEFINITION>

<DEFINITION>
	<FOR>hs050</FOR>
	<GIVEN>variable26</GIVEN>
	<TABLE>0.9528851852080109 0.0471148147919891 0.9977376320821245 0.002262367917875534 0.8263542237630983 0.17364577623690167 </TABLE>
</DEFINITION>

<DEFINITION>
	<FOR>h79_u</FOR>
	<GIVEN>variable26</GIVEN>
	<TABLE>0.02660754994659985 0.9733924500534002 0.00292119973230793 0.9970788002676921 0.47932938611138526 0.5206706138886148 </TABLE>
</DEFINITION>

<DEFINITION>
	<FOR>hs060</FOR>
	<GIVEN>variable12</GIVEN>
	<TABLE>0.9145851897516902 0.08541481024830967 0.05377260692438749 0.9462273930756125 </TABLE>
</DEFINITION>

<DEFINITION>
	<FOR>hs070</FOR>
	<GIVEN>variable26</GIVEN>
	<TABLE>0.8124273631086752 3.905238879088627E-19 0.18757263689132467 0.9965449349726238 6.053483659183879E-97 0.0034550650273762937 0.9723750482484759 0.016145022966585664 0.01147992878493845 </TABLE>
</DEFINITION>

<DEFINITION>
	<FOR>hs100</FOR>
	<GIVEN>variable26</GIVEN>
	<TABLE>0.9235296159230971 1.6736960945181586E-149 0.07647038407690278 0.9996189158125245 7.948801074836996E-5 3.0159617672703665E-4 0.9822950798404703 0.012409340917723926 0.005295579241805756 </TABLE>
</DEFINITION>

<DEFINITION>
	<FOR>hs040</FOR>
	<GIVEN>variable24</GIVEN>
	<TABLE>0.9710018247750697 0.028998175224930253 0.0058764627194425635 0.9941235372805574 </TABLE>
</DEFINITION>

<DEFINITION>
	<FOR>family_size</FOR>
	<GIVEN>variable26</GIVEN>
	<TABLE>0.8084250378488074 0.1770920064155247 4.980304721209613E-10 9.333247923048941E-22 0.01448295523763738 0.19238800132235023 0.3333038504988947 0.23213477456037962 0.19248078337719393 0.04969259024118158 0.27149796412390526 0.2537404655559337 0.19186002837537355 0.15616723851341885 0.12673430343136868 </TABLE>
</DEFINITION>

<DEFINITION>
	<FOR>hc190</FOR>
	<GIVEN>variable24</GIVEN>
	<TABLE>0.1334264201725325 0.8665735798274675 0.26277363371735957 0.7372263662826405 </TABLE>
</DEFINITION>

<DEFINITION>
	<FOR>variable14</FOR>
	<GIVEN>variable26</GIVEN>
	<TABLE>0.9121298459133332 0.08787015408666683 0.8912583164862349 0.10874168351376513 0.6878656250452443 0.31213437495475577 </TABLE>
</DEFINITION>

<DEFINITION>
	<FOR>variable24</FOR>
	<GIVEN>variable12</GIVEN>
	<TABLE>0.8807767374076249 0.11922326259237526 0.09921129790572085 0.9007887020942792 </TABLE>
</DEFINITION>

<DEFINITION>
	<FOR>variable26</FOR>
	<TABLE>0.033739267946361555 0.8352292266649919 0.13103150538864647 </TABLE>
</DEFINITION>


</NETWORK>
</BIF>
