<?xml version="1.0" encoding="US-ASCII"?>


<!--
	Bayesian network in XMLBIF v0.3 (BayesNet Interchange Format)
	Produced by JavaBayes (http://www.cs.cmu.edu/~javabayes/
	Output created Wed May 09 12:34:16 CEST 2018
-->



<!-- DTD for the XMLBIF 0.3 format -->
<!DOCTYPE BIF [
	<!ELEMENT BIF ( NETWORK )*>
	      <!ATTLIST BIF VERSION CDATA #REQUIRED>
	<!ELEMENT NETWORK ( NAME, ( PROPERTY | VARIABLE | DEFINITION )* )>
	<!ELEMENT NAME (#PCDATA)>
	<!ELEMENT VARIABLE ( NAME, ( OUTCOME |  PROPERTY )* ) >
	      <!ATTLIST VARIABLE TYPE (nature|decision|utility) "nature">
	<!ELEMENT OUTCOME (#PCDATA)>
	<!ELEMENT DEFINITION ( FOR | GIVEN | TABLE | PROPERTY )* >
	<!ELEMENT FOR (#PCDATA)>
	<!ELEMENT GIVEN (#PCDATA)>
	<!ELEMENT TABLE (#PCDATA)>
	<!ELEMENT PROPERTY (#PCDATA)>
]>


<BIF VERSION="0.3">
<NETWORK>
<NAME>olcm_cond_12</NAME>

<!-- Variables -->
<VARIABLE TYPE="nature">
	<NAME>hs180</NAME>
	<OUTCOME>1</OUTCOME>
	<OUTCOME>2</OUTCOME>
	<PROPERTY>position = (100, 100)</PROPERTY>
</VARIABLE>

<VARIABLE TYPE="nature">
	<NAME>hs190</NAME>
	<OUTCOME>1</OUTCOME>
	<OUTCOME>2</OUTCOME>
	<PROPERTY>position = (100, 100)</PROPERTY>
</VARIABLE>

<VARIABLE TYPE="nature">
	<NAME>hh081</NAME>
	<OUTCOME>1</OUTCOME>
	<OUTCOME>2</OUTCOME>
	<OUTCOME>3</OUTCOME>
	<PROPERTY>position = (100, 100)</PROPERTY>
</VARIABLE>

<VARIABLE TYPE="nature">
	<NAME>db100</NAME>
	<OUTCOME>1</OUTCOME>
	<OUTCOME>2</OUTCOME>
	<OUTCOME>3</OUTCOME>
	<PROPERTY>position = (100, 100)</PROPERTY>
</VARIABLE>

<VARIABLE TYPE="nature">
	<NAME>hs050</NAME>
	<OUTCOME>1</OUTCOME>
	<OUTCOME>2</OUTCOME>
	<PROPERTY>position = (100, 100)</PROPERTY>
</VARIABLE>

<VARIABLE TYPE="nature">
	<NAME>h79_u</NAME>
	<OUTCOME>1</OUTCOME>
	<OUTCOME>2</OUTCOME>
	<PROPERTY>position = (100, 100)</PROPERTY>
</VARIABLE>

<VARIABLE TYPE="nature">
	<NAME>hs060</NAME>
	<OUTCOME>1</OUTCOME>
	<OUTCOME>2</OUTCOME>
	<PROPERTY>position = (100, 100)</PROPERTY>
</VARIABLE>

<VARIABLE TYPE="nature">
	<NAME>hs070</NAME>
	<OUTCOME>1</OUTCOME>
	<OUTCOME>2</OUTCOME>
	<OUTCOME>3</OUTCOME>
	<PROPERTY>position = (100, 100)</PROPERTY>
</VARIABLE>

<VARIABLE TYPE="nature">
	<NAME>hs100</NAME>
	<OUTCOME>1</OUTCOME>
	<OUTCOME>2</OUTCOME>
	<OUTCOME>3</OUTCOME>
	<PROPERTY>position = (100, 100)</PROPERTY>
</VARIABLE>

<VARIABLE TYPE="nature">
	<NAME>hs040</NAME>
	<OUTCOME>1</OUTCOME>
	<OUTCOME>2</OUTCOME>
	<PROPERTY>position = (100, 100)</PROPERTY>
</VARIABLE>

<VARIABLE TYPE="nature">
	<NAME>family_size</NAME>
	<OUTCOME>1</OUTCOME>
	<OUTCOME>2</OUTCOME>
	<OUTCOME>3</OUTCOME>
	<OUTCOME>4</OUTCOME>
	<OUTCOME>5</OUTCOME>
	<PROPERTY>position = (100, 100)</PROPERTY>
</VARIABLE>

<VARIABLE TYPE="nature">
	<NAME>hc190</NAME>
	<OUTCOME>1</OUTCOME>
	<OUTCOME>2</OUTCOME>
	<PROPERTY>position = (100, 100)</PROPERTY>
</VARIABLE>

<VARIABLE TYPE="nature">
	<NAME>variable498</NAME>
	<OUTCOME>state0</OUTCOME>
	<OUTCOME>state1</OUTCOME>
	<PROPERTY>position = (100, 100)</PROPERTY>
</VARIABLE>

<VARIABLE TYPE="nature">
	<NAME>variable119</NAME>
	<OUTCOME>state0</OUTCOME>
	<OUTCOME>state1</OUTCOME>
	<OUTCOME>state2</OUTCOME>
	<PROPERTY>position = (100, 100)</PROPERTY>
</VARIABLE>

<VARIABLE TYPE="nature">
	<NAME>variable531</NAME>
	<OUTCOME>state0</OUTCOME>
	<OUTCOME>state1</OUTCOME>
	<PROPERTY>position = (100, 100)</PROPERTY>
</VARIABLE>

<VARIABLE TYPE="nature">
	<NAME>variable681</NAME>
	<OUTCOME>state0</OUTCOME>
	<OUTCOME>state1</OUTCOME>
	<PROPERTY>position = (100, 100)</PROPERTY>
</VARIABLE>


<!-- Probability distributions -->
<DEFINITION>
	<FOR>hs180</FOR>
	<GIVEN>variable119</GIVEN>
	<GIVEN>variable531</GIVEN>
	<TABLE>0.41038136271161946 0.5896186372883805 0.021110461437693507 0.9788895385623064 0.7822037018189383 0.2177962981810618 0.0844017189361343 0.9155982810638658 0.4277187461022663 0.5722812538977338 0.01665771380296309 0.9833422861970369 </TABLE>
</DEFINITION>

<DEFINITION>
	<FOR>hs190</FOR>
	<GIVEN>variable119</GIVEN>
	<GIVEN>variable531</GIVEN>
	<TABLE>0.3640903812397276 0.6359096187602725 0.03473066237570737 0.9652693376242927 0.747130576613892 0.25286942338610796 0.10958680703574832 0.8904131929642517 0.3458813532058201 0.65411864679418 0.04016748657426082 0.9598325134257392 </TABLE>
</DEFINITION>

<DEFINITION>
	<FOR>hh081</FOR>
	<GIVEN>variable681</GIVEN>
	<TABLE>0.9975040195105891 2.1738152745374122E-4 0.002278598961957148 0.9488388317531719 0.03294405256686763 0.018217115679960535 </TABLE>
</DEFINITION>

<DEFINITION>
	<FOR>db100</FOR>
	<GIVEN>variable119</GIVEN>
	<GIVEN>variable531</GIVEN>
	<TABLE>0.6752250910169345 0.24216522676232213 0.08260968222074334 0.3682054532616348 0.20973991083145954 0.4220546359069058 0.8085232145146909 0.10676909912984037 0.08470768635546874 0.5156797698650908 0.26416757460295276 0.22015265553195637 0.7588009023298604 0.16554497947478006 0.07565411819535955 0.5256833336137358 0.21444169960808357 0.2598749667781807 </TABLE>
</DEFINITION>

<DEFINITION>
	<FOR>hs050</FOR>
	<GIVEN>variable119</GIVEN>
	<TABLE>0.9802935649689825 0.01970643503101764 0.816368872098944 0.18363112790105593 0.9974909978474987 0.0025090021525011694 </TABLE>
</DEFINITION>

<DEFINITION>
	<FOR>h79_u</FOR>
	<GIVEN>variable119</GIVEN>
	<TABLE>0.023364992356225984 0.976635007643774 0.5411698605732246 0.45883013942677536 0.004161835744562413 0.9958381642554376 </TABLE>
</DEFINITION>

<DEFINITION>
	<FOR>hs060</FOR>
	<GIVEN>variable119</GIVEN>
	<GIVEN>variable531</GIVEN>
	<TABLE>0.3289933434962705 0.6710066565037296 0.3667072379593014 0.6332927620406986 0.031081820018319124 0.9689181799816808 0.011319848881320442 0.9886801511186797 0.8367025542555211 0.16329744574447896 0.8995910892692252 0.10040891073077485 </TABLE>
</DEFINITION>

<DEFINITION>
	<FOR>hs070</FOR>
	<GIVEN>variable681</GIVEN>
	<TABLE>0.9964921605149866 8.280466278321539E-4 0.0026797928571813357 0.793056642009626 0.03107064275118444 0.17587271523918954 </TABLE>
</DEFINITION>

<DEFINITION>
	<FOR>hs100</FOR>
	<GIVEN>variable681</GIVEN>
	<TABLE>0.9986435505703866 0.0010468019839028945 3.096474457106324E-4 0.9109044897071041 0.017695377480917367 0.0714001328119784 </TABLE>
</DEFINITION>

<DEFINITION>
	<FOR>hs040</FOR>
	<GIVEN>variable119</GIVEN>
	<TABLE>0.01577248239135246 0.9842275176086476 0.09784536747903738 0.9021546325209626 0.9866304846636402 0.013369515336359744 </TABLE>
</DEFINITION>

<DEFINITION>
	<FOR>family_size</FOR>
	<GIVEN>variable681</GIVEN>
	<GIVEN>variable498</GIVEN>
	<TABLE>0.24568203985397274 0.1877206062988916 0.24085588970626867 0.2817115116119095 0.04402995252895761 0.14348897602770994 0.49595441261528633 0.21015924233812922 0.07124688709885632 0.07915048192001815 0.7583470129917874 0.10391101779009003 0.06868324594042478 0.020009792058139384 0.04904893121955842 0.5805859027204472 0.31400681060848545 0.03173832465669753 0.03427483541414251 0.039394126600227196 </TABLE>
</DEFINITION>

<DEFINITION>
	<FOR>hc190</FOR>
	<GIVEN>variable119</GIVEN>
	<GIVEN>variable498</GIVEN>
	<TABLE>0.08805414308289776 0.9119458569171022 0.4874300624773287 0.5125699375226713 0.17347019152502927 0.8265298084749707 0.33488933622848965 0.6651106637715103 0.05982230244381467 0.9401776975561853 0.22337524267859513 0.7766247573214049 </TABLE>
</DEFINITION>

<DEFINITION>
	<FOR>variable498</FOR>
	<TABLE>0.559571948396075 0.44042805160392495 </TABLE>
</DEFINITION>

<DEFINITION>
	<FOR>variable119</FOR>
	<TABLE>0.27573064882183507 0.10585601358273111 0.6184133375954338 </TABLE>
</DEFINITION>

<DEFINITION>
	<FOR>variable531</FOR>
	<TABLE>0.16445157238867275 0.8355484276113272 </TABLE>
</DEFINITION>

<DEFINITION>
	<FOR>variable681</FOR>
	<TABLE>0.952924760626356 0.04707523937364402 </TABLE>
</DEFINITION>


</NETWORK>
</BIF>
