network Discrete_Bayesian_network {
}

variable variable36 {
	type discrete[2] { state0, state1 };
}

variable variable38 {
	type discrete[3] { state0, state1, state2 };
}

variable variable37 {
	type discrete[2] { state0, state1 };
}

variable hs160 {
	type discrete[2] { 1, 2 };
}

variable hs170 {
	type discrete[2] { 1, 2 };
}

variable hs180 {
	type discrete[2] { 1, 2 };
}

variable hs190 {
	type discrete[2] { 1, 2 };
}

variable hh040 {
	type discrete[2] { 1, 2 };
}

variable hs050 {
	type discrete[2] { 1, 2 };
}

variable hs060 {
	type discrete[2] { 1, 2 };
}

variable hh050 {
	type discrete[2] { 1, 2 };
}

variable h79_u {
	type discrete[2] { 1, 2 };
}

variable h80_u {
	type discrete[2] { 1, 2 };
}

probability ( variable36 ) {
	table 0.8426721027609652, 0.15732789723903481;
}

probability ( variable38 ) {
	table 0.13333725693385348, 0.7734157182362159, 0.09324702482993075;
}

probability ( variable37 ) {
	table 0.7846145255648163, 0.21538547443518383;
}

probability ( hs160 | variable37, variable38 ) {
	(state0, state0) 0.12515765747376872, 0.8748423425262313;
	(state0, state1) 0.0036344383934860487, 0.996365561606514;
	(state0, state2) 0.06788772137015711, 0.9321122786298429;
	(state1, state0) 0.3108340526775086, 0.6891659473224914;
	(state1, state1) 0.07454643871926864, 0.9254535612807314;
	(state1, state2) 0.2734387548348347, 0.7265612451651653;
}

probability ( hs170 | variable37, variable38 ) {
	(state0, state0) 0.14168574521338237, 0.8583142547866176;
	(state0, state1) 0.025994052621869768, 0.9740059473781303;
	(state0, state2) 0.10788301878671491, 0.892116981213285;
	(state1, state0) 0.7512144846900819, 0.24878551530991813;
	(state1, state1) 0.45962220779022417, 0.5403777922097758;
	(state1, state2) 0.7571099861200503, 0.24289001387994968;
}

probability ( hs180 | variable37, variable38 ) {
	(state0, state0) 0.08005771850017285, 0.9199422814998273;
	(state0, state1) 0.010157583008041255, 0.9898424169919587;
	(state0, state2) 0.04603184490800643, 0.9539681550919935;
	(state1, state0) 0.7177068257607285, 0.28229317423927147;
	(state1, state1) 0.2685503415569752, 0.7314496584430248;
	(state1, state2) 0.7073239249921345, 0.2926760750078656;
}

probability ( hs190 | variable37, variable38 ) {
	(state0, state0) 0.08661303424161416, 0.9133869657583858;
	(state0, state1) 0.034945906837626634, 0.9650540931623734;
	(state0, state2) 0.0694542385551632, 0.9305457614448367;
	(state1, state0) 0.6460207898821999, 0.3539792101178;
	(state1, state1) 0.2349463632004117, 0.7650536367995883;
	(state1, state2) 0.5883302315400996, 0.4116697684599005;
}

probability ( hh040 | variable37, variable38 ) {
	(state0, state0) 0.44855478475175287, 0.5514452152482471;
	(state0, state1) 0.057685366789684195, 0.9423146332103158;
	(state0, state2) 0.22198734123359867, 0.7780126587664015;
	(state1, state0) 0.4279035694865913, 0.5720964305134086;
	(state1, state1) 0.142702454901338, 0.8572975450986621;
	(state1, state2) 0.6332518195538376, 0.36674818044616236;
}

probability ( hs050 | variable36, variable38 ) {
	(state0, state0) 0.9945471671421788, 0.005452832857821166;
	(state0, state1) 0.9981678334013253, 0.0018321665986746833;
	(state0, state2) 0.9666565317112926, 0.03334346828870734;
	(state1, state0) 0.7689944177838468, 0.23100558221615325;
	(state1, state1) 0.9757513596893573, 0.02424864031064257;
	(state1, state2) 0.11033726207344208, 0.8896627379265579;
}

probability ( hs060 | variable36, variable38 ) {
	(state0, state0) 0.4825787258263054, 0.5174212741736947;
	(state0, state1) 0.861633394604906, 0.138366605395094;
	(state0, state2) 0.014530380471232923, 0.985469619528767;
	(state1, state0) 0.2872531662779402, 0.7127468337220598;
	(state1, state1) 0.21256304337333523, 0.7874369566266647;
	(state1, state2) 0.043047618889625855, 0.9569523811103741;
}

probability ( hh050 | variable36, variable38 ) {
	(state0, state0) 0.9393319394349295, 0.06066806056507057;
	(state0, state1) 0.9954951611479645, 0.004504838852035404;
	(state0, state2) 0.6722333114800081, 0.32776668851999186;
	(state1, state0) 0.2013516920181074, 0.7986483079818927;
	(state1, state1) 0.8083295973476076, 0.19167040265239235;
	(state1, state2) 0.06506863173340381, 0.9349313682665963;
}

probability ( h79_u | variable38 ) {
	(state0) 0.03008503491075428, 0.9699149650892458;
	(state1) 0.0032545601965250606, 0.996745439803475;
	(state2) 0.6453554460005694, 0.3546445539994305;
}

probability ( h80_u | variable38 ) {
	(state0) 0.010634677027966902, 0.9893653229720331;
	(state1) 0.0012212988955933634, 0.9987787011044066;
	(state2) 0.29510431656416697, 0.704895683435833;
}

