// estudios/condiciones_vida/olcmHC/intermidiate/olcm_simplification_iter_2.obif
// Produced at Sun Apr 22 18:12:26 CEST 2018
network "olcm" {
}

variable "MV_hs160" {
	type discrete[2] { "1" "2" };
}

variable "MV_hs170" {
	type discrete[2] { "1" "2" };
}

variable "MV_hs180" {
	type discrete[2] { "1" "2" };
}

variable "MV_hs190" {
	type discrete[2] { "1" "2" };
}

variable "MV_hh040" {
	type discrete[2] { "1" "2" };
}

variable "MV_hs050" {
	type discrete[2] { "1" "2" };
}

variable "MV_hs060" {
	type discrete[2] { "1" "2" };
}

variable "MV_hh050" {
	type discrete[2] { "1" "2" };
}

variable "MV_h79_u" {
	type discrete[2] { "1" "2" };
}

variable "MV_h80_u" {
	type discrete[2] { "1" "2" };
}

variable "LV_variable69" {
	type discrete[2] { "state0" "state1" };
}

variable "LV_variable145" {
	type discrete[2] { "state0" "state1" };
}

variable "LV_variable11" {
	type discrete[3] { "state0" "state1" "state2" };
}

probability ( "MV_hs160" | "LV_variable145", "LV_variable11" ) {
	table 0.05642694764740428 0.281183625311727 0.24803818673553296 0.004707931931508593 0.07415682597360644 0.09947395746854878 0.9435730523525957 0.7188163746882729 0.751961813264467 0.9952920680684915 0.9258431740263936 0.9005260425314512;
}
probability ( "MV_hs170" | "LV_variable145", "LV_variable11" ) {
	table 0.4644977897619013 0.7492729112384302 0.6915929280901922 0.02159904170771632 0.10735776808522117 0.09838123712745094 0.5355022102380986 0.25072708876156974 0.3084070719098079 0.9784009582922837 0.8926422319147788 0.901618762872549;
}
probability ( "MV_hs180" | "LV_variable145", "LV_variable11" ) {
	table 0.2512300221965342 0.6793088453638617 0.6688439282168701 0.009745604119738696 0.036874889138008855 0.04134026784651733 0.7487699778034658 0.3206911546361382 0.33115607178312984 0.9902543958802613 0.963125110861991 0.9586597321534828;
}
probability ( "MV_hs190" | "LV_variable145", "LV_variable11" ) {
	table 0.19672735486143014 0.5789028995369763 0.589518445461394 0.031696373766882724 0.08039003968719241 0.08324006063072666 0.8032726451385698 0.4210971004630238 0.41048155453860596 0.9683036262331173 0.9196099603128077 0.9167599393692734;
}
probability ( "MV_hh040" | "LV_variable11", "LV_variable145" ) {
	table 0.14660840332696168 0.04595347757559364 0.5884746899938424 0.2537290508858394 0.3865183968903593 0.39262939498539406 0.8533915966730382 0.9540465224244064 0.4115253100061576 0.7462709491141606 0.6134816031096406 0.6073706050146059;
}
probability ( "MV_hs050" | "LV_variable11", "LV_variable69" ) {
	table 0.9778420951817474 0.999115112081643 0.08629869667618426 0.9558134504642288 0.7789498782774003 0.9960148534510994 0.022157904818252607 8.848879183567956E-4 0.9137013033238158 0.044186549535771155 0.22105012172259975 0.0039851465489005675;
}
probability ( "MV_hs060" | "LV_variable11", "LV_variable69" ) {
	table 0.17809878280777844 0.863077694214722 0.029889254447820663 0.024554880039536108 0.3659118726326496 0.559685160271491 0.8219012171922216 0.136922305785278 0.9701107455521792 0.9754451199604638 0.6340881273673503 0.44031483972850904;
}
probability ( "MV_hh050" | "LV_variable11", "LV_variable69" ) {
	table 0.7896449815858462 0.995973687426555 0.04638747524644616 0.6604573110893788 0.24311616982798748 0.9646764096547848 0.2103550184141538 0.004026312573444893 0.9536125247535538 0.3395426889106211 0.7568838301720124 0.03532359034521509;
}
probability ( "MV_h79_u" | "LV_variable11" ) {
	table 0.004053150231561282 0.6276932529618066 0.019622758142027755 0.9959468497684387 0.3723067470381934 0.9803772418579723;
}
probability ( "MV_h80_u" | "LV_variable11" ) {
	table 7.579960268157646E-4 0.2844213371871302 0.004168063285406832 0.9992420039731843 0.7155786628128699 0.9958319367145932;
}
probability ( "LV_variable69"  ) {
	table 0.1525108035604535 0.8474891964395465;
}
probability ( "LV_variable145"  ) {
	table 0.23009951354079836 0.7699004864592016;
}
probability ( "LV_variable11"  ) {
	table 0.7390007815613363 0.0956790858006578 0.16532013263800585;
}
