network olcm {
}

variable hs160 {
	type discrete[2] { 1, 2 };
}

variable hs170 {
	type discrete[2] { 1, 2 };
}

variable hs180 {
	type discrete[2] { 1, 2 };
}

variable hs190 {
	type discrete[2] { 1, 2 };
}

variable hh040 {
	type discrete[2] { 1, 2 };
}

variable hs050 {
	type discrete[2] { 1, 2 };
}

variable hs060 {
	type discrete[2] { 1, 2 };
}

variable hh050 {
	type discrete[2] { 1, 2 };
}

variable h79_u {
	type discrete[2] { 1, 2 };
}

variable h80_u {
	type discrete[2] { 1, 2 };
}

variable variable69 {
	type discrete[2] { state0, state1 };
}

variable variable145 {
	type discrete[2] { state0, state1 };
}

variable variable11 {
	type discrete[3] { state0, state1, state2 };
}

probability ( hs160 | variable69, variable11, variable145 ) {
	(state0, state0, state0) 0.5012351838776847, 0.49876481612231527;
	(state0, state0, state1) 0.14162874585338983, 0.8583712541466102;
	(state0, state1, state0) 0.11070218943988276, 0.8892978105601171;
	(state0, state1, state1) 0.040015210996636304, 0.9599847890033638;
	(state0, state2, state0) 0.2290438632778632, 0.7709561367221368;
	(state0, state2, state1) 0.04237463644394152, 0.9576253635560585;
	(state1, state0, state0) 0.3193086202766597, 0.6806913797233404;
	(state1, state0, state1) 0.12358687355547282, 0.8764131264445272;
	(state1, state1, state0) 0.21662707028678502, 0.783372929713215;
	(state1, state1, state1) 0.04198285886509039, 0.9580171411349095;
	(state1, state2, state0) 0.09536533482057058, 0.9046346651794295;
	(state1, state2, state1) 0.003793834516964908, 0.996206165483035;
}

probability ( hs170 | variable145 ) {
	(state0) 0.6060704685610343, 0.39392953143896564;
	(state1) 0.06107403215373588, 0.9389259678462643;
}

probability ( hs180 | variable11, variable145 ) {
	(state0, state0) 0.7001079025627893, 0.2998920974372108;
	(state0, state1) 0.05647333780316133, 0.9435266621968387;
	(state1, state0) 0.6306125331086658, 0.3693874668913343;
	(state1, state1) 0.02451972620729234, 0.9754802737927076;
	(state2, state0) 0.37011309544854076, 0.6298869045514592;
	(state2, state1) 0.02142498020877277, 0.9785750197912272;
}

probability ( hs190 | variable11, variable145 ) {
	(state0, state0) 0.6675863064708925, 0.33241369352910755;
	(state0, state1) 0.10752363670811992, 0.8924763632918801;
	(state1, state0) 0.4909015157787974, 0.5090984842212025;
	(state1, state1) 0.05867968690673897, 0.9413203130932609;
	(state2, state0) 0.31565882268584694, 0.6843411773141531;
	(state2, state1) 0.039701404230891496, 0.9602985957691086;
}

probability ( hh040 | variable11, variable145 ) {
	(state0, state0) 0.7426300350013857, 0.25736996499861436;
	(state0, state1) 0.3529439277828718, 0.6470560722171281;
	(state1, state0) 0.3665086608213732, 0.6334913391786268;
	(state1, state1) 0.1992125862062924, 0.8007874137937077;
	(state2, state0) 0.25672748990816635, 0.7432725100918337;
	(state2, state1) 0.07660846999975086, 0.9233915300002492;
}

probability ( hs050 | variable69, variable11 ) {
	(state0, state0) 0.11137332732219954, 0.8886266726778005;
	(state0, state1) 0.7762583790702783, 0.22374162092972166;
	(state0, state2) 0.9963855399960538, 0.0036144600039462148;
	(state1, state0) 0.924156512732886, 0.07584348726711389;
	(state1, state1) 0.9886802488185248, 0.011319751181475286;
	(state1, state2) 0.9988359932974639, 0.0011640067025361774;
}

probability ( hs060 | variable11 ) {
	(state0) 0.018207252586582994, 0.9817927474134169;
	(state1) 0.14158895818466796, 0.858411041815332;
	(state2) 0.837432958397595, 0.16256704160240493;
}

probability ( hh050 | variable69, variable11 ) {
	(state0, state0) 0.042354528592919716, 0.9576454714070802;
	(state0, state1) 0.2093515796208079, 0.7906484203791921;
	(state0, state2) 0.955697347690466, 0.044302652309533966;
	(state1, state0) 0.5850918522033831, 0.4149081477966169;
	(state1, state1) 0.8933053318264593, 0.10669466817354065;
	(state1, state2) 0.99645222900636, 0.0035477709936400387;
}

probability ( h79_u | variable11 ) {
	(state0) 0.7698525378224939, 0.2301474621775062;
	(state1) 0.14887259694392685, 0.8511274030560732;
	(state2) 0.0015226752081284323, 0.9984773247918716;
}

probability ( h80_u | variable11 ) {
	(state0) 0.4925589749356653, 0.5074410250643347;
	(state1) 0.03299219853746116, 0.9670078014625387;
	(state2) 4.618057992639689E-4, 0.999538194200736;
}

probability ( variable69 ) {
	table 0.2380874057947741, 0.761912594205226;
}

probability ( variable145 ) {
	table 0.17143259401307268, 0.8285674059869272;
}

probability ( variable11 ) {
	table 0.042446965489507535, 0.21813063454041848, 0.739422399970074;
}

