network olcm - egypt_12 {
}

variable d30b {
	type discrete[5] { 1, 2, 3, 4, 5 };
}

variable g30a {
	type discrete[5] { 1, 2, 3, 4, 5 };
}

variable j30a {
	type discrete[5] { 1, 2, 3, 4, 5 };
}

variable j30b {
	type discrete[5] { 1, 2, 3, 4, 5 };
}

variable j30c {
	type discrete[5] { 1, 2, 3, 4, 5 };
}

variable j30e {
	type discrete[5] { 1, 2, 3, 4, 5 };
}

variable j30f {
	type discrete[5] { 1, 2, 3, 4, 5 };
}

variable l30a {
	type discrete[5] { 1, 2, 3, 4, 5 };
}

variable l30b {
	type discrete[5] { 1, 2, 3, 4, 5 };
}

variable i30 {
	type discrete[5] { 1, 2, 3, 4, 5 };
}

variable d30a {
	type discrete[5] { 1, 2, 3, 4, 5 };
}

variable c30a {
	type discrete[5] { 1, 2, 3, 4, 5 };
}

variable variable83 {
	type discrete[6] { state0, state1, state2, state3, state4, state5 };
}

variable variable267 {
	type discrete[4] { state0, state1, state2, state3 };
}

probability ( d30b | variable267 ) {
	(state0) 0.9367799373079285, 0.0339523619397516, 0.012725700727579321, 0.00908233604894353, 0.007459663975797058;
	(state1) 0.3348268404709921, 0.3613899854237514, 0.24801120481324962, 0.046562168502666514, 0.00920980078934052;
	(state2) 0.6317089180397716, 0.02295220734334489, 0.14654285560448171, 0.19287462480627016, 0.005921394206131603;
	(state3) 0.6296538884379255, 0.10166480535908988, 0.11916337494810837, 0.07206167921948343, 0.07745625203539278;
}

probability ( g30a ) {
	table 0.7008281573498965, 0.09834368530020704, 0.09730848861283643, 0.06469979296066253, 0.03881987577639751;
}

probability ( j30a | variable83 ) {
	(state0) 0.32251156502632367, 0.5340127786851472, 0.08520256560545292, 0.038465511920338535, 0.019807578762737695;
	(state1) 0.838653375962216, 0.06604642614072125, 0.06281481362015068, 0.024515530142345674, 0.007969854134566476;
	(state2) 0.00856534671962701, 0.010417062595220522, 0.031731673207576465, 0.0731887707766508, 0.8760971467009252;
	(state3) 0.012556510940432366, 0.010551387628484912, 0.03633816073749793, 0.8361322901018955, 0.10442165059168917;
	(state4) 0.012635551353723956, 0.0804428244748879, 0.6568865166091027, 0.2391310745539094, 0.010904033008376158;
	(state5) 0.08471046610806632, 0.28867824288239197, 0.4064145005358627, 0.19219767851419542, 0.027999111959483507;
}

probability ( j30b | variable83 ) {
	(state0) 0.5258717540764084, 0.4394569743461864, 0.012906535094245884, 0.016072260042595234, 0.005692476440564186;
	(state1) 0.9209009134969167, 0.011527241232559953, 0.05527361355165817, 0.007992533560043213, 0.004305698158822017;
	(state2) 0.060160665580383015, 0.024216488111481735, 0.05375160687175518, 0.01998492419915496, 0.8418863152372251;
	(state3) 0.06445896958572823, 0.02294191070042842, 0.06265245640992212, 0.8360074766417871, 0.013939186662134085;
	(state4) 0.051737082525598437, 0.23351163555474103, 0.631040666149203, 0.0717751180958508, 0.011935497674606776;
	(state5) 0.408426158373694, 0.31290669620498424, 0.23500875219637887, 0.03284409893443926, 0.010814294290503665;
}

probability ( j30c | variable267 ) {
	(state0) 0.8781118855385208, 0.04164163712354391, 0.041860105798183035, 0.026743475438665787, 0.011642896101086462;
	(state1) 0.23185346166538795, 0.41445821352139395, 0.2867069175161453, 0.05277253652101051, 0.014208870776062352;
	(state2) 0.24222428848269068, 0.06615872841217327, 0.22246567960414249, 0.44364736151753337, 0.025503941983460347;
	(state3) 0.4302012387370487, 0.14251181480782435, 0.16671589901987802, 0.11044029211264386, 0.15013075532260517;
}

probability ( j30e | variable267 ) {
	(state0) 0.0789662458480072, 0.049913609677951595, 0.1168264939873132, 0.3980105143587191, 0.3562831361280089;
	(state1) 0.015231876700222776, 0.15762404983923478, 0.39465289217390637, 0.3056816039099556, 0.12680957737668036;
	(state2) 0.00637096676021811, 0.004643251794131763, 0.025165992720146555, 0.8143816537121205, 0.14943813501338307;
	(state3) 0.009268709914857768, 0.0030011811770108256, 0.0049351242481625816, 0.06964438046712987, 0.9131506041928389;
}

probability ( j30f | variable267 ) {
	(state0) 0.38291971492416493, 0.1618937244356839, 0.22934318698768655, 0.15534910408870495, 0.07049426956375954;
	(state1) 0.12585636358436106, 0.1901758350419584, 0.36310464662473196, 0.2572737008715735, 0.06358945387737502;
	(state2) 0.03413124621203051, 0.011335644280724515, 0.03955524499909625, 0.8615371638023946, 0.053440700705753894;
	(state3) 0.012128823206989124, 0.0077349307659814875, 0.023328611338582474, 0.10004321795251063, 0.8567644167359362;
}

probability ( l30a | variable83 ) {
	(state0) 0.2806074549509896, 0.41113575553905773, 0.2495908753300084, 0.03662266012728327, 0.02204325405266117;
	(state1) 0.829043492014021, 0.029794093653871253, 0.010486865360150184, 0.1205869269285524, 0.010088622043405215;
	(state2) 0.2892474859331372, 0.035756840803746526, 0.12797177916002056, 0.17317110297125296, 0.37385279113184283;
	(state3) 0.39711756350281163, 0.10808330198756869, 0.2519267660811346, 0.20693127790080712, 0.035941090527678084;
	(state4) 0.07143944274386362, 0.23641968875434677, 0.48705130424727777, 0.18839191424317764, 0.016697650011334313;
	(state5) 0.8757696045826382, 0.07659957526059717, 0.027240415985164194, 0.004614998499172439, 0.015775405672428126;
}

probability ( l30b | variable83 ) {
	(state0) 0.15898315362498258, 0.48163180542490786, 0.18678270378576428, 0.1063131761736908, 0.06628916099065452;
	(state1) 0.8225920297844784, 0.04759108850800075, 0.0503581705772815, 0.05386581188829076, 0.02559289924194866;
	(state2) 0.3869322278504333, 0.09533904421889403, 0.14641136097494611, 0.16724016711322964, 0.20407719984249678;
	(state3) 0.5581579814853102, 0.12821653285194037, 0.13891712340295073, 0.11465935484910882, 0.06004900741068985;
	(state4) 0.1739222338176632, 0.3165442000559268, 0.30662259865594305, 0.1779280758737436, 0.02498289159672335;
	(state5) 0.8902023764489143, 0.050268848306759074, 0.03560666457340942, 0.011269398298861715, 0.012652712372055341;
}

probability ( i30 | variable267 ) {
	(state0) 0.5363299445690629, 0.24557040795663135, 0.13148326509657457, 0.0682998889654655, 0.01831649341226558;
	(state1) 0.12858496128424116, 0.3117452485418815, 0.42087073080386733, 0.08668976813919677, 0.052109291230813086;
	(state2) 0.20390491131543034, 0.04953962234557632, 0.17728854249907836, 0.5063505738707585, 0.06291634996915654;
	(state3) 0.11073940859918487, 0.08671649218161487, 0.1443558923843122, 0.23410889790663986, 0.42407930892824813;
}

probability ( d30a | variable267 ) {
	(state0) 0.8222601494762404, 0.08155868473038047, 0.0665150815713753, 0.016830332547483576, 0.012835751674520198;
	(state1) 0.18138915550491214, 0.44488585654028023, 0.30850534326717, 0.057616248583264446, 0.0076033961043732575;
	(state2) 0.5429781281251234, 0.0570701787835371, 0.13490414680727852, 0.24426505723377542, 0.02078248905028544;
	(state3) 0.3610909704267007, 0.13030390079514556, 0.1711968703626892, 0.192810168420023, 0.14459808999544163;
}

probability ( c30a ) {
	table 0.2686335403726708, 0.13302277432712215, 0.16873706004140787, 0.2453416149068323, 0.18426501035196688;
}

probability ( variable83 ) {
	table 0.1171411364493405, 0.3344905141257564, 0.0802935846695025, 0.10385437086502874, 0.13554204395121347, 0.22867834993915837;
}

probability ( variable267 ) {
	table 0.3753471484706507, 0.16712995154112345, 0.139067861662213, 0.3184550383260128;
}

