network olcm - cond_12 {
}

variable hs180 {
	type discrete[2] { 1, 2 };
}

variable hs190 {
	type discrete[2] { 1, 2 };
}

variable hh081 {
	type discrete[3] { 1, 2, 3 };
}

variable db100 {
	type discrete[3] { 1, 2, 3 };
}

variable hs050 {
	type discrete[2] { 1, 2 };
}

variable h79_u {
	type discrete[2] { 1, 2 };
}

variable hs060 {
	type discrete[2] { 1, 2 };
}

variable hs070 {
	type discrete[3] { 1, 2, 3 };
}

variable hs100 {
	type discrete[3] { 1, 2, 3 };
}

variable hs040 {
	type discrete[2] { 1, 2 };
}

variable family_size {
	type discrete[5] { 1, 2, 3, 4, 5 };
}

variable hc190 {
	type discrete[2] { 1, 2 };
}

variable variable498 {
	type discrete[2] { state0, state1 };
}

variable variable119 {
	type discrete[3] { state0, state1, state2 };
}

variable variable531 {
	type discrete[2] { state0, state1 };
}

variable variable681 {
	type discrete[2] { state0, state1 };
}

probability ( hs180 | variable119, variable531 ) {
	(state0, state0) 0.41038136271161946, 0.5896186372883805;
	(state0, state1) 0.021110461437693507, 0.9788895385623064;
	(state1, state0) 0.7822037018189383, 0.2177962981810618;
	(state1, state1) 0.0844017189361343, 0.9155982810638658;
	(state2, state0) 0.4277187461022663, 0.5722812538977338;
	(state2, state1) 0.01665771380296309, 0.9833422861970369;
}

probability ( hs190 | variable119, variable531 ) {
	(state0, state0) 0.3640903812397276, 0.6359096187602725;
	(state0, state1) 0.03473066237570737, 0.9652693376242927;
	(state1, state0) 0.747130576613892, 0.25286942338610796;
	(state1, state1) 0.10958680703574832, 0.8904131929642517;
	(state2, state0) 0.3458813532058201, 0.65411864679418;
	(state2, state1) 0.04016748657426082, 0.9598325134257392;
}

probability ( hh081 | variable681 ) {
	(state0) 0.9975040195105891, 2.1738152745374122E-4, 0.002278598961957148;
	(state1) 0.9488388317531719, 0.03294405256686763, 0.018217115679960535;
}

probability ( db100 | variable119, variable531 ) {
	(state0, state0) 0.6752250910169345, 0.24216522676232213, 0.08260968222074334;
	(state0, state1) 0.3682054532616348, 0.20973991083145954, 0.4220546359069058;
	(state1, state0) 0.8085232145146909, 0.10676909912984037, 0.08470768635546874;
	(state1, state1) 0.5156797698650908, 0.26416757460295276, 0.22015265553195637;
	(state2, state0) 0.7588009023298604, 0.16554497947478006, 0.07565411819535955;
	(state2, state1) 0.5256833336137358, 0.21444169960808357, 0.2598749667781807;
}

probability ( hs050 | variable119 ) {
	(state0) 0.9802935649689825, 0.01970643503101764;
	(state1) 0.816368872098944, 0.18363112790105593;
	(state2) 0.9974909978474987, 0.0025090021525011694;
}

probability ( h79_u | variable119 ) {
	(state0) 0.023364992356225984, 0.976635007643774;
	(state1) 0.5411698605732246, 0.45883013942677536;
	(state2) 0.004161835744562413, 0.9958381642554376;
}

probability ( hs060 | variable119, variable531 ) {
	(state0, state0) 0.3289933434962705, 0.6710066565037296;
	(state0, state1) 0.3667072379593014, 0.6332927620406986;
	(state1, state0) 0.031081820018319124, 0.9689181799816808;
	(state1, state1) 0.011319848881320442, 0.9886801511186797;
	(state2, state0) 0.8367025542555211, 0.16329744574447896;
	(state2, state1) 0.8995910892692252, 0.10040891073077485;
}

probability ( hs070 | variable681 ) {
	(state0) 0.9964921605149866, 8.280466278321539E-4, 0.0026797928571813357;
	(state1) 0.793056642009626, 0.03107064275118444, 0.17587271523918954;
}

probability ( hs100 | variable681 ) {
	(state0) 0.9986435505703866, 0.0010468019839028945, 3.096474457106324E-4;
	(state1) 0.9109044897071041, 0.017695377480917367, 0.0714001328119784;
}

probability ( hs040 | variable119 ) {
	(state0) 0.01577248239135246, 0.9842275176086476;
	(state1) 0.09784536747903738, 0.9021546325209626;
	(state2) 0.9866304846636402, 0.013369515336359744;
}

probability ( family_size | variable681, variable498 ) {
	(state0, state0) 0.24568203985397274, 0.1877206062988916, 0.24085588970626867, 0.2817115116119095, 0.04402995252895761;
	(state0, state1) 0.14348897602770994, 0.49595441261528633, 0.21015924233812922, 0.07124688709885632, 0.07915048192001815;
	(state1, state0) 0.7583470129917874, 0.10391101779009003, 0.06868324594042478, 0.020009792058139384, 0.04904893121955842;
	(state1, state1) 0.5805859027204472, 0.31400681060848545, 0.03173832465669753, 0.03427483541414251, 0.039394126600227196;
}

probability ( hc190 | variable119, variable498 ) {
	(state0, state0) 0.08805414308289776, 0.9119458569171022;
	(state0, state1) 0.4874300624773287, 0.5125699375226713;
	(state1, state0) 0.17347019152502927, 0.8265298084749707;
	(state1, state1) 0.33488933622848965, 0.6651106637715103;
	(state2, state0) 0.05982230244381467, 0.9401776975561853;
	(state2, state1) 0.22337524267859513, 0.7766247573214049;
}

probability ( variable498 ) {
	table 0.559571948396075, 0.44042805160392495;
}

probability ( variable119 ) {
	table 0.27573064882183507, 0.10585601358273111, 0.6184133375954338;
}

probability ( variable531 ) {
	table 0.16445157238867275, 0.8355484276113272;
}

probability ( variable681 ) {
	table 0.952924760626356, 0.04707523937364402;
}

