<?xml version="1.0" encoding="US-ASCII"?>


<!--
	Bayesian network in XMLBIF v0.3 (BayesNet Interchange Format)
	Produced by JavaBayes (http://www.cs.cmu.edu/~javabayes/
	Output created Thu Feb 15 16:48:23 GMT+01:00 2018
-->



<!-- DTD for the XMLBIF 0.3 format -->
<!DOCTYPE BIF [
	<!ELEMENT BIF ( NETWORK )*>
	      <!ATTLIST BIF VERSION CDATA #REQUIRED>
	<!ELEMENT NETWORK ( NAME, ( PROPERTY | VARIABLE | DEFINITION )* )>
	<!ELEMENT NAME (#PCDATA)>
	<!ELEMENT VARIABLE ( NAME, ( OUTCOME |  PROPERTY )* ) >
	      <!ATTLIST VARIABLE TYPE (nature|decision|utility) "nature">
	<!ELEMENT OUTCOME (#PCDATA)>
	<!ELEMENT DEFINITION ( FOR | GIVEN | TABLE | PROPERTY )* >
	<!ELEMENT FOR (#PCDATA)>
	<!ELEMENT GIVEN (#PCDATA)>
	<!ELEMENT TABLE (#PCDATA)>
	<!ELEMENT PROPERTY (#PCDATA)>
]>


<BIF VERSION="0.3">
<NETWORK>
<NAME>unknown</NAME>

<!-- Variables -->
<VARIABLE TYPE="nature">
	<NAME>hh010</NAME>
	<OUTCOME>1</OUTCOME>
	<OUTCOME>2</OUTCOME>
	<OUTCOME>3</OUTCOME>
	<OUTCOME>4</OUTCOME>
	<PROPERTY>position = (100, 100)</PROPERTY>
</VARIABLE>

<VARIABLE TYPE="nature">
	<NAME>hh021</NAME>
	<OUTCOME>1</OUTCOME>
	<OUTCOME>2</OUTCOME>
	<OUTCOME>3</OUTCOME>
	<OUTCOME>4</OUTCOME>
	<OUTCOME>5</OUTCOME>
	<PROPERTY>position = (100, 100)</PROPERTY>
</VARIABLE>

<VARIABLE TYPE="nature">
	<NAME>hh030</NAME>
	<OUTCOME>1</OUTCOME>
	<OUTCOME>2</OUTCOME>
	<OUTCOME>3</OUTCOME>
	<OUTCOME>4</OUTCOME>
	<OUTCOME>5</OUTCOME>
	<OUTCOME>6</OUTCOME>
	<PROPERTY>position = (100, 100)</PROPERTY>
</VARIABLE>

<VARIABLE TYPE="nature">
	<NAME>db100</NAME>
	<OUTCOME>1</OUTCOME>
	<OUTCOME>2</OUTCOME>
	<OUTCOME>3</OUTCOME>
	<PROPERTY>position = (100, 100)</PROPERTY>
</VARIABLE>

<VARIABLE TYPE="nature">
	<NAME>hh081</NAME>
	<OUTCOME>1</OUTCOME>
	<OUTCOME>2</OUTCOME>
	<OUTCOME>3</OUTCOME>
	<PROPERTY>position = (100, 100)</PROPERTY>
</VARIABLE>

<VARIABLE TYPE="nature">
	<NAME>hh091</NAME>
	<OUTCOME>1</OUTCOME>
	<OUTCOME>2</OUTCOME>
	<OUTCOME>3</OUTCOME>
	<PROPERTY>position = (100, 100)</PROPERTY>
</VARIABLE>

<VARIABLE TYPE="nature">
	<NAME>hs100</NAME>
	<OUTCOME>1</OUTCOME>
	<OUTCOME>2</OUTCOME>
	<OUTCOME>3</OUTCOME>
	<PROPERTY>position = (100, 100)</PROPERTY>
</VARIABLE>

<VARIABLE TYPE="nature">
	<NAME>hs160</NAME>
	<OUTCOME>1</OUTCOME>
	<OUTCOME>2</OUTCOME>
	<PROPERTY>position = (100, 100)</PROPERTY>
</VARIABLE>

<VARIABLE TYPE="nature">
	<NAME>hs170</NAME>
	<OUTCOME>1</OUTCOME>
	<OUTCOME>2</OUTCOME>
	<PROPERTY>position = (100, 100)</PROPERTY>
</VARIABLE>

<VARIABLE TYPE="nature">
	<NAME>hs180</NAME>
	<OUTCOME>1</OUTCOME>
	<OUTCOME>2</OUTCOME>
	<PROPERTY>position = (100, 100)</PROPERTY>
</VARIABLE>

<VARIABLE TYPE="nature">
	<NAME>hs190</NAME>
	<OUTCOME>1</OUTCOME>
	<OUTCOME>2</OUTCOME>
	<PROPERTY>position = (100, 100)</PROPERTY>
</VARIABLE>

<VARIABLE TYPE="nature">
	<NAME>hh040</NAME>
	<OUTCOME>1</OUTCOME>
	<OUTCOME>2</OUTCOME>
	<PROPERTY>position = (100, 100)</PROPERTY>
</VARIABLE>

<VARIABLE TYPE="nature">
	<NAME>family_size</NAME>
	<OUTCOME>1</OUTCOME>
	<OUTCOME>2</OUTCOME>
	<OUTCOME>3</OUTCOME>
	<OUTCOME>4</OUTCOME>
	<OUTCOME>5</OUTCOME>
	<PROPERTY>position = (100, 100)</PROPERTY>
</VARIABLE>

<VARIABLE TYPE="nature">
	<NAME>hc190</NAME>
	<OUTCOME>1</OUTCOME>
	<OUTCOME>2</OUTCOME>
	<PROPERTY>position = (100, 100)</PROPERTY>
</VARIABLE>

<VARIABLE TYPE="nature">
	<NAME>hs050</NAME>
	<OUTCOME>1</OUTCOME>
	<OUTCOME>2</OUTCOME>
	<PROPERTY>position = (100, 100)</PROPERTY>
</VARIABLE>

<VARIABLE TYPE="nature">
	<NAME>hs060</NAME>
	<OUTCOME>1</OUTCOME>
	<OUTCOME>2</OUTCOME>
	<PROPERTY>position = (100, 100)</PROPERTY>
</VARIABLE>

<VARIABLE TYPE="nature">
	<NAME>hh050</NAME>
	<OUTCOME>1</OUTCOME>
	<OUTCOME>2</OUTCOME>
	<PROPERTY>position = (100, 100)</PROPERTY>
</VARIABLE>

<VARIABLE TYPE="nature">
	<NAME>h79_u</NAME>
	<OUTCOME>1</OUTCOME>
	<OUTCOME>2</OUTCOME>
	<PROPERTY>position = (100, 100)</PROPERTY>
</VARIABLE>

<VARIABLE TYPE="nature">
	<NAME>h80_u</NAME>
	<OUTCOME>1</OUTCOME>
	<OUTCOME>2</OUTCOME>
	<PROPERTY>position = (100, 100)</PROPERTY>
</VARIABLE>

<VARIABLE TYPE="nature">
	<NAME>hs040</NAME>
	<OUTCOME>1</OUTCOME>
	<OUTCOME>2</OUTCOME>
	<PROPERTY>position = (100, 100)</PROPERTY>
</VARIABLE>

<VARIABLE TYPE="nature">
	<NAME>hs070</NAME>
	<OUTCOME>1</OUTCOME>
	<OUTCOME>2</OUTCOME>
	<OUTCOME>3</OUTCOME>
	<PROPERTY>position = (100, 100)</PROPERTY>
</VARIABLE>

<VARIABLE TYPE="nature">
	<NAME>hs080</NAME>
	<OUTCOME>1</OUTCOME>
	<OUTCOME>2</OUTCOME>
	<OUTCOME>3</OUTCOME>
	<PROPERTY>position = (100, 100)</PROPERTY>
</VARIABLE>

<VARIABLE TYPE="nature">
	<NAME>hs090</NAME>
	<OUTCOME>1</OUTCOME>
	<OUTCOME>2</OUTCOME>
	<OUTCOME>3</OUTCOME>
	<PROPERTY>position = (100, 100)</PROPERTY>
</VARIABLE>

<VARIABLE TYPE="nature">
	<NAME>hs110</NAME>
	<OUTCOME>1</OUTCOME>
	<OUTCOME>2</OUTCOME>
	<OUTCOME>3</OUTCOME>
	<PROPERTY>position = (100, 100)</PROPERTY>
</VARIABLE>

<VARIABLE TYPE="nature">
	<NAME>hd080</NAME>
	<OUTCOME>1</OUTCOME>
	<OUTCOME>2</OUTCOME>
	<OUTCOME>3</OUTCOME>
	<PROPERTY>position = (100, 100)</PROPERTY>
</VARIABLE>


<!-- Probability distributions -->
<DEFINITION>
	<FOR>hh010</FOR>
	<TABLE>0.1308088 0.202454 0.200409 0.4663282 </TABLE>
</DEFINITION>

<DEFINITION>
	<FOR>hh021</FOR>
	<GIVEN>hh030</GIVEN>
	<TABLE>0.13207547 0.11320755 0.62264151 0.03773585 0.09433962 0.23636364 0.19636364 0.40363636 0.08363636 0.08 0.42735043 0.22144522 0.23310023 0.04273504 0.07536908 0.50848401 0.25924896 0.14075104 0.03198887 0.05952712 0.57008449 0.27246544 0.0875576 0.01747312 0.05241935 0.65373372 0.24182833 0.05102312 0.00930109 0.04411374 </TABLE>
</DEFINITION>

<DEFINITION>
	<FOR>hh030</FOR>
	<GIVEN>hh010</GIVEN>
	<TABLE>0.001617251 0.008625337 0.052830189 0.137466307 0.281940701 0.517520215 0.001393243 0.01010101 0.066527342 0.178683386 0.324973877 0.418321142 0.004222379 0.030612245 0.130190007 0.297677692 0.369809993 0.167487685 0.005141388 0.021624074 0.094964464 0.29956147 0.408437925 0.170270679 </TABLE>
</DEFINITION>

<DEFINITION>
	<FOR>db100</FOR>
	<GIVEN>hh010</GIVEN>
	<GIVEN>hs110</GIVEN>
	<TABLE>0.1902682 0.2563943 0.5533375 0.1891892 0.3243243 0.4864865 0.2093023 0.1674419 0.6232558 0.2054078 0.238116 0.5564762 0.3269231 0.2019231 0.4711538 0.1751055 0.1772152 0.6476793 0.4648023 0.2825458 0.2526519 0.6666667 0.1884058 0.1449275 0.6345812 0.2085561 0.1568627 0.73649755 0.19169394 0.07180851 0.81219513 0.12439024 0.06341463 0.83574145 0.12623574 0.03802281 </TABLE>
</DEFINITION>

<DEFINITION>
	<FOR>hh081</FOR>
	<GIVEN>hh030</GIVEN>
	<TABLE>0.73584906 0.24528302 0.01886792 0.981818182 0.007272727 0.010909091 0.990675991 0.003108003 0.006216006 0.997774687 8.344924E-4 0.0013908206 0.9969278034 1.920123E-4 0.0028801843 0.997608291 0.0 0.002391709 </TABLE>
</DEFINITION>

<DEFINITION>
	<FOR>hh091</FOR>
	<GIVEN>hh081</GIVEN>
	<TABLE>0.9999292 0.0 7.083658E-5 0.0 1.0 0.0 0.1707317 0.0 0.8292683 </TABLE>
</DEFINITION>

<DEFINITION>
	<FOR>hs100</FOR>
	<GIVEN>hs090</GIVEN>
	<TABLE>0.998363171 5.11509E-4 0.00112532 0.98740554 0.01259446 0.0 0.986710964 0.002491694 0.010797342 </TABLE>
</DEFINITION>

<DEFINITION>
	<FOR>hs160</FOR>
	<GIVEN>h79_u</GIVEN>
	<GIVEN>hd080</GIVEN>
	<TABLE>0.1111111 0.8888889 0.1334951 0.8665049 0.06410256 0.93589744 0.02929954 0.97070046 0.05485528 0.94514472 0.04935225 0.95064775 </TABLE>
</DEFINITION>

<DEFINITION>
	<FOR>hs170</FOR>
	<GIVEN>hh010</GIVEN>
	<GIVEN>hs160</GIVEN>
	<GIVEN>hh040</GIVEN>
	<TABLE>0.3870968 0.6129032 0.1428571 0.8571429 0.1174863 0.8825137 0.04639889 0.95360111 0.3 0.7 0.1041667 0.8958333 0.1595197 0.8404803 0.06790698 0.93209302 0.4901961 0.5098039 0.3510638 0.6489362 0.3014085 0.6985915 0.1554227 0.8445773 0.5913978 0.4086022 0.4385965 0.5614035 0.3659004 0.6340996 0.1594454 0.8405546 </TABLE>
</DEFINITION>

<DEFINITION>
	<FOR>hs180</FOR>
	<GIVEN>db100</GIVEN>
	<GIVEN>hs170</GIVEN>
	<GIVEN>hh040</GIVEN>
	<TABLE>0.4834437 0.5165563 0.3278689 0.6721311 0.1702899 0.8297101 0.0645632 0.9354368 0.3546099 0.6453901 0.234104 0.765896 0.09041096 0.90958904 0.04038997 0.95961003 0.3363636 0.6636364 0.1761658 0.8238342 0.05152979 0.94847021 0.02166193 0.97833807 </TABLE>
</DEFINITION>

<DEFINITION>
	<FOR>hs190</FOR>
	<GIVEN>hs170</GIVEN>
	<GIVEN>hs180</GIVEN>
	<GIVEN>hh040</GIVEN>
	<TABLE>0.5536481 0.4463519 0.3768421 0.6231579 0.265625 0.734375 0.1850258 0.8149742 0.2641509 0.7358491 0.2549801 0.7450199 0.1000725 0.8999275 0.05476836 0.94523164 </TABLE>
</DEFINITION>

<DEFINITION>
	<FOR>hh040</FOR>
	<GIVEN>hh010</GIVEN>
	<GIVEN>hs160</GIVEN>
	<GIVEN>hs060</GIVEN>
	<TABLE>0.6538462 0.3461538 0.7368421 0.2631579 0.1615686 0.8384314 0.2990654 0.7009346 0.509434 0.490566 0.7411765 0.2588235 0.1710369 0.8289631 0.2805687 0.7194313 0.2586207 0.7413793 0.4137931 0.5862069 0.0970285 0.9029715 0.1860687 0.8139313 0.2285714 0.7714286 0.3630137 0.6369863 0.06556997 0.93443003 0.1209514 0.8790486 </TABLE>
</DEFINITION>

<DEFINITION>
	<FOR>family_size</FOR>
	<GIVEN>hc190</GIVEN>
	<GIVEN>hs090</GIVEN>
	<GIVEN>hs110</GIVEN>
	<TABLE>0.04404873 0.29803187 0.31021556 0.22024367 0.12746017 0.05714286 0.42857143 0.3 0.08571429 0.12857143 0.26190476 0.49206349 0.17460317 0.04761905 0.02380952 0.03883495 0.2815534 0.30097087 0.19417476 0.18446602 0.1333333 0.2888889 0.1777778 0.1555556 0.2444444 0.4 0.36 0.24 0.0 0.0 0.08653846 0.66586539 0.1875 0.03605769 0.02403846 0.30555556 0.44444444 0.16666667 0.02777778 0.05555556 0.52114803 0.41993958 0.05135952 0.00755287 0.0 0.11773199 0.2727392 0.27483922 0.26906418 0.06562541 0.2972973 0.28228228 0.23423423 0.11711712 0.06906907 0.50535714 0.29107143 0.14107143 0.04821429 0.01428571 0.1815718 0.2493225 0.2222222 0.200542 0.1463415 0.2746114 0.2642487 0.1813472 0.1450777 0.134715 0.52542373 0.33898305 0.11864407 0.0 0.01694915 0.2593458 0.55841122 0.12616822 0.03816199 0.01791277 0.58024691 0.32098765 0.04938272 0.02469136 0.02469136 0.762577229 0.203883495 0.024713151 0.005295675 0.00353045 </TABLE>
</DEFINITION>

<DEFINITION>
	<FOR>hc190</FOR>
	<GIVEN>hh021</GIVEN>
	<GIVEN>hs040</GIVEN>
	<GIVEN>hs090</GIVEN>
	<TABLE>0.1409753 0.8590247 0.2542373 0.7457627 0.2596217 0.7403783 0.2497925 0.7502075 0.32287 0.67713 0.3927188 0.6072812 0.06176203 0.93823797 0.03846154 0.96153846 0.1512605 0.8487395 0.136646 0.863354 0.1716418 0.8283582 0.2704403 0.7295597 0.05931034 0.94068966 0.02631579 0.97368421 0.1234568 0.8765432 0.1465517 0.8534483 0.1929825 0.8070175 0.3193277 0.6806723 0.09090909 0.90909091 0.0 1.0 0.2162162 0.7837838 0.2386364 0.7613636 0.2571429 0.7428571 0.4385965 0.5614035 0.07739938 0.92260062 0.1818182 0.8181818 0.2857143 0.7142857 0.1666667 0.8333333 0.1355932 0.8644068 0.3219178 0.6780822 </TABLE>
</DEFINITION>

<DEFINITION>
	<FOR>hs050</FOR>
	<GIVEN>hh050</GIVEN>
	<GIVEN>h80_u</GIVEN>
	<GIVEN>hs040</GIVEN>
	<TABLE>1.0 0.0 0.93121693 0.06878307 0.99837455 0.00162545 0.98323058 0.01676942 0.6666667 0.3333333 0.5418994 0.4581006 0.91162791 0.08837209 0.8071349 0.1928651 </TABLE>
</DEFINITION>

<DEFINITION>
	<FOR>hs060</FOR>
	<GIVEN>hh021</GIVEN>
	<GIVEN>hs090</GIVEN>
	<GIVEN>hs110</GIVEN>
	<TABLE>0.8115038 0.1884962 0.3444444 0.6555556 0.740113 0.259887 0.2716763 0.7283237 0.08333333 0.91666667 0.3265306 0.6734694 0.7057927 0.2942073 0.2830189 0.7169811 0.560658 0.439342 0.7233758 0.2766242 0.2625 0.7375 0.5588235 0.4411765 0.1627907 0.8372093 0.09090909 0.90909091 0.2222222 0.7777778 0.5446009 0.4553991 0.1176471 0.8823529 0.25 0.75 0.587886 0.412114 0.2369942 0.7630058 0.5 0.5 0.05208333 0.94791667 0.09473684 0.90526316 0.05555556 0.94444444 0.3333333 0.6666667 0.0 1.0 0.3513514 0.6486486 0.4579439 0.5420561 0.1923077 0.8076923 0.2380952 0.7619048 0.05714286 0.94285714 0.0 1.0 0.0 1.0 0.4230769 0.5769231 0.2857143 0.7142857 0.4098361 0.5901639 0.6872038 0.3127962 0.1470588 0.8529412 0.6 0.4 0.2564103 0.7435897 0.03846154 0.96153846 0.4 0.6 0.5421687 0.4578313 0.1764706 0.8235294 0.25 0.75 </TABLE>
</DEFINITION>

<DEFINITION>
	<FOR>hh050</FOR>
	<GIVEN>hs060</GIVEN>
	<GIVEN>hs040</GIVEN>
	<GIVEN>hs090</GIVEN>
	<TABLE>0.98906122 0.01093878 0.91935484 0.08064516 0.97657775 0.02342225 0.91494002 0.08505998 0.852459 0.147541 0.91666667 0.08333333 0.90250329 0.09749671 0.7733333 0.2266667 0.91749175 0.08250825 0.781155 0.218845 0.5889262 0.4110738 0.7845659 0.2154341 </TABLE>
</DEFINITION>

<DEFINITION>
	<FOR>h79_u</FOR>
	<GIVEN>hs060</GIVEN>
	<GIVEN>hh050</GIVEN>
	<GIVEN>hd080</GIVEN>
	<TABLE>0.001787843 0.998212157 0.02795527 0.97204473 0.01557936 0.98442064 0.0 1.0 0.09708738 0.90291262 0.0 1.0 0.03809524 0.96190476 0.1538736 0.8461264 0.07978723 0.92021277 0.1025641 0.8974359 0.3655462 0.6344538 0.2428571 0.7571429 </TABLE>
</DEFINITION>

<DEFINITION>
	<FOR>h80_u</FOR>
	<GIVEN>hs060</GIVEN>
	<GIVEN>h79_u</GIVEN>
	<GIVEN>hs090</GIVEN>
	<TABLE>0.1363636 0.8636364 0.1666667 0.8333333 0.04347826 0.95652174 0.001286082 0.998713918 0.008547009 0.991452991 4.89716E-4 0.999510284 0.208238 0.791762 0.4652174 0.5347826 0.1919192 0.8080808 0.02656794 0.97343206 0.1360544 0.8639456 0.01853225 0.98146775 </TABLE>
</DEFINITION>

<DEFINITION>
	<FOR>hs040</FOR>
	<GIVEN>db100</GIVEN>
	<GIVEN>hs060</GIVEN>
	<GIVEN>hs090</GIVEN>
	<TABLE>0.90606604 0.09393396 0.5686275 0.4313725 0.7796087 0.2203913 0.323489 0.676511 0.1055718 0.8944282 0.2313117 0.7686883 0.8526728 0.1473272 0.4347826 0.5652174 0.768595 0.231405 0.2476341 0.7523659 0.09655172 0.90344828 0.218241 0.781759 0.7976265 0.2023735 0.4693878 0.5306122 0.6853625 0.3146375 0.2037325 0.7962675 0.1351351 0.8648649 0.1355932 0.8644068 </TABLE>
</DEFINITION>

<DEFINITION>
	<FOR>hs070</FOR>
	<GIVEN>hs090</GIVEN>
	<TABLE>0.9949872123 8.184143E-4 0.0041943734 0.97229219 0.0163728 0.01133501 0.969269103 0.002491694 0.028239203 </TABLE>
</DEFINITION>

<DEFINITION>
	<FOR>hs080</FOR>
	<GIVEN>h79_u</GIVEN>
	<TABLE>0.984008528 0.008528785 0.007462687 0.994865212 3.77558E-4 0.00475723 </TABLE>
</DEFINITION>

<DEFINITION>
	<FOR>hs090</FOR>
	<GIVEN>hh021</GIVEN>
	<TABLE>0.60578754 0.03579134 0.35842112 0.87853578 0.04437049 0.07709373 0.7440551 0.1307885 0.1251564 0.4797508 0.2274143 0.2928349 0.63191763 0.09009009 0.27799228 </TABLE>
</DEFINITION>

<DEFINITION>
	<FOR>hs110</FOR>
	<GIVEN>hh021</GIVEN>
	<GIVEN>hs090</GIVEN>
	<TABLE>0.90697674 0.01885607 0.07416719 0.6134751 0.212766 0.1737589 0.46458924 0.01876771 0.51664305 0.9425505 0.02525253 0.03219697 0.80625 0.1375 0.05625 0.76618705 0.06115108 0.17266187 0.7081581 0.1455004 0.1463415 0.4593301 0.4545455 0.0861244 0.33 0.115 0.555 0.6948052 0.1688312 0.1363636 0.47945205 0.47945205 0.04109589 0.27659574 0.07446809 0.64893617 0.85947046 0.06924644 0.0712831 0.55714286 0.37142857 0.07142857 0.3842593 0.0787037 0.537037 </TABLE>
</DEFINITION>

<DEFINITION>
	<FOR>hd080</FOR>
	<GIVEN>hs060</GIVEN>
	<GIVEN>hh050</GIVEN>
	<GIVEN>hs040</GIVEN>
	<TABLE>0.8018645 0.09296218 0.10517332 0.44 0.3956364 0.1643636 0.5740741 0.25 0.1759259 0.2748092 0.5801526 0.1450382 0.2781587 0.5494613 0.17238 0.08400139 0.78075985 0.13523876 0.137931 0.7586207 0.1034483 0.02433862 0.91428572 0.06137566 </TABLE>
</DEFINITION>


</NETWORK>
</BIF>
