// estudios/condiciones_vida/olcmHC/olcm_iter_2.obif
// Produced at Fri Apr 20 21:06:50 CEST 2018
network "olcm" {
}

variable "MV_hs160" {
	type discrete[2] { "1" "2" };
}

variable "MV_hs170" {
	type discrete[2] { "1" "2" };
}

variable "MV_hs180" {
	type discrete[2] { "1" "2" };
}

variable "MV_hs190" {
	type discrete[2] { "1" "2" };
}

variable "MV_hh040" {
	type discrete[2] { "1" "2" };
}

variable "MV_hs050" {
	type discrete[2] { "1" "2" };
}

variable "MV_hs060" {
	type discrete[2] { "1" "2" };
}

variable "MV_hh050" {
	type discrete[2] { "1" "2" };
}

variable "MV_h79_u" {
	type discrete[2] { "1" "2" };
}

variable "MV_h80_u" {
	type discrete[2] { "1" "2" };
}

variable "LV_variable145" {
	type discrete[2] { "state0" "state1" };
}

variable "LV_variable11" {
	type discrete[2] { "state0" "state1" };
}

variable "LV_variable69" {
	type discrete[2] { "state0" "state1" };
}

variable "LV_variable217" {
	type discrete[2] { "state0" "state1" };
}

variable "LV_variable249" {
	type discrete[2] { "state0" "state1" };
}

variable "LV_variable392" {
	type discrete[2] { "state0" "state1" };
}

variable "LV_variable453" {
	type discrete[2] { "state0" "state1" };
}

variable "LV_variable559" {
	type discrete[2] { "state0" "state1" };
}

variable "LV_variable717" {
	type discrete[2] { "state0" "state1" };
}

probability ( "MV_hs160" | "LV_variable249", "LV_variable145", "LV_variable11" ) {
	table 0.032793071373698426 0.13446376114906447 0.0032155662164140746 0.019510202348542675 0.46780985495293775 0.6947989448812618 0.0671128074492866 0.32963962344864955 0.9672069286263015 0.8655362388509356 0.9967844337835859 0.9804897976514573 0.5321901450470623 0.3052010551187382 0.9328871925507134 0.6703603765513504;
}
probability ( "MV_hs170" | "LV_variable453", "LV_variable145", "LV_variable11" ) {
	table 0.5249615458338693 0.8445711670784116 0.006190293931135205 0.09604230051692773 0.8858497424266099 0.5130451678783078 0.2584081292822248 0.09793029161603872 0.4750384541661306 0.15542883292158843 0.9938097060688649 0.9039576994830723 0.11415025757339023 0.4869548321216922 0.7415918707177752 0.9020697083839612;
}
probability ( "MV_hs180" | "LV_variable559", "LV_variable145", "LV_variable11" ) {
	table 0.2159898178376356 0.7854858523480347 0.005548334012891403 0.08951408227769486 0.5597528836586088 0.3646683733132314 0.05248862438568277 0.006937945007161155 0.7840101821623643 0.2145141476519653 0.9944516659871087 0.9104859177223051 0.4402471163413912 0.6353316266867687 0.9475113756143172 0.9930620549928388;
}
probability ( "MV_hs190" | "LV_variable559", "LV_variable145", "LV_variable11" ) {
	table 0.14835440978054967 0.645659189670907 0.014153885136153312 0.10869833614476611 0.5025551020963644 0.4260839954916262 0.1047332071711324 0.04300499637417489 0.8516455902194503 0.3543408103290931 0.9858461148638468 0.891301663855234 0.4974448979036356 0.5739160045083738 0.8952667928288677 0.9569950036258251;
}
probability ( "MV_hh040" | "LV_variable453", "LV_variable559", "LV_variable249", "LV_variable11" ) {
	table 0.007906397659627163 0.36413270852111046 0.06451512321280693 0.8858172343122525 0.04672990491880065 0.035355424879622115 0.744796581777685 0.15024889656842882 0.11786684824930414 0.21031339958973966 0.5856646278567518 0.6318765708490965 0.8116961421834192 0.13572682335539515 0.783762471890588 0.3803802432082788 0.9920936023403728 0.6358672914788895 0.935484876787193 0.11418276568774742 0.9532700950811994 0.9646445751203778 0.25520341822231496 0.8497511034315711 0.8821331517506958 0.7896866004102603 0.4143353721432483 0.3681234291509034 0.1883038578165808 0.8642731766446049 0.21623752810941207 0.6196197567917212;
}
probability ( "MV_hs050" | "LV_variable11", "LV_variable69" ) {
	table 0.9986568971456581 0.9961572747129452 0.9741497777000512 0.6619364248545486 0.0013431028543419248 0.003842725287054786 0.025850222299948763 0.3380635751454513;
}
probability ( "MV_hs060" | "LV_variable11" ) {
	table 0.7805976405655034 0.06126943213476713 0.2194023594344965 0.9387305678652328;
}
probability ( "MV_hh050" | "LV_variable11", "LV_variable69" ) {
	table 0.9872693778500702 0.9665882384630194 0.831801096776551 0.12808567056433354 0.012730622149929819 0.033411761536980625 0.168198903223449 0.8719143294356665;
}
probability ( "MV_h79_u" | "LV_variable717", "LV_variable11" ) {
	table 0.004793456047646234 0.6935225515986946 0.0037068121622303597 0.08799526825478356 0.9952065439523539 0.30647744840130536 0.9962931878377697 0.9120047317452166;
}
probability ( "MV_h80_u" | "LV_variable717", "LV_variable11" ) {
	table 0.0010290376395239807 0.3119361295042641 7.837299329206031E-4 0.03463837967383544 0.9989709623604761 0.6880638704957358 0.9992162700670795 0.9653616203261646;
}
probability ( "LV_variable145"  ) {
	table 0.18785214540161796 0.8121478545983821;
}
probability ( "LV_variable11"  ) {
	table 0.8196416032502322 0.1803583967497678;
}
probability ( "LV_variable69"  ) {
	table 0.6449375260176864 0.3550624739823137;
}
probability ( "LV_variable217"  ) {
	table 0.5117879483873002 0.48821205161269976;
}
probability ( "LV_variable249"  ) {
	table 0.8217291936401352 0.1782708063598648;
}
probability ( "LV_variable392"  ) {
	table 0.48884319926236397 0.511156800737636;
}
probability ( "LV_variable453"  ) {
	table 0.874777040927654 0.12522295907234612;
}
probability ( "LV_variable559"  ) {
	table 0.6656865440280916 0.3343134559719084;
}
probability ( "LV_variable717"  ) {
	table 0.4314559247118459 0.5685440752881541;
}
