network olcm - olcm_15MVs_egypt_train_5000 {
}

variable bank {
	type discrete[2] { 1, 2 };
}

variable other {
	type discrete[2] { 1, 2 };
}

variable nonbank {
	type discrete[2] { 1, 2 };
}

variable k15d {
	type discrete[2] { 1, 2 };
}

variable h1 {
	type discrete[2] { 1, 2 };
}

variable h5 {
	type discrete[2] { 1, 2 };
}

variable h3 {
	type discrete[2] { 1, 2 };
}

variable mnaf3 {
	type discrete[2] { 1, 2 };
}

variable mnaq53 {
	type discrete[2] { 1, 2 };
}

variable e6 {
	type discrete[2] { 1, 2 };
}

variable j30c {
	type discrete[5] { 1, 2, 3, 4, 5 };
}

variable d30b {
	type discrete[5] { 1, 2, 3, 4, 5 };
}

variable d30a {
	type discrete[5] { 1, 2, 3, 4, 5 };
}

variable l30a {
	type discrete[5] { 1, 2, 3, 4, 5 };
}

variable l30b {
	type discrete[5] { 1, 2, 3, 4, 5 };
}

variable variable686 {
	type discrete[2] { state0, state1 };
}

variable variable786 {
	type discrete[2] { state0, state1 };
}

variable variable859 {
	type discrete[4] { state0, state1, state2, state3 };
}

probability ( bank | variable686 ) {
	(state0) 0.9856961584260866, 0.014303841573913439;
	(state1) 0.08627680995588811, 0.9137231900441118;
}

probability ( other | variable686 ) {
	(state0) 0.8985255742119405, 0.10147442578805949;
	(state1) 0.08090717912324247, 0.9190928208767576;
}

probability ( nonbank | variable686 ) {
	(state0) 0.9465607588633047, 0.053439241136695396;
	(state1) 0.006989684174024928, 0.9930103158259751;
}

probability ( k15d ) {
	table 0.04738104758096761, 0.9526189524190324;
}

probability ( h1 | variable786 ) {
	(state0) 0.11137178235471382, 0.8886282176452862;
	(state1) 0.7183609347691567, 0.28163906523084326;
}

probability ( h5 ) {
	table 0.1171531387445022, 0.8828468612554978;
}

probability ( h3 | variable786 ) {
	(state0) 0.0713538291368391, 0.9286461708631608;
	(state1) 0.627393035797839, 0.37260696420216094;
}

probability ( mnaf3 ) {
	table 0.7714914034386245, 0.22850859656137545;
}

probability ( mnaq53 ) {
	table 0.03758496601359456, 0.9624150339864055;
}

probability ( e6 ) {
	table 0.07137145141943223, 0.9286285485805678;
}

probability ( j30c | variable859 ) {
	(state0) 0.18590949574357715, 0.3762703122954332, 0.34479081615155843, 0.07380585275268597, 0.019223523056745205;
	(state1) 0.1407716133384024, 0.05042585940313873, 0.0699814820375767, 0.6713401826129738, 0.06748086260790828;
	(state2) 0.8255237308413121, 0.07417145477402642, 0.04715762292373143, 0.033732806475805045, 0.01941438498512508;
	(state3) 0.45478591820039044, 0.049058676882373045, 0.15663884582928206, 0.1302570860380186, 0.20925947304993597;
}

probability ( d30b | variable859 ) {
	(state0) 0.345363326269786, 0.2989102967086172, 0.24586889270142834, 0.10193283778448235, 0.007924646535686074;
	(state1) 0.8135613752153085, 0.02198968820881947, 0.034777540067046586, 0.09302433558819911, 0.03664706092062639;
	(state2) 0.9054246769371114, 0.051071239589097255, 0.01936697248445084, 0.011534980081487957, 0.012602130907852574;
	(state3) 0.5587724416503657, 0.05438585543674922, 0.14937502770322428, 0.1228310205781127, 0.11463565463154815;
}

probability ( d30a | variable859 ) {
	(state0) 0.18533224142041801, 0.33366734719816266, 0.3019043026662964, 0.15814834424833654, 0.020947764466786336;
	(state1) 0.8077864795520093, 0.020579261484616147, 0.05927413498279728, 0.08364082903490706, 0.02871929494567012;
	(state2) 0.7743226579009348, 0.0914946625704691, 0.08667465937951149, 0.02986224918657328, 0.01764577096251122;
	(state3) 0.23981541834321893, 0.1475097528081964, 0.14685988502646002, 0.27357357965549656, 0.19224136416662804;
}

probability ( l30a | variable859 ) {
	(state0) 0.20253781614537447, 0.29372472468436794, 0.4164799945508185, 0.07553524323841503, 0.011722221381023972;
	(state1) 0.16379761639425544, 0.05199716153447538, 0.09986765222080352, 0.6139616467969145, 0.0703759230535513;
	(state2) 0.9424703246312596, 0.03290466712299458, 0.0055738868940970136, 0.0055343406085504475, 0.013516780743098526;
	(state3) 0.39693838170115686, 0.09421021550473072, 0.21577081344564084, 0.13328771059566077, 0.15979287875281079;
}

probability ( l30b | variable859 ) {
	(state0) 0.28183298726739947, 0.4210935407021986, 0.2247569082048961, 0.059804734169134205, 0.01251182965637166;
	(state1) 0.5884991615019481, 0.0637208943410056, 0.1485295123068802, 0.16399320775209142, 0.03525722409807469;
	(state2) 0.8788488499937441, 0.061594239181672505, 0.03011194107167539, 0.025987422873871444, 0.0034575468790364145;
	(state3) 0.39535433438933526, 0.059100671400960834, 0.18798778663503612, 0.17214861271072654, 0.1854085948639413;
}

probability ( variable686 ) {
	table 0.08321407262914601, 0.916785927370854;
}

probability ( variable786 ) {
	table 0.8049876611989232, 0.19501233880107688;
}

probability ( variable859 ) {
	table 0.23385603198495342, 0.09941278302526399, 0.475253358227905, 0.19147782676187775;
}

