network olcm - olcm_15MVs_egypt_train_5000 {
}

variable bank {
	type discrete[2] { 1, 2 };
}

variable other {
	type discrete[2] { 1, 2 };
}

variable nonbank {
	type discrete[2] { 1, 2 };
}

variable k15d {
	type discrete[2] { 1, 2 };
}

variable h1 {
	type discrete[2] { 1, 2 };
}

variable h5 {
	type discrete[2] { 1, 2 };
}

variable h3 {
	type discrete[2] { 1, 2 };
}

variable mnaf3 {
	type discrete[2] { 1, 2 };
}

variable mnaq53 {
	type discrete[2] { 1, 2 };
}

variable e6 {
	type discrete[2] { 1, 2 };
}

variable j30c {
	type discrete[5] { 1, 2, 3, 4, 5 };
}

variable d30b {
	type discrete[5] { 1, 2, 3, 4, 5 };
}

variable d30a {
	type discrete[5] { 1, 2, 3, 4, 5 };
}

variable l30a {
	type discrete[5] { 1, 2, 3, 4, 5 };
}

variable l30b {
	type discrete[5] { 1, 2, 3, 4, 5 };
}

variable variable1797 {
	type discrete[2] { state0, state1 };
}

variable variable686 {
	type discrete[2] { state0, state1 };
}

variable variable859 {
	type discrete[4] { state0, state1, state2, state3 };
}

probability ( bank | variable686, variable1797 ) {
	(state0, state0) 0.9845448652573014, 0.015455134742698573;
	(state0, state1) 0.978041134228288, 0.021958865771711994;
	(state1, state0) 0.039318719481733995, 0.960681280518266;
	(state1, state1) 0.36580298970513064, 0.6341970102948693;
}

probability ( other | variable686, variable859 ) {
	(state0, state0) 0.8251674862021526, 0.17483251379784728;
	(state0, state1) 0.8473108825051896, 0.15268911749481037;
	(state0, state2) 0.9880111352512783, 0.011988864748721698;
	(state0, state3) 0.7181412124027355, 0.28185878759726446;
	(state1, state0) 0.1490486480873192, 0.8509513519126808;
	(state1, state1) 0.038293640952426475, 0.9617063590475736;
	(state1, state2) 0.07689881693644042, 0.9231011830635595;
	(state1, state3) 0.03635877567468673, 0.9636412243253133;
}

probability ( nonbank | variable686 ) {
	(state0) 0.9601565863458249, 0.03984341365417515;
	(state1) 0.006949922466801977, 0.993050077533198;
}

probability ( k15d | variable1797 ) {
	(state0) 0.020370880610664367, 0.9796291193893355;
	(state1) 0.20428949770492544, 0.7957105022950746;
}

probability ( h1 | variable1797, variable859 ) {
	(state0, state0) 0.06973971106635578, 0.9302602889336442;
	(state0, state1) 0.5110488942292525, 0.4889511057707475;
	(state0, state2) 0.09793170459331274, 0.9020682954066873;
	(state0, state3) 0.021355333949759896, 0.9786446660502401;
	(state1, state0) 0.48734557915486604, 0.512654420845134;
	(state1, state1) 0.8991004149772965, 0.10089958502270342;
	(state1, state2) 0.6372290340398415, 0.36277096596015845;
	(state1, state3) 0.2820843635577235, 0.7179156364422765;
}

probability ( h5 | variable1797, variable859 ) {
	(state0, state0) 0.044677919177874705, 0.9553220808221253;
	(state0, state1) 0.19685954729080168, 0.8031404527091982;
	(state0, state2) 0.06303572727631905, 0.9369642727236809;
	(state0, state3) 0.005936604194496331, 0.9940633958055037;
	(state1, state0) 0.4277667523027208, 0.5722332476972791;
	(state1, state1) 0.5174476821110217, 0.48255231788897823;
	(state1, state2) 0.28370748901259824, 0.7162925109874019;
	(state1, state3) 0.10551761876744017, 0.8944823812325599;
}

probability ( h3 | variable1797, variable859 ) {
	(state0, state0) 0.017346116637471324, 0.9826538833625286;
	(state0, state1) 0.48010435658229456, 0.5198956434177054;
	(state0, state2) 0.05310509561006177, 0.9468949043899382;
	(state0, state3) 0.0255736937000703, 0.9744263062999297;
	(state1, state0) 0.48586943207701244, 0.5141305679229875;
	(state1, state1) 0.8816770999140213, 0.11832290008597865;
	(state1, state2) 0.4539980144936014, 0.5460019855063986;
	(state1, state3) 0.08647540446378904, 0.9135245955362109;
}

probability ( mnaf3 | variable859 ) {
	(state0) 0.88810561894116, 0.11189438105884005;
	(state1) 0.8861097517644567, 0.11389024823554332;
	(state2) 0.7451743235618162, 0.25482567643818377;
	(state3) 0.39054595228806877, 0.6094540477119312;
}

probability ( mnaq53 | variable1797 ) {
	(state0) 0.020790263476157735, 0.9792097365238422;
	(state1) 0.1356386304240323, 0.8643613695759677;
}

probability ( e6 | variable1797 ) {
	(state0) 0.03294421648389357, 0.9670557835161065;
	(state1) 0.29402227830303523, 0.7059777216969647;
}

probability ( j30c | variable859 ) {
	(state0) 0.18698201094565298, 0.3799290764825137, 0.3382323334559624, 0.06955054180456252, 0.02530603731130849;
	(state1) 0.4414642054735235, 0.04528291242092514, 0.16697787067408423, 0.1504553465701439, 0.1958196648613232;
	(state2) 0.8214787719526687, 0.07245690382600642, 0.048438345248531196, 0.03771328449463367, 0.019912694478160145;
	(state3) 0.16089301493202945, 0.057280615879032486, 0.06112566092241396, 0.6412432271674171, 0.07945748109910702;
}

probability ( d30b | variable859 ) {
	(state0) 0.3482478150807856, 0.2968445154607192, 0.24683520376947793, 0.10085611450725614, 0.007216351181761194;
	(state1) 0.546392067330131, 0.05818494433990363, 0.145487241471787, 0.13062546852832857, 0.11931027832984982;
	(state2) 0.9050480627186791, 0.05048116843393604, 0.019958412379454896, 0.011543908247392737, 0.012968448220537127;
	(state3) 0.8267243921671243, 0.02210435884771193, 0.03896520567795208, 0.08350024463652787, 0.028705798670683753;
}

probability ( d30a | variable859 ) {
	(state0) 0.1812270206686423, 0.3432768919043654, 0.29648586700419594, 0.15893479292623328, 0.020075427496563172;
	(state1) 0.23884894101216705, 0.13651535744737828, 0.1585956885524066, 0.2743612487060662, 0.191678764281982;
	(state2) 0.7702011578438506, 0.09340915188216603, 0.0865521962804625, 0.030028913680329252, 0.019808580313191725;
	(state3) 0.8360477982933904, 0.00850134928975785, 0.049897779074469996, 0.08279959740182084, 0.022753475940560867;
}

probability ( l30a | variable859 ) {
	(state0) 0.20411222411068924, 0.2948572451874876, 0.40806605711775984, 0.07724724922803503, 0.0157172243560281;
	(state1) 0.3925169975268667, 0.08769296045351307, 0.2236594002787728, 0.14351734484827294, 0.15261329689257452;
	(state2) 0.9424360569026157, 0.034804927437115996, 0.005639357930091565, 0.003373631372067716, 0.013746026358109007;
	(state3) 0.1413975319337266, 0.05423659682320942, 0.10923329558554298, 0.6187850128606033, 0.07634756279691776;
}

probability ( l30b | variable859 ) {
	(state0) 0.2827687336198314, 0.41690985667318686, 0.22845242657560763, 0.05941028261229349, 0.012458700519080518;
	(state1) 0.36993271275516204, 0.06504125614188494, 0.19804121703229793, 0.17536998726045322, 0.19161482681020187;
	(state2) 0.8818682168478934, 0.05989914107781207, 0.029484301463481292, 0.024935608967001643, 0.003812731643811532;
	(state3) 0.6086137276447015, 0.07125232499869104, 0.1277971064596649, 0.16877644502239042, 0.023560395874552196;
}

probability ( variable1797 ) {
	table 0.8522978623836174, 0.14770213761638268;
}

probability ( variable686 ) {
	table 0.08206256858217417, 0.9179374314178259;
}

probability ( variable859 ) {
	table 0.23365072843792994, 0.19083423626932786, 0.47889395137894825, 0.09662108391379377;
}

