network olcm {
}

variable hs160 {
	type discrete[2] { 1, 2 };
}

variable hs170 {
	type discrete[2] { 1, 2 };
}

variable hs180 {
	type discrete[2] { 1, 2 };
}

variable hs190 {
	type discrete[2] { 1, 2 };
}

variable hh040 {
	type discrete[2] { 1, 2 };
}

variable hs050 {
	type discrete[2] { 1, 2 };
}

variable hs060 {
	type discrete[2] { 1, 2 };
}

variable hh050 {
	type discrete[2] { 1, 2 };
}

variable h79_u {
	type discrete[2] { 1, 2 };
}

variable h80_u {
	type discrete[2] { 1, 2 };
}

variable variable69 {
	type discrete[2] { state0, state1 };
}

variable variable145 {
	type discrete[2] { state0, state1 };
}

variable variable11 {
	type discrete[3] { state0, state1, state2 };
}

probability ( hs160 | variable145, variable11 ) {
	(state0, state0) 0.0442273702698186, 0.9557726297301814;
	(state0, state1) 0.011807590188343129, 0.9881924098116569;
	(state0, state2) 0.12173720063987899, 0.8782627993601211;
	(state1, state0) 0.17694473327979612, 0.823055266720204;
	(state1, state1) 0.13016844458594543, 0.8698315554140545;
	(state1, state2) 0.3840754537250935, 0.6159245462749066;
}

probability ( hs170 | variable145 ) {
	(state0) 0.060705872367194706, 0.9392941276328052;
	(state1) 0.6038369243717241, 0.3961630756282758;
}

probability ( hs180 | variable145, variable11 ) {
	(state0, state0) 0.023751276213341003, 0.9762487237866591;
	(state0, state1) 0.02134543357723682, 0.9786545664227633;
	(state0, state2) 0.0561818149478096, 0.9438181850521904;
	(state1, state0) 0.630298134627244, 0.369701865372756;
	(state1, state1) 0.36696278704655344, 0.6330372129534465;
	(state1, state2) 0.699744408810941, 0.30025559118905903;
}

probability ( hs190 | variable145, variable11 ) {
	(state0, state0) 0.058889662894786775, 0.9411103371052132;
	(state0, state1) 0.0394424391577655, 0.9605575608422345;
	(state0, state2) 0.10725545606038402, 0.892744543939616;
	(state1, state0) 0.486534568415779, 0.513465431584221;
	(state1, state1) 0.31456518609490697, 0.6854348139050931;
	(state1, state2) 0.6662673404420991, 0.3337326595579009;
}

probability ( hh040 | variable145, variable11 ) {
	(state0, state0) 0.20066010264445516, 0.7993398973555449;
	(state0, state1) 0.07585856551634898, 0.924141434483651;
	(state0, state2) 0.3500816877913996, 0.6499183122086004;
	(state1, state0) 0.3594042627704742, 0.6405957372295257;
	(state1, state1) 0.2580799591196817, 0.7419200408803184;
	(state1, state2) 0.7503934276217176, 0.24960657237828246;
}

probability ( hs050 | variable11, variable69 ) {
	(state0, state0) 0.9887007334180687, 0.011299266581931222;
	(state0, state1) 0.8061605540395386, 0.1938394459604614;
	(state1, state0) 0.998894925927905, 0.0011050740720949881;
	(state1, state1) 0.9967902091685457, 0.003209790831454364;
	(state2, state0) 0.9380586591669609, 0.061941340833039114;
	(state2, state1) 0.15737510626829188, 0.8426248937317081;
}

probability ( hs060 | variable11 ) {
	(state0) 0.14910308074676415, 0.8508969192532357;
	(state1) 0.8365561631182097, 0.16344383688179023;
	(state2) 0.01753240666841441, 0.9824675933315856;
}

probability ( hh050 | variable11, variable69 ) {
	(state0, state0) 0.9207023614853723, 0.07929763851462773;
	(state0, state1) 0.21804537088944456, 0.7819546291105554;
	(state1, state0) 0.9919416229590724, 0.008058377040927583;
	(state1, state1) 0.9770744670956601, 0.022925532904339914;
	(state2, state0) 0.603530786801215, 0.39646921319878503;
	(state2, state1) 0.06083657286500593, 0.9391634271349941;
}

probability ( h79_u | variable11 ) {
	(state0) 0.1489480689107804, 0.8510519310892196;
	(state1) 0.001342154124433617, 0.9986578458755664;
	(state2) 0.7733018941815036, 0.22669810581849645;
}

probability ( h80_u | variable11 ) {
	(state0) 0.03334830683169552, 0.9666516931683046;
	(state1) 4.3447367182780763E-4, 0.9995655263281723;
	(state2) 0.49436236803207306, 0.5056376319679269;
}

probability ( variable69 ) {
	table 0.725150146827548, 0.274849853172452;
}

probability ( variable145 ) {
	table 0.8273004356872204, 0.1726995643127796;
}

probability ( variable11 ) {
	table 0.22000301941407396, 0.737946417877409, 0.04205056270851701;
}

