// estudios/condiciones_vida/olcmHC/olcm_iter_2.obif
// Produced at Sun Apr 22 18:06:32 CEST 2018
network "olcm" {
}

variable "MV_hs160" {
	type discrete[2] { "1" "2" };
}

variable "MV_hs170" {
	type discrete[2] { "1" "2" };
}

variable "MV_hs180" {
	type discrete[2] { "1" "2" };
}

variable "MV_hs190" {
	type discrete[2] { "1" "2" };
}

variable "MV_hh040" {
	type discrete[2] { "1" "2" };
}

variable "MV_hs050" {
	type discrete[2] { "1" "2" };
}

variable "MV_hs060" {
	type discrete[2] { "1" "2" };
}

variable "MV_hh050" {
	type discrete[2] { "1" "2" };
}

variable "MV_h79_u" {
	type discrete[2] { "1" "2" };
}

variable "MV_h80_u" {
	type discrete[2] { "1" "2" };
}

variable "LV_variable69" {
	type discrete[2] { "state0" "state1" };
}

variable "LV_variable145" {
	type discrete[2] { "state0" "state1" };
}

variable "LV_variable11" {
	type discrete[3] { "state0" "state1" "state2" };
}

probability ( "MV_hs160" | "LV_variable145", "LV_variable11" ) {
	table 0.0442273702698186 0.011807590188343129 0.12173720063987899 0.17694473327979612 0.13016844458594543 0.3840754537250935 0.9557726297301814 0.9881924098116569 0.8782627993601211 0.823055266720204 0.8698315554140545 0.6159245462749066;
}
probability ( "MV_hs170" | "LV_variable145" ) {
	table 0.060705872367194706 0.6038369243717241 0.9392941276328052 0.3961630756282758;
}
probability ( "MV_hs180" | "LV_variable145", "LV_variable11" ) {
	table 0.023751276213341003 0.02134543357723682 0.0561818149478096 0.630298134627244 0.36696278704655344 0.699744408810941 0.9762487237866591 0.9786545664227633 0.9438181850521904 0.369701865372756 0.6330372129534465 0.30025559118905903;
}
probability ( "MV_hs190" | "LV_variable145", "LV_variable11" ) {
	table 0.058889662894786775 0.0394424391577655 0.10725545606038402 0.486534568415779 0.31456518609490697 0.6662673404420991 0.9411103371052132 0.9605575608422345 0.892744543939616 0.513465431584221 0.6854348139050931 0.3337326595579009;
}
probability ( "MV_hh040" | "LV_variable11", "LV_variable145" ) {
	table 0.20066010264445516 0.3594042627704742 0.07585856551634898 0.2580799591196817 0.3500816877913996 0.7503934276217176 0.7993398973555449 0.6405957372295257 0.924141434483651 0.7419200408803184 0.6499183122086004 0.24960657237828246;
}
probability ( "MV_hs050" | "LV_variable11", "LV_variable69" ) {
	table 0.9887007334180687 0.8061605540395386 0.998894925927905 0.9967902091685457 0.9380586591669609 0.15737510626829188 0.011299266581931222 0.1938394459604614 0.0011050740720949881 0.003209790831454364 0.061941340833039114 0.8426248937317081;
}
probability ( "MV_hs060" | "LV_variable11" ) {
	table 0.14910308074676415 0.8365561631182097 0.01753240666841441 0.8508969192532357 0.16344383688179023 0.9824675933315856;
}
probability ( "MV_hh050" | "LV_variable11", "LV_variable69" ) {
	table 0.9207023614853723 0.21804537088944456 0.9919416229590724 0.9770744670956601 0.603530786801215 0.06083657286500593 0.07929763851462773 0.7819546291105554 0.008058377040927583 0.022925532904339914 0.39646921319878503 0.9391634271349941;
}
probability ( "MV_h79_u" | "LV_variable11" ) {
	table 0.1489480689107804 0.001342154124433617 0.7733018941815036 0.8510519310892196 0.9986578458755664 0.22669810581849645;
}
probability ( "MV_h80_u" | "LV_variable11" ) {
	table 0.03334830683169552 4.3447367182780763E-4 0.49436236803207306 0.9666516931683046 0.9995655263281723 0.5056376319679269;
}
probability ( "LV_variable69"  ) {
	table 0.725150146827548 0.274849853172452;
}
probability ( "LV_variable145"  ) {
	table 0.8273004356872204 0.1726995643127796;
}
probability ( "LV_variable11"  ) {
	table 0.22000301941407396 0.737946417877409 0.04205056270851701;
}
