network LCM {
}

variable scm1rue {
	type discrete[4] { 0, 1, 2, 3 };
}

variable scm1lue {
	type discrete[4] { 0, 1, 2, 3 };
}

variable scm2rue {
	type discrete[4] { 0, 1, 2, 3 };
}

variable scm2lue {
	type discrete[4] { 0, 1, 2, 3 };
}

variable scm3rue {
	type discrete[4] { 0, 1, 2, 3 };
}

variable scm3lue {
	type discrete[4] { 0, 1, 2, 3 };
}

variable scm4rue {
	type discrete[4] { 0, 1, 2, 3 };
}

variable scm4lue {
	type discrete[4] { 0, 1, 2, 3 };
}

variable scm5rise {
	type discrete[4] { 0, 1, 2, 3 };
}

variable scm6post {
	type discrete[4] { 0, 1, 2, 3 };
}

variable scm7gait {
	type discrete[4] { 0, 1, 2, 3 };
}

variable scm8spee {
	type discrete[4] { 0, 1, 2, 3 };
}

variable scm9free {
	type discrete[4] { 0, 1, 2, 3 };
}

variable scm10swa {
	type discrete[4] { 0, 1, 2, 3 };
}

variable scm11spe {
	type discrete[4] { 0, 1, 2, 3 };
}

variable scm12fee {
	type discrete[4] { 0, 1, 2, 3 };
}

variable scm13dre {
	type discrete[4] { 0, 1, 2, 3 };
}

variable scm14hyg {
	type discrete[4] { 0, 1, 2, 3 };
}

variable scm15cha {
	type discrete[4] { 0, 1, 2, 3 };
}

variable scm16wal {
	type discrete[4] { 0, 1, 2, 3 };
}

variable scm17han {
	type discrete[4] { 0, 1, 2, 3 };
}

variable scm18dpr {
	type discrete[4] { 0, 1, 2, 3 };
}

variable scm19dsv {
	type discrete[4] { 0, 1, 2, 3 };
}

variable scm20fpr {
	type discrete[4] { 0, 1, 2, 3 };
}

variable scm21fsv {
	type discrete[4] { 0, 1, 2, 3 };
}

variable variable80 {
	type discrete[6] { state0, state1, state2, state3, state4, state5 };
}

probability ( scm1rue | variable80 ) {
	(state0) 0.5184000396310272, 0.3361245083295984, 0.12628273486204283, 0.019192717177331568;
	(state1) 0.577031717053476, 0.2648974055116824, 0.14146464839532372, 0.016606229039517986;
	(state2) 0.7942563878812179, 0.15015305480653715, 0.04683931063939419, 0.008751246672850687;
	(state3) 0.012092653910372845, 0.4515862613293451, 0.4171020310897621, 0.1192190536705199;
	(state4) 0.4650425280928887, 0.23312738474181147, 0.14484355741597543, 0.15698652974932445;
	(state5) 0.5350524697592995, 0.18421470715800142, 0.1776049748232547, 0.10312784825944431;
}

probability ( scm1lue | variable80 ) {
	(state0) 0.5232164887100751, 0.3197352338353308, 0.13780586054518748, 0.019242416909406555;
	(state1) 0.6182927866390808, 0.24680071116311, 0.10618817474262582, 0.028718327455183386;
	(state2) 0.7194700087187895, 0.223429376434272, 0.05068567524209485, 0.00641493960484372;
	(state3) 0.09612368717486895, 0.4854824971229518, 0.34497379324306054, 0.07342002245911877;
	(state4) 0.43712463964981146, 0.20291755379576107, 0.20310877581506234, 0.15684903073936515;
	(state5) 0.59634876682411, 0.18782637816917006, 0.1092377073869757, 0.10658714761974428;
}

probability ( scm2rue | variable80 ) {
	(state0) 0.5475105929419144, 0.3707140029690145, 0.07024465550045642, 0.011530748588614742;
	(state1) 0.5814242404685532, 0.3290536330480251, 0.07709626940417977, 0.012425857079241886;
	(state2) 0.7092602961046162, 0.2692223940922931, 0.012792197638764227, 0.008725112164326691;
	(state3) 0.03293066468574589, 0.5601424394930714, 0.370491347894308, 0.036435547926874645;
	(state4) 0.4635734519107098, 0.2924601654234941, 0.11798643484601407, 0.12597994781978208;
	(state5) 0.5147718226478946, 0.29219406023241506, 0.12278725060130828, 0.07024686651838212;
}

probability ( scm2lue | variable80 ) {
	(state0) 0.5328280554655319, 0.38390202836071, 0.0780569059850634, 0.005213010188694762;
	(state1) 0.6143232692563272, 0.3026126252973117, 0.06807579529060795, 0.01498831015575327;
	(state2) 0.6333872099008601, 0.32807083520159863, 0.02613098176985243, 0.01241097312768886;
	(state3) 0.14138405701285062, 0.5744706386908521, 0.23812457559571734, 0.0460207287005799;
	(state4) 0.435436400999969, 0.2627102828959853, 0.11796315860642075, 0.183890157497625;
	(state5) 0.5385042068091064, 0.26896249611940826, 0.13608284831503728, 0.05645044875644815;
}

probability ( scm3rue | variable80 ) {
	(state0) 0.2067963540181475, 0.5555416327063558, 0.2298461043220839, 0.007815908953412802;
	(state1) 0.3457525797272613, 0.5520286095080992, 0.09402362024477985, 0.008195190519859724;
	(state2) 0.29365543781990355, 0.5488338050439456, 0.13863317617722215, 0.018877580958928556;
	(state3) 0.03712521343632397, 0.2832176858603009, 0.6058167994332215, 0.0738403012701536;
	(state4) 0.058397263326346836, 0.1428076256739072, 0.23270915998259578, 0.5660859510171501;
	(state5) 0.06761104048386657, 0.3037938353809266, 0.5065503216971206, 0.1220448024380863;
}

probability ( scm3lue | variable80 ) {
	(state0) 0.14403968779487897, 0.5122198555076359, 0.30468750962524793, 0.0390529470722373;
	(state1) 0.3691191474119694, 0.45518035731643075, 0.16300542793838751, 0.012695067333212321;
	(state2) 0.20935113301575253, 0.4997733476741262, 0.2736143365688336, 0.01726118274128778;
	(state3) 0.03088590706377261, 0.4245167761784108, 0.4990230876920485, 0.045574229065767975;
	(state4) 0.058397437479725416, 0.02915157545735942, 0.20758279788161565, 0.7048681891812996;
	(state5) 0.08787997306981905, 0.2106824259011804, 0.48260631736980975, 0.21883128365919086;
}

probability ( scm4rue | variable80 ) {
	(state0) 0.17366960906118056, 0.5939627212651947, 0.22038272765028402, 0.01198494202334068;
	(state1) 0.3259953745868916, 0.5633781248310116, 0.10239445074212496, 0.008232049839971955;
	(state2) 0.29014446415815, 0.5785880270640352, 0.11856970329739336, 0.012697805480421364;
	(state3) 0.0276644049542502, 0.2878871337125911, 0.6388704185543436, 0.04557804277881512;
	(state4) 0.058046386690701425, 0.22975974532550217, 0.32016399931171385, 0.39202986867208256;
	(state5) 0.12645481619482127, 0.31351712938549764, 0.4804356564395291, 0.07959239798015201;
}

probability ( scm4lue | variable80 ) {
	(state0) 0.1940711928900302, 0.5058472638281997, 0.28983289141732665, 0.010248651864443329;
	(state1) 0.39437369991878335, 0.47794569316992214, 0.11674308878151397, 0.010937518129780525;
	(state2) 0.30005441472961486, 0.49034239845601546, 0.19720753034958197, 0.01239565646478773;
	(state3) 0.0196474928759419, 0.45098551614238935, 0.5018922505696193, 0.027474740412049444;
	(state4) 0.058046421794879746, 0.08696152726514483, 0.41090860546712255, 0.44408344547285294;
	(state5) 0.13796151354965247, 0.326499478412675, 0.4049794240378241, 0.13055958399984832;
}

probability ( scm5rise | variable80 ) {
	(state0) 0.5173612159021128, 0.4204957005225181, 0.058254072208581274, 0.003889011366787624;
	(state1) 0.8957754232745011, 0.09579846886146894, 0.004334242557647275, 0.004091865306382699;
	(state2) 0.5486617845056042, 0.38531961867586517, 0.046975474419146374, 0.019043122399384407;
	(state3) 0.17355242444996605, 0.6658266601595823, 0.15122439189768752, 0.009396523492764203;
	(state4) 0.057886025524595555, 0.028992255874557817, 0.1830253289219004, 0.7300963896789463;
	(state5) 0.1069237791366794, 0.22818233746953404, 0.48037472553285554, 0.18451915786093095;
}

probability ( scm6post | variable80 ) {
	(state0) 0.5572843615769573, 0.34403391002771394, 0.09017057164831707, 0.008511156747011715;
	(state1) 0.9191293802393935, 0.05675451569743258, 0.02002423543091903, 0.004091868632254948;
	(state2) 0.4825073017787293, 0.3918952655800426, 0.11922766522211843, 0.006369767419109685;
	(state3) 0.17535747586118927, 0.5591849969525965, 0.2560566061732907, 0.009400921012923547;
	(state4) 0.05788483041122416, 0.028988067782440338, 0.27369866780318575, 0.6394284340031499;
	(state5) 0.08365757768858419, 0.22673207707722035, 0.5818717588327328, 0.10773858640146275;
}

probability ( scm7gait | variable80 ) {
	(state0) 0.1608049864625195, 0.7651302483830179, 0.07017576134379123, 0.003889003810671335;
	(state1) 0.6749608444944569, 0.31276690795494094, 0.008180382248599226, 0.004091865302002972;
	(state2) 0.24503604927213093, 0.6193980849581218, 0.12921942957116941, 0.006346436198577835;
	(state3) 0.02877950835129202, 0.7035760104992337, 0.2582513005535294, 0.009393180595944857;
	(state4) 0.028984219596360803, 0.02898700295843895, 0.39290766257603577, 0.5491211148691645;
	(state5) 0.016447446671688355, 0.20569584252442888, 0.7352706401243295, 0.0425860706795532;
}

probability ( scm8spee | variable80 ) {
	(state0) 0.21690937092836346, 0.7234387695195187, 0.051928126624013006, 0.007723732928105002;
	(state1) 0.6851956840014781, 0.29128418681259144, 0.015332786948913733, 0.008187342237016799;
	(state2) 0.1965212905904891, 0.6775742123469638, 0.10678261488574628, 0.019121882176800737;
	(state3) 0.1353743029719753, 0.774284820685191, 0.08119556002875858, 0.00914531631407517;
	(state4) 0.028984782290939048, 0.02955692473109951, 0.593473858659935, 0.3479844343180266;
	(state5) 0.008484969396080027, 0.41791071016418546, 0.5313005321087868, 0.04230378833094767;
}

probability ( scm9free | variable80 ) {
	(state0) 0.6832480641219169, 0.26326959023848795, 0.04949073678192587, 0.003991608857669202;
	(state1) 0.9412220329573043, 0.04192463881208357, 0.012752537158955819, 0.0041007910716562585;
	(state2) 0.43237206275511203, 0.358752692291441, 0.18146585369206913, 0.027409391261377813;
	(state3) 0.31502576515217096, 0.4929288453660262, 0.1677732512116046, 0.02427213827019826;
	(state4) 0.02960464478900238, 0.08609178292716, 0.3047082247263251, 0.5795953475575126;
	(state5) 0.20066820642566596, 0.18343898875682416, 0.5142291322471924, 0.10166367257031753;
}

probability ( scm10swa | variable80 ) {
	(state0) 0.7168702188267577, 0.23966270290096175, 0.03957811360433398, 0.003888964667946637;
	(state1) 0.8775274316749428, 0.10602659237492862, 0.012354110739150251, 0.004091865210978282;
	(state2) 0.6472192414347534, 0.26865055453092423, 0.07777788816788679, 0.006352315866435582;
	(state3) 0.4554115950346865, 0.4778479818919787, 0.057595823374975284, 0.009144599698359578;
	(state4) 0.17623141613158477, 0.3779451880935211, 0.3009490610513859, 0.14487433472350833;
	(state5) 0.29941132873190973, 0.4052250039665593, 0.26994483589676843, 0.025418831404762414;
}

probability ( scm11spe | variable80 ) {
	(state0) 0.3305098821916504, 0.6071584151973619, 0.05458927359064969, 0.007742429020337952;
	(state1) 0.7825788527065016, 0.2010793094107721, 0.008154484679298123, 0.008187353203428182;
	(state2) 0.23151113579028254, 0.6173054399482585, 0.13214990195709672, 0.019033522304362102;
	(state3) 0.24051056850047478, 0.6782150897744085, 0.07212931517198877, 0.009145026553127997;
	(state4) 0.02907883168998047, 0.06101018345788121, 0.6778541089899137, 0.23205687586222462;
	(state5) 0.0336957934452487, 0.45909686702225727, 0.46482876106087473, 0.04237857847161929;
}

probability ( scm12fee | variable80 ) {
	(state0) 0.1356428660782188, 0.8073838629697873, 0.05307778601495112, 0.003895484937042874;
	(state1) 0.7671197905798358, 0.21419886859229842, 0.014588905603746006, 0.004092435224119901;
	(state2) 0.36934768700572207, 0.5412666950001783, 0.08303909820948463, 0.006346519784615054;
	(state3) 0.050060705768537064, 0.7229971369293244, 0.1995551804581154, 0.02738697684402316;
	(state4) 0.02898434201357058, 0.05803950002981163, 0.3643687340367932, 0.5486074239198246;
	(state5) 0.03366645750556386, 0.276927125856471, 0.6718251167567184, 0.017581299881246713;
}

probability ( scm13dre | variable80 ) {
	(state0) 0.04723488969202687, 0.8759960282665409, 0.07287995146661695, 0.003889130574815392;
	(state1) 0.6613589139615754, 0.32222678072070965, 0.012322440106735952, 0.004091865210978975;
	(state2) 0.17937194554724814, 0.6565118124787115, 0.1577698396639875, 0.006346402310053026;
	(state3) 0.009278999699688088, 0.6475494444711665, 0.33402680671406454, 0.009144749115081063;
	(state4) 0.02898421458873856, 0.029303613495707627, 0.187804938416504, 0.7539072334990499;
	(state5) 0.02497320197934389, 0.13325270029181843, 0.8079835647505821, 0.033790532978255496;
}

probability ( scm14hyg | variable80 ) {
	(state0) 0.07752681727833033, 0.8850653061446888, 0.033518746002080546, 0.0038891305749001763;
	(state1) 0.6945318772505471, 0.2972753614947773, 0.004100896043696595, 0.004091865210978975;
	(state2) 0.22653040911557612, 0.6920297458193444, 0.0750934427550042, 0.006346402310075491;
	(state3) 0.0428846306923618, 0.7557545195524622, 0.19221610063550393, 0.009144749119671948;
	(state4) 0.028984214588460393, 0.029258656990688078, 0.21853988479101324, 0.7232172436298382;
	(state5) 0.02495690950835946, 0.21235595941760427, 0.7283980490827965, 0.03428908199123982;
}

probability ( scm15cha | variable80 ) {
	(state0) 0.14626136233734, 0.7824457368035679, 0.06740389081343318, 0.0038890100456590265;
	(state1) 0.7881330639440881, 0.20344383742782596, 0.004331233321953945, 0.004091865306131815;
	(state2) 0.15651745430912536, 0.6229564626848674, 0.1951585790346632, 0.025367503971344012;
	(state3) 0.0742082169609824, 0.5901670297353061, 0.31744019003771967, 0.018184563265991733;
	(state4) 0.02898476898593198, 0.029076353773594434, 0.1843607856683167, 0.757578091572157;
	(state5) 0.008500668052167397, 0.20656559850743536, 0.7012683386449666, 0.08366539479543059;
}

probability ( scm16wal | variable80 ) {
	(state0) 0.08788493271495247, 0.8336087708291094, 0.07081157990438325, 0.0076947165515548034;
	(state1) 0.6781281533385196, 0.30952738542808905, 0.008252595275788185, 0.004091865957603155;
	(state2) 0.14445509076538657, 0.7098282186280758, 0.1393678188746637, 0.006348871731873965;
	(state3) 0.02844095176352259, 0.8363949392441589, 0.12582438381676023, 0.009339725175558233;
	(state4) 0.02898481303662087, 0.028996561457170045, 0.2482263844071747, 0.6937922410990344;
	(state5) 0.02374940306054514, 0.13292597643711376, 0.7834958558404289, 0.059828764661912164;
}

probability ( scm17han | variable80 ) {
	(state0) 0.118746751543179, 0.688387022343861, 0.18167650729282014, 0.011189718820139836;
	(state1) 0.39798979529477707, 0.5455956791001536, 0.03947321755663863, 0.016941308048430612;
	(state2) 0.10253155066605653, 0.6117401581554744, 0.25772948297839826, 0.027998808200070703;
	(state3) 0.027839705951821815, 0.6447390242827142, 0.3110732817739353, 0.016347987991528735;
	(state4) 0.029334276870701042, 0.08696158708873844, 0.3026165637433874, 0.5810875722971732;
	(state5) 0.016854842041444194, 0.25206381158781793, 0.5554382098429835, 0.17564313652775432;
}

probability ( scm18dpr | variable80 ) {
	(state0) 0.9795042992247448, 0.01254240253930176, 0.004045520669783782, 0.003907777566169844;
	(state1) 0.9207672957079077, 0.06295951766540489, 0.008210401085165353, 0.008062785541521934;
	(state2) 0.013671168079635898, 0.618653894304406, 0.2560203065659694, 0.11165463104998881;
	(state3) 0.2833783108299626, 0.5482160641948582, 0.1225445108959234, 0.04586111407925584;
	(state4) 0.23374331696963735, 0.31850673745776936, 0.17684056598059744, 0.27090937959199596;
	(state5) 0.46507093774642644, 0.1691535085352309, 0.29741926448153266, 0.06835628923681006;
}

probability ( scm19dsv | variable80 ) {
	(state0) 0.9802195300759238, 0.008939657603097378, 0.006938526240203612, 0.003902286080775107;
	(state1) 0.9226822538816764, 0.062440132593860595, 0.01062433688596899, 0.004253276638494154;
	(state2) 0.04195888753805905, 0.5954017072748207, 0.29479319192392534, 0.06784621326319495;
	(state3) 0.2756217246030721, 0.5229768534585049, 0.13958470465408257, 0.06181671728434039;
	(state4) 0.260922555489114, 0.23164808487736524, 0.2339742389682539, 0.2734551206652667;
	(state5) 0.47185870625484577, 0.13081314694623622, 0.2865941569623253, 0.11073398983659268;
}

probability ( scm20fpr | variable80 ) {
	(state0) 0.5766843546273617, 0.3627142496577, 0.05292035007281649, 0.007681045642121802;
	(state1) 0.8740774367505992, 0.104981250876339, 0.016849447123528986, 0.004091865249532746;
	(state2) 0.15878690403093546, 0.5834104331807501, 0.2324097502987943, 0.02539291248952021;
	(state3) 0.10243010812980115, 0.6142473205279695, 0.26493358180779153, 0.01838898953443778;
	(state4) 0.11806740748230285, 0.11698408055398671, 0.38786156265342325, 0.3770869493102872;
	(state5) 0.1592935346829853, 0.19434092316138912, 0.5192766041288169, 0.1270889380268087;
}

probability ( scm21fsv | variable80 ) {
	(state0) 0.6006458129283314, 0.3007648129445119, 0.09083064035799547, 0.007758733769161347;
	(state1) 0.8873317743573466, 0.09423592980442055, 0.014339842272121341, 0.004092453566111487;
	(state2) 0.14827417477813737, 0.4490963089381185, 0.3517871005768489, 0.050842415706895065;
	(state3) 0.09563518801387147, 0.5311374451892223, 0.3344404527278819, 0.03878691406902423;
	(state4) 0.11821183001616414, 0.144874856171964, 0.2136494381029212, 0.5232638757089507;
	(state5) 0.16771349963987697, 0.13373536522514304, 0.48085698387181786, 0.21769415126316222;
}

probability ( variable80 ) {
	table 0.28143726084713855, 0.26731708379710784, 0.17117376253532623, 0.1177786990282802, 0.03488547630024206, 0.1274077174919053;
}

