network LCM {
}

variable scm1rue {
	type discrete[4] { 0, 1, 2, 3 };
}

variable scm1lue {
	type discrete[4] { 0, 1, 2, 3 };
}

variable scm2rue {
	type discrete[4] { 0, 1, 2, 3 };
}

variable scm2lue {
	type discrete[4] { 0, 1, 2, 3 };
}

variable scm3rue {
	type discrete[4] { 0, 1, 2, 3 };
}

variable scm3lue {
	type discrete[4] { 0, 1, 2, 3 };
}

variable scm4rue {
	type discrete[4] { 0, 1, 2, 3 };
}

variable scm4lue {
	type discrete[4] { 0, 1, 2, 3 };
}

variable scm5rise {
	type discrete[4] { 0, 1, 2, 3 };
}

variable scm6post {
	type discrete[4] { 0, 1, 2, 3 };
}

variable scm7gait {
	type discrete[4] { 0, 1, 2, 3 };
}

variable scm8spee {
	type discrete[4] { 0, 1, 2, 3 };
}

variable scm9free {
	type discrete[4] { 0, 1, 2, 3 };
}

variable scm10swa {
	type discrete[4] { 0, 1, 2, 3 };
}

variable scm11spe {
	type discrete[4] { 0, 1, 2, 3 };
}

variable scm12fee {
	type discrete[4] { 0, 1, 2, 3 };
}

variable scm13dre {
	type discrete[4] { 0, 1, 2, 3 };
}

variable scm14hyg {
	type discrete[4] { 0, 1, 2, 3 };
}

variable scm15cha {
	type discrete[4] { 0, 1, 2, 3 };
}

variable scm16wal {
	type discrete[4] { 0, 1, 2, 3 };
}

variable scm17han {
	type discrete[4] { 0, 1, 2, 3 };
}

variable scm18dpr {
	type discrete[4] { 0, 1, 2, 3 };
}

variable scm19dsv {
	type discrete[4] { 0, 1, 2, 3 };
}

variable scm20fpr {
	type discrete[4] { 0, 1, 2, 3 };
}

variable scm21fsv {
	type discrete[4] { 0, 1, 2, 3 };
}

variable variable26 {
	type discrete[6] { state0, state1, state2, state3, state4, state5 };
}

probability ( scm1rue | variable26 ) {
	(state0) 0.4650429817081739, 0.23312780206287978, 0.14484386829410065, 0.15698534793484573;
	(state1) 0.7942542166262571, 0.15015523077731469, 0.04683922633152686, 0.008751326264901297;
	(state2) 0.5350536987548558, 0.18421389649487635, 0.1776040259142038, 0.10312837883606404;
	(state3) 0.5184001970857967, 0.3361249255603593, 0.126284677380033, 0.019190199973811186;
	(state4) 0.5770293448890936, 0.26489796670086946, 0.14146387841643526, 0.01660880999360172;
	(state5) 0.012092623707541102, 0.4515842830215139, 0.41710289090989566, 0.1192202023610494;
}

probability ( scm1lue | variable26 ) {
	(state0) 0.43712494800128787, 0.20291799302147814, 0.20310920749723751, 0.1568478514799965;
	(state1) 0.7194684328297444, 0.22343046751332962, 0.05068616993751442, 0.006414929719411668;
	(state2) 0.5963501508730246, 0.1878251149818507, 0.10923687208295971, 0.10658786206216504;
	(state3) 0.5232153902056976, 0.3197361522311735, 0.13780654302295822, 0.019241914540170522;
	(state4) 0.6182917003685561, 0.24680132974746138, 0.10618828445322093, 0.02871868543076165;
	(state5) 0.09612301686352506, 0.4854815445096895, 0.3449747723311728, 0.07342066629561253;
}

probability ( scm2rue | variable26 ) {
	(state0) 0.46357400674283483, 0.2924605794084615, 0.11798657303543922, 0.12597884081326455;
	(state1) 0.7092591213680343, 0.26922348901664134, 0.012792200216916494, 0.008725189398407862;
	(state2) 0.5147727451258113, 0.292193025600906, 0.12278695535159434, 0.0702472739216884;
	(state3) 0.5475113048257347, 0.3707145251823236, 0.0702459221300849, 0.01152824786185668;
	(state4) 0.5814213150738782, 0.3290544130125036, 0.07709585289200595, 0.012428419021612267;
	(state5) 0.032930064035890994, 0.5601415209273596, 0.3704924625600999, 0.036435952476649526;
}

probability ( scm2lue | variable26 ) {
	(state0) 0.4354368362135107, 0.2627106933558706, 0.11796328945790878, 0.18388918097270993;
	(state1) 0.6333861814849711, 0.3280716848163148, 0.026131182602892333, 0.012410951095821725;
	(state2) 0.538505202779583, 0.2689613736792331, 0.13608242832824732, 0.0564509952129365;
	(state3) 0.5328258944938449, 0.38390468716859827, 0.07805669653936019, 0.005212721798196558;
	(state4) 0.6143232908939842, 0.3026117596692651, 0.06807645879620329, 0.014988490640547487;
	(state5) 0.14138369434654235, 0.5744694558256938, 0.238125702684191, 0.04602114714357276;
}

probability ( scm3rue | variable26 ) {
	(state0) 0.05839738071657289, 0.1428077822074652, 0.2327094355634274, 0.5660854015125345;
	(state1) 0.29365504045874075, 0.5488340266916404, 0.1386333839041948, 0.018877548945423768;
	(state2) 0.06761083082820095, 0.30379404316197667, 0.50654968473692, 0.12204544127290232;
	(state3) 0.2067961299066034, 0.5555416234290175, 0.22984629645253646, 0.007815950211842872;
	(state4) 0.3457506199036367, 0.5520291205772258, 0.094025149782444, 0.008195109736693568;
	(state5) 0.03712554817638606, 0.28321264170287025, 0.6058206448638995, 0.07384116525684419;
}

probability ( scm3lue | variable26 ) {
	(state0) 0.058397554863052516, 0.029151635975801064, 0.2075828761991646, 0.7048679329619817;
	(state1) 0.20935037786682165, 0.4997739938291744, 0.2736145140933204, 0.01726111421068352;
	(state2) 0.08787995587921585, 0.210681844748102, 0.48260585546579143, 0.2188323439068907;
	(state3) 0.14403628311836192, 0.5122218930957919, 0.3046892842924863, 0.0390525394933598;
	(state4) 0.3691203771858063, 0.4551789947790205, 0.16300492093950433, 0.012695707095668949;
	(state5) 0.030885830969926642, 0.42451405846276324, 0.49902566642337337, 0.04557444414393674;
}

probability ( scm4rue | variable26 ) {
	(state0) 0.058046508830548356, 0.2297600886006149, 0.3201644588922645, 0.39202894367657226;
	(state1) 0.29014389559898973, 0.5785885172667246, 0.11856980632867642, 0.012697780805609397;
	(state2) 0.1264550287504421, 0.31351649093158945, 0.4804353175140562, 0.0795931628039123;
	(state3) 0.17366710662610904, 0.5939640261397039, 0.22038390610359948, 0.01198496113058756;
	(state4) 0.3259959025428926, 0.563377021387353, 0.10239510194683407, 0.008231974122920283;
	(state5) 0.02766443600796865, 0.28788334960273876, 0.6388737165727757, 0.04557849781651679;
}

probability ( scm4lue | variable26 ) {
	(state0) 0.0580465439221107, 0.08696171358745163, 0.4109091600804651, 0.4440825824099726;
	(state1) 0.30005346153346185, 0.49034304075076923, 0.19720786394039133, 0.012395633775377482;
	(state2) 0.1379615822777857, 0.3264989127335933, 0.4049789429085091, 0.13056056208011185;
	(state3) 0.1940673471150656, 0.5058495234901058, 0.28983476917397827, 0.010248360220850296;
	(state4) 0.3943753631870998, 0.4779443618218614, 0.11674254598286414, 0.010937729008174663;
	(state5) 0.019647526069865914, 0.45098219340166545, 0.501895316126392, 0.0274749644020766;
}

probability ( scm5rise | variable26 ) {
	(state0) 0.05788614405762859, 0.028992318264027414, 0.18302409977309905, 0.7300974379052448;
	(state1) 0.5486609584688619, 0.38532053880241396, 0.046975417041372584, 0.019043085687351722;
	(state2) 0.10692357848983168, 0.2281809910733887, 0.4803756714380697, 0.18451975899871004;
	(state3) 0.5173563001239178, 0.42050012410139015, 0.05825454372804144, 0.003889032046650901;
	(state4) 0.8957756420945623, 0.09579832448715493, 0.004334208697979174, 0.004091824720303773;
	(state5) 0.17355184985268318, 0.6658254006639267, 0.15122611616724635, 0.00939663331614377;
}

probability ( scm6post | variable26 ) {
	(state0) 0.05788494899163183, 0.028988130447123027, 0.27369751335299913, 0.6394294072082458;
	(state1) 0.48250619716980586, 0.3918958304926675, 0.1192282179731834, 0.00636975436434319;
	(state2) 0.08365764742943085, 0.2267304231166518, 0.581872976480976, 0.10773895297294131;
	(state3) 0.5572797498759325, 0.34403777146561637, 0.09017127387900467, 0.008511204779446438;
	(state4) 0.9191295703196007, 0.05675452752888396, 0.020024074105154464, 0.0040918280463606805;
	(state5) 0.17535647759701767, 0.5591844799264212, 0.25605801270976847, 0.009401029766792678;
}

probability ( scm7gait | variable26 ) {
	(state0) 0.02898428231623958, 0.02898706565370629, 0.39290651043986474, 0.5491221415901893;
	(state1) 0.2450353554378757, 0.6193988107269867, 0.12921940986960198, 0.006346423965535663;
	(state2) 0.01644760571305339, 0.2056943671382274, 0.7352718239803473, 0.04258620316837188;
	(state3) 0.1608011885167901, 0.765133558875769, 0.07017622811768238, 0.003889024489758685;
	(state4) 0.6749595540238587, 0.3127683187492019, 0.008180302511015246, 0.004091824715924083;
	(state5) 0.0287788239313152, 0.7035734401038379, 0.25825444588883756, 0.009393290076009348;
}

probability ( scm8spee | variable26 ) {
	(state0) 0.028984844989784278, 0.029556979606070257, 0.5934729931993222, 0.3479851822048232;
	(state1) 0.19652097968562937, 0.6775746005491681, 0.10678258357223948, 0.019121836192963183;
	(state2) 0.008484990634806957, 0.4179104260874008, 0.5313006860155768, 0.042303897262215374;
	(state3) 0.21690686065330833, 0.7234407247807626, 0.051928635639905484, 0.0077237789260236195;
	(state4) 0.6851933201686906, 0.29128670909994187, 0.015332708987126261, 0.008187261744241316;
	(state5) 0.1353741348183406, 0.7742831692191774, 0.08119729713047515, 0.009145398832006945;
}

probability ( scm9free | variable26 ) {
	(state0) 0.029604670734167532, 0.08609156985176343, 0.30470716561792327, 0.5795965937961458;
	(state1) 0.4323715750624702, 0.35875307130744655, 0.18146587096395655, 0.02740948266612658;
	(state2) 0.20066838923965416, 0.18343840795873345, 0.5142292645546531, 0.10166393824695925;
	(state3) 0.6832453248857457, 0.2632719972805726, 0.04949103903788256, 0.00399163879579912;
	(state4) 0.9412219627435904, 0.041924764059218245, 0.012752522935855737, 0.004100750261335647;
	(state5) 0.31502274902980715, 0.4929294250558661, 0.16777570219009538, 0.0242721237242312;
}

probability ( scm10swa | variable26 ) {
	(state0) 0.17623135883004779, 0.3779457576731468, 0.3009482355567664, 0.1448746479400389;
	(state1) 0.6472189228536601, 0.26865100639131534, 0.07777776727146467, 0.006352303483559811;
	(state2) 0.299411380119143, 0.4052243270639152, 0.2699453965305254, 0.025418896286416477;
	(state3) 0.7168675288859313, 0.23966506569197635, 0.03957842007506111, 0.0038889853470313374;
	(state4) 0.877527864584617, 0.10602631654187644, 0.012353994248604547, 0.004091824624902088;
	(state5) 0.4554101352254673, 0.4778485197961693, 0.057596662851907274, 0.009144682126456015;
}

probability ( scm11spe | variable26 ) {
	(state0) 0.029078895819179242, 0.06101012395735232, 0.6778536079744735, 0.2320573722489949;
	(state1) 0.23151078731339578, 0.6173059146055496, 0.1321498132009712, 0.019033484880083315;
	(state2) 0.033695852782087435, 0.4590963760948816, 0.46482908758892905, 0.042378683534102034;
	(state3) 0.33050554469573334, 0.6071616876283068, 0.054590295741869466, 0.007742471934090387;
	(state4) 0.7825783194121937, 0.20107999837980445, 0.008154409497587032, 0.008187272710414941;
	(state5) 0.24051079994322389, 0.6782145546547723, 0.07212953635541743, 0.009145109046586391;
}

probability ( scm12fee | variable26 ) {
	(state0) 0.028984404731268197, 0.0580396216291573, 0.3643675171951688, 0.5486084564444057;
	(state1) 0.36934687815763084, 0.5412672479667577, 0.08303936631692013, 0.006346507558691377;
	(state2) 0.033666541539956664, 0.2769266598720313, 0.6718254096352847, 0.0175813889527273;
	(state3) 0.1356421935059076, 0.8073850602771757, 0.05307724374442744, 0.003895502472489245;
	(state4) 0.7671139771403583, 0.214203557757615, 0.014590070270349415, 0.004092394831677288;
	(state5) 0.05006056355443287, 0.7229946701378844, 0.19955753469319507, 0.027387231614487466;
}

probability ( scm13dre | variable26 ) {
	(state0) 0.028984277309991466, 0.02930367728577336, 0.18780337090391197, 0.7539086745003232;
	(state1) 0.17937122188806143, 0.6565123908832714, 0.15776999714901394, 0.006346390079653283;
	(state2) 0.024973282439918153, 0.13325190159329453, 0.8079841414954315, 0.03379067447135583;
	(state3) 0.04723423879445256, 0.8759956686165136, 0.07288094131497001, 0.0038891512740638397;
	(state4) 0.6613535445877591, 0.3222322885220466, 0.012322342265291596, 0.004091824624902782;
	(state5) 0.009279070274795355, 0.6475461992789382, 0.3340298988808364, 0.009144831565430103;
}

probability ( scm14hyg | variable26 ) {
	(state0) 0.028984277309713303, 0.029258717899850926, 0.21853826437829854, 0.7232187404121372;
	(state1) 0.22652986341577147, 0.6920300533004153, 0.07509369320413746, 0.006346390079675742;
	(state2) 0.024956989511804018, 0.21235591924988675, 0.7283979022000977, 0.03428918903821146;
	(state3) 0.07752608087158779, 0.8850656181841849, 0.03351914967007852, 0.0038891512741486287;
	(state4) 0.6945269260822364, 0.2972803933044402, 0.004100855988420552, 0.004091824624902782;
	(state5) 0.04288352709722319, 0.7557520913735297, 0.19221954995923085, 0.009144831570016124;
}

probability ( scm15cha | variable26 ) {
	(state0) 0.028984831684569938, 0.029076417973171134, 0.18435930320582095, 0.757579447136438;
	(state1) 0.15651740198615607, 0.6229565015907669, 0.19515864057525714, 0.025367455847819995;
	(state2) 0.008500688741243658, 0.2065646370570621, 0.7012689950488389, 0.0836656791528554;
	(state3) 0.14625700267039063, 0.7824491544228057, 0.06740481218097392, 0.0038890307258298558;
	(state4) 0.788130952661943, 0.2034460058854882, 0.0043312167325158645, 0.004091824720052927;
	(state5) 0.07420785573051401, 0.5901645587910593, 0.31744284725003663, 0.018184738228390063;
}

probability ( scm16wal | variable26 ) {
	(state0) 0.028984875732552064, 0.028996623672684605, 0.2482249218931822, 0.693793578701581;
	(state1) 0.14445459623191811, 0.7098284065023277, 0.13936813784078128, 0.006348859424972821;
	(state2) 0.02374947370388893, 0.132924518393961, 0.7834970432494307, 0.05982896465271934;
	(state3) 0.08788124526792677, 0.8336115206471425, 0.07081246307319727, 0.007694771011733507;
	(state4) 0.6781258793819781, 0.3095297719401921, 0.00825252330628886, 0.004091825371541028;
	(state5) 0.028441328048545156, 0.836393937603107, 0.12582495679224417, 0.009339777556103785;
}

probability ( scm17han | variable26 ) {
	(state0) 0.029334331116393584, 0.08696177178857273, 0.3026154735739096, 0.5810884235211239;
	(state1) 0.10253126177337892, 0.6117399669266901, 0.2577299040622135, 0.02799886723771737;
	(state2) 0.01685488697269022, 0.2520638421457377, 0.5554382306576408, 0.17564304022393135;
	(state3) 0.1187456101047948, 0.6883869144327598, 0.18167764438197181, 0.01118983108047352;
	(state4) 0.39798785183674124, 0.5455973670651822, 0.039473597707644296, 0.01694118339043228;
	(state5) 0.027839778989629686, 0.6447370667793869, 0.3110746886339011, 0.01634846559708235;
}

probability ( scm18dpr | variable26 ) {
	(state0) 0.23374341088598172, 0.31850727457334754, 0.17684074198093608, 0.27090857255973466;
	(state1) 0.013670796303033729, 0.6186549458841584, 0.25601990284323484, 0.11165435496957295;
	(state2) 0.4650719287647368, 0.1691529524664648, 0.2974182236771773, 0.06835689509162106;
	(state3) 0.9795041076813852, 0.012542550665021251, 0.004045543213655187, 0.003907798439938495;
	(state4) 0.9207676716212743, 0.06295927296630885, 0.008210322535953368, 0.008062732876463502;
	(state5) 0.283373145892052, 0.5482178447521793, 0.12254748226247443, 0.045861527093294295;
}

probability ( scm19dsv | variable26 ) {
	(state0) 0.26092282401276873, 0.2316484354460216, 0.2339746068678306, 0.27345413367337906;
	(state1) 0.041958713391473876, 0.5954024125471811, 0.2947927684877481, 0.06784610557359691;
	(state2) 0.47185963634417377, 0.13081275753520588, 0.2865937333068443, 0.11073387281377602;
	(state3) 0.9802193911868678, 0.00893975670753206, 0.006938545201680698, 0.0039023069039194206;
	(state4) 0.9226824493183733, 0.062439889321157606, 0.01062441395676225, 0.0042532474037068856;
	(state5) 0.2756164203152999, 0.5229787630783745, 0.13958667619217086, 0.06181814041415475;
}

probability ( scm20fpr | variable26 ) {
	(state0) 0.11806752256413368, 0.11698424749863622, 0.3878605011686341, 0.3770877287685961;
	(state1) 0.15878649894451005, 0.5834109724916838, 0.232409667596476, 0.025392860967330122;
	(state2) 0.15929380776754298, 0.19434049734362768, 0.5192764427282884, 0.12708925216054084;
	(state3) 0.5766839260017932, 0.36271409046246916, 0.05292088238953912, 0.007681101146198558;
	(state4) 0.8740734917419617, 0.1049853550521925, 0.016849328542388405, 0.004091824663457485;
	(state5) 0.10242902006647651, 0.6142448903350263, 0.2649369439238784, 0.018389145674618714;
}

probability ( scm21fsv | variable26 ) {
	(state0) 0.11821194408943334, 0.14487516934358893, 0.21364817091839064, 0.523264715648587;
	(state1) 0.14827376618274585, 0.44909734692549536, 0.3517865717490533, 0.05084231514270555;
	(state2) 0.16771379420871285, 0.13373507265715706, 0.4808567332391353, 0.21769439989499476;
	(state3) 0.6006453508810364, 0.30076464169413125, 0.09083123362235969, 0.007758773802472692;
	(state4) 0.8873277628644372, 0.09423983919298037, 0.014339984768244107, 0.004092413174338258;
	(state5) 0.09563430624119519, 0.5311335103199698, 0.3344444924309236, 0.03878769100791132;
}

probability ( variable26 ) {
	table 0.03488539361778811, 0.17117409880934228, 0.1274073852176912, 0.28143574668194954, 0.26731976822031756, 0.11777760745291127;
}

