network LCM {
}

variable scm1rue {
	type discrete[4] { 0, 1, 2, 3 };
}

variable scm1lue {
	type discrete[4] { 0, 1, 2, 3 };
}

variable scm2rue {
	type discrete[4] { 0, 1, 2, 3 };
}

variable scm2lue {
	type discrete[4] { 0, 1, 2, 3 };
}

variable scm3rue {
	type discrete[4] { 0, 1, 2, 3 };
}

variable scm3lue {
	type discrete[4] { 0, 1, 2, 3 };
}

variable scm4rue {
	type discrete[4] { 0, 1, 2, 3 };
}

variable scm4lue {
	type discrete[4] { 0, 1, 2, 3 };
}

variable scm5rise {
	type discrete[4] { 0, 1, 2, 3 };
}

variable scm6post {
	type discrete[4] { 0, 1, 2, 3 };
}

variable scm7gait {
	type discrete[4] { 0, 1, 2, 3 };
}

variable scm8spee {
	type discrete[4] { 0, 1, 2, 3 };
}

variable scm9free {
	type discrete[4] { 0, 1, 2, 3 };
}

variable scm10swa {
	type discrete[4] { 0, 1, 2, 3 };
}

variable scm11spe {
	type discrete[4] { 0, 1, 2, 3 };
}

variable scm12fee {
	type discrete[4] { 0, 1, 2, 3 };
}

variable scm13dre {
	type discrete[4] { 0, 1, 2, 3 };
}

variable scm14hyg {
	type discrete[4] { 0, 1, 2, 3 };
}

variable scm15cha {
	type discrete[4] { 0, 1, 2, 3 };
}

variable scm16wal {
	type discrete[4] { 0, 1, 2, 3 };
}

variable scm17han {
	type discrete[4] { 0, 1, 2, 3 };
}

variable scm18dpr {
	type discrete[4] { 0, 1, 2, 3 };
}

variable scm19dsv {
	type discrete[4] { 0, 1, 2, 3 };
}

variable scm20fpr {
	type discrete[4] { 0, 1, 2, 3 };
}

variable scm21fsv {
	type discrete[4] { 0, 1, 2, 3 };
}

variable variable44 {
	type discrete[6] { state0, state1, state2, state3, state4, state5 };
}

probability ( scm1rue | variable44 ) {
	(state0) 0.7481330554307011, 0.19330070411593803, 0.05203261746742183, 0.0065336229859390615;
	(state1) 0.013148968401806972, 0.4067216769046141, 0.43512145348255876, 0.14500790121102017;
	(state2) 0.5030052276531203, 0.33827056226762164, 0.14003454077652802, 0.018689669302730017;
	(state3) 0.37821648911516786, 0.22770880784643155, 0.1960644566092541, 0.19801024642914652;
	(state4) 0.5779526701817471, 0.2646916238362791, 0.14049212485061716, 0.016863581131356574;
	(state5) 0.6665312616317037, 0.1601492386666365, 0.11890021273200682, 0.05441928696965289;
}

probability ( scm1lue | variable44 ) {
	(state0) 0.6940852930842384, 0.2433308799019398, 0.05635538320589378, 0.006228443807928194;
	(state1) 0.07234265579617684, 0.4690115838742036, 0.36320455827232623, 0.09544120205729335;
	(state2) 0.5127194842733324, 0.3254975588295729, 0.14304358302541642, 0.018739373871678313;
	(state3) 0.39962496740618886, 0.13040420718180323, 0.21568126494549678, 0.25428956046651124;
	(state4) 0.6195230295609685, 0.24557338134082282, 0.10596829239084568, 0.028935296707363004;
	(state5) 0.7077719746545447, 0.21245413701395918, 0.05728286916740873, 0.02249101916408756;
}

probability ( scm2rue | variable44 ) {
	(state0) 0.6729639641468111, 0.3056162892892531, 0.014933921314865676, 0.006485825249070098;
	(state1) 0.02940965006654582, 0.4963891274151808, 0.41776012054226, 0.056441101976013354;
	(state2) 0.5290694043426978, 0.3819792767837823, 0.07788858086977847, 0.011062738003741432;
	(state3) 0.37867397271472875, 0.3253618194480504, 0.15193724109017523, 0.14402696674704563;
	(state4) 0.5816991472738317, 0.3289466088345992, 0.07666106413559572, 0.012693179755973422;
	(state5) 0.6437740127205253, 0.26586268260710894, 0.05653704292832507, 0.0338262617440409;
}

probability ( scm2lue | variable44 ) {
	(state0) 0.6126724139077055, 0.34430983840146917, 0.031070535674423513, 0.011947212016401807;
	(state1) 0.10149917090002675, 0.5438767106197471, 0.2881993654337487, 0.06642475304647766;
	(state2) 0.518119985611455, 0.3973005512430383, 0.07984270300627962, 0.004736760139227002;
	(state3) 0.37118112107063306, 0.24851108315598974, 0.2003803973780536, 0.1799273983953237;
	(state4) 0.6158030997629643, 0.3015756516818973, 0.06726843459772647, 0.015352813957411846;
	(state5) 0.6800318205483259, 0.2638598854242928, 0.04268823788346876, 0.013420056143912592;
}

probability ( scm3rue | variable44 ) {
	(state0) 0.2817699431928801, 0.5473016011655865, 0.15295241181405195, 0.0179760438274814;
	(state1) 0.037782030945346004, 0.24168172524133877, 0.6328821618688681, 0.08765408194444704;
	(state2) 0.20168233166081173, 0.5553902293027997, 0.2352435586305292, 0.007683880405859382;
	(state3) 0.03645985328049952, 0.10652799202098245, 0.37369485496647153, 0.4833172997320465;
	(state4) 0.3457167642516941, 0.552102353430378, 0.09401360494930822, 0.00816727736861966;
	(state5) 0.09239573882909763, 0.38038130580337604, 0.46066011232139814, 0.0665628430461282;
}

probability ( scm3lue | variable44 ) {
	(state0) 0.20403572827519256, 0.5104796830742035, 0.27196755818151536, 0.013517030469088304;
	(state1) 0.025728465197486918, 0.3474165038944385, 0.564473132461695, 0.06238189844637968;
	(state2) 0.13944618263462472, 0.5178953314897534, 0.30392985020450874, 0.03872863567111316;
	(state3) 0.03648928521009303, 0.03607368472193425, 0.3438475576582357, 0.5835894724097369;
	(state4) 0.36913852116789947, 0.4555036493690971, 0.16233898637068117, 0.013018843092322315;
	(state5) 0.1183576231873244, 0.27998903640443684, 0.42347732191677695, 0.17817601849146195;
}

probability ( scm4rue | variable44 ) {
	(state0) 0.27458438367778953, 0.5855341191123973, 0.1276568343623268, 0.012224662847486602;
	(state1) 0.03248700154475142, 0.2334897157103477, 0.6778864048090939, 0.056136877935807045;
	(state2) 0.1705093855644835, 0.5863001146852229, 0.2314892063637854, 0.011701293386508353;
	(state3) 0.05299542140466738, 0.16878598595045802, 0.4510010301758959, 0.32721756246897876;
	(state4) 0.32574140585555267, 0.5640774579069409, 0.10196855444467129, 0.008212581792835232;
	(state5) 0.15472187600267764, 0.40309304029939885, 0.3993629830176331, 0.04282210068029043;
}

probability ( scm4lue | variable44 ) {
	(state0) 0.28105039267385074, 0.5055884600726199, 0.20143391845845282, 0.011927228795076515;
	(state1) 0.022916699228953768, 0.3982800981473577, 0.5491336599560863, 0.029669542667602248;
	(state2) 0.18786852289615721, 0.5127972597704328, 0.2904144101223447, 0.00891980721106517;
	(state3) 0.05302461119098514, 0.05863611578796068, 0.4689712795595978, 0.41936799346145637;
	(state4) 0.3947137099970031, 0.47780174012410354, 0.11618030981192964, 0.011304240066963784;
	(state5) 0.1811445333897786, 0.39978119550913094, 0.3377977582714711, 0.08127651282961941;
}

probability ( scm5rise | variable44 ) {
	(state0) 0.538247208262157, 0.4014658121530273, 0.04193506863028577, 0.018351910954530114;
	(state1) 0.15174739381090566, 0.6338102000893807, 0.19534288418346846, 0.019099521916245255;
	(state2) 0.5091004345111085, 0.4335440144648859, 0.05352439088078789, 0.00383116014321763;
	(state3) 0.036010934598765636, 0.019427019247001697, 0.36098324083474276, 0.5835788053194899;
	(state4) 0.8957891026925417, 0.09577341876395082, 0.004360305953212191, 0.0040771725902952775;
	(state5) 0.149285390671297, 0.2662593422838912, 0.4390283277280137, 0.145426939316798;
}

probability ( scm6post | variable44 ) {
	(state0) 0.46678066711273725, 0.4013392021019538, 0.12574038052796588, 0.006139750257343014;
	(state1) 0.16719889614391953, 0.584353732786569, 0.23088448510085374, 0.017562885968657817;
	(state2) 0.5479402998185419, 0.3569143223401293, 0.08745412363980302, 0.007691254201525764;
	(state3) 0.03600424389667985, 0.018883529383936556, 0.49328914628999543, 0.4518230804293882;
	(state4) 0.9192053495074963, 0.056698294403208165, 0.0200191796173349, 0.004077176471960627;
	(state5) 0.11952339870092812, 0.2095138522761717, 0.5739585480879383, 0.09700420093496177;
}

probability ( scm7gait | variable44 ) {
	(state0) 0.23742142456830634, 0.6340556327719715, 0.12240161413345371, 0.006121328526268303;
	(state1) 0.021701473368781476, 0.6450166880082027, 0.3157380716199996, 0.0175437670030162;
	(state2) 0.15770851429643354, 0.7710438456802828, 0.06741648141187578, 0.0038311586114077784;
	(state3) 0.01798814726798787, 0.018019110059898858, 0.6190328356965966, 0.3449599069755166;
	(state4) 0.6748680308530924, 0.31290140548968937, 0.008153391072790584, 0.0040771725844275354;
	(state5) 0.024666976271369795, 0.2618594191483784, 0.6704050225396162, 0.043068582040635614;
}

probability ( scm8spee | variable44 ) {
	(state0) 0.21338043907787585, 0.6696839118643289, 0.098514937218399, 0.01842071183939634;
	(state1) 0.09829662984135913, 0.7871185565609181, 0.10479606119417616, 0.009788752403546574;
	(state2) 0.2158715507226268, 0.7298887606273622, 0.04661937189765654, 0.007620316752354363;
	(state3) 0.01798898933837674, 0.07325520696064568, 0.6400955714031417, 0.2686602322978359;
	(state4) 0.6839390222838106, 0.2924358798172028, 0.0154652774935249, 0.008159820405461605;
	(state5) 0.010705956155567574, 0.45796670026592745, 0.5092642553633184, 0.022063088215186436;
}

probability ( scm9free | variable44 ) {
	(state0) 0.43257182534020017, 0.3687867763819693, 0.16858290965444236, 0.030058488623388172;
	(state1) 0.2728469989659966, 0.4604553266954351, 0.2468255907227412, 0.019872083615827058;
	(state2) 0.6832811896633894, 0.2649866639468556, 0.04772989184636796, 0.004002254543387062;
	(state3) 0.09038742743016283, 0.07113367521593154, 0.45986361997070824, 0.37861527738319734;
	(state4) 0.941177875242453, 0.04188686741529508, 0.012854345296073601, 0.004080912046178438;
	(state5) 0.216281297183438, 0.23838953498362564, 0.42814275635537374, 0.1171864114775626;
}

probability ( scm10swa | variable44 ) {
	(state0) 0.65755328307896, 0.2628516672918562, 0.07347344600280958, 0.006121603626374446;
	(state1) 0.3995178632180129, 0.5181399814499469, 0.07255643734577462, 0.009785717986265523;
	(state2) 0.711312030680958, 0.24495244427452784, 0.039904372896190414, 0.003831152148323576;
	(state3) 0.2509399585263587, 0.3135467335394732, 0.34553288154552286, 0.0899804263886453;
	(state4) 0.8777486079015382, 0.10584929359607415, 0.012324925942280613, 0.0040771725601071816;
	(state5) 0.30837298651181366, 0.42516355487765095, 0.23442604199675582, 0.03203741661377951;
}

probability ( scm11spe | variable44 ) {
	(state0) 0.250607295786321, 0.6103952984158233, 0.12064093479673761, 0.01835647100111801;
	(state1) 0.2095721531833048, 0.7027578829325377, 0.07788223045552045, 0.009787733428637087;
	(state2) 0.3289211119118063, 0.6101954274213085, 0.05332533515005745, 0.007558125516827903;
	(state3) 0.052052501636210044, 0.10521168565476668, 0.6286311447520102, 0.2141046679570131;
	(state4) 0.7812427388513004, 0.2024286431602251, 0.00816878290387625, 0.008159835084598248;
	(state5) 0.013699613520603419, 0.499090409251001, 0.4751958842128684, 0.012014093015527133;
}

probability ( scm12fee | variable44 ) {
	(state0) 0.3636809130709037, 0.5565781919266426, 0.07361945058487565, 0.006121444417578069;
	(state1) 0.03937987859561601, 0.6761458267815899, 0.2551263447620454, 0.029347949860748655;
	(state2) 0.13206903841758288, 0.8098060950730422, 0.05429155879201013, 0.0038333077173647212;
	(state3) 0.017988411049931836, 0.057174108938631556, 0.5674426709318444, 0.35739480907959226;
	(state4) 0.7650308349938162, 0.21618532396174384, 0.014706415590993793, 0.0040774254534461495;
	(state5) 0.04759764845902954, 0.3356334531803081, 0.6046747213229818, 0.012094177037680603;
}

probability ( scm13dre | variable44 ) {
	(state0) 0.1713165513849553, 0.6786756417389763, 0.1438864830883102, 0.006121323787758273;
	(state1) 0.00984596284363693, 0.5672605194068396, 0.41310611698015287, 0.009787400769370545;
	(state2) 0.04623260401976949, 0.8769187910467695, 0.07301742315124461, 0.003831181782216464;
	(state3) 0.01798799247336201, 0.03958165064360203, 0.4454777532514786, 0.49695260363155735;
	(state4) 0.6589345489537833, 0.3247054392515469, 0.012282839234562457, 0.0040771725601073385;
	(state5) 0.03552370947536372, 0.16489702247858756, 0.7742211083637363, 0.025358159682312482;
}

probability ( scm14hyg | variable44 ) {
	(state0) 0.22389591903710318, 0.704676097294753, 0.06530665988036385, 0.006121323787779924;
	(state1) 0.025550331034615906, 0.6864556393893585, 0.27820662869282164, 0.00978740088320394;
	(state2) 0.07987598858129605, 0.8846349199533473, 0.03165790968304075, 0.0038311817823160044;
	(state3) 0.017987992469045786, 0.05293560311809189, 0.46761917655551183, 0.46145722785735044;
	(state4) 0.6918240853692846, 0.30001324864982115, 0.004085493420786917, 0.0040771725601073385;
	(state5) 0.03506785852144353, 0.2704005853932049, 0.6587713364814461, 0.03576021960390551;
}

probability ( scm15cha | variable44 ) {
	(state0) 0.1630816954250015, 0.6301228120166654, 0.18250959653360982, 0.024285896024723086;
	(state1) 0.05932193176832043, 0.558313929025934, 0.3625370751840241, 0.01982706402172147;
	(state2) 0.14338714034820457, 0.7871218660355849, 0.06565981451065593, 0.0038311791055545617;
	(state3) 0.017988965882184575, 0.021748265334431166, 0.41987665740527547, 0.5403861113781088;
	(state4) 0.7863366496232657, 0.20524590906779788, 0.004340268718502348, 0.004077172590434047;
	(state5) 0.010755870064420133, 0.23517386308687174, 0.6903225451524081, 0.06374772169630014;
}

probability ( scm16wal | variable44 ) {
	(state0) 0.13963492544098172, 0.7282250176473256, 0.12601845417156016, 0.006121602740132493;
	(state1) 0.03732212212169461, 0.7680442612432542, 0.18475923574993453, 0.009874380885116581;
	(state2) 0.08474062659199981, 0.8390606759447324, 0.06857176149808193, 0.0076269359651857235;
	(state3) 0.01798926399845746, 0.03610662096986602, 0.5145008610258404, 0.43140325400583623;
	(state4) 0.6772006933876957, 0.31050461416296626, 0.008217519123989828, 0.004077173325348232;
	(state5) 0.023087507223589133, 0.16431186682803262, 0.7376057266510818, 0.0749948992972964;
}

probability ( scm17han | variable44 ) {
	(state0) 0.1088097492224898, 0.6217332338312552, 0.24446128107424375, 0.02499573587201123;
	(state1) 0.014481539533816859, 0.5945564714434796, 0.3515477743051322, 0.03941421471757142;
	(state2) 0.1157940037681654, 0.6890416151013782, 0.184307238957347, 0.010857142173109301;
	(state3) 0.018465298737785872, 0.09106101308234348, 0.41891830674389974, 0.4715553814359709;
	(state4) 0.3975031885388744, 0.5461668830343412, 0.039456662416890304, 0.016873266009894108;
	(state5) 0.021363328420489106, 0.3078200592723259, 0.5350721579306942, 0.13574445437649077;
}

probability ( scm18dpr | variable44 ) {
	(state0) 0.012538692791107277, 0.6421679104738827, 0.2425970684398562, 0.10269632829515378;
	(state1) 0.2378701266379679, 0.5191061748716683, 0.1843540855113809, 0.058669612978982995;
	(state2) 0.9799090658153798, 0.012279486373620495, 0.003962496315588481, 0.0038489514954111697;
	(state3) 0.24920572509836939, 0.23125544530945577, 0.30353335807583626, 0.2160054715163385;
	(state4) 0.9220471747880137, 0.06176324233747681, 0.008176029036818654, 0.008013553837690918;
	(state5) 0.5436382818692883, 0.19062152161032617, 0.2096393566096747, 0.05610083991071082;
}

probability ( scm19dsv | variable44 ) {
	(state0) 0.03672151360192715, 0.6190581819711264, 0.28190728349973665, 0.06231302092720987;
	(state1) 0.22982501840341207, 0.49586989198923775, 0.18503663433056047, 0.08926845527678959;
	(state2) 0.9804490808835885, 0.008981753292733381, 0.006727296866549867, 0.0038418689571284312;
	(state3) 0.24920610429469386, 0.17754448057036806, 0.3013033987564782, 0.27194601637845983;
	(state4) 0.9238715835253529, 0.06121636689422141, 0.010666108572704123, 0.0042459410077216545;
	(state5) 0.5680387628197553, 0.13858057937459453, 0.23422018320387805, 0.05916047460177209;
}

probability ( scm20fpr | variable44 ) {
	(state0) 0.15490693188287757, 0.6012732124884279, 0.2193351095905808, 0.02448474603811364;
	(state1) 0.11500182069386106, 0.5271770337192562, 0.3284571260241247, 0.029364019562758144;
	(state2) 0.5613325299359442, 0.3782956050013457, 0.05295833516295316, 0.007413529899756931;
	(state3) 0.11095357688963312, 0.11493052288780026, 0.39651960352369103, 0.3775962966988756;
	(state4) 0.874501301198502, 0.10463389088599541, 0.016787635314658683, 0.004077172600843963;
	(state5) 0.17921234671470732, 0.23626945148578046, 0.5196177169459496, 0.06490048485356277;
}

probability ( scm21fsv | variable44 ) {
	(state0) 0.14495146797560132, 0.47515754432435275, 0.3309734302201727, 0.04891755747987306;
	(state1) 0.10854611900197945, 0.4317295843697793, 0.39991878122944613, 0.05980551539879512;
	(state2) 0.5845900169448952, 0.3163242414595368, 0.09147043023508261, 0.007615311360485241;
	(state3) 0.12893575483072112, 0.10361710602111382, 0.25956521336938415, 0.5078819257787809;
	(state4) 0.8876006332399907, 0.09390346920878118, 0.014418450971564264, 0.004077446579663796;
	(state5) 0.17924343623215774, 0.18061840005411883, 0.4939911269562252, 0.14614703675749816;
}

probability ( variable44 ) {
	table 0.17758958574597822, 0.10984471378601744, 0.285734314238458, 0.05824259101403557, 0.2682923698118844, 0.10029642540362639;
}

