network LCM {
}

variable scm1rue {
	type discrete[4] { 0, 1, 2, 3 };
}

variable scm1lue {
	type discrete[4] { 0, 1, 2, 3 };
}

variable scm2rue {
	type discrete[4] { 0, 1, 2, 3 };
}

variable scm2lue {
	type discrete[4] { 0, 1, 2, 3 };
}

variable scm3rue {
	type discrete[4] { 0, 1, 2, 3 };
}

variable scm3lue {
	type discrete[4] { 0, 1, 2, 3 };
}

variable scm4rue {
	type discrete[4] { 0, 1, 2, 3 };
}

variable scm4lue {
	type discrete[4] { 0, 1, 2, 3 };
}

variable scm5rise {
	type discrete[4] { 0, 1, 2, 3 };
}

variable scm6post {
	type discrete[4] { 0, 1, 2, 3 };
}

variable scm7gait {
	type discrete[4] { 0, 1, 2, 3 };
}

variable scm8spee {
	type discrete[4] { 0, 1, 2, 3 };
}

variable scm9free {
	type discrete[4] { 0, 1, 2, 3 };
}

variable scm10swa {
	type discrete[4] { 0, 1, 2, 3 };
}

variable scm11spe {
	type discrete[4] { 0, 1, 2, 3 };
}

variable scm12fee {
	type discrete[4] { 0, 1, 2, 3 };
}

variable scm13dre {
	type discrete[4] { 0, 1, 2, 3 };
}

variable scm14hyg {
	type discrete[4] { 0, 1, 2, 3 };
}

variable scm15cha {
	type discrete[4] { 0, 1, 2, 3 };
}

variable scm16wal {
	type discrete[4] { 0, 1, 2, 3 };
}

variable scm17han {
	type discrete[4] { 0, 1, 2, 3 };
}

variable scm18dpr {
	type discrete[4] { 0, 1, 2, 3 };
}

variable scm19dsv {
	type discrete[4] { 0, 1, 2, 3 };
}

variable scm20fpr {
	type discrete[4] { 0, 1, 2, 3 };
}

variable scm21fsv {
	type discrete[4] { 0, 1, 2, 3 };
}

variable variable62 {
	type discrete[6] { state0, state1, state2, state3, state4, state5 };
}

probability ( scm1rue | variable62 ) {
	(state0) 0.577948930803578, 0.2646012907865621, 0.14081924743113247, 0.016630530978727416;
	(state1) 0.7561854301625169, 0.18681019357750336, 0.050359747960695436, 0.006644628299284192;
	(state2) 0.5062515145231298, 0.33818729785610613, 0.13655296866866373, 0.019008218952100437;
	(state3) 0.37806697660152616, 0.23069983163582947, 0.19314261686884773, 0.19809057489379667;
	(state4) 0.6490766457003578, 0.1729658916420284, 0.12479131259314305, 0.05316615006447076;
	(state5) 0.012377975955794112, 0.40478589091670947, 0.4390317262663399, 0.14380440686115656;
}

probability ( scm1lue | variable62 ) {
	(state0) 0.6194016446199963, 0.24568588153010498, 0.10603125212214659, 0.028881221727752045;
	(state1) 0.6968712614292177, 0.23984302464235355, 0.057025005050930645, 0.00626070887749815;
	(state2) 0.51572091682484, 0.32375478840475913, 0.14160440956165965, 0.01891988520874122;
	(state3) 0.3912369688112147, 0.14387649605212685, 0.2131193441579657, 0.2517671909786927;
	(state4) 0.695375268223121, 0.2191776885215934, 0.06174966456289675, 0.023697378692388627;
	(state5) 0.07870717141867492, 0.464993465742685, 0.3617765277070617, 0.09452283513157844;
}

probability ( scm2rue | variable62 ) {
	(state0) 0.581933221510355, 0.32877807708406587, 0.07683219552183947, 0.012456505883739692;
	(state1) 0.6807629020364627, 0.29883913566073655, 0.013792356006327635, 0.006605606296472985;
	(state2) 0.5323032883731776, 0.3798747325869406, 0.07646698837415296, 0.011354990665728822;
	(state3) 0.3784168457666538, 0.3137920861816536, 0.16365173595830115, 0.14413933209339144;
	(state4) 0.6302342618876661, 0.2746445547140799, 0.06196526880061802, 0.03315591459763602;
	(state5) 0.024459865461081177, 0.511241627292165, 0.4085703144327578, 0.055728192813995915;
}

probability ( scm2lue | variable62 ) {
	(state0) 0.6155560750344523, 0.30189315473725037, 0.06726267889744347, 0.015288091330853897;
	(state1) 0.6140497534512597, 0.34235938205669314, 0.03155889761959828, 0.012031966872449038;
	(state2) 0.5211076776749918, 0.3942603063691854, 0.07977853206429311, 0.004853483891529601;
	(state3) 0.36794279699436094, 0.24025306610711736, 0.21183099487963555, 0.17997314201888615;
	(state4) 0.6634188641684571, 0.26941506069116283, 0.0537884215475053, 0.013377653592874895;
	(state5) 0.11082141075858397, 0.5538264876159333, 0.2696692109006072, 0.06568289072487558;
}

probability ( scm3rue | variable62 ) {
	(state0) 0.34609016478968607, 0.5518157869025594, 0.0939048982086816, 0.008189150099072904;
	(state1) 0.2849383361726015, 0.5514352292233641, 0.14548964945103907, 0.018136785152995348;
	(state2) 0.20290819816886171, 0.555885621114432, 0.23349980889758096, 0.007706371819125593;
	(state3) 0.03711184146980991, 0.10388631267034053, 0.37648414760702154, 0.482517698252828;
	(state4) 0.0900552121129186, 0.3783470641839609, 0.46545235628246406, 0.06614536742065638;
	(state5) 0.03638255599011364, 0.24400062639835587, 0.6333365431689071, 0.08628027444262339;
}

probability ( scm3lue | variable62 ) {
	(state0) 0.36908991812784403, 0.45552400874559396, 0.16249131979316378, 0.012894753333398101;
	(state1) 0.20540765852354417, 0.5073363496930325, 0.27344958567299454, 0.013806406110428665;
	(state2) 0.14077131918661537, 0.5169121204199315, 0.303353308350191, 0.03896325204326225;
	(state3) 0.037135661972321196, 0.03611075888372622, 0.3324082666952149, 0.5943453124487377;
	(state4) 0.11467258628793281, 0.2764642934386841, 0.43290205714002294, 0.1759610631333602;
	(state5) 0.02713284412689246, 0.3642184096621368, 0.5547542744838252, 0.05389447172714555;
}

probability ( scm4rue | variable62 ) {
	(state0) 0.3257250612707893, 0.5639894382669951, 0.10205401372298345, 0.008231486739232194;
	(state1) 0.2779231572095954, 0.5845489586487822, 0.12518638331491827, 0.012341500826704054;
	(state2) 0.1716619517050463, 0.5885482681656443, 0.2280265823786105, 0.011763197750698867;
	(state3) 0.05292445702719657, 0.16510109989269908, 0.4413474141776949, 0.34062702890240937;
	(state4) 0.15170669903782522, 0.4027308633960549, 0.40378374246980164, 0.041778695096318395;
	(state5) 0.03106794032508512, 0.23839300200848398, 0.6821580246487824, 0.04838103301764845;
}

probability ( scm4lue | variable62 ) {
	(state0) 0.39453943631716704, 0.4779178769797906, 0.11631103344848691, 0.01123165325455543;
	(state1) 0.28453094151752345, 0.5014004889503579, 0.20205149820096255, 0.012017071331155912;
	(state2) 0.1896618018084967, 0.5114067925670804, 0.2898298840084265, 0.009101521615996352;
	(state3) 0.05294791490618151, 0.056850109907013634, 0.47644356563265233, 0.41375840955415255;
	(state4) 0.17792430846277818, 0.39689884989943786, 0.3425442032169153, 0.08263263842086868;
	(state5) 0.02037985931639634, 0.41487345159992844, 0.5355529963190655, 0.029193692764609824;
}

probability ( scm5rise | variable62 ) {
	(state0) 0.8959584805341254, 0.09559174675532854, 0.004361505240406548, 0.004088267470139536;
	(state1) 0.5423419552368494, 0.39657940166575073, 0.04255384268910074, 0.01852480040829935;
	(state2) 0.5119767393215485, 0.4306416167161558, 0.053537521189485605, 0.00384412277281015;
	(state3) 0.03599006239605197, 0.01950120706661511, 0.35155863404478155, 0.5929500964925514;
	(state4) 0.14910843149879685, 0.26239841505715855, 0.44295818190649183, 0.1455349715375527;
	(state5) 0.15144169174508856, 0.6526927014170059, 0.18549543639718769, 0.010370170440717806;
}

probability ( scm6post | variable62 ) {
	(state0) 0.9191978301144753, 0.056653345165234764, 0.020060553489150774, 0.004088271231139079;
	(state1) 0.47157619660962447, 0.40074369283320743, 0.12148104585285531, 0.00619906470431273;
	(state2) 0.5509823741220946, 0.3546340343894634, 0.08664283359505275, 0.0077407578933892975;
	(state3) 0.03598377545725821, 0.01899420805867811, 0.47856791997655374, 0.46645409650750996;
	(state4) 0.11527088062361798, 0.21734421549119878, 0.5734618724880567, 0.09392303139712657;
	(state5) 0.16959355644383953, 0.5843860968770133, 0.2359788673613526, 0.010041479317794587;
}

probability ( scm7gait | variable62 ) {
	(state0) 0.6751918397556862, 0.31254489784449063, 0.008174994935499771, 0.004088267464323397;
	(state1) 0.2401728985098235, 0.6312971449322027, 0.12235141110408833, 0.006178545453885424;
	(state2) 0.15918383045607393, 0.7694614240397705, 0.06751062442446444, 0.0038441210796910565;
	(state3) 0.017980860206109426, 0.018007113224461833, 0.6047285404461762, 0.35928348612325256;
	(state4) 0.023209366027438633, 0.2612258114131742, 0.6740075608475142, 0.04155726171187289;
	(state5) 0.02272987465918601, 0.6624031981522756, 0.30483136968559704, 0.01003555750294147;
}

probability ( scm8spee | variable62 ) {
	(state0) 0.6846930521031194, 0.2916635120065011, 0.015462223179078338, 0.008181212711301218;
	(state1) 0.20995246338750506, 0.6721612723159883, 0.09928889565784518, 0.018597368638661467;
	(state2) 0.2166930618876258, 0.7286781134311647, 0.04698453741347416, 0.007644287267735432;
	(state3) 0.017982689166387556, 0.08326672159618545, 0.6303591836394913, 0.26839140559793573;
	(state4) 0.010444043292682621, 0.45782890214394073, 0.5101091209155759, 0.021617933647800746;
	(state5) 0.10855828050433798, 0.7850474423153043, 0.09667369838565466, 0.009720578794703063;
}

probability ( scm9free | variable62 ) {
	(state0) 0.9414025965270407, 0.04169706079081507, 0.012808000850667038, 0.004092341831477143;
	(state1) 0.43309274038880646, 0.36633174692463905, 0.17053533279823743, 0.030040179888316892;
	(state2) 0.6841311358246253, 0.26382966826225435, 0.048026737989044714, 0.00401245792407577;
	(state3) 0.0906999761337529, 0.07117435711540666, 0.4597016562119706, 0.3784240105388698;
	(state4) 0.21064927328026037, 0.2369897772121265, 0.43799288371601497, 0.11436806579159821;
	(state5) 0.285931372500197, 0.4683747269864131, 0.22549243161028695, 0.020201468903102843;
}

probability ( scm10swa | variable62 ) {
	(state0) 0.8776678790817665, 0.10589623741309447, 0.012347616077323239, 0.004088267427815809;
	(state1) 0.6568121562948018, 0.2628502704423598, 0.07415862907679042, 0.006178944186047932;
	(state2) 0.7132128142296438, 0.24309255254666007, 0.03985052219022862, 0.003844111033467588;
	(state3) 0.2645833135467077, 0.3085652453426506, 0.3369256908682103, 0.08992575024243134;
	(state4) 0.30404200675580834, 0.423357922955744, 0.24133270309092125, 0.03126736719752652;
	(state5) 0.40438723608288146, 0.5205070744838212, 0.06538663903750455, 0.009719050395792718;
}

probability ( scm11spe | variable62 ) {
	(state0) 0.7818247074895328, 0.20181195784312508, 0.008182107754927932, 0.008181226912414252;
	(state1) 0.24781479737071047, 0.6114863148222148, 0.12216979560560856, 0.018529092201466205;
	(state2) 0.3300255841764246, 0.6092216832312665, 0.05315012258612169, 0.00760261000618716;
	(state3) 0.06549077894303494, 0.10082729703619385, 0.6200561998978269, 0.21362572412294437;
	(state4) 0.013799157681977663, 0.5018869378343602, 0.4724162949520509, 0.011897609531611217;
	(state5) 0.21223355521218762, 0.7041019443574835, 0.07394441115419517, 0.009720089276133789;
}

probability ( scm12fee | variable62 ) {
	(state0) 0.7663559860167011, 0.2149416118535334, 0.014613897429987678, 0.004088504699777824;
	(state1) 0.36716589290579305, 0.5519890569431045, 0.07466637074283232, 0.006178679408270024;
	(state2) 0.13299425954692995, 0.8093410433193892, 0.053818331132068395, 0.003846366001612375;
	(state3) 0.017981190729141942, 0.05493284263168704, 0.5701180277571842, 0.35696793888198686;
	(state4) 0.04573865981999549, 0.33651427147456187, 0.6057831072539817, 0.011963961451460866;
	(state5) 0.04021860008054653, 0.6921617044120373, 0.2384748306857778, 0.02914486482163841;
}

probability ( scm13dre | variable62 ) {
	(state0) 0.6602381338387798, 0.323360481385757, 0.012313117347647173, 0.004088267427815961;
	(state1) 0.17357575238383094, 0.6757792719967743, 0.1444664364036658, 0.0061785392157288465;
	(state2) 0.04668968828672097, 0.8770924072936486, 0.07237376495296524, 0.0038441394666651036;
	(state3) 0.017980745256372638, 0.053269609821646156, 0.4349301020401905, 0.4938195428817907;
	(state4) 0.033991312030109785, 0.16054009561233223, 0.7790304251328631, 0.026438167224694893;
	(state5) 0.009769697552382777, 0.5832014286042008, 0.3973087034249261, 0.009720170418490425;
}

probability ( scm14hyg | variable62 ) {
	(state0) 0.6931041157680494, 0.2987109787166626, 0.004096638087472038, 0.004088267427815962;
	(state1) 0.22588096439573296, 0.7018243341096226, 0.06611616227888581, 0.006178539215758543;
	(state2) 0.07954257115343044, 0.8848471343136601, 0.0317661550661416, 0.0038441394667677728;
	(state3) 0.017980745251640222, 0.06619731711591949, 0.45748568298193204, 0.45833625465050826;
	(state4) 0.033628081029509836, 0.26796929472665315, 0.6618139880262427, 0.0365886362175943;
	(state5) 0.02905052443774697, 0.6976429395229655, 0.26358636553072173, 0.009720170508565853;
}

probability ( scm15cha | variable62 ) {
	(state0) 0.7873414485542599, 0.2042317674273506, 0.004338516548150018, 0.004088267470239539;
	(state1) 0.16391132842212652, 0.6288365151705483, 0.18270743746042914, 0.024544718946896242;
	(state2) 0.14468709893390333, 0.786005835540127, 0.06546292533004167, 0.003844140195927779;
	(state3) 0.01798265431371164, 0.03563236663736915, 0.40619488907199475, 0.5401900899769244;
	(state4) 0.010492532227043789, 0.23679202696182078, 0.6902935671320913, 0.062421873679044185;
	(state5) 0.060649125957604, 0.564737111907979, 0.3551982420859652, 0.019415520048451766;
}

probability ( scm16wal | variable62 ) {
	(state0) 0.6780146282496103, 0.3096575887932187, 0.008239514770409006, 0.004088268186762065;
	(state1) 0.1410545849844098, 0.7243874568022144, 0.1283790570434699, 0.006178901169905911;
	(state2) 0.08595062547869331, 0.8378356827417844, 0.06856825706369368, 0.007645434715828512;
	(state3) 0.017983175143734265, 0.03626282948531355, 0.5137367186016901, 0.4320172767692621;
	(state4) 0.024413088208488018, 0.16422203545681885, 0.738655942243276, 0.07270893409141713;
	(state5) 0.035239081002296474, 0.7901143409039515, 0.16482105287249296, 0.009825525221259086;
}

probability ( scm17han | variable62 ) {
	(state0) 0.3979112361938755, 0.5457514049160801, 0.03942461041759439, 0.016912748472449998;
	(state1) 0.1063503515179664, 0.6218828434603713, 0.24648214991531286, 0.02528465510634961;
	(state2) 0.11683617218089827, 0.688536778700801, 0.18378863851237, 0.010838410605930647;
	(state3) 0.019107620768570047, 0.09053641659327553, 0.42188131043529886, 0.46847465220285556;
	(state4) 0.020453801802747362, 0.3051809359983751, 0.5388800044374427, 0.1354852577614349;
	(state5) 0.019819973885965844, 0.6068417401875339, 0.3354031289471691, 0.03793515697933119;
}

probability ( scm18dpr | variable62 ) {
	(state0) 0.9220404894237654, 0.06174406853107651, 0.008198067201454868, 0.008017374843703304;
	(state1) 0.012845564073404472, 0.6376062368117502, 0.24531374328325317, 0.10423445583159206;
	(state2) 0.9797817775169385, 0.012376887570582694, 0.00397904269301597, 0.0038622922194629064;
	(state3) 0.24940280550817928, 0.22582847395085573, 0.30864894406889737, 0.21611977647206773;
	(state4) 0.5291906653497281, 0.19803449680086097, 0.218932481358584, 0.053842356490826894;
	(state5) 0.25160457334417907, 0.5241385231554986, 0.16613278369346418, 0.058124119806858214;
}

probability ( scm19dsv | variable62 ) {
	(state0) 0.9239313396139183, 0.06120240474760157, 0.010617307091158329, 0.004248948547321855;
	(state1) 0.03742223904411074, 0.6145594607087185, 0.28496073471164624, 0.06305756553552469;
	(state2) 0.9804363890150041, 0.00898139141357779, 0.006727085879393409, 0.0038551336920246374;
	(state3) 0.24940354183173735, 0.18789499834897425, 0.29289138218069405, 0.2698100776385943;
	(state4) 0.5524208863694199, 0.14325826812827575, 0.24367423374517774, 0.06064661175712661;
	(state5) 0.2434560511196231, 0.4960386600658893, 0.17371447313685712, 0.0867908156776306;
}

probability ( scm20fpr | variable62 ) {
	(state0) 0.8748866577601361, 0.10420938418666198, 0.01681569058482702, 0.004088267468374937;
	(state1) 0.15647402640662877, 0.5966436746510768, 0.22216697613423578, 0.024715322808058715;
	(state2) 0.5649128508822804, 0.37474792951894315, 0.05289266508311521, 0.0074465545156612;
	(state3) 0.12556471682942194, 0.11130861107988545, 0.3860763230123304, 0.3770503490783622;
	(state4) 0.17332729482678846, 0.23660804097997884, 0.5263912423618956, 0.06367342183133712;
	(state5) 0.10801723923613543, 0.5498556524988432, 0.3131046703999572, 0.02902243786506421;
}

probability ( scm21fsv | variable62 ) {
	(state0) 0.8880297277061527, 0.09352187486295684, 0.014359872033488817, 0.004088525397401491;
	(state1) 0.1464508000413543, 0.4692541152695092, 0.33490995451021754, 0.04938513017891883;
	(state2) 0.5882440989170192, 0.31328390504366294, 0.09082547443068513, 0.007646521608632753;
	(state3) 0.14354072237535323, 0.10299770852869645, 0.24902395996594906, 0.5044376091300014;
	(state4) 0.17333100896759002, 0.17964013816745705, 0.5012705614324826, 0.14575829143247032;
	(state5) 0.10158299371088347, 0.45409340375854135, 0.38616152211016114, 0.05816208042041407;
}

probability ( variable62 ) {
	table 0.26755525355686555, 0.17591428242286417, 0.2847598754405879, 0.05826831059593197, 0.10288132776400173, 0.11062095021974866;
}

