network LCM {
}

variable scm1rue {
	type discrete[4] { 0, 1, 2, 3 };
}

variable scm1lue {
	type discrete[4] { 0, 1, 2, 3 };
}

variable scm2rue {
	type discrete[4] { 0, 1, 2, 3 };
}

variable scm2lue {
	type discrete[4] { 0, 1, 2, 3 };
}

variable scm3rue {
	type discrete[4] { 0, 1, 2, 3 };
}

variable scm3lue {
	type discrete[4] { 0, 1, 2, 3 };
}

variable scm4rue {
	type discrete[4] { 0, 1, 2, 3 };
}

variable scm4lue {
	type discrete[4] { 0, 1, 2, 3 };
}

variable scm5rise {
	type discrete[4] { 0, 1, 2, 3 };
}

variable scm6post {
	type discrete[4] { 0, 1, 2, 3 };
}

variable scm7gait {
	type discrete[4] { 0, 1, 2, 3 };
}

variable scm8spee {
	type discrete[4] { 0, 1, 2, 3 };
}

variable scm9free {
	type discrete[4] { 0, 1, 2, 3 };
}

variable scm10swa {
	type discrete[4] { 0, 1, 2, 3 };
}

variable scm11spe {
	type discrete[4] { 0, 1, 2, 3 };
}

variable scm12fee {
	type discrete[4] { 0, 1, 2, 3 };
}

variable scm13dre {
	type discrete[4] { 0, 1, 2, 3 };
}

variable scm14hyg {
	type discrete[4] { 0, 1, 2, 3 };
}

variable scm15cha {
	type discrete[4] { 0, 1, 2, 3 };
}

variable scm16wal {
	type discrete[4] { 0, 1, 2, 3 };
}

variable scm17han {
	type discrete[4] { 0, 1, 2, 3 };
}

variable scm18dpr {
	type discrete[4] { 0, 1, 2, 3 };
}

variable scm19dsv {
	type discrete[4] { 0, 1, 2, 3 };
}

variable scm20fpr {
	type discrete[4] { 0, 1, 2, 3 };
}

variable scm21fsv {
	type discrete[4] { 0, 1, 2, 3 };
}

variable variable98 {
	type discrete[6] { state0, state1, state2, state3, state4, state5 };
}

probability ( scm1rue | variable98 ) {
	(state0) 0.5907365511567099, 0.18549212381891142, 0.1662683248406229, 0.05750300018375583;
	(state1) 0.7902447280517283, 0.1544582558996673, 0.0483166998343613, 0.0069803162142430646;
	(state2) 0.5182148804266637, 0.3364409685571784, 0.12479932361852945, 0.020544827397628328;
	(state3) 0.5784125765321262, 0.26417732071187244, 0.1420392714764978, 0.015370831279503535;
	(state4) 0.39778020499433187, 0.21999423441326893, 0.17160351601347199, 0.21062204457892733;
	(state5) 0.011978852057074598, 0.4467242338863729, 0.41964945031250556, 0.12164746374404686;
}

probability ( scm1lue | variable98 ) {
	(state0) 0.6427857233526667, 0.23084375273800845, 0.09254127819438222, 0.033829245714942675;
	(state1) 0.7175642575528126, 0.22417560993094343, 0.05174969827564742, 0.006510434240596445;
	(state2) 0.5264016561924331, 0.31637813410105314, 0.1374193522973133, 0.01980085740920043;
	(state3) 0.6190736120815755, 0.24624492959150146, 0.10623396601369524, 0.02844749231322784;
	(state4) 0.40376252644802635, 0.1432167350343555, 0.197046548173653, 0.2559741903439652;
	(state5) 0.09210181498616588, 0.4868841452775888, 0.345828251643094, 0.07518578809315146;
}

probability ( scm2rue | variable98 ) {
	(state0) 0.5739152630454845, 0.2962340953651829, 0.09133040853821056, 0.03852023305112218;
	(state1) 0.7067283025635647, 0.27333855446549105, 0.012974453611728142, 0.006958689359216031;
	(state2) 0.5444906451160005, 0.3732237907720111, 0.06945092676080823, 0.012834637351180058;
	(state3) 0.5833767765663285, 0.3278800204265121, 0.07756221533983511, 0.011180987667324222;
	(state4) 0.3979799779695223, 0.2861489445154285, 0.15848434979951734, 0.15738672771553205;
	(state5) 0.027934384943771543, 0.5540479210211544, 0.38014504830653717, 0.037872645728536894;
}

probability ( scm2lue | variable98 ) {
	(state0) 0.6037366168916466, 0.2872429140080281, 0.08850268251569225, 0.02051778658463312;
	(state1) 0.626488993295548, 0.33326346426177034, 0.027694112012967117, 0.01255343042971471;
	(state2) 0.5333123781715859, 0.38296399666695974, 0.07821907723145682, 0.00550454792999749;
	(state3) 0.614574520336458, 0.3031533745328152, 0.06742426219348839, 0.014847842937238422;
	(state4) 0.3843257348435569, 0.2283074560233636, 0.19548133222400912, 0.19188547690907018;
	(state5) 0.1342168168234555, 0.5758998514163136, 0.24243619456377644, 0.04744713719645457;
}

probability ( scm3rue | variable98 ) {
	(state0) 0.07784481105282617, 0.37524635910841514, 0.47890233253319864, 0.06800649730555997;
	(state1) 0.2962549504314862, 0.5516095598478339, 0.1332291746911531, 0.018906315029526815;
	(state2) 0.2079099108745547, 0.5562695072461444, 0.2280100318229181, 0.007810550056382785;
	(state3) 0.3478673316712711, 0.5506513120755743, 0.09319736222881578, 0.00828399402433881;
	(state4) 0.0526005862445306, 0.09138374899768907, 0.37795753532734977, 0.47805812943043047;
	(state5) 0.03290197567131805, 0.2837770825959866, 0.6080889251965782, 0.07523201653611716;
}

probability ( scm3lue | variable98 ) {
	(state0) 0.09723985862934574, 0.26853411402507754, 0.46423942370013793, 0.16998660364543874;
	(state1) 0.21286908709277605, 0.4988175376988332, 0.2732566343046639, 0.01505674090372678;
	(state2) 0.14638500910535573, 0.5129080654921299, 0.30120972573285676, 0.03949719966965752;
	(state3) 0.36857609994563095, 0.45587771710084085, 0.16336197662705795, 0.012184206326470383;
	(state4) 0.05262346417782275, 0.036104547726232214, 0.32495652056291885, 0.5863154675330262;
	(state5) 0.03053475902758165, 0.41634326172245006, 0.5062703460355094, 0.046851633214458864;
}

probability ( scm4rue | variable98 ) {
	(state0) 0.144601846428062, 0.397860848014543, 0.41964294106838224, 0.037894364489012775;
	(state1) 0.2911415124890766, 0.5748780200471163, 0.12110111665904888, 0.01287935080475813;
	(state2) 0.17645805446505589, 0.5927360915515089, 0.21876541473002345, 0.012040439253411903;
	(state3) 0.3257673461197468, 0.5637687423385187, 0.10214776440351359, 0.008316147138220965;
	(state4) 0.052032173707667925, 0.15993230970362912, 0.4505167123341513, 0.33751880425455166;
	(state5) 0.027249242601104985, 0.2806551727972126, 0.645973214676704, 0.046122369924978486;
}

probability ( scm4lue | variable98 ) {
	(state0) 0.16366923974910455, 0.41189126265538556, 0.343557437111392, 0.080882060484118;
	(state1) 0.29826182391554185, 0.48979340337801797, 0.19940555327661857, 0.01253921942982154;
	(state2) 0.19736972416140222, 0.5051593167946837, 0.28734950221284045, 0.010121456831073513;
	(state3) 0.39353777717156097, 0.4786313826225266, 0.11706697802644259, 0.010763862179469834;
	(state4) 0.05205426523115196, 0.05462885035543071, 0.4935102846641937, 0.3998065997492236;
	(state5) 0.019642200087468434, 0.4451731587040632, 0.5073249184383382, 0.02785972277013026;
}

probability ( scm5rise | variable98 ) {
	(state0) 0.1440445087658359, 0.2704221273041883, 0.45025302655129684, 0.13528033737867887;
	(state1) 0.5515418546187719, 0.384645564868321, 0.04448148485384866, 0.019331095659058474;
	(state2) 0.5236497580980473, 0.4182974767516895, 0.05416057267240279, 0.0038921924778604236;
	(state3) 0.8963605053426101, 0.09512868111096977, 0.004374410079703985, 0.004136403466715993;
	(state4) 0.03552947014337958, 0.03672998116796136, 0.34055002030888953, 0.5871905283797696;
	(state5) 0.17012522544953995, 0.675529539970028, 0.1449997556626904, 0.00934547891774169;
}

probability ( scm6post | variable98 ) {
	(state0) 0.10484570908879723, 0.2647360812710795, 0.5524012736766338, 0.07801693596348941;
	(state1) 0.48844326618015793, 0.39518487566391297, 0.10990585572984989, 0.006466002426079322;
	(state2) 0.5639808706168722, 0.34193767528413405, 0.0861022335937625, 0.007979220505231348;
	(state3) 0.9191243013877892, 0.05656615780373999, 0.02017313410036883, 0.00413640670810196;
	(state4) 0.03551616360193686, 0.035270914873582374, 0.45148416449587775, 0.477728757028603;
	(state5) 0.1789475584782084, 0.564222615433306, 0.24749611634639315, 0.009333709742092508;
}

probability ( scm7gait | variable98 ) {
	(state0) 0.019496660430291222, 0.27095892731083726, 0.6801125375663845, 0.029431874692487016;
	(state1) 0.2505111111943487, 0.6202064394960694, 0.12283715923901171, 0.006445290070570265;
	(state2) 0.16506972739378367, 0.7627739803554758, 0.06826410260531286, 0.0038921896454277407;
	(state3) 0.6766066570112665, 0.3109889486623094, 0.008267990864928257, 0.004136403461495809;
	(state4) 0.017748557181497794, 0.017777626676940782, 0.5923919276791737, 0.3720818884623877;
	(state5) 0.029099619175278903, 0.7104586247530467, 0.2511148587305606, 0.009326897341113813;
}

probability ( scm8spee | variable98 ) {
	(state0) 0.00974605319274779, 0.4701498801120654, 0.49955747382554433, 0.020546592869642406;
	(state1) 0.20240358407256648, 0.6753372317251021, 0.10283951979820796, 0.019419664404123536;
	(state2) 0.22027219203752757, 0.724806383194128, 0.047190882615696164, 0.0077305421526481935;
	(state3) 0.6879157076849771, 0.28833097264756896, 0.015478316387670818, 0.008275003279783205;
	(state4) 0.01775276216593058, 0.10816702896804821, 0.6098709284946663, 0.264209280371355;
	(state5) 0.13597933097998427, 0.7763213716542818, 0.07844436852121263, 0.009254928844521117;
}

probability ( scm9free | variable98 ) {
	(state0) 0.19120268513011307, 0.23223962665667125, 0.4700389868028705, 0.10651870141034513;
	(state1) 0.43729808171489654, 0.36142368332646724, 0.17333492623454924, 0.027943308724087096;
	(state2) 0.6884071219084278, 0.2585527165602917, 0.04907140906351061, 0.003968752467769862;
	(state3) 0.9419881638249203, 0.04125469819780154, 0.012614036444774854, 0.004143101532503347;
	(state4) 0.10946824033621742, 0.07199536554245943, 0.44448271567847725, 0.3740536784428458;
	(state5) 0.321452797363651, 0.4867920698894641, 0.16752060289421547, 0.024234529852669343;
}

probability ( scm10swa | variable98 ) {
	(state0) 0.2825559831283971, 0.44986207407292966, 0.23839576696552287, 0.029186175833150238;
	(state1) 0.6557809313874113, 0.2603752875107275, 0.07739678998590087, 0.0064469911159602405;
	(state2) 0.7199235853883246, 0.23664072882105416, 0.03954351905940535, 0.0038921667312159275;
	(state3) 0.8773767100052677, 0.10601209734889093, 0.012474789224055743, 0.004136403421785614;
	(state4) 0.2741285304378102, 0.31169066232358383, 0.3254429465545908, 0.08873786068401535;
	(state5) 0.4506302422349287, 0.484778128562858, 0.0553369842521672, 0.009254644950046036;
}

probability ( scm11spe | variable98 ) {
	(state0) 0.019101838109389552, 0.5156941015284232, 0.453733541702204, 0.011470518659983246;
	(state1) 0.23863081172380424, 0.6141595564135454, 0.12787791605090373, 0.019331715811746628;
	(state2) 0.33584294184568125, 0.6062441312839782, 0.050172409289981575, 0.007740517580358822;
	(state3) 0.783978133974155, 0.19949635068507082, 0.008250499576786478, 0.008275015763987781;
	(state4) 0.05399099182204268, 0.12697095833075703, 0.6090634147219337, 0.20997463512526657;
	(state5) 0.24202733880754793, 0.6809087605605519, 0.06780909571368092, 0.00925480491821923;
}

probability ( scm12fee | variable98 ) {
	(state0) 0.04185102972860572, 0.35261849381476285, 0.5953052776874559, 0.01022519876917543;
	(state1) 0.37672735934115975, 0.5397920352895322, 0.07703523445550872, 0.006445370913799334;
	(state2) 0.13722879677014932, 0.8062281072290304, 0.05264423779845933, 0.0038988582023610796;
	(state3) 0.7720454537304424, 0.20976870225721594, 0.014049069831697673, 0.004136774180643968;
	(state4) 0.01774720925986186, 0.052910998947291114, 0.5752945099913085, 0.3540472818015385;
	(state5) 0.04946248730729755, 0.723522746398454, 0.19928852265856567, 0.02772624363568276;
}

probability ( scm13dre | variable98 ) {
	(state0) 0.03075387459669535, 0.1564284361284314, 0.7869448234101093, 0.02587286586476399;
	(state1) 0.18223841219475312, 0.6636329600861359, 0.14768338972960038, 0.006445237989510504;
	(state2) 0.048732872770689474, 0.877740180448613, 0.06963475010678846, 0.00389219667390915;
	(state3) 0.6660923754714283, 0.31733184617076554, 0.01243937493602032, 0.004136403421785795;
	(state4) 0.01774804292884751, 0.053361414730925226, 0.4437081733084754, 0.4851823690317518;
	(state5) 0.009367685449954777, 0.6545107821113618, 0.3268667844463476, 0.009254747992335808;
}

probability ( scm14hyg | variable98 ) {
	(state0) 0.030574448552529977, 0.2578932028894805, 0.6767199185524164, 0.03481243000557316;
	(state1) 0.23093382203291224, 0.6951762695076499, 0.06744467046985038, 0.0064452379895874835;
	(state2) 0.07931683692911538, 0.8851476108471164, 0.03164335554970304, 0.0038921966740652083;
	(state3) 0.6988324694788601, 0.2928857857889218, 0.004145341310432232, 0.004136403421785795;
	(state4) 0.017748042910236593, 0.05646593782378944, 0.4746501137343131, 0.45113590553166094;
	(state5) 0.043519585406573025, 0.7610457664769754, 0.18617990004957163, 0.009254748066879936;
}

probability ( scm15cha | variable98 ) {
	(state0) 0.00982050755416205, 0.24313109222840948, 0.6996010241974271, 0.04744737602000133;
	(state1) 0.1611818725658289, 0.6284956715699185, 0.18464850456404786, 0.025673951300204764;
	(state2) 0.15066019004655662, 0.7809568814529457, 0.06449073302686092, 0.0038921954736366626;
	(state3) 0.7913845288661036, 0.20014160862636785, 0.004337459041164782, 0.004136403466363807;
	(state4) 0.01775269861768449, 0.05083514309383926, 0.3782284870655048, 0.5531836712229715;
	(state5) 0.07359372230745721, 0.5978932756082826, 0.3103035272346756, 0.01820947484958457;
}

probability ( scm16wal | variable98 ) {
	(state0) 0.027756896760620493, 0.16944462318396383, 0.7444065654271043, 0.0583919146283114;
	(state1) 0.1475655841890729, 0.7158878106638578, 0.13010024773660417, 0.006446357410465162;
	(state2) 0.09134806408772374, 0.8328785839324971, 0.06808471036176794, 0.007688641618011173;
	(state3) 0.6814010731830268, 0.3061288550352368, 0.008333667663142636, 0.004136404118593738;
	(state4) 0.01775588354845478, 0.05092891699062814, 0.48768409294058807, 0.443631106520329;
	(state5) 0.028221206461753596, 0.8389240115240663, 0.12337460824119756, 0.009480173772982515;
}

probability ( scm17han | variable98 ) {
	(state0) 0.01045561604511896, 0.28968147509564807, 0.5525679691254156, 0.14729493973381738;
	(state1) 0.10483794462352197, 0.6197718400484368, 0.24903428918386075, 0.026355926144180496;
	(state2) 0.1208525710416681, 0.6874805565036947, 0.1808501474554638, 0.010816724999173449;
	(state3) 0.39976494777303934, 0.5439151876127697, 0.039256062756953806, 0.017063801857237073;
	(state4) 0.03441063642364472, 0.0947816784740028, 0.40570380420772967, 0.4651038808946228;
	(state5) 0.02799312628300444, 0.6534288978118002, 0.30320751218340153, 0.015370463721793782;
}

probability ( scm18dpr | variable98 ) {
	(state0) 0.4927007607606311, 0.2091959548889686, 0.2484573508900282, 0.049645933460372056;
	(state1) 0.013676779052840038, 0.6204279458648101, 0.2560888145447161, 0.10980646053763367;
	(state2) 0.9795073113088592, 0.012536698496883476, 0.004044376016404223, 0.003911614177853143;
	(state3) 0.9217000170675584, 0.06196627104892113, 0.008292555033874684, 0.008041156849645762;
	(state4) 0.2568841504608441, 0.218883951345337, 0.29565301832172874, 0.22857887987209008;
	(state5) 0.2895351589620897, 0.5432991231891717, 0.12059990591039296, 0.04656581193834557;
}

probability ( scm19dsv | variable98 ) {
	(state0) 0.5134908099636235, 0.14978533440774094, 0.26716330845351505, 0.06956054717512045;
	(state1) 0.03946048715090921, 0.5997260382439711, 0.2949439954047177, 0.06586947920040198;
	(state2) 0.9802200798369732, 0.008884635976539565, 0.006990393050130144, 0.0039048911363569966;
	(state3) 0.9238812335017793, 0.061395798310349615, 0.010450111884728238, 0.004272856303142821;
	(state4) 0.2568883677246749, 0.18456280665125488, 0.27835986450795147, 0.28018896111611874;
	(state5) 0.2816922304372992, 0.5185632542776479, 0.1367521148568291, 0.0629924004282238;
}

probability ( scm20fpr | variable98 ) {
	(state0) 0.15756922849003835, 0.2374739632702776, 0.5445409923544617, 0.06041581588522227;
	(state1) 0.16155333436043356, 0.5855436275928817, 0.2271148212138721, 0.025788216832812724;
	(state2) 0.5773170065272497, 0.36300824972682255, 0.052161335307829695, 0.007513408438097975;
	(state3) 0.87692917128858, 0.1019634070456421, 0.01697101820428525, 0.004136403461492731;
	(state4) 0.1396915744758142, 0.09757196808841521, 0.3754073275260028, 0.3873291299097678;
	(state5) 0.10680085087926054, 0.6138934367704694, 0.2604888548490796, 0.01881685750119043;
}

probability ( scm21fsv | variable98 ) {
	(state0) 0.15755874724814756, 0.17889629037128782, 0.520621012254644, 0.14292395012592074;
	(state1) 0.15083206625742582, 0.45236716766933505, 0.3452631232535931, 0.05153764281964599;
	(state2) 0.601637629451518, 0.30032025527310474, 0.09029013974722885, 0.007751975528148334;
	(state3) 0.8902208570015768, 0.09155080298176776, 0.014091547419527378, 0.004136792597128029;
	(state4) 0.1574185834922173, 0.09127397972263152, 0.23937182425202325, 0.5119356125331279;
	(state5) 0.0994304665766675, 0.5274597223965545, 0.3316817280692982, 0.041428082957479816;
}

probability ( variable98 ) {
	table 0.11047381353116906, 0.16849764053045485, 0.2812029908206055, 0.2644030082393813, 0.05908384103407641, 0.11633870584431291;
}

