network LCM {
}

variable variable60 {
	type discrete[2] { state0, state1 };
}

variable scm1rue {
	type discrete[4] { 0, 1, 2, 3 };
}

variable scm1lue {
	type discrete[4] { 0, 1, 2, 3 };
}

variable scm2rue {
	type discrete[4] { 0, 1, 2, 3 };
}

variable scm2lue {
	type discrete[4] { 0, 1, 2, 3 };
}

variable scm3rue {
	type discrete[4] { 0, 1, 2, 3 };
}

variable scm3lue {
	type discrete[4] { 0, 1, 2, 3 };
}

variable scm4rue {
	type discrete[4] { 0, 1, 2, 3 };
}

variable scm4lue {
	type discrete[4] { 0, 1, 2, 3 };
}

variable scm5rise {
	type discrete[4] { 0, 1, 2, 3 };
}

variable scm6post {
	type discrete[4] { 0, 1, 2, 3 };
}

variable scm7gait {
	type discrete[4] { 0, 1, 2, 3 };
}

variable scm8spee {
	type discrete[4] { 0, 1, 2, 3 };
}

variable scm9free {
	type discrete[4] { 0, 1, 2, 3 };
}

variable scm10swa {
	type discrete[4] { 0, 1, 2, 3 };
}

variable scm11spe {
	type discrete[4] { 0, 1, 2, 3 };
}

variable scm12fee {
	type discrete[4] { 0, 1, 2, 3 };
}

variable scm13dre {
	type discrete[4] { 0, 1, 2, 3 };
}

variable scm14hyg {
	type discrete[4] { 0, 1, 2, 3 };
}

variable scm15cha {
	type discrete[4] { 0, 1, 2, 3 };
}

variable scm16wal {
	type discrete[4] { 0, 1, 2, 3 };
}

variable scm17han {
	type discrete[4] { 0, 1, 2, 3 };
}

variable scm18dpr {
	type discrete[4] { 0, 1, 2, 3 };
}

variable scm19dsv {
	type discrete[4] { 0, 1, 2, 3 };
}

variable scm20fpr {
	type discrete[4] { 0, 1, 2, 3 };
}

variable scm21fsv {
	type discrete[4] { 0, 1, 2, 3 };
}

probability ( variable60 ) {
	table 0.569822726240525, 0.43017727375947507;
}

probability ( scm1rue | variable60, scm3lue ) {
	(state0, 0) 0.41305847406508334, 0.32612606869219884, 0.21742397645216488, 0.04339148079055298;
	(state0, 1) 0.570897506954493, 0.3143530374651486, 0.1108132511853778, 0.003936204394980625;
	(state0, 2) 0.6888775652334689, 0.1913186741139661, 0.10298557982449359, 0.0168181808280714;
	(state0, 3) 0.3764021228316771, 0.18218168914661578, 0.12745507104979287, 0.31396111697191426;
	(state1, 0) 0.676706302509467, 0.14868184181259889, 0.09909827002943637, 0.07551358564849796;
	(state1, 1) 0.4505030203682439, 0.3320941175813537, 0.1468986610182752, 0.07050420103212703;
	(state1, 2) 0.43581792720969464, 0.24067607628727047, 0.24991503424584757, 0.07359096225718732;
	(state1, 3) 0.5256369933883627, 0.22947265211743523, 0.17465923711860806, 0.07023111737559401;
}

probability ( scm1lue | variable60, scm19dsv ) {
	(state0, 0) 0.565622450116946, 0.2853573536926411, 0.12635979765521166, 0.022660398535201274;
	(state0, 1) 0.7117776043642983, 0.23600525182416987, 0.03519061371635949, 0.01702653009517232;
	(state0, 2) 0.38744370255972255, 0.3570508938502348, 0.17034269715376932, 0.08516270643627326;
	(state0, 3) 0.30793181904853356, 0.0990471181124685, 0.09904316940998363, 0.4939778934290142;
	(state1, 0) 0.5090723336837888, 0.2943098290904834, 0.14552676812919774, 0.05109106909653018;
	(state1, 1) 0.3845030998186014, 0.37865227650557365, 0.2072210968428539, 0.029623526832971054;
	(state1, 2) 0.5846921496407742, 0.1914090501685727, 0.14248030354786234, 0.08141849664279087;
	(state1, 3) 0.49820776418692375, 0.17697226497477833, 0.17697344091908934, 0.1478465299192087;
}

probability ( scm2rue | variable60, scm3rue ) {
	(state0, 0) 0.6702612177092488, 0.29690290043335704, 0.0262653537554704, 0.006570528101923723;
	(state0, 1) 0.5210022435107091, 0.3902020898251566, 0.07816549508682198, 0.010630171577312334;
	(state0, 2) 0.44957195584618076, 0.3401181115804234, 0.17142697052299538, 0.038882962050400614;
	(state0, 3) 0.3336039948627857, 0.11105512768133309, 0.11118152504580266, 0.44415935241007864;
	(state1, 0) 0.6691683762012, 0.2680236328630422, 0.04188977847628154, 0.020918212459476383;
	(state1, 1) 0.5530926312354676, 0.344025015224942, 0.07658479789205304, 0.026297555647537326;
	(state1, 2) 0.3331517546113077, 0.39785395322954187, 0.22599544083787446, 0.042998851321276045;
	(state1, 3) 0.4285237600126812, 0.28574529410360294, 0.21428184623492355, 0.07144909964879234;
}

probability ( scm2lue | variable60 ) {
	(state0) 0.5752577579588882, 0.3389169550254674, 0.07027396352546707, 0.015551323490177215;
	(state1) 0.4633640326992157, 0.3832558144278877, 0.12005738901831893, 0.03332276385457757;
}

probability ( scm3rue | variable60, scm4lue ) {
	(state0, 0) 0.309664474265087, 0.5401094205581808, 0.13769221932718873, 0.012533885849543423;
	(state0, 1) 0.30895003606713334, 0.5680985053579474, 0.11518916740643424, 0.007762291168485072;
	(state0, 2) 0.21184109555691114, 0.5281228089661715, 0.24999241842550923, 0.010043677051408226;
	(state0, 3) 0.19920563820796158, 0.3007248152916631, 0.10165031826512541, 0.39841922823524994;
	(state1, 0) 0.3116575363570185, 0.47518881342940256, 0.17771311108236496, 0.03544053913121398;
	(state1, 1) 0.13435162967040007, 0.4370057107115464, 0.38472678979096975, 0.043915869827083676;
	(state1, 2) 0.05101036238737718, 0.2952375771305849, 0.5033893447923935, 0.1503627156896445;
	(state1, 3) 0.030340935133069843, 0.24213423262555261, 0.42412963377522417, 0.30339519846615337;
}

probability ( scm3lue | variable60, scm7gait ) {
	(state0, 0) 0.32272847558069995, 0.4825217371394018, 0.18187637515801497, 0.012873412121883381;
	(state0, 1) 0.209406946075601, 0.5065997579487865, 0.25902825691685033, 0.02496503905876228;
	(state0, 2) 0.35060027655838094, 0.16756906301793795, 0.25609608534252243, 0.22573457508115857;
	(state0, 3) 0.20000736923562723, 0.1999984097000983, 0.1999984310688061, 0.3999957899954685;
	(state1, 0) 0.30023289446919815, 0.4452311574997345, 0.18136707433235827, 0.07316887369870906;
	(state1, 1) 0.08364732315708844, 0.47249846526079253, 0.4078819662203017, 0.03597224536181735;
	(state1, 2) 0.0768602880408317, 0.22854946115141273, 0.4923495824031547, 0.20224066840460098;
	(state1, 3) 0.11999839885660515, 0.08000012713971688, 0.12000018650703442, 0.6800012874966436;
}

probability ( scm4rue | variable60, scm20fpr ) {
	(state0, 0) 0.2496208679786663, 0.5968076250417437, 0.14547425832734764, 0.00809724865224242;
	(state0, 1) 0.28443513657040037, 0.5574225247375366, 0.14272868537867936, 0.015413653313383737;
	(state0, 2) 0.4422293791419379, 0.3365199003367507, 0.16607817677051237, 0.055172543750798934;
	(state0, 3) 0.14282358780277069, 0.14287597771418675, 0.143054276480704, 0.5712461580023386;
	(state1, 0) 0.0799968143298804, 0.41020071700656224, 0.39161534269251014, 0.11818712597104719;
	(state1, 1) 0.15283912061686042, 0.45512817023074836, 0.3638214329826755, 0.028211276169715704;
	(state1, 2) 0.12675420089092376, 0.36581992094017785, 0.45808686240432656, 0.04933901576457169;
	(state1, 3) 0.12500641678056784, 0.15624657281563414, 0.4374721354350449, 0.2812748749687531;
}

probability ( scm4lue | variable60, scm5rise ) {
	(state0, 0) 0.32769668585771217, 0.47058245700592716, 0.19374716312510784, 0.007973694011252775;
	(state0, 1) 0.23297658969122767, 0.567563175365541, 0.18375711474102868, 0.01570312020220271;
	(state0, 2) 0.3392187701944727, 0.42232437127328354, 0.1561945949025553, 0.0822622636296885;
	(state0, 3) 0.1428561137553819, 0.1428560658272366, 0.14286623491334424, 0.5714215855040373;
	(state1, 0) 0.29202456283033545, 0.43782719184451974, 0.21693935673658876, 0.05320888858855617;
	(state1, 1) 0.09142961341317822, 0.4814760344293596, 0.4032331072828144, 0.023861244874647757;
	(state1, 2) 0.0847005316770017, 0.3431813760365725, 0.4536203708700037, 0.11849772141642223;
	(state1, 3) 0.125000128969043, 0.1250001359586291, 0.4791657382953376, 0.27083399677699027;
}

probability ( scm5rise | variable60, scm18dpr ) {
	(state0, 0) 0.734733268520343, 0.24453564138271144, 0.018488667641421888, 0.0022424224555236266;
	(state0, 1) 0.7553601496419098, 0.20883395930820123, 0.01791166983204054, 0.017894221217848533;
	(state0, 2) 0.4278244277140289, 0.34938488032244597, 0.14747487063163503, 0.07531582133189006;
	(state0, 3) 0.4230212958985812, 0.1647838573273996, 0.082477331161114, 0.3297175156129052;
	(state1, 0) 0.12653249104045577, 0.433587879136947, 0.30036969956740067, 0.13950993025519667;
	(state1, 1) 0.2337273982289781, 0.5050389958821627, 0.18286161972839293, 0.07837198616046633;
	(state1, 2) 0.31502262769964806, 0.3039699926758735, 0.2541660252154943, 0.12684135440898422;
	(state1, 3) 0.4219272902095749, 0.24342228557406587, 0.12167962137518734, 0.21297080284117198;
}

probability ( scm6post | variable60, scm17han ) {
	(state0, 0) 0.8157634434693908, 0.1541729486315432, 0.02279074476246722, 0.007272863136598658;
	(state0, 1) 0.7567610053478822, 0.2006697343883524, 0.03940772747429158, 0.0031615327894737874;
	(state0, 2) 0.5889167730672158, 0.24825372333305076, 0.12892758632867352, 0.033901917271059914;
	(state0, 3) 0.5048280120893475, 0.09903578069753013, 0.09906735887358568, 0.2970688483395368;
	(state1, 0) 0.19519624809892025, 0.2621792511199004, 0.4046630793007695, 0.13796142148040985;
	(state1, 1) 0.22155405087641494, 0.5206453415515992, 0.23175343887658853, 0.026047168695397277;
	(state1, 2) 0.20140200570092817, 0.2823791378409788, 0.4428573396312869, 0.07336151682680604;
	(state1, 3) 0.15037229602081767, 0.17428230702784242, 0.304987475150012, 0.370357921801328;
}

probability ( scm7gait | variable60, scm6post ) {
	(state0, 0) 0.496967563789056, 0.48271235667177936, 0.017786286845614518, 0.002533792693550164;
	(state0, 1) 0.21995423232320283, 0.7338090554162037, 0.03635532228483076, 0.00988138997576273;
	(state0, 2) 0.19258079538600503, 0.6005852628098441, 0.16581645376271542, 0.04101748804143546;
	(state0, 3) 0.14250686389666634, 0.1449975849979659, 0.4275227052107557, 0.284972845894612;
	(state1, 0) 0.22911546415430137, 0.6010853314491088, 0.1576536601318914, 0.012145544264698493;
	(state1, 1) 0.04382686771852418, 0.7200163780076217, 0.22965478942292158, 0.006501964850932431;
	(state1, 2) 0.017635232800909593, 0.2400468224680585, 0.7040391799504435, 0.038278764780588455;
	(state1, 3) 0.02858548107714322, 0.08525682897452434, 0.3716108300512995, 0.514546859897033;
}

probability ( scm8spee | variable60, scm10swa ) {
	(state0, 0) 0.5166551349284775, 0.4587745832744124, 0.014878701926981142, 0.00969157987012892;
	(state0, 1) 0.23778690892166987, 0.7071195170795551, 0.04349609251757038, 0.011597481481204566;
	(state0, 2) 0.22505485486178867, 0.5570561888941307, 0.12771863065151473, 0.0901703255925661;
	(state0, 3) 0.19999988830142634, 0.19999988830142634, 0.20000001227239594, 0.40000021112475126;
	(state1, 0) 0.13878164819109062, 0.6369681350575825, 0.20773977453988765, 0.016510442211439262;
	(state1, 1) 0.03178760099645383, 0.6289271380282704, 0.29474468416683497, 0.04454057680844082;
	(state1, 2) 0.037313377296619106, 0.38358272493422185, 0.5047817935590497, 0.07432210421010929;
	(state1, 3) 0.11111114558600947, 0.11111114558600947, 0.3333333678852077, 0.4444443409427734;
}

probability ( scm9free | variable60, scm2rue ) {
	(state0, 0) 0.8576606075168488, 0.11334165435548767, 0.025550901168519772, 0.003446836959143805;
	(state0, 1) 0.811058001464003, 0.15053912604176964, 0.022435874503266322, 0.015966997990961115;
	(state0, 2) 0.7801465045361207, 0.17089471732028713, 0.02447593915681779, 0.024482838986774377;
	(state0, 3) 0.45281199016275503, 0.09020747516177843, 0.09020750365415289, 0.36677303102131364;
	(state1, 0) 0.21474134763099426, 0.38065004261521673, 0.3029025612125881, 0.10170604854120084;
	(state1, 1) 0.26864716780505427, 0.41267032759968597, 0.2615775753440668, 0.057104929251193;
	(state1, 2) 0.2895590523337186, 0.2708315064534242, 0.3719815054794205, 0.06762793573343669;
	(state1, 3) 0.2668773547106845, 0.06704909596190434, 0.46934365055561805, 0.19672989877179312;
}

probability ( scm10swa | scm15cha, variable60 ) {
	(0, state0) 0.8659992691916298, 0.10968232213427878, 0.02026115904757519, 0.004057249626516183;
	(0, state1) 0.6603345935676593, 0.19321955503326227, 0.09773098139584563, 0.048714870003232706;
	(1, state0) 0.7354474217545498, 0.2137753696020369, 0.046926874911578716, 0.00385033373183448;
	(1, state1) 0.535028945666422, 0.40532783174240117, 0.054126962833022506, 0.005516259758154368;
	(2, state0) 0.4129831594937647, 0.32182722859605223, 0.132568047125107, 0.13262156478507614;
	(2, state1) 0.3862693991027082, 0.38861227187890185, 0.20010569849725565, 0.025012630521134258;
	(3, state0) 0.16672306507428314, 0.16667018563543598, 0.4999398266194486, 0.16666692267083225;
	(3, state1) 0.24999166790121627, 0.4249998682100463, 0.2500086428277887, 0.07499982106094875;
}

probability ( scm11spe | scm14hyg, variable60 ) {
	(0, state0) 0.7270581945052426, 0.25339253630186803, 0.010214889094256012, 0.009334380098633476;
	(0, state1) 0.05677925933463816, 0.5382805924980164, 0.3589761299750362, 0.04596401819230931;
	(1, state0) 0.4478447920846681, 0.5134148527353959, 0.025952558065568888, 0.012787797114367038;
	(1, state1) 0.1995792597870753, 0.6447162457875569, 0.14585563501561785, 0.009848859409749864;
	(2, state0) 0.425177084109256, 0.2916105935525053, 0.14201136454657665, 0.14120095779166203;
	(2, state1) 0.04574509236446915, 0.5112729866686734, 0.40479004522794515, 0.038191875738912376;
	(3, state0) 0.14285698414213643, 0.14285698523784612, 0.5714251656483695, 0.14286086497164785;
	(3, state1) 0.03571429563398739, 0.10714288662803438, 0.6071437185087917, 0.2499990992291865;
}

probability ( scm12fee | variable60, scm16wal ) {
	(state0, 0) 0.6475566735933699, 0.322136306184871, 0.02525631182209475, 0.005050708399664362;
	(state0, 1) 0.3691380036475636, 0.5914913355856688, 0.03605052355997705, 0.0033201372067904996;
	(state0, 2) 0.3072909826614289, 0.4274485721352601, 0.10670923081445202, 0.15855121438885902;
	(state0, 3) 0.19609074029057585, 0.2156296502126895, 0.19609950567896622, 0.3921801038177685;
	(state1, 0) 0.28738898209798164, 0.4408466367495516, 0.16144419709910335, 0.11032018405336341;
	(state1, 1) 0.13196130234209588, 0.6871066430193845, 0.17618839327997363, 0.004743661358545933;
	(state1, 2) 0.07271343258750358, 0.3563147113535031, 0.528138939667925, 0.04283291639106828;
	(state1, 3) 0.030394841019811165, 0.17934043773122452, 0.3951315745876446, 0.39513314666131977;
}

probability ( scm13dre | variable60, scm21fsv ) {
	(state0, 0) 0.4019580710632952, 0.5584927053329768, 0.03693864676626144, 0.0026105768374665725;
	(state0, 1) 0.2765931657187021, 0.6444127249637972, 0.06975421619768535, 0.009239893119815316;
	(state0, 2) 0.24198960440574788, 0.6640597051748516, 0.05939360116639657, 0.03455708925300409;
	(state0, 3) 0.14199118666303542, 0.14805504240459672, 0.14203440640590362, 0.5679193645264643;
	(state1, 0) 0.06309810999705075, 0.3142063095641908, 0.5392530429195086, 0.08344253751924992;
	(state1, 1) 0.04218509667004988, 0.6416861521970494, 0.2883071162103853, 0.027821634922515378;
	(state1, 2) 0.04483717520838229, 0.4599679440246235, 0.4503410209871065, 0.04485385977988776;
	(state1, 3) 0.018533170235782867, 0.2586729083271627, 0.46332361470746036, 0.25947030672959404;
}

probability ( scm14hyg | scm4rue, variable60 ) {
	(0, state0) 0.5542487355839021, 0.4307153672742734, 0.007835325416109611, 0.0072005717257149614;
	(0, state1) 0.11344004875002041, 0.6246658487659872, 0.22424378973150694, 0.03765031275248539;
	(1, state0) 0.39120979371382897, 0.5989583168603199, 0.006516986506500899, 0.00331490291935018;
	(1, state1) 0.07568702354036382, 0.595668807618739, 0.2844325783920621, 0.04421159044883493;
	(2, state0) 0.22487207929481373, 0.7228071351382143, 0.03927979182064438, 0.013040993746327518;
	(2, state1) 0.016848497106119877, 0.5300662016500859, 0.3918484590540056, 0.0612368421897887;
	(3, state0) 0.1996930196896701, 0.29960758110884783, 0.10134536444878726, 0.39935403475269476;
	(3, state1) 0.03705813646450684, 0.25938169678098744, 0.370025061369741, 0.3335351053847648;
}

probability ( scm15cha | variable60, scm1lue ) {
	(state0, 0) 0.48114701147843425, 0.49109602372542926, 0.024447130400426276, 0.003309834395710124;
	(state0, 1) 0.436931302735689, 0.5375832375245748, 0.018659122371848223, 0.006826337367888039;
	(state0, 2) 0.472643222422969, 0.4630187684317175, 0.04806243037759068, 0.016275578767722815;
	(state0, 3) 0.4681532293173857, 0.2393082226890595, 0.11719958402833297, 0.17533896396522186;
	(state1, 0) 0.05951604218322006, 0.3931721476129033, 0.4395054847952538, 0.10780632540862281;
	(state1, 1) 0.03455958547890702, 0.5821976312444204, 0.3053243746125674, 0.07791840866410525;
	(state1, 2) 0.043695216306499314, 0.4818311232406834, 0.3412229940565949, 0.13325066639622246;
	(state1, 3) 0.0833470969352396, 0.20533896534697185, 0.6694391494837914, 0.0418747882339971;
}

probability ( scm16wal | variable60, scm13dre ) {
	(state0, 0) 0.5731315692844963, 0.40091538147950134, 0.020742349520950866, 0.005210699715051618;
	(state0, 1) 0.2861414092517617, 0.6744852823887456, 0.03575535055975703, 0.0036179577997358697;
	(state0, 2) 0.16774240042600394, 0.7473350264345306, 0.043955192340248736, 0.040967380799216864;
	(state0, 3) 0.1428631714562988, 0.1428631714562988, 0.4285915929589688, 0.28568206412843367;
	(state1, 0) 0.29312668432278116, 0.35460498682002195, 0.29374497152581586, 0.05852335733138109;
	(state1, 1) 0.03641452621529563, 0.7665852076447988, 0.17679744136417175, 0.020202824775733957;
	(state1, 2) 0.030163516378897196, 0.3429131814661898, 0.5715687074428251, 0.055354594712087854;
	(state1, 3) 0.03448240738896026, 0.03448240738896026, 0.2758587574093263, 0.6551764278127532;
}

probability ( scm17han | variable60, scm12fee ) {
	(state0, 0) 0.3859428706460283, 0.5570935062082437, 0.04089241646981701, 0.016071206675910884;
	(state0, 1) 0.14448352164789766, 0.6853330382667142, 0.1658787848519947, 0.004304655233393596;
	(state0, 2) 0.21041229594606603, 0.4178709401973004, 0.2657224432816032, 0.10599432057503021;
	(state0, 3) 0.14243889120310843, 0.14244243640632123, 0.28780217373895145, 0.42731649865161886;
	(state1, 0) 0.06707835564126345, 0.5972107390093542, 0.31304703056311173, 0.0226638747862707;
	(state1, 1) 0.03129884753781859, 0.613709382765463, 0.3026669575879049, 0.052324812108813394;
	(state1, 2) 0.03154057932617271, 0.2603427026094164, 0.5507536751585589, 0.15736304290585196;
	(state1, 3) 0.045497053164679196, 0.18198708026925708, 0.13555706637651938, 0.6369588001895444;
}

probability ( scm18dpr | variable60, scm8spee ) {
	(state0, 0) 0.8842814424291953, 0.08058787704576097, 0.01777903870754829, 0.01735164181749528;
	(state0, 1) 0.8477298954947372, 0.11894183463978805, 0.026467607438528464, 0.0068606624269463064;
	(state0, 2) 0.5470555402136158, 0.22369590743538595, 0.07307578411464011, 0.15617276823635817;
	(state0, 3) 0.2246575427908186, 0.22071160263817063, 0.11092533846535997, 0.4437055161056507;
	(state1, 0) 0.09094376371066154, 0.5612230267969309, 0.2624995963067265, 0.08533361318568107;
	(state1, 1) 0.3283327949504797, 0.4338922712907208, 0.16927532366376158, 0.0684996100950379;
	(state1, 2) 0.38047321073470125, 0.24442268165983955, 0.27138581418266866, 0.10371829342279049;
	(state1, 3) 0.27660392225477504, 0.2229794444144709, 0.389216449424135, 0.11120018390661897;
}

probability ( scm19dsv | variable60, scm2lue ) {
	(state0, 0) 0.8444600980654398, 0.1340356283520829, 0.01447339156050243, 0.0070308820219749;
	(state0, 1) 0.8677854866812522, 0.09051064176403054, 0.03042243404284381, 0.011281437511873358;
	(state0, 2) 0.8957739302463699, 0.0531094221217253, 0.025613014544894983, 0.025503633087009987;
	(state0, 3) 0.36506694903421927, 0.09123200262129277, 0.09083285882718996, 0.452868189517298;
	(state1, 0) 0.36580729494858616, 0.2934197879130639, 0.2596402975796942, 0.08113261955865579;
	(state1, 1) 0.34687408752012794, 0.40640443332654, 0.17455294889294945, 0.07216853026038264;
	(state1, 2) 0.21845009065890147, 0.33977929212605656, 0.3413486298323192, 0.10042198738272279;
	(state1, 3) 0.2489210858181611, 0.1248055710490127, 0.4378373927979501, 0.18843595033487615;
}

probability ( scm20fpr | variable60, scm9free ) {
	(state0, 0) 0.7325675970497608, 0.24756013964753862, 0.017578350338773283, 0.0022939129639273272;
	(state0, 1) 0.6474770964139019, 0.23066367681661334, 0.10728791128819626, 0.014571315481288595;
	(state0, 2) 0.5526144820335045, 0.2980278113920274, 0.07565670673419746, 0.07370099984027065;
	(state0, 3) 0.11084551357450602, 0.21702483797570463, 0.22879759698067925, 0.4433320514691101;
	(state1, 0) 0.137761602268987, 0.5459069045999997, 0.2961424570093175, 0.020189036121695727;
	(state1, 1) 0.11958582842054727, 0.595825412017459, 0.24357646646364692, 0.04101229309834686;
	(state1, 2) 0.11028134803963571, 0.26101301299613033, 0.5388595962642694, 0.0898460426999646;
	(state1, 3) 0.17658444559601275, 0.11895786750725545, 0.32185051907288353, 0.3826071678238483;
}

probability ( scm21fsv | variable60, scm11spe ) {
	(state0, 0) 0.7515825864265219, 0.20567090949400288, 0.039207236302124714, 0.003539267777350478;
	(state0, 1) 0.7237658274927842, 0.20734398441221813, 0.06413119949368125, 0.0047589886013164285;
	(state0, 2) 0.46311420942790976, 0.14210284700817236, 0.1272735966564733, 0.2675093469074445;
	(state0, 3) 0.3621710415893589, 0.2543558411303786, 0.25563884206724263, 0.12783427521301985;
	(state1, 0) 0.0819889628620683, 0.4127313274541627, 0.42961012442253627, 0.07566958526123253;
	(state1, 1) 0.11778701792926363, 0.416144410385594, 0.3813239216425615, 0.08474465004258089;
	(state1, 2) 0.11881445729834823, 0.2351277485079129, 0.42796961227828073, 0.2180881819154581;
	(state1, 3) 0.2745444067970643, 0.19833892929370472, 0.06590172182302155, 0.46121494208620945;
}

