network LCM {
}

variable variable42 {
	type discrete[2] { state0, state1 };
}

variable scm1rue {
	type discrete[4] { 0, 1, 2, 3 };
}

variable scm1lue {
	type discrete[4] { 0, 1, 2, 3 };
}

variable scm2rue {
	type discrete[4] { 0, 1, 2, 3 };
}

variable scm2lue {
	type discrete[4] { 0, 1, 2, 3 };
}

variable scm3rue {
	type discrete[4] { 0, 1, 2, 3 };
}

variable scm3lue {
	type discrete[4] { 0, 1, 2, 3 };
}

variable scm4rue {
	type discrete[4] { 0, 1, 2, 3 };
}

variable scm4lue {
	type discrete[4] { 0, 1, 2, 3 };
}

variable scm5rise {
	type discrete[4] { 0, 1, 2, 3 };
}

variable scm6post {
	type discrete[4] { 0, 1, 2, 3 };
}

variable scm7gait {
	type discrete[4] { 0, 1, 2, 3 };
}

variable scm8spee {
	type discrete[4] { 0, 1, 2, 3 };
}

variable scm9free {
	type discrete[4] { 0, 1, 2, 3 };
}

variable scm10swa {
	type discrete[4] { 0, 1, 2, 3 };
}

variable scm11spe {
	type discrete[4] { 0, 1, 2, 3 };
}

variable scm12fee {
	type discrete[4] { 0, 1, 2, 3 };
}

variable scm13dre {
	type discrete[4] { 0, 1, 2, 3 };
}

variable scm14hyg {
	type discrete[4] { 0, 1, 2, 3 };
}

variable scm15cha {
	type discrete[4] { 0, 1, 2, 3 };
}

variable scm16wal {
	type discrete[4] { 0, 1, 2, 3 };
}

variable scm17han {
	type discrete[4] { 0, 1, 2, 3 };
}

variable scm18dpr {
	type discrete[4] { 0, 1, 2, 3 };
}

variable scm19dsv {
	type discrete[4] { 0, 1, 2, 3 };
}

variable scm20fpr {
	type discrete[4] { 0, 1, 2, 3 };
}

variable scm21fsv {
	type discrete[4] { 0, 1, 2, 3 };
}

probability ( variable42 ) {
	table 0.37125115887609644, 0.6287488411239036;
}

probability ( scm1rue | scm11spe, variable42 ) {
	(0, state0) 0.8247225958379878, 0.10359394304827099, 0.04737427912378161, 0.024309181989959495;
	(0, state1) 0.6566182091862413, 0.23748821819268037, 0.0968696614127228, 0.009023911208355643;
	(1, state0) 0.8247225958379878, 0.10359394304827099, 0.04737427912378161, 0.024309181989959495;
	(1, state1) 0.6566182091862413, 0.23748821819268037, 0.0968696614127228, 0.009023911208355643;
	(2, state0) 0.8247225958379878, 0.10359394304827099, 0.04737427912378161, 0.024309181989959495;
	(2, state1) 0.6566182091862413, 0.23748821819268037, 0.0968696614127228, 0.009023911208355643;
	(3, state0) 0.8247225958379878, 0.10359394304827099, 0.04737427912378161, 0.024309181989959495;
	(3, state1) 0.6566182091862413, 0.23748821819268037, 0.0968696614127228, 0.009023911208355643;
}

probability ( scm1lue | scm1rue, variable42 ) {
	(0, state0) 0.6518712349351513, 0.2640738776418894, 0.04319304086278319, 0.04086184656017612;
	(0, state1) 0.8210067656996303, 0.12725683478688457, 0.04522289966128847, 0.0065134998521965;
	(1, state0) 0.6518712349351513, 0.2640738776418894, 0.04319304086278319, 0.04086184656017612;
	(1, state1) 0.8210067656996303, 0.12725683478688457, 0.04522289966128847, 0.0065134998521965;
	(2, state0) 0.6518712349351513, 0.2640738776418894, 0.04319304086278319, 0.04086184656017612;
	(2, state1) 0.8210067656996303, 0.12725683478688457, 0.04522289966128847, 0.0065134998521965;
	(3, state0) 0.6518712349351513, 0.2640738776418894, 0.04319304086278319, 0.04086184656017612;
	(3, state1) 0.8210067656996303, 0.12725683478688457, 0.04522289966128847, 0.0065134998521965;
}

probability ( scm2rue | variable42, scm3lue ) {
	(state0, 0) 0.7002181943540706, 0.22202786529805335, 0.038910044966584956, 0.03884389538129116;
	(state0, 1) 0.7002181943540706, 0.22202786529805335, 0.038910044966584956, 0.03884389538129116;
	(state0, 2) 0.7002181943540706, 0.22202786529805335, 0.038910044966584956, 0.03884389538129116;
	(state0, 3) 0.7002181943540706, 0.22202786529805335, 0.038910044966584956, 0.03884389538129116;
	(state1, 0) 0.6210284415815738, 0.3378188809796716, 0.03741094566994876, 0.003741731768805759;
	(state1, 1) 0.6210284415815738, 0.3378188809796716, 0.03741094566994876, 0.003741731768805759;
	(state1, 2) 0.6210284415815738, 0.3378188809796716, 0.03741094566994876, 0.003741731768805759;
	(state1, 3) 0.6210284415815738, 0.3378188809796716, 0.03741094566994876, 0.003741731768805759;
}

probability ( scm2lue | scm7gait, variable42 ) {
	(0, state0) 0.5365087486799096, 0.2365775053322903, 0.0757169732729292, 0.15119677271487078;
	(0, state1) 0.6043358858079986, 0.3247678751805573, 0.0625530175307086, 0.008343221480735633;
	(1, state0) 0.5365087486799096, 0.2365775053322903, 0.0757169732729292, 0.15119677271487078;
	(1, state1) 0.6043358858079986, 0.3247678751805573, 0.0625530175307086, 0.008343221480735633;
	(2, state0) 0.5365087486799096, 0.2365775053322903, 0.0757169732729292, 0.15119677271487078;
	(2, state1) 0.6043358858079986, 0.3247678751805573, 0.0625530175307086, 0.008343221480735633;
	(3, state0) 0.5365087486799096, 0.2365775053322903, 0.0757169732729292, 0.15119677271487078;
	(3, state1) 0.6043358858079986, 0.3247678751805573, 0.0625530175307086, 0.008343221480735633;
}

probability ( scm3rue | scm10swa, variable42 ) {
	(0, state0) 0.14725374609319927, 0.42549484043568947, 0.3245575680738426, 0.1026938453972687;
	(0, state1) 0.27241452797990195, 0.5662758030589861, 0.15473236233332263, 0.00657730662778937;
	(1, state0) 0.14725374609319927, 0.42549484043568947, 0.3245575680738426, 0.1026938453972687;
	(1, state1) 0.27241452797990195, 0.5662758030589861, 0.15473236233332263, 0.00657730662778937;
	(2, state0) 0.14725374609319927, 0.42549484043568947, 0.3245575680738426, 0.1026938453972687;
	(2, state1) 0.27241452797990195, 0.5662758030589861, 0.15473236233332263, 0.00657730662778937;
	(3, state0) 0.14725374609319927, 0.42549484043568947, 0.3245575680738426, 0.1026938453972687;
	(3, state1) 0.27241452797990195, 0.5662758030589861, 0.15473236233332263, 0.00657730662778937;
}

probability ( scm3lue | scm1lue, variable42 ) {
	(0, state0) 0.09807101645331144, 0.3003550179092472, 0.4282837444820162, 0.17329022115542517;
	(0, state1) 0.2162500575829156, 0.5221507385160594, 0.24804322033368653, 0.013555983567338505;
	(1, state0) 0.09807101645331144, 0.3003550179092472, 0.4282837444820162, 0.17329022115542517;
	(1, state1) 0.2162500575829156, 0.5221507385160594, 0.24804322033368653, 0.013555983567338505;
	(2, state0) 0.09807101645331144, 0.3003550179092472, 0.4282837444820162, 0.17329022115542517;
	(2, state1) 0.2162500575829156, 0.5221507385160594, 0.24804322033368653, 0.013555983567338505;
	(3, state0) 0.09807101645331144, 0.3003550179092472, 0.4282837444820162, 0.17329022115542517;
	(3, state1) 0.2162500575829156, 0.5221507385160594, 0.24804322033368653, 0.013555983567338505;
}

probability ( scm4rue | scm17han, variable42 ) {
	(0, state0) 0.3036690615250536, 0.3077541725962493, 0.23739248851638892, 0.15118427736230822;
	(0, state1) 0.3043852624088894, 0.566905716545379, 0.12036511040108346, 0.008343910644648204;
	(1, state0) 0.3036690615250536, 0.3077541725962493, 0.23739248851638892, 0.15118427736230822;
	(1, state1) 0.3043852624088894, 0.566905716545379, 0.12036511040108346, 0.008343910644648204;
	(2, state0) 0.3036690615250536, 0.3077541725962493, 0.23739248851638892, 0.15118427736230822;
	(2, state1) 0.3043852624088894, 0.566905716545379, 0.12036511040108346, 0.008343910644648204;
	(3, state0) 0.3036690615250536, 0.3077541725962493, 0.23739248851638892, 0.15118427736230822;
	(3, state1) 0.3043852624088894, 0.566905716545379, 0.12036511040108346, 0.008343910644648204;
}

probability ( scm4lue | scm15cha, variable42 ) {
	(0, state0) 0.24737759583302138, 0.17590076477650476, 0.46124403949959264, 0.11547759989088124;
	(0, state1) 0.35557907609390643, 0.5089597705704374, 0.12385830826735864, 0.011602845068297635;
	(1, state0) 0.24737759583302138, 0.17590076477650476, 0.46124403949959264, 0.11547759989088124;
	(1, state1) 0.35557907609390643, 0.5089597705704374, 0.12385830826735864, 0.011602845068297635;
	(2, state0) 0.24737759583302138, 0.17590076477650476, 0.46124403949959264, 0.11547759989088124;
	(2, state1) 0.35557907609390643, 0.5089597705704374, 0.12385830826735864, 0.011602845068297635;
	(3, state0) 0.24737759583302138, 0.17590076477650476, 0.46124403949959264, 0.11547759989088124;
	(3, state1) 0.35557907609390643, 0.5089597705704374, 0.12385830826735864, 0.011602845068297635;
}

probability ( scm5rise | scm13dre, variable42 ) {
	(0, state0) 0.37270528511932655, 0.2521554421459517, 0.2142432470543361, 0.1608960256803857;
	(0, state1) 0.7727616433457445, 0.1991904964632614, 0.02244770848992362, 0.005600151701070434;
	(1, state0) 0.37270528511932655, 0.2521554421459517, 0.2142432470543361, 0.1608960256803857;
	(1, state1) 0.7727616433457445, 0.1991904964632614, 0.02244770848992362, 0.005600151701070434;
	(2, state0) 0.37270528511932655, 0.2521554421459517, 0.2142432470543361, 0.1608960256803857;
	(2, state1) 0.7727616433457445, 0.1991904964632614, 0.02244770848992362, 0.005600151701070434;
	(3, state0) 0.37270528511932655, 0.2521554421459517, 0.2142432470543361, 0.1608960256803857;
	(3, state1) 0.7727616433457445, 0.1991904964632614, 0.02244770848992362, 0.005600151701070434;
}

probability ( scm6post | scm20fpr, variable42 ) {
	(0, state0) 0.2054753134625175, 0.2936345225789658, 0.37167392011474276, 0.12921624384377395;
	(0, state1) 0.8157439978603197, 0.14937362367565354, 0.032170955434844044, 0.0027114230291828013;
	(1, state0) 0.2054753134625175, 0.2936345225789658, 0.37167392011474276, 0.12921624384377395;
	(1, state1) 0.8157439978603197, 0.14937362367565354, 0.032170955434844044, 0.0027114230291828013;
	(2, state0) 0.2054753134625175, 0.2936345225789658, 0.37167392011474276, 0.12921624384377395;
	(2, state1) 0.8157439978603197, 0.14937362367565354, 0.032170955434844044, 0.0027114230291828013;
	(3, state0) 0.2054753134625175, 0.2936345225789658, 0.37167392011474276, 0.12921624384377395;
	(3, state1) 0.8157439978603197, 0.14937362367565354, 0.032170955434844044, 0.0027114230291828013;
}

probability ( scm7gait | scm4rue, variable42 ) {
	(0, state0) 0.030361816631250663, 0.4606506129163117, 0.44068875894412685, 0.0682988115083108;
	(0, state1) 0.41667841515660764, 0.552356085415628, 0.029205611383078773, 0.001759888044685646;
	(1, state0) 0.030361816631250663, 0.4606506129163117, 0.44068875894412685, 0.0682988115083108;
	(1, state1) 0.41667841515660764, 0.552356085415628, 0.029205611383078773, 0.001759888044685646;
	(2, state0) 0.030361816631250663, 0.4606506129163117, 0.44068875894412685, 0.0682988115083108;
	(2, state1) 0.41667841515660764, 0.552356085415628, 0.029205611383078773, 0.001759888044685646;
	(3, state0) 0.030361816631250663, 0.4606506129163117, 0.44068875894412685, 0.0682988115083108;
	(3, state1) 0.41667841515660764, 0.552356085415628, 0.029205611383078773, 0.001759888044685646;
}

probability ( scm8spee | variable42 ) {
	(state0) 0.00902982101070439, 0.5903051310640325, 0.3618307295444782, 0.03883431838078479;
	(state1) 0.4732141761625148, 0.5075040904891278, 0.014363315446345162, 0.004918417902012109;
}

probability ( scm9free | scm3rue, variable42 ) {
	(0, state0) 0.3242635906581684, 0.33008452474783506, 0.23795453240911024, 0.1076973521848863;
	(0, state1) 0.8711882699980733, 0.09481060243138499, 0.0289939853992898, 0.005007142171251981;
	(1, state0) 0.3242635906581684, 0.33008452474783506, 0.23795453240911024, 0.1076973521848863;
	(1, state1) 0.8711882699980733, 0.09481060243138499, 0.0289939853992898, 0.005007142171251981;
	(2, state0) 0.3242635906581684, 0.33008452474783506, 0.23795453240911024, 0.1076973521848863;
	(2, state1) 0.8711882699980733, 0.09481060243138499, 0.0289939853992898, 0.005007142171251981;
	(3, state0) 0.3242635906581684, 0.33008452474783506, 0.23795453240911024, 0.1076973521848863;
	(3, state1) 0.8711882699980733, 0.09481060243138499, 0.0289939853992898, 0.005007142171251981;
}

probability ( scm10swa | scm21fsv, variable42 ) {
	(0, state0) 0.5737182069279975, 0.18054607366534223, 0.18717527400501693, 0.05856044540164341;
	(0, state1) 0.7742421873404626, 0.16179861783408375, 0.057929539109816575, 0.0060296557156370115;
	(1, state0) 0.5737182069279975, 0.18054607366534223, 0.18717527400501693, 0.05856044540164341;
	(1, state1) 0.7742421873404626, 0.16179861783408375, 0.057929539109816575, 0.0060296557156370115;
	(2, state0) 0.5737182069279975, 0.18054607366534223, 0.18717527400501693, 0.05856044540164341;
	(2, state1) 0.7742421873404626, 0.16179861783408375, 0.057929539109816575, 0.0060296557156370115;
	(3, state0) 0.5737182069279975, 0.18054607366534223, 0.18717527400501693, 0.05856044540164341;
	(3, state1) 0.7742421873404626, 0.16179861783408375, 0.057929539109816575, 0.0060296557156370115;
}

probability ( scm11spe | scm4lue, variable42 ) {
	(0, state0) 0.05801889994843519, 0.537739139126825, 0.3484696458627879, 0.055772315061951884;
	(0, state1) 0.5130667590138143, 0.4405496023182912, 0.03698475297385309, 0.0093988856940413;
	(1, state0) 0.05801889994843519, 0.537739139126825, 0.3484696458627879, 0.055772315061951884;
	(1, state1) 0.5130667590138143, 0.4405496023182912, 0.03698475297385309, 0.0093988856940413;
	(2, state0) 0.05801889994843519, 0.537739139126825, 0.3484696458627879, 0.055772315061951884;
	(2, state1) 0.5130667590138143, 0.4405496023182912, 0.03698475297385309, 0.0093988856940413;
	(3, state0) 0.05801889994843519, 0.537739139126825, 0.3484696458627879, 0.055772315061951884;
	(3, state1) 0.5130667590138143, 0.4405496023182912, 0.03698475297385309, 0.0093988856940413;
}

probability ( scm12fee | scm2rue, variable42 ) {
	(0, state0) 0.03897551944703275, 0.4584348091982684, 0.404111875757889, 0.09847779559680984;
	(0, state1) 0.5286868766498497, 0.4384851478748244, 0.03019796560872932, 0.002630009866596501;
	(1, state0) 0.03897551944703275, 0.4584348091982684, 0.404111875757889, 0.09847779559680984;
	(1, state1) 0.5286868766498497, 0.4384851478748244, 0.03019796560872932, 0.002630009866596501;
	(2, state0) 0.03897551944703275, 0.4584348091982684, 0.404111875757889, 0.09847779559680984;
	(2, state1) 0.5286868766498497, 0.4384851478748244, 0.03019796560872932, 0.002630009866596501;
	(3, state0) 0.03897551944703275, 0.4584348091982684, 0.404111875757889, 0.09847779559680984;
	(3, state1) 0.5286868766498497, 0.4384851478748244, 0.03019796560872932, 0.002630009866596501;
}

probability ( scm13dre | scm9free, variable42 ) {
	(0, state0) 0.01736476818702581, 0.6144037000994277, 0.3355298369576586, 0.03270169475588788;
	(0, state1) 0.3995193153612069, 0.5605637254096717, 0.03749471971909669, 0.0024222395100247022;
	(1, state0) 0.01736476818702581, 0.6144037000994277, 0.3355298369576586, 0.03270169475588788;
	(1, state1) 0.3995193153612069, 0.5605637254096717, 0.03749471971909669, 0.0024222395100247022;
	(2, state0) 0.01736476818702581, 0.6144037000994277, 0.3355298369576586, 0.03270169475588788;
	(2, state1) 0.3995193153612069, 0.5605637254096717, 0.03749471971909669, 0.0024222395100247022;
	(3, state0) 0.01736476818702581, 0.6144037000994277, 0.3355298369576586, 0.03270169475588788;
	(3, state1) 0.3995193153612069, 0.5605637254096717, 0.03749471971909669, 0.0024222395100247022;
}

probability ( scm14hyg | scm16wal, variable42 ) {
	(0, state0) 0.14539048868318288, 0.15297650095633117, 0.5612449986610917, 0.1403880116993943;
	(0, state1) 0.5635387185053137, 0.4223583546122391, 0.00940537598767723, 0.004697550894770023;
	(1, state0) 0.14539048868318288, 0.15297650095633117, 0.5612449986610917, 0.1403880116993943;
	(1, state1) 0.5635387185053137, 0.4223583546122391, 0.00940537598767723, 0.004697550894770023;
	(2, state0) 0.14539048868318288, 0.15297650095633117, 0.5612449986610917, 0.1403880116993943;
	(2, state1) 0.5635387185053137, 0.4223583546122391, 0.00940537598767723, 0.004697550894770023;
	(3, state0) 0.14539048868318288, 0.15297650095633117, 0.5612449986610917, 0.1403880116993943;
	(3, state1) 0.5635387185053137, 0.4223583546122391, 0.00940537598767723, 0.004697550894770023;
}

probability ( scm15cha | scm8spee, variable42 ) {
	(0, state0) 0.12570012745247636, 0.3072026784504235, 0.44347233110788553, 0.12362486298921468;
	(0, state1) 0.5917067112357712, 0.37780876245792044, 0.026587667119294292, 0.003896859187014061;
	(1, state0) 0.12570012745247636, 0.3072026784504235, 0.44347233110788553, 0.12362486298921468;
	(1, state1) 0.5917067112357712, 0.37780876245792044, 0.026587667119294292, 0.003896859187014061;
	(2, state0) 0.12570012745247636, 0.3072026784504235, 0.44347233110788553, 0.12362486298921468;
	(2, state1) 0.5917067112357712, 0.37780876245792044, 0.026587667119294292, 0.003896859187014061;
	(3, state0) 0.12570012745247636, 0.3072026784504235, 0.44347233110788553, 0.12362486298921468;
	(3, state1) 0.5917067112357712, 0.37780876245792044, 0.026587667119294292, 0.003896859187014061;
}

probability ( scm16wal | scm6post, variable42 ) {
	(0, state0) 0.05230056608964976, 0.5713905556094505, 0.358934862504978, 0.017374015795921773;
	(0, state1) 0.45534154542922795, 0.5295414745343193, 0.0127328646316902, 0.0023841154047625043;
	(1, state0) 0.05230056608964976, 0.5713905556094505, 0.358934862504978, 0.017374015795921773;
	(1, state1) 0.45534154542922795, 0.5295414745343193, 0.0127328646316902, 0.0023841154047625043;
	(2, state0) 0.05230056608964976, 0.5713905556094505, 0.358934862504978, 0.017374015795921773;
	(2, state1) 0.45534154542922795, 0.5295414745343193, 0.0127328646316902, 0.0023841154047625043;
	(3, state0) 0.05230056608964976, 0.5713905556094505, 0.358934862504978, 0.017374015795921773;
	(3, state1) 0.45534154542922795, 0.5295414745343193, 0.0127328646316902, 0.0023841154047625043;
}

probability ( scm17han | scm18dpr, variable42 ) {
	(0, state0) 0.05691103482864256, 0.46483095240014527, 0.22292124648110637, 0.25533676629010565;
	(0, state1) 0.3444195345853235, 0.5206604130886424, 0.12213188447033946, 0.012788167855694515;
	(1, state0) 0.05691103482864256, 0.46483095240014527, 0.22292124648110637, 0.25533676629010565;
	(1, state1) 0.3444195345853235, 0.5206604130886424, 0.12213188447033946, 0.012788167855694515;
	(2, state0) 0.05691103482864256, 0.46483095240014527, 0.22292124648110637, 0.25533676629010565;
	(2, state1) 0.3444195345853235, 0.5206604130886424, 0.12213188447033946, 0.012788167855694515;
	(3, state0) 0.05691103482864256, 0.46483095240014527, 0.22292124648110637, 0.25533676629010565;
	(3, state1) 0.3444195345853235, 0.5206604130886424, 0.12213188447033946, 0.012788167855694515;
}

probability ( scm18dpr | scm8spee, variable42 ) {
	(0, state0) 0.3094413786063639, 0.47883586866537897, 0.10586246865499013, 0.10586028407326709;
	(0, state1) 0.8493429936703137, 0.10856771821141437, 0.028059477715974175, 0.014029810402297744;
	(1, state0) 0.3094413786063639, 0.47883586866537897, 0.10586246865499013, 0.10586028407326709;
	(1, state1) 0.8493429936703137, 0.10856771821141437, 0.028059477715974175, 0.014029810402297744;
	(2, state0) 0.3094413786063639, 0.47883586866537897, 0.10586246865499013, 0.10586028407326709;
	(2, state1) 0.8493429936703137, 0.10856771821141437, 0.028059477715974175, 0.014029810402297744;
	(3, state0) 0.3094413786063639, 0.47883586866537897, 0.10586246865499013, 0.10586028407326709;
	(3, state1) 0.8493429936703137, 0.10856771821141437, 0.028059477715974175, 0.014029810402297744;
}

probability ( scm19dsv | scm2lue, variable42 ) {
	(0, state0) 0.4111994670685211, 0.297002112093626, 0.20255160629571697, 0.08924681454213575;
	(0, state1) 0.7833688676072436, 0.14538806629563356, 0.06203480858713165, 0.009208257509991246;
	(1, state0) 0.4111994670685211, 0.297002112093626, 0.20255160629571697, 0.08924681454213575;
	(1, state1) 0.7833688676072436, 0.14538806629563356, 0.06203480858713165, 0.009208257509991246;
	(2, state0) 0.4111994670685211, 0.297002112093626, 0.20255160629571697, 0.08924681454213575;
	(2, state1) 0.7833688676072436, 0.14538806629563356, 0.06203480858713165, 0.009208257509991246;
	(3, state0) 0.4111994670685211, 0.297002112093626, 0.20255160629571697, 0.08924681454213575;
	(3, state1) 0.7833688676072436, 0.14538806629563356, 0.06203480858713165, 0.009208257509991246;
}

probability ( scm20fpr | variable42, scm19dsv ) {
	(state0, 0) 0.30386705113223045, 0.3314718286763088, 0.29428278207833586, 0.07037833811312495;
	(state0, 1) 0.30386705113223045, 0.3314718286763088, 0.29428278207833586, 0.07037833811312495;
	(state0, 2) 0.30386705113223045, 0.3314718286763088, 0.29428278207833586, 0.07037833811312495;
	(state0, 3) 0.30386705113223045, 0.3314718286763088, 0.29428278207833586, 0.07037833811312495;
	(state1, 0) 0.7396308761298845, 0.23307593739963037, 0.025086246664288492, 0.0022069398061965013;
	(state1, 1) 0.7396308761298845, 0.23307593739963037, 0.025086246664288492, 0.0022069398061965013;
	(state1, 2) 0.7396308761298845, 0.23307593739963037, 0.025086246664288492, 0.0022069398061965013;
	(state1, 3) 0.7396308761298845, 0.23307593739963037, 0.025086246664288492, 0.0022069398061965013;
}

probability ( scm21fsv | scm12fee, variable42 ) {
	(0, state0) 0.16504799268042047, 0.3526203112775882, 0.392511336282927, 0.0898203597590644;
	(0, state1) 0.6688056299399354, 0.251729431692281, 0.07510929109381978, 0.00435564727396381;
	(1, state0) 0.16504799268042047, 0.3526203112775882, 0.392511336282927, 0.0898203597590644;
	(1, state1) 0.6688056299399354, 0.251729431692281, 0.07510929109381978, 0.00435564727396381;
	(2, state0) 0.16504799268042047, 0.3526203112775882, 0.392511336282927, 0.0898203597590644;
	(2, state1) 0.6688056299399354, 0.251729431692281, 0.07510929109381978, 0.00435564727396381;
	(3, state0) 0.16504799268042047, 0.3526203112775882, 0.392511336282927, 0.0898203597590644;
	(3, state1) 0.6688056299399354, 0.251729431692281, 0.07510929109381978, 0.00435564727396381;
}

