network LCM {
}

variable variable78 {
	type discrete[2] { state0, state1 };
}

variable scm1rue {
	type discrete[4] { 0, 1, 2, 3 };
}

variable scm1lue {
	type discrete[4] { 0, 1, 2, 3 };
}

variable scm2rue {
	type discrete[4] { 0, 1, 2, 3 };
}

variable scm2lue {
	type discrete[4] { 0, 1, 2, 3 };
}

variable scm3rue {
	type discrete[4] { 0, 1, 2, 3 };
}

variable scm3lue {
	type discrete[4] { 0, 1, 2, 3 };
}

variable scm4rue {
	type discrete[4] { 0, 1, 2, 3 };
}

variable scm4lue {
	type discrete[4] { 0, 1, 2, 3 };
}

variable scm5rise {
	type discrete[4] { 0, 1, 2, 3 };
}

variable scm6post {
	type discrete[4] { 0, 1, 2, 3 };
}

variable scm7gait {
	type discrete[4] { 0, 1, 2, 3 };
}

variable scm8spee {
	type discrete[4] { 0, 1, 2, 3 };
}

variable scm9free {
	type discrete[4] { 0, 1, 2, 3 };
}

variable scm10swa {
	type discrete[4] { 0, 1, 2, 3 };
}

variable scm11spe {
	type discrete[4] { 0, 1, 2, 3 };
}

variable scm12fee {
	type discrete[4] { 0, 1, 2, 3 };
}

variable scm13dre {
	type discrete[4] { 0, 1, 2, 3 };
}

variable scm14hyg {
	type discrete[4] { 0, 1, 2, 3 };
}

variable scm15cha {
	type discrete[4] { 0, 1, 2, 3 };
}

variable scm16wal {
	type discrete[4] { 0, 1, 2, 3 };
}

variable scm17han {
	type discrete[4] { 0, 1, 2, 3 };
}

variable scm18dpr {
	type discrete[4] { 0, 1, 2, 3 };
}

variable scm19dsv {
	type discrete[4] { 0, 1, 2, 3 };
}

variable scm20fpr {
	type discrete[4] { 0, 1, 2, 3 };
}

variable scm21fsv {
	type discrete[4] { 0, 1, 2, 3 };
}

probability ( variable78 ) {
	table 0.5847242196804, 0.41527578031960005;
}

probability ( scm1rue | scm19dsv, variable78 ) {
	(0, state0) 0.5336093832073326, 0.3034191426619132, 0.14551733074591902, 0.01745414338483517;
	(0, state1) 0.5097650452096861, 0.26965385262514113, 0.18060525357174803, 0.03997584859342464;
	(1, state0) 0.6874768393791714, 0.211898947415015, 0.08390688584084571, 0.016717327364967935;
	(1, state1) 0.39334813063392565, 0.3530341167577285, 0.18642151754948924, 0.06719623505885647;
	(2, state0) 0.7018676546962088, 0.18747219296611997, 0.055551051376897774, 0.055109100960773365;
	(2, state1) 0.525424247297937, 0.16981264154687903, 0.21766534025780443, 0.08709777089737948;
	(3, state0) 0.5196573879255645, 0.12034680917686709, 0.2397642358070639, 0.12023156709050452;
	(3, state1) 0.43936850219533174, 0.11207222466936706, 0.1683115255938475, 0.28024774754145365;
}

probability ( scm1lue | variable78 ) {
	(state0) 0.5909867435960553, 0.2738748210722922, 0.11260914522211929, 0.02252929010953308;
	(state1) 0.4744861669355721, 0.2955133394053861, 0.16864655807807843, 0.06135393558096341;
}

probability ( scm2rue | scm9free, variable78 ) {
	(0, state0) 0.5694298283164255, 0.3436554293512049, 0.07558731138565646, 0.011327430946713067;
	(0, state1) 0.40068378511700964, 0.38835621179276614, 0.16792371502742032, 0.043036288062804066;
	(1, state0) 0.5058243952030311, 0.3953271523818537, 0.0857223099752414, 0.013126142439873917;
	(1, state1) 0.47159030360313076, 0.4025645105791181, 0.1186414133216517, 0.007203772496099541;
	(2, state0) 0.5866186637402032, 0.2816195950454847, 0.06589101591568865, 0.06587072529862333;
	(2, state1) 0.4560086405380506, 0.30396492907406253, 0.18208840369789106, 0.0579380266899958;
	(3, state0) 0.14262061070408166, 0.43400473384032706, 0.14255158765321138, 0.28082306780237987;
	(3, state1) 0.5279843846202688, 0.221077000759475, 0.11115743996109331, 0.13978117465916295;
}

probability ( scm2lue | scm1lue, variable78 ) {
	(0, state0) 0.806537143937186, 0.1749423965323884, 0.015337177528228083, 0.003183282002197448;
	(0, state1) 0.7688152851198459, 0.19726847318669333, 0.022923576504393934, 0.01099266518906672;
	(1, state0) 0.27657239913931186, 0.6509379244799268, 0.06572325462076124, 0.006766421760000053;
	(1, state1) 0.2637718505378331, 0.681182399121572, 0.04629005693873149, 0.00875569340186342;
	(2, state0) 0.17659541774348533, 0.49206866008674366, 0.31534430102202804, 0.015991621147742885;
	(2, state1) 0.07457812939956715, 0.3946243264710289, 0.4856625359468897, 0.04513500818251422;
	(3, state0) 0.06706685967035703, 0.2005499509909875, 0.3965434999315784, 0.33583968940707715;
	(3, state1) 0.03832958719187732, 0.19201977837973916, 0.27165483852999867, 0.4979957958983849;
}

probability ( scm3rue | scm18dpr, variable78 ) {
	(0, state0) 0.28367763263338386, 0.5570127431282289, 0.15267237487552426, 0.006637249362863017;
	(0, state1) 0.09418479563409034, 0.3825411185043133, 0.44135022042610766, 0.08192386543548864;
	(1, state0) 0.30250653467367355, 0.5587367896728721, 0.12117629994206412, 0.01758037571139024;
	(1, state1) 0.11030451072232121, 0.40236482797416184, 0.3886855561379698, 0.09864510516554728;
	(2, state0) 0.3396156607687725, 0.5500329787741925, 0.055207169616872075, 0.05514419084016285;
	(2, state1) 0.12020394109949394, 0.30568023316413706, 0.4397462234961306, 0.13436960224023842;
	(3, state0) 0.5241158495476517, 0.3165969054878237, 0.07966116892886244, 0.07962607603566216;
	(3, state1) 0.10535293153995462, 0.21651272883380035, 0.4007101888092073, 0.27742415081703775;
}

probability ( scm3lue | scm6post, variable78 ) {
	(0, state0) 0.29459214511386234, 0.46455630749170745, 0.21878780319252789, 0.022063744201902304;
	(0, state1) 0.17859975772415465, 0.4292518634487055, 0.33638336866006463, 0.0557650101670752;
	(1, state0) 0.17907701332212536, 0.5943733867169035, 0.20789807311648614, 0.018651526844484883;
	(1, state1) 0.052862345506921225, 0.39444646953656254, 0.46476826682321487, 0.08792291813330144;
	(2, state0) 0.19809503084484237, 0.4874599644826877, 0.23378885640481123, 0.0806561482676588;
	(2, state1) 0.07807505250820701, 0.2845092652713398, 0.4841708668252888, 0.1532448153951644;
	(3, state0) 0.340585056299962, 0.1753029512244634, 0.3131219635201966, 0.17099002895537788;
	(3, state1) 0.05549406245654545, 0.13760120952178148, 0.19827511805668593, 0.6086296099649872;
}

probability ( scm4rue | scm2rue, variable78 ) {
	(0, state0) 0.3451993969017183, 0.5002717931496701, 0.14122691265097456, 0.01330189729763705;
	(0, state1) 0.18866834268971194, 0.45709494653259836, 0.2919554212760433, 0.062281289501646395;
	(1, state0) 0.17625481933274348, 0.7086018807041186, 0.10435152700952856, 0.010791772953609382;
	(1, state1) 0.07770284589086675, 0.4229995426804893, 0.44104325658203325, 0.05825435484661073;
	(2, state0) 0.1429145423519756, 0.49937291312853443, 0.3337669108395869, 0.023945633679903027;
	(2, state1) 0.017281591910128142, 0.19031044659196164, 0.7235702280104604, 0.06883773348744977;
	(3, state0) 0.33072667690148616, 0.2229213351566772, 0.3349927981613274, 0.11135918978050934;
	(3, state1) 0.06052219431640027, 0.1761556235725537, 0.4107967649618881, 0.35252541714915786;
}

probability ( scm4lue | scm15cha, variable78 ) {
	(0, state0) 0.35824816423484124, 0.5080485989823743, 0.12557203764522792, 0.008131199137556507;
	(0, state1) 0.2755399259312904, 0.3754471003473148, 0.2493278507214088, 0.09968512299998603;
	(1, state0) 0.2590280696329679, 0.4973793699865931, 0.2296508284519417, 0.013941731928497151;
	(1, state1) 0.11309757996499736, 0.47723872267629236, 0.4026374833208596, 0.007026214037850578;
	(2, state0) 0.38062880538705857, 0.29046797775735994, 0.1783777604535053, 0.15052545640207615;
	(2, state1) 0.13506600500287672, 0.3535052280858835, 0.4064198248916453, 0.10500894201959438;
	(3, state0) 0.200322742722016, 0.200231172397185, 0.3992275945347411, 0.20021849034605788;
	(3, state1) 0.09753529522499499, 0.14632044585199816, 0.41472627963572495, 0.34141797928728196;
}

probability ( scm5rise | scm17han, variable78 ) {
	(0, state0) 0.7903591804014789, 0.17377615018207332, 0.021521073255081125, 0.01434359616136672;
	(0, state1) 0.16344792383085185, 0.6042759942144099, 0.07768747550585878, 0.15458860644887942;
	(1, state0) 0.716648729896916, 0.2533201219541603, 0.02701674912231989, 0.003014399026603836;
	(1, state1) 0.256609725459811, 0.54346581410983, 0.16663828191841737, 0.03328617851194163;
	(2, state0) 0.5502436015715575, 0.3855993518037301, 0.04762822732834972, 0.0165288192963626;
	(2, state1) 0.233710365554156, 0.3210125748931214, 0.31058614049817074, 0.1346909190545518;
	(3, state0) 0.4574640817358362, 0.2258842313541985, 0.2100825852827062, 0.10656910162725898;
	(3, state1) 0.1224301943819076, 0.16904733709375067, 0.2365836011880405, 0.47193886733630125;
}

probability ( scm6post | variable78, scm5rise ) {
	(state0, 0) 0.8534844063194905, 0.12207720228061338, 0.021773836111425283, 0.0026645552884707194;
	(state0, 1) 0.507658754427513, 0.3907450192924243, 0.09411402604919114, 0.007482200230871518;
	(state0, 2) 0.3522088465988136, 0.40877479167930114, 0.12987197574903722, 0.10914438597284813;
	(state0, 3) 0.20022555879805493, 0.20022800303470126, 0.20025571848296214, 0.39929071968428176;
	(state1, 0) 0.40801312730121087, 0.4277043183393189, 0.14205409275946912, 0.02222846160000091;
	(state1, 1) 0.19306626493754336, 0.5688070772585233, 0.2319289307329129, 0.006197727071020405;
	(state1, 2) 0.0576018650408101, 0.18288818652014657, 0.7009389604454288, 0.05857098799361456;
	(state1, 3) 0.019997747206774778, 0.039995250292734714, 0.37995418469712444, 0.5600528178033661;
}

probability ( scm7gait | scm10swa, variable78 ) {
	(0, state0) 0.45667741618516905, 0.5053696376916448, 0.033276784523189426, 0.004676161599996585;
	(0, state1) 0.0605840886803434, 0.5699867318750295, 0.3275601745474247, 0.041869004897202446;
	(1, state0) 0.3068709287528026, 0.6699553043493315, 0.011982903053077783, 0.01119086384478831;
	(1, state1) 0.0486915644181765, 0.48916109605288605, 0.41074711301066097, 0.0514002265182764;
	(2, state0) 0.3975558755673265, 0.4571050314114771, 0.09681500958453519, 0.048524083436661154;
	(2, state1) 0.05067620504357426, 0.281266656806334, 0.5416843611861956, 0.12637277696389615;
	(3, state0) 0.24999999329229677, 0.24999999652373842, 0.25000001455736215, 0.2499999956266027;
	(3, state1) 0.10000000107323255, 0.20000000085388842, 0.39999999578690376, 0.3000000022859753;
}

probability ( scm8spee | scm16wal, variable78 ) {
	(0, state0) 0.6451884844259839, 0.3145438295492693, 0.021007568370346914, 0.019260117654399885;
	(0, state1) 0.27701679572139415, 0.29966915305906455, 0.3472222561248043, 0.07609179509473692;
	(1, state0) 0.3280551368765695, 0.6383419063230459, 0.02949584598197445, 0.004107110818410192;
	(1, state1) 0.10362042980080352, 0.7612371349763322, 0.1266546641479235, 0.00848777107494083;
	(2, state0) 0.2881733943105525, 0.6103681166934133, 0.0536059594688739, 0.04785252952716032;
	(2, state1) 0.04327600653386555, 0.4217430943877759, 0.46256990485898075, 0.07241099421937795;
	(3, state0) 0.1670671352526144, 0.49860752512732703, 0.1672581769903676, 0.16706716262969112;
	(3, state1) 0.03123596108405709, 0.1879007353422231, 0.562211581103917, 0.21865172246980283;
}

probability ( scm9free | scm21fsv, variable78 ) {
	(0, state0) 0.8515088988235302, 0.125647947181606, 0.020273412884588792, 0.0025697411102748296;
	(0, state1) 0.2527245118021099, 0.289610511298489, 0.3379161024953124, 0.11974887440408853;
	(1, state0) 0.8099593249594819, 0.14140301124931576, 0.039782162803995616, 0.008855500987206777;
	(1, state1) 0.2842765253736775, 0.5466959939098219, 0.14026618750118405, 0.02876129321531647;
	(2, state0) 0.5320328369035933, 0.2992465424572832, 0.05217185645633439, 0.11654876418278914;
	(2, state1) 0.21038247859619613, 0.27028297504032606, 0.45965217961993743, 0.05968236674354035;
	(3, state0) 0.25897997661563715, 0.2469924299126335, 0.24704188772963614, 0.24698570574209333;
	(3, state1) 0.19229414428326694, 0.1755874016911495, 0.3160572294831991, 0.31606122454238444;
}

probability ( scm10swa | scm1rue, variable78 ) {
	(0, state0) 0.7717634925574185, 0.17806025830280217, 0.04685065459418003, 0.0033255945455993308;
	(0, state1) 0.48500417742798496, 0.3610421181530104, 0.1263753917599199, 0.02757831265908488;
	(1, state0) 0.845363369613703, 0.12545716507109353, 0.022724376579378258, 0.006455088735825376;
	(1, state1) 0.3862078862609738, 0.45076228799969414, 0.14324419459018736, 0.019785631149144667;
	(2, state0) 0.7520476108384077, 0.2074777330302399, 0.02698327387795478, 0.013491382253397674;
	(2, state1) 0.3689455702905329, 0.4956977657429288, 0.12182094646537954, 0.013535717501158829;
	(3, state0) 0.7253353322884654, 0.0916991291939641, 0.09148276812435523, 0.09148277039321526;
	(3, state1) 0.4076008906922159, 0.24938850772357565, 0.28064503859762524, 0.062365562986583266;
}

probability ( scm11spe | variable78, scm7gait ) {
	(state0, 0) 0.6638447092726311, 0.30076072270487975, 0.018206285020004803, 0.017188283002484313;
	(state0, 1) 0.477260929144164, 0.4916309751087306, 0.027610708725645205, 0.003497387021460203;
	(state0, 2) 0.21625216987273224, 0.6175115836271566, 0.057122890065687486, 0.10911335643442369;
	(state0, 3) 0.20018745139793756, 0.3992087573981904, 0.20041636461408413, 0.20018742658978783;
	(state1, 0) 0.1549174589619577, 0.6217254361816762, 0.17590260924831613, 0.04745449560804998;
	(state1, 1) 0.17738116795026285, 0.6422362952466382, 0.17509355337433885, 0.005288983428760199;
	(state1, 2) 0.0788956669434696, 0.48922072943704675, 0.3729119492650586, 0.058971654354425064;
	(state1, 3) 0.07998501496916242, 0.08021797249249199, 0.6798269680406442, 0.15997004449770127;
}

probability ( scm12fee | scm14hyg, variable78 ) {
	(0, state0) 0.8248481046148642, 0.16585599481633234, 0.0046486860745350396, 0.00464721449426841;
	(0, state1) 0.4566860554086211, 0.39921848997934595, 0.0960585659773032, 0.04803688863472973;
	(1, state0) 0.22371812817554268, 0.7090480891336762, 0.06398439873548883, 0.003249383955292151;
	(1, state1) 0.12649584270582864, 0.7248027781392536, 0.13440542504743772, 0.014295954107479891;
	(2, state0) 0.21456048862814903, 0.3855905658522383, 0.30564809006955546, 0.09420085545005731;
	(2, state1) 0.04490542382039159, 0.29756905383080484, 0.6261304822491434, 0.03139504009966013;
	(3, state0) 0.24997875440008382, 0.24997875448446494, 0.24999714492582648, 0.2500453461896248;
	(3, state1) 0.03225841827493997, 0.06451683653899101, 0.35484022782557273, 0.5483845173604963;
}

probability ( scm13dre | scm4rue, variable78 ) {
	(0, state0) 0.4970177826612398, 0.4787567929732339, 0.0173750455164276, 0.006850378849098603;
	(0, state1) 0.09628077420593961, 0.5239617416301697, 0.33626970449999294, 0.04348777966389771;
	(1, state0) 0.33201584748996327, 0.6189258931396168, 0.045805106106276826, 0.003253153264143127;
	(1, state1) 0.05854400144387542, 0.5422078254174454, 0.3533721298235521, 0.04587604331512717;
	(2, state0) 0.2143499912850233, 0.68437407771458, 0.08864819536281127, 0.012627735637585295;
	(2, state1) 0.0063768391411678895, 0.42164174327306764, 0.5097959262718237, 0.06218549131394086;
	(3, state0) 0.24864531041923385, 0.2569333576986107, 0.3700986407050906, 0.12432269117706482;
	(3, state1) 0.034534669639874664, 0.20490570664245353, 0.31160902003703883, 0.448950603680633;
}

probability ( scm14hyg | scm11spe, variable78 ) {
	(0, state0) 0.5251064076562235, 0.46202800749603173, 0.009476650654932493, 0.003388934192812296;
	(0, state1) 0.04030950342397222, 0.8182260637599749, 0.12182654660054987, 0.019637886215503095;
	(1, state0) 0.24888695702336314, 0.7219539673445067, 0.024684078121292353, 0.004474997510837729;
	(1, state1) 0.049082721947428146, 0.6366258921096287, 0.3001094153663954, 0.014181970576547728;
	(2, state0) 0.18544402671351812, 0.6509592120697737, 0.09293786196155189, 0.07065889925515645;
	(2, state1) 0.0665362742007232, 0.2777411426617979, 0.47529348752840234, 0.1804290956090767;
	(3, state0) 0.25005800133449496, 0.4990210201236495, 0.1254437872722539, 0.12547719126960163;
	(3, state1) 0.06698115516179488, 0.13454313915626112, 0.3327055929716264, 0.46577011271031754;
}

probability ( scm15cha | scm12fee, variable78 ) {
	(0, state0) 0.6759379023520115, 0.3015517501749272, 0.018514823310574233, 0.0039955241624870476;
	(0, state1) 0.1827660742237483, 0.4338152659289815, 0.336564551449332, 0.04685410839793829;
	(1, state0) 0.2787956497792633, 0.7020734946530145, 0.015302123391621843, 0.0038287321761003913;
	(1, state1) 0.04593954987159518, 0.5986910306425848, 0.3353497747471504, 0.02001964473866976;
	(2, state0) 0.15888260916815522, 0.6001806742260994, 0.16161416894172706, 0.07932254766401835;
	(2, state1) 0.00832274950610454, 0.22267044553546583, 0.6283006067143123, 0.14070619824411743;
	(3, state0) 0.25142545403629696, 0.24928324770993934, 0.24994164062157165, 0.2493496576321921;
	(3, state1) 0.0796929234511509, 0.04001841008561109, 0.159967945965557, 0.720320720497681;
}

probability ( scm16wal | scm13dre, variable78 ) {
	(0, state0) 0.5700909235434939, 0.40382545262686237, 0.0209187171458995, 0.005164906683744228;
	(0, state1) 0.3004240332929724, 0.31286285360297905, 0.32171752526951375, 0.06499558783453478;
	(1, state0) 0.2820454027003585, 0.6682298532761427, 0.04343436997847893, 0.006290374045020019;
	(1, state1) 0.0263087191479884, 0.783922275901517, 0.17310172746563263, 0.016667277484862023;
	(2, state0) 0.22359167246785083, 0.6222316029793797, 0.07921579067093512, 0.07496093388183422;
	(2, state1) 0.01901076325655583, 0.35813336786532185, 0.5729452998247635, 0.049910569053358785;
	(3, state0) 0.2499787643176312, 0.2499787643176312, 0.2500635600209675, 0.24997891134377004;
	(3, state1) 0.03125033183924776, 0.03125033183924776, 0.31249271791657307, 0.6250066184049313;
}

probability ( scm17han | scm20fpr, variable78 ) {
	(0, state0) 0.2790715425704364, 0.620927524221144, 0.08914942813304712, 0.010851505075372367;
	(0, state1) 0.024076406108551107, 0.305801401425956, 0.48823588434387644, 0.1818863081216165;
	(1, state0) 0.18940201642525217, 0.6348907121227587, 0.1590649291066937, 0.016642342345295415;
	(1, state1) 0.058543409328814404, 0.5822348063709175, 0.2723191601439684, 0.08690262415629968;
	(2, state0) 0.3108833650823829, 0.3917983894645427, 0.1947637967834654, 0.10255444866960907;
	(2, state1) 0.007279134313765638, 0.4437394950139202, 0.4706399990486646, 0.07834137162364961;
	(3, state0) 0.24940249668123468, 0.24948210681687413, 0.2517097711672517, 0.24940562533463953;
	(3, state1) 0.028579253535521338, 0.17146639861700044, 0.4284244104008722, 0.3715299374466059;
}

probability ( scm18dpr | scm1lue, variable78 ) {
	(0, state0) 0.8108622025908182, 0.11744768511717235, 0.04141466949975113, 0.03027544279225837;
	(0, state1) 0.32619485353020106, 0.3191856155680248, 0.2750332827081193, 0.0795862481936548;
	(1, state0) 0.8738048299628355, 0.1058202056869331, 0.013549320312135195, 0.006825644038096023;
	(1, state1) 0.32274893240600255, 0.5109908469249957, 0.1138026933924321, 0.05245752727656962;
	(2, state0) 0.9148631511098857, 0.05191653162569383, 0.017228587672494754, 0.015991729591925744;
	(2, state1) 0.2827120578013304, 0.4476417396531653, 0.19442129089875673, 0.07522491164674758;
	(3, state0) 0.7308005820986924, 0.06838877572834198, 0.133743779741399, 0.06706686243156659;
	(3, state1) 0.27227048166399653, 0.22922203084024886, 0.2302003787306808, 0.26830710876507385;
}

probability ( scm19dsv | scm3rue, variable78 ) {
	(0, state0) 0.8112082682781915, 0.12211887880986871, 0.0518237165481936, 0.014849136363746246;
	(0, state1) 0.29958704732466807, 0.35276944943920585, 0.3079818811284014, 0.03966162210772456;
	(1, state0) 0.8496157122686886, 0.11085920598519722, 0.026232821763175596, 0.013292259982938608;
	(1, state1) 0.35542711097037744, 0.34278312773411174, 0.23718555865538127, 0.0646042026401295;
	(2, state0) 0.8864430432474706, 0.08636919638731694, 0.014360217322398994, 0.012827543042813675;
	(2, state1) 0.3322260587011187, 0.3782876369444654, 0.20303974417266935, 0.08644656018174658;
	(3, state0) 0.5004467283191453, 0.16658024123627435, 0.16653325977065156, 0.16643977067392884;
	(3, state1) 0.24433807455981058, 0.2222439186395047, 0.28892904538121883, 0.24448896141946588;
}

probability ( scm20fpr | scm2lue, variable78 ) {
	(0, state0) 0.7072062697346674, 0.25609302078389373, 0.03344501291825283, 0.003255696563186011;
	(0, state1) 0.11189047604171697, 0.4570753376590718, 0.3456512554924903, 0.08538293080672091;
	(1, state0) 0.68986426521136, 0.26724214541193314, 0.037443721399513505, 0.005449867977193444;
	(1, state1) 0.09164432012986312, 0.4799380938742062, 0.38705911891238376, 0.041358467083546784;
	(2, state0) 0.7369127131581263, 0.21330164714970332, 0.024899452623969705, 0.02488618706820046;
	(2, state1) 0.17183797638043183, 0.3365406456899757, 0.4096826975183857, 0.08193868041120661;
	(3, state0) 0.6236430125386775, 0.12564804841897367, 0.1258907768576752, 0.12481816218467368;
	(3, state1) 0.10551669332082471, 0.15764149969058464, 0.21020297041855215, 0.5266388365700384;
}

probability ( scm21fsv | scm3lue, variable78 ) {
	(0, state0) 0.723301105042707, 0.1861115592232943, 0.08348748879933751, 0.007099846934661233;
	(0, state1) 0.15791134596673184, 0.48383549344627164, 0.20831823860090082, 0.14993492198609581;
	(1, state0) 0.7208925343852624, 0.22132164010858393, 0.05395313421999842, 0.0038326912861552935;
	(1, state1) 0.10396965777058582, 0.42846804811436767, 0.4222175724968814, 0.04534472161816505;
	(2, state0) 0.7305370243593786, 0.20073693733377143, 0.06024442622985925, 0.008481612076990618;
	(2, state1) 0.08397024585952752, 0.3556045842704445, 0.4201546234568683, 0.14027054641315964;
	(3, state0) 0.5763522712084127, 0.27854449487460214, 0.07228353125538954, 0.07281970266159553;
	(3, state1) 0.15244774516397488, 0.13765139478960917, 0.3212005445496853, 0.3887003154967306;
}

