network LCM {
}

variable variable96 {
	type discrete[2] { state0, state1 };
}

variable scm1rue {
	type discrete[4] { 0, 1, 2, 3 };
}

variable scm1lue {
	type discrete[4] { 0, 1, 2, 3 };
}

variable scm2rue {
	type discrete[4] { 0, 1, 2, 3 };
}

variable scm2lue {
	type discrete[4] { 0, 1, 2, 3 };
}

variable scm3rue {
	type discrete[4] { 0, 1, 2, 3 };
}

variable scm3lue {
	type discrete[4] { 0, 1, 2, 3 };
}

variable scm4rue {
	type discrete[4] { 0, 1, 2, 3 };
}

variable scm4lue {
	type discrete[4] { 0, 1, 2, 3 };
}

variable scm5rise {
	type discrete[4] { 0, 1, 2, 3 };
}

variable scm6post {
	type discrete[4] { 0, 1, 2, 3 };
}

variable scm7gait {
	type discrete[4] { 0, 1, 2, 3 };
}

variable scm8spee {
	type discrete[4] { 0, 1, 2, 3 };
}

variable scm9free {
	type discrete[4] { 0, 1, 2, 3 };
}

variable scm10swa {
	type discrete[4] { 0, 1, 2, 3 };
}

variable scm11spe {
	type discrete[4] { 0, 1, 2, 3 };
}

variable scm12fee {
	type discrete[4] { 0, 1, 2, 3 };
}

variable scm13dre {
	type discrete[4] { 0, 1, 2, 3 };
}

variable scm14hyg {
	type discrete[4] { 0, 1, 2, 3 };
}

variable scm15cha {
	type discrete[4] { 0, 1, 2, 3 };
}

variable scm16wal {
	type discrete[4] { 0, 1, 2, 3 };
}

variable scm17han {
	type discrete[4] { 0, 1, 2, 3 };
}

variable scm18dpr {
	type discrete[4] { 0, 1, 2, 3 };
}

variable scm19dsv {
	type discrete[4] { 0, 1, 2, 3 };
}

variable scm20fpr {
	type discrete[4] { 0, 1, 2, 3 };
}

variable scm21fsv {
	type discrete[4] { 0, 1, 2, 3 };
}

probability ( variable96 ) {
	table 0.5829691422146568, 0.41703085778534316;
}

probability ( scm1rue | scm4lue, variable96 ) {
	(0, state0) 0.47472793875626074, 0.3460999337350482, 0.14980501206570623, 0.029367115442984832;
	(0, state1) 0.6159572407224337, 0.22020283440306535, 0.07638054163388339, 0.08745938324061749;
	(1, state0) 0.5936356109501881, 0.2555584299963652, 0.13942185625574843, 0.011384102797698224;
	(1, state1) 0.433685534399605, 0.2714070139352969, 0.22322889243610028, 0.07167855922899775;
	(2, state0) 0.6741359583040125, 0.2442749418597158, 0.07023270057707676, 0.011356399259194912;
	(2, state1) 0.4089335168594387, 0.2965953151442752, 0.22486963660368847, 0.06960153139259759;
	(3, state0) 0.5540719491448657, 0.1119743332184478, 0.2225866414221446, 0.11136707621454203;
	(3, state1) 0.47103147605852874, 0.20559689346076576, 0.11761445948319159, 0.20575717099751387;
}

probability ( scm1lue | variable96, scm1rue ) {
	(state0, 0) 0.6793936332094628, 0.20999965770341167, 0.09107378918698338, 0.019532919900142075;
	(state0, 1) 0.5120201808144134, 0.3482822548056441, 0.11978489308206149, 0.01991267129788113;
	(state0, 2) 0.4331695937795757, 0.36772385273931474, 0.15681533246535126, 0.04229122101575842;
	(state0, 3) 0.2972078352122531, 0.2972344088626259, 0.2972962512640751, 0.1082615046610459;
	(state1, 0) 0.8311571867194123, 0.1229427888230248, 0.040180052839530064, 0.005719971618032966;
	(state1, 1) 0.17855800343808836, 0.5939285768597184, 0.18000940899599346, 0.047504010706199744;
	(state1, 2) 0.12001408732431075, 0.33624957246832077, 0.40089780512333684, 0.14283853508403158;
	(state1, 3) 0.12155746177493174, 0.18232864946031463, 0.36464769686518234, 0.33146619189957127;
}

probability ( scm2rue | scm18dpr, variable96 ) {
	(0, state0) 0.5577830452787185, 0.35023270932918665, 0.07830376592829562, 0.01368047946379934;
	(0, state1) 0.46203468894742544, 0.4000147938170703, 0.11573957823474029, 0.02221093900076402;
	(1, state0) 0.6084544332466558, 0.35846852767826676, 0.016697844020940884, 0.016379195054136562;
	(1, state1) 0.3774861560210442, 0.4333696959972974, 0.16886614304196024, 0.020278004939698238;
	(2, state0) 0.7022214036499783, 0.20702314201305763, 0.04548776897654635, 0.04526768536041777;
	(2, state1) 0.48116736414917327, 0.2493504457834617, 0.23097581952067517, 0.03850637054668992;
	(3, state0) 0.6024206753584451, 0.2529629755663557, 0.07231408039001605, 0.0723022686851831;
	(3, state1) 0.47059394612791944, 0.14441554362186737, 0.128326675631018, 0.2566638346191951;
}

probability ( scm2lue | variable96, scm11spe ) {
	(state0, 0) 0.583293907741649, 0.33096103112834746, 0.07235944349384019, 0.013385617636163062;
	(state0, 1) 0.5909864494984158, 0.34574659826922644, 0.05383799152413416, 0.009428960708223494;
	(state0, 2) 0.5918584530755637, 0.26070548640684815, 0.0967799200563886, 0.050656140461199615;
	(state0, 3) 0.37691173601632744, 0.37181430000020205, 0.12563698199407117, 0.12563698198939932;
	(state1, 0) 0.33309546572067467, 0.32011211081697866, 0.2832689430461796, 0.06352348041616711;
	(state1, 1) 0.42873826366703405, 0.4159010252886797, 0.12390357526984944, 0.03145713577443683;
	(state1, 2) 0.47802210455522837, 0.3501212052720648, 0.09585372890152963, 0.07600296127117728;
	(state1, 3) 0.46540777988631776, 0.33513156383965625, 0.13297377084852652, 0.06648688542549942;
}

probability ( scm3rue | scm13dre, variable96 ) {
	(0, state0) 0.3936208315115293, 0.5158189157041638, 0.08046313862337687, 0.010097114160930006;
	(0, state1) 0.27698829478488596, 0.4415947728603664, 0.097331097281583, 0.1840858350731646;
	(1, state0) 0.25139508139106326, 0.5601357738134838, 0.18528008203784802, 0.003189062757604804;
	(1, state1) 0.09851373409735091, 0.44312238578607344, 0.4091351778347873, 0.049228702281788356;
	(2, state0) 0.1499742979240608, 0.5416916275810494, 0.22034144430615166, 0.08799263018873817;
	(2, state1) 0.09491189816402594, 0.3390009908339967, 0.45042460032317716, 0.11566251067880023;
	(3, state0) 0.2500141199623254, 0.2499954032721894, 0.24999523623216208, 0.24999524053332312;
	(3, state1) 0.06249778831041227, 0.1562503512750671, 0.3125007443692318, 0.4687511160452888;
}

probability ( scm3lue | scm2rue, variable96 ) {
	(0, state0) 0.2141918701137345, 0.5273850527241902, 0.24247868735731792, 0.01594438980475738;
	(0, state1) 0.11283844130628426, 0.3115519051007144, 0.42156500533536234, 0.15404464825763894;
	(1, state0) 0.3118900348686408, 0.493816513294607, 0.16642672333447264, 0.02786672850227953;
	(1, state1) 0.03797821318696475, 0.38769569184899544, 0.4337431630172365, 0.14058293194680335;
	(2, state0) 0.5253581362675114, 0.26399976943510417, 0.18407646784123374, 0.026565626456150657;
	(2, state1) 0.05170421528486837, 0.3538050787392332, 0.4501613388505381, 0.14432936712536035;
	(3, state0) 0.44760423453406945, 0.11051693995786674, 0.22099133136723567, 0.220887494140828;
	(3, state1) 0.17401905816471594, 0.11798287015029406, 0.41296275842059066, 0.2950353132643994;
}

probability ( scm4rue | variable96, scm10swa ) {
	(state0, 0) 0.2746638937976605, 0.5693842008351454, 0.14431160725139783, 0.011640298115796236;
	(state0, 1) 0.2325130723737551, 0.6017987914261581, 0.15435799336141381, 0.011330142838672876;
	(state0, 2) 0.5750415341167198, 0.3149658829402499, 0.057281505974861646, 0.0527110769681687;
	(state0, 3) 0.24999999835503667, 0.24999999823482955, 0.2500000021249824, 0.25000000128515143;
	(state1, 0) 0.09945893807903462, 0.501982406419732, 0.3623619345898006, 0.03619672091143267;
	(state1, 1) 0.10493955370554937, 0.3497871571327962, 0.49417333394030405, 0.05109995522135023;
	(state1, 2) 0.10680045658236445, 0.2985284063188835, 0.40178563673989837, 0.19288550035885366;
	(state1, 3) 0.300000000799199, 0.10000000028242727, 0.1999999990087934, 0.39999999990958035;
}

probability ( scm4lue | scm14hyg, variable96 ) {
	(0, state0) 0.38255886376041043, 0.47967592737925274, 0.12863464487793097, 0.009130563982405845;
	(0, state1) 0.18888155445610652, 0.4086948154484439, 0.3434456496070781, 0.05897798048837159;
	(1, state0) 0.2656983801674958, 0.5112398797977282, 0.20997528252567066, 0.013086457509105202;
	(1, state1) 0.11548794258529661, 0.4746028846594399, 0.38657128916266104, 0.023337883592602377;
	(2, state0) 0.4130104136437882, 0.10734582294757265, 0.2852143294904214, 0.19442943391821768;
	(2, state1) 0.12360978101666321, 0.32783588535486946, 0.43103096251552125, 0.11752337111294603;
	(3, state0) 0.25001410622257525, 0.2499952220810917, 0.24999544605801682, 0.24999522563831614;
	(3, state1) 0.06451385141283811, 0.09677443219668405, 0.4193558439743062, 0.4193558724161716;
}

probability ( scm5rise | variable96, scm20fpr ) {
	(state0, 0) 0.752977363058358, 0.22881790861205129, 0.015504084851576243, 0.002700643478014346;
	(state0, 1) 0.683903402387446, 0.27975932471742454, 0.02914171621177078, 0.007195556683358615;
	(state0, 2) 0.8759094591470775, 0.04439971936896412, 0.04092566531681574, 0.03876515616714259;
	(state0, 3) 0.24813012266952753, 0.25580490850166054, 0.24803205190214841, 0.24803291692666363;
	(state1, 0) 0.07938850477007432, 0.46043350551879997, 0.3084236623695296, 0.151754327341596;
	(state1, 1) 0.24968710062349583, 0.5065965878201113, 0.19610389323763283, 0.04761241831876016;
	(state1, 2) 0.1818434419732471, 0.40129309927187573, 0.2603839912618434, 0.1564794674930337;
	(state1, 3) 0.17157285175397657, 0.1706879717132667, 0.25737623853775377, 0.4003629379950029;
}

probability ( scm6post | variable96 ) {
	(state0) 0.7660945366314627, 0.19253936691003487, 0.039468182847179435, 0.0018979136113230074;
	(state1) 0.17781923390910126, 0.3903423526604217, 0.3392249301120893, 0.09261348331838759;
}

probability ( scm7gait | scm3rue, variable96 ) {
	(0, state0) 0.4725594769226003, 0.4779340381548379, 0.04331043700136124, 0.006196047921200443;
	(0, state1) 0.0966601203275773, 0.5404425826849293, 0.2851889266935129, 0.07770837029398042;
	(1, state0) 0.45278736387699814, 0.5251020404819141, 0.018680328519024007, 0.003430267122063666;
	(1, state1) 0.07511254393423726, 0.6070621083962806, 0.2905174005085979, 0.02730794716088425;
	(2, state0) 0.31740753777193853, 0.617308517887808, 0.05281044049135451, 0.012473503848898854;
	(2, state1) 0.01597608138371838, 0.47244187849613545, 0.4802988142775247, 0.03128322584262138;
	(3, state0) 0.16659368957338497, 0.499920704956125, 0.1668919135679309, 0.16659369190255904;
	(3, state1) 0.022223520236901752, 0.15554601424977216, 0.5111011825074122, 0.3111292830059138;
}

probability ( scm8spee | scm15cha, variable96 ) {
	(0, state0) 0.5974459392082224, 0.37475810329235976, 0.019812415389827604, 0.007983542109590245;
	(0, state1) 0.2627059284086969, 0.5530809489336236, 0.12355055947995355, 0.060662563177725885;
	(1, state0) 0.3364628188046986, 0.6036062079811456, 0.045007209377469624, 0.014923763836686199;
	(1, state1) 0.07012034502781403, 0.7690486328298066, 0.15498849344036955, 0.005842528702009712;
	(2, state0) 0.3158939405252973, 0.48188321021063074, 0.1457482927561243, 0.05647455650794761;
	(2, state1) 0.053444478142825956, 0.5560787873291506, 0.3523313410705222, 0.03814539345750114;
	(3, state0) 0.24976124181929246, 0.24975926924034608, 0.2507034109349808, 0.24977607800538054;
	(3, state1) 0.04762306794022458, 0.14287017137048333, 0.5475795476516171, 0.26192721303767497;
}

probability ( scm9free | variable96, scm21fsv ) {
	(state0, 0) 0.8576909808087593, 0.11930624335823917, 0.020371669415505438, 0.00263110641749616;
	(state0, 1) 0.7432181075755291, 0.1891581845526319, 0.05902818205157942, 0.008595525820259601;
	(state0, 2) 0.5028132728185619, 0.3872842990699624, 0.02870721521647279, 0.08119521289500306;
	(state0, 3) 0.4070279516500419, 0.19758515253933248, 0.19784360709371235, 0.1975432887169131;
	(state1, 0) 0.3142096907775541, 0.3074879701175385, 0.28007773448708356, 0.09822460461782374;
	(state1, 1) 0.32827768260821183, 0.5159459130787005, 0.12629100535073007, 0.029485398962357464;
	(state1, 2) 0.21097034018055982, 0.24721477385466475, 0.474330544863654, 0.06748434110112136;
	(state1, 3) 0.177689207090345, 0.1787661377332774, 0.3217587386432766, 0.32178591653310096;
}

probability ( scm10swa | variable96, scm5rise ) {
	(state0, 0) 0.8303682512469603, 0.14398689419590746, 0.023128866889841226, 0.0025159876672909576;
	(state0, 1) 0.713484891049225, 0.2326044051756768, 0.04596058394324794, 0.007950119831850296;
	(state0, 2) 0.5773323818345563, 0.08523423233811624, 0.2530217115863741, 0.08441167424095344;
	(state0, 3) 0.2500112108292268, 0.2499963376152986, 0.24999622859850906, 0.24999622295696572;
	(state1, 0) 0.5482405898079903, 0.28443585288852946, 0.14119403414698317, 0.02612952315649704;
	(state1, 1) 0.4506367372985555, 0.45942551641586465, 0.08402813028514472, 0.005909616000435187;
	(state1, 2) 0.35597789770664323, 0.41856012061452025, 0.21472698863165648, 0.01073499304718004;
	(state1, 3) 0.2941168201386351, 0.35294158592920843, 0.23529439598978655, 0.11764719794236983;
}

probability ( scm11spe | scm9free, variable96 ) {
	(0, state0) 0.6092239870508619, 0.36068060753093056, 0.018653348983727867, 0.011442056434479637;
	(0, state1) 0.1668086285184186, 0.6268680060529283, 0.18623185420027602, 0.02009151122837707;
	(1, state0) 0.3337525134635252, 0.5735329642332939, 0.0806536765994377, 0.012060845703743241;
	(1, state1) 0.10847089160166554, 0.6468967866860752, 0.23706155823696523, 0.007570763475294142;
	(2, state0) 0.2415492768598469, 0.460764190500605, 0.23777459060729245, 0.05991194203225572;
	(2, state1) 0.1170764998057867, 0.522252262804819, 0.30199997564741904, 0.05867126174197536;
	(3, state0) 0.4951651531749385, 0.17436612652127545, 0.1652281201433718, 0.16524060016041434;
	(3, state1) 0.05421552627526991, 0.2962207773539203, 0.5142395448992442, 0.13532415147156573;
}

probability ( scm12fee | scm7gait, variable96 ) {
	(0, state0) 0.5958955491531636, 0.3786633190868112, 0.02118060212059215, 0.0042605296394330775;
	(0, state1) 0.1167910746363859, 0.6629126383828029, 0.16561382033382455, 0.05468246664698668;
	(1, state0) 0.4062432745847709, 0.5546470627649678, 0.03203984170009468, 0.0070698209501667214;
	(1, state1) 0.07880033074097548, 0.6666763637085318, 0.2441157175248018, 0.01040758802569097;
	(2, state0) 0.28722570945824655, 0.4876680467805862, 0.16851330804435596, 0.05659293571681131;
	(2, state1) 0.09081359738812106, 0.4133750891326773, 0.4305924077999983, 0.06521890567920342;
	(3, state0) 0.24999960987833525, 0.250000465547383, 0.2500003058836888, 0.24999961869059295;
	(3, state1) 0.038461547695203956, 0.07692296374877892, 0.46153846526450804, 0.4230770232915091;
}

probability ( scm13dre | variable96, scm8spee ) {
	(state0, 0) 0.4876960620107617, 0.48360023674758923, 0.024639526552296814, 0.00406417468935225;
	(state0, 1) 0.2615706831060323, 0.6799803142370161, 0.054668220453799286, 0.0037807822031522592;
	(state0, 2) 0.33834594510009797, 0.5543419368368118, 0.05867072679377321, 0.048641391269317075;
	(state0, 3) 0.25053390373913226, 0.498914010917891, 0.12527132809336367, 0.12528075724961302;
	(state1, 0) 0.07426290264214462, 0.6311880620041365, 0.2574399576875559, 0.03710907766616307;
	(state1, 1) 0.024590330467818382, 0.5968100570493281, 0.3701431126266895, 0.008456499856164024;
	(state1, 2) 0.019024970370928377, 0.2103797359363946, 0.5844472530929414, 0.1861480405997355;
	(state1, 3) 0.052587274568147734, 0.10607862253398158, 0.3680853997506932, 0.4732487031471775;
}

probability ( scm14hyg | variable96, scm17han ) {
	(state0, 0) 0.6398173436455982, 0.3456392106630136, 0.007272496678932638, 0.007270949012455657;
	(state0, 1) 0.3557500402456446, 0.6233609374062409, 0.017843624420588993, 0.0030453979275254913;
	(state0, 2) 0.1887972303489588, 0.7632984740508457, 0.03247009813054783, 0.015434197469647522;
	(state0, 3) 0.2380998818679281, 0.499729233720202, 0.1431119424885003, 0.1190589419233696;
	(state1, 0) 0.06937463042575605, 0.6541367468682958, 0.20736278856410495, 0.06912583414184319;
	(state1, 1) 0.04456808711446848, 0.720505608963974, 0.21314401555073922, 0.021782288370818356;
	(state1, 2) 0.046929192141151314, 0.4198424768017175, 0.47775321875583454, 0.05547511230129656;
	(state1, 3) 0.021008332957334574, 0.24794781073297614, 0.3528954879611049, 0.3781483683485844;
}

probability ( scm15cha | variable96, scm6post ) {
	(state0, 0) 0.5255793647842676, 0.4516387758833297, 0.020323650126075586, 0.0024582092063271544;
	(state0, 1) 0.2654899520301712, 0.6540607737194944, 0.07084224922074668, 0.009607025029587516;
	(state0, 2) 0.3348174187703598, 0.5795837539024459, 0.043583895387616305, 0.04201493193957796;
	(state0, 3) 0.24997688471524923, 0.25006766978031914, 0.24997780985836396, 0.2499776356460679;
	(state1, 0) 0.07399178633247305, 0.6021848477084963, 0.2953332556899527, 0.028490110269077863;
	(state1, 1) 0.06152339771395968, 0.5956910263446564, 0.3162352831949083, 0.0265502927464758;
	(state1, 2) 0.007852752158016698, 0.28357426123221713, 0.5789973032900543, 0.12957568331971198;
	(state1, 3) 0.026316045624900093, 0.13157067082516394, 0.3421084957302624, 0.5000047878196736;
}

probability ( scm16wal | scm19dsv, variable96 ) {
	(0, state0) 0.40946571954589583, 0.5710560323218791, 0.017209101416301466, 0.002269146715923721;
	(0, state1) 0.007453183478187902, 0.4791206547090017, 0.4199546795207491, 0.09347148229206124;
	(1, state0) 0.3007640274697572, 0.6494947289404213, 0.0341584279397438, 0.015582815650077807;
	(1, state1) 0.02078919148787802, 0.6571820709747875, 0.268110725190313, 0.05391801234702147;
	(2, state0) 0.4129445231607689, 0.4674069974851994, 0.08021456910517717, 0.039433910248854516;
	(2, state1) 0.02986948745768662, 0.4743212528977117, 0.4012925452607104, 0.09451671438389136;
	(3, state0) 0.261160887936963, 0.2639876147480221, 0.3433844562313725, 0.1314670410836424;
	(3, state1) 0.027848019208538157, 0.32950873622318516, 0.477778779099035, 0.16486446546924172;
}

probability ( scm17han | variable96, scm16wal ) {
	(state0, 0) 0.3901781943416771, 0.49293609600387595, 0.10748381175463113, 0.009401897899815817;
	(state0, 1) 0.15509547187498285, 0.7051147393426249, 0.12643550785787772, 0.013354280924514687;
	(state0, 2) 0.39995273323088765, 0.3727711381468218, 0.13811703089123503, 0.08915909773105549;
	(state0, 3) 0.2498226364936013, 0.2505325792533199, 0.2498227994147014, 0.24982198483837728;
	(state1, 0) 0.1374372669036408, 0.5690741697303375, 0.1560697762029555, 0.13741878716306624;
	(state1, 1) 0.030591133404019987, 0.6560225584928518, 0.27963511304987143, 0.03375119505325682;
	(state1, 2) 0.036132586845619916, 0.2878864723436199, 0.5257819224491255, 0.15019901836163468;
	(state1, 3) 0.05882838062842547, 0.11757325365524514, 0.2941422104178144, 0.5294561552985151;
}

probability ( scm18dpr | variable96, scm2lue ) {
	(state0, 0) 0.8112125321425638, 0.11962189971735628, 0.041089378357096126, 0.028076189782983638;
	(state0, 1) 0.8358749425338556, 0.1078554185427655, 0.03966136356479366, 0.016608275358585313;
	(state0, 2) 0.8619022147400984, 0.08250535323884269, 0.027796214258544304, 0.027796217762514487;
	(state0, 3) 0.6245281150540483, 0.12499045982734862, 0.1255431343246871, 0.12493829079391595;
	(state1, 0) 0.3669139082541775, 0.3466099411678168, 0.20828310765156782, 0.07819304292643776;
	(state1, 1) 0.34866048228534796, 0.4316520701373593, 0.16616106982046688, 0.05352637775682585;
	(state1, 2) 0.3016018664548295, 0.3966472889399084, 0.2451725632344062, 0.05657828137085593;
	(state1, 3) 0.15799640081562732, 0.2105481260998821, 0.2629577846731728, 0.36849768841131775;
}

probability ( scm19dsv | scm4rue, variable96 ) {
	(0, state0) 0.7790366243326975, 0.13113610291085556, 0.06582679683645223, 0.02400047591999457;
	(0, state1) 0.2898762071938067, 0.2695479175357581, 0.3121601125301295, 0.12841576274030578;
	(1, state0) 0.8340990924578026, 0.11976673616931816, 0.039527872672684, 0.006606298700195241;
	(1, state1) 0.3882161253083554, 0.38791046401091284, 0.16632802358905766, 0.057545387091673936;
	(2, state0) 0.8629081712301694, 0.09209601709707577, 0.03206662919918578, 0.012929182473569169;
	(2, state1) 0.3639740325915442, 0.3190949534462737, 0.2554176137495597, 0.06151340021262233;
	(3, state0) 0.623739571614913, 0.12564384176138618, 0.12530827543981637, 0.12530831118388436;
	(3, state1) 0.2419860941878115, 0.20666395538082918, 0.13783748994984205, 0.4135124604815173;
}

probability ( scm20fpr | scm12fee, variable96 ) {
	(0, state0) 0.7382835016034347, 0.20556677390325462, 0.05231517728215002, 0.0038345472111607918;
	(0, state1) 0.04548697576548545, 0.6019573204601814, 0.3215123521628239, 0.031043351611509423;
	(1, state0) 0.6459273711467233, 0.31417143130264125, 0.035861874078917395, 0.004039323471718153;
	(1, state1) 0.1268671557123893, 0.5386059385040534, 0.29092641426794535, 0.04360049151561196;
	(2, state0) 0.6578230822645168, 0.23107390192377875, 0.05554078981784509, 0.05556222599385945;
	(2, state1) 0.1574660583359503, 0.2800079289094052, 0.4531489854767022, 0.10937702727794237;
	(3, state0) 0.20006509029771316, 0.20004995660848943, 0.39983499283197843, 0.20004996026181898;
	(3, state1) 0.20831934342597844, 0.08332899813063015, 0.25004216948576335, 0.4583094889576281;
}

probability ( scm21fsv | variable96, scm1lue ) {
	(state0, 0) 0.675713775770576, 0.23167377627035868, 0.08928550218669924, 0.0033269457723661;
	(state0, 1) 0.7214819971998493, 0.2235634616456083, 0.04811196395527839, 0.006842577199263967;
	(state0, 2) 0.8582720577545323, 0.1082123987683821, 0.016897865691369092, 0.01661767778571648;
	(state0, 3) 0.5346695600949555, 0.23637638270135988, 0.0763718996335487, 0.15258215757013582;
	(state1, 0) 0.1296723599439323, 0.2703480978718944, 0.4198836572035445, 0.18009588498062867;
	(state1, 1) 0.13430355266685287, 0.5034480386842584, 0.33635424745029513, 0.025894161198593713;
	(state1, 2) 0.10682252182593246, 0.35581237070051003, 0.3630050772131353, 0.17436003026042218;
	(state1, 3) 0.17907455809774894, 0.17575373818911283, 0.3225550118382286, 0.32261669187490966;
}

