network LCM {
}

variable variable114 {
	type discrete[2] { state0, state1 };
}

variable scm1rue {
	type discrete[4] { 0, 1, 2, 3 };
}

variable scm1lue {
	type discrete[4] { 0, 1, 2, 3 };
}

variable scm2rue {
	type discrete[4] { 0, 1, 2, 3 };
}

variable scm2lue {
	type discrete[4] { 0, 1, 2, 3 };
}

variable scm3rue {
	type discrete[4] { 0, 1, 2, 3 };
}

variable scm3lue {
	type discrete[4] { 0, 1, 2, 3 };
}

variable scm4rue {
	type discrete[4] { 0, 1, 2, 3 };
}

variable scm4lue {
	type discrete[4] { 0, 1, 2, 3 };
}

variable scm5rise {
	type discrete[4] { 0, 1, 2, 3 };
}

variable scm6post {
	type discrete[4] { 0, 1, 2, 3 };
}

variable scm7gait {
	type discrete[4] { 0, 1, 2, 3 };
}

variable scm8spee {
	type discrete[4] { 0, 1, 2, 3 };
}

variable scm9free {
	type discrete[4] { 0, 1, 2, 3 };
}

variable scm10swa {
	type discrete[4] { 0, 1, 2, 3 };
}

variable scm11spe {
	type discrete[4] { 0, 1, 2, 3 };
}

variable scm12fee {
	type discrete[4] { 0, 1, 2, 3 };
}

variable scm13dre {
	type discrete[4] { 0, 1, 2, 3 };
}

variable scm14hyg {
	type discrete[4] { 0, 1, 2, 3 };
}

variable scm15cha {
	type discrete[4] { 0, 1, 2, 3 };
}

variable scm16wal {
	type discrete[4] { 0, 1, 2, 3 };
}

variable scm17han {
	type discrete[4] { 0, 1, 2, 3 };
}

variable scm18dpr {
	type discrete[4] { 0, 1, 2, 3 };
}

variable scm19dsv {
	type discrete[4] { 0, 1, 2, 3 };
}

variable scm20fpr {
	type discrete[4] { 0, 1, 2, 3 };
}

variable scm21fsv {
	type discrete[4] { 0, 1, 2, 3 };
}

probability ( variable114 ) {
	table 0.5311195751503822, 0.46888042484961784;
}

probability ( scm1rue | variable114, scm20fpr ) {
	(state0, 0) 0.5478819645047, 0.28645688885938886, 0.1545615658910404, 0.011099580744870892;
	(state0, 1) 0.5478819645047, 0.28645688885938886, 0.1545615658910404, 0.011099580744870892;
	(state0, 2) 0.5478819645047, 0.28645688885938886, 0.1545615658910404, 0.011099580744870892;
	(state0, 3) 0.5478819645047, 0.28645688885938886, 0.1545615658910404, 0.011099580744870892;
	(state1, 0) 0.5200173732732312, 0.283736245827015, 0.13264661227867564, 0.06359976862107826;
	(state1, 1) 0.5200173732732312, 0.283736245827015, 0.13264661227867564, 0.06359976862107826;
	(state1, 2) 0.5200173732732312, 0.283736245827015, 0.13264661227867564, 0.06359976862107826;
	(state1, 3) 0.5200173732732312, 0.283736245827015, 0.13264661227867564, 0.06359976862107826;
}

probability ( scm1lue | scm15cha, variable114 ) {
	(0, state0) 0.767529890803552, 0.15340399510749336, 0.06595346488955953, 0.013112649199395079;
	(0, state1) 0.7395181326847097, 0.16696313099628482, 0.07777704503160325, 0.01574169128740231;
	(1, state0) 0.767529890803552, 0.15340399510749336, 0.06595346488955953, 0.013112649199395079;
	(1, state1) 0.7395181326847097, 0.16696313099628482, 0.07777704503160325, 0.01574169128740231;
	(2, state0) 0.767529890803552, 0.15340399510749336, 0.06595346488955953, 0.013112649199395079;
	(2, state1) 0.7395181326847097, 0.16696313099628482, 0.07777704503160325, 0.01574169128740231;
	(3, state0) 0.767529890803552, 0.15340399510749336, 0.06595346488955953, 0.013112649199395079;
	(3, state1) 0.7395181326847097, 0.16696313099628482, 0.07777704503160325, 0.01574169128740231;
}

probability ( scm2rue | scm1rue, variable114 ) {
	(0, state0) 0.829884770728807, 0.15509452794889309, 0.011265476297103894, 0.0037552250251959925;
	(0, state1) 0.8066842235838689, 0.1747716325709392, 0.013908169233879473, 0.004635974611312304;
	(1, state0) 0.829884770728807, 0.15509452794889309, 0.011265476297103894, 0.0037552250251959925;
	(1, state1) 0.8066842235838689, 0.1747716325709392, 0.013908169233879473, 0.004635974611312304;
	(2, state0) 0.829884770728807, 0.15509452794889309, 0.011265476297103894, 0.0037552250251959925;
	(2, state1) 0.8066842235838689, 0.1747716325709392, 0.013908169233879473, 0.004635974611312304;
	(3, state0) 0.829884770728807, 0.15509452794889309, 0.011265476297103894, 0.0037552250251959925;
	(3, state1) 0.8066842235838689, 0.1747716325709392, 0.013908169233879473, 0.004635974611312304;
}

probability ( scm2lue | scm14hyg, variable114 ) {
	(0, state0) 0.595950813217159, 0.31682897878696786, 0.07752882468714237, 0.009691383308730653;
	(0, state1) 0.5404553618554978, 0.3920324010322109, 0.03376392519840528, 0.03374831191388607;
	(1, state0) 0.595950813217159, 0.31682897878696786, 0.07752882468714237, 0.009691383308730653;
	(1, state1) 0.5404553618554978, 0.3920324010322109, 0.03376392519840528, 0.03374831191388607;
	(2, state0) 0.595950813217159, 0.31682897878696786, 0.07752882468714237, 0.009691383308730653;
	(2, state1) 0.5404553618554978, 0.3920324010322109, 0.03376392519840528, 0.03374831191388607;
	(3, state0) 0.595950813217159, 0.31682897878696786, 0.07752882468714237, 0.009691383308730653;
	(3, state1) 0.5404553618554978, 0.3920324010322109, 0.03376392519840528, 0.03374831191388607;
}

probability ( scm3rue | scm2rue, variable114 ) {
	(0, state0) 0.34810815909566045, 0.5163007813233885, 0.09899623720716033, 0.036594822373790734;
	(0, state1) 0.19343061750196017, 0.4522267789298936, 0.3006413811212695, 0.05370122244687672;
	(1, state0) 0.34810815909566045, 0.5163007813233885, 0.09899623720716033, 0.036594822373790734;
	(1, state1) 0.19343061750196017, 0.4522267789298936, 0.3006413811212695, 0.05370122244687672;
	(2, state0) 0.34810815909566045, 0.5163007813233885, 0.09899623720716033, 0.036594822373790734;
	(2, state1) 0.19343061750196017, 0.4522267789298936, 0.3006413811212695, 0.05370122244687672;
	(3, state0) 0.34810815909566045, 0.5163007813233885, 0.09899623720716033, 0.036594822373790734;
	(3, state1) 0.19343061750196017, 0.4522267789298936, 0.3006413811212695, 0.05370122244687672;
}

probability ( scm3lue | variable114, scm3rue ) {
	(state0, 0) 0.2882011164974217, 0.5563239090682061, 0.14120049901910237, 0.014274475415269767;
	(state0, 1) 0.2882011164974217, 0.5563239090682061, 0.14120049901910237, 0.014274475415269767;
	(state0, 2) 0.2882011164974217, 0.5563239090682061, 0.14120049901910237, 0.014274475415269767;
	(state0, 3) 0.2882011164974217, 0.5563239090682061, 0.14120049901910237, 0.014274475415269767;
	(state1, 0) 0.44448450722656674, 0.4851133894284454, 0.053704761534780376, 0.016697341810207347;
	(state1, 1) 0.44448450722656674, 0.4851133894284454, 0.053704761534780376, 0.016697341810207347;
	(state1, 2) 0.44448450722656674, 0.4851133894284454, 0.053704761534780376, 0.016697341810207347;
	(state1, 3) 0.44448450722656674, 0.4851133894284454, 0.053704761534780376, 0.016697341810207347;
}

probability ( scm4rue | variable114, scm2lue ) {
	(state0, 0) 0.2822502302979751, 0.5666640258257996, 0.13791848495793624, 0.01316725891828919;
	(state0, 1) 0.2822502302979751, 0.5666640258257996, 0.13791848495793624, 0.01316725891828919;
	(state0, 2) 0.2822502302979751, 0.5666640258257996, 0.13791848495793624, 0.01316725891828919;
	(state0, 3) 0.2822502302979751, 0.5666640258257996, 0.13791848495793624, 0.01316725891828919;
	(state1, 0) 0.21133058678723066, 0.41111005933680833, 0.3317608300769375, 0.04579852379902345;
	(state1, 1) 0.21133058678723066, 0.41111005933680833, 0.3317608300769375, 0.04579852379902345;
	(state1, 2) 0.21133058678723066, 0.41111005933680833, 0.3317608300769375, 0.04579852379902345;
	(state1, 3) 0.21133058678723066, 0.41111005933680833, 0.3317608300769375, 0.04579852379902345;
}

probability ( scm4lue | scm1lue, variable114 ) {
	(0, state0) 0.34901163574677074, 0.5083472810599671, 0.1323543022145566, 0.010286780978705681;
	(0, state1) 0.4860487473570177, 0.1319875251135378, 0.2551066370649876, 0.126857090464457;
	(1, state0) 0.34901163574677074, 0.5083472810599671, 0.1323543022145566, 0.010286780978705681;
	(1, state1) 0.4860487473570177, 0.1319875251135378, 0.2551066370649876, 0.126857090464457;
	(2, state0) 0.34901163574677074, 0.5083472810599671, 0.1323543022145566, 0.010286780978705681;
	(2, state1) 0.4860487473570177, 0.1319875251135378, 0.2551066370649876, 0.126857090464457;
	(3, state0) 0.34901163574677074, 0.5083472810599671, 0.1323543022145566, 0.010286780978705681;
	(3, state1) 0.4860487473570177, 0.1319875251135378, 0.2551066370649876, 0.126857090464457;
}

probability ( scm5rise | variable114, scm18dpr ) {
	(state0, 0) 0.8100329031464323, 0.1599126276170256, 0.0225206909392326, 0.007533778297309468;
	(state0, 1) 0.8100329031464323, 0.1599126276170256, 0.0225206909392326, 0.007533778297309468;
	(state0, 2) 0.8100329031464323, 0.1599126276170256, 0.0225206909392326, 0.007533778297309468;
	(state0, 3) 0.8100329031464323, 0.1599126276170256, 0.0225206909392326, 0.007533778297309468;
	(state1, 0) 0.2325210531043483, 0.5592798368738505, 0.052465908632015834, 0.1557332013897854;
	(state1, 1) 0.2325210531043483, 0.5592798368738505, 0.052465908632015834, 0.1557332013897854;
	(state1, 2) 0.2325210531043483, 0.5592798368738505, 0.052465908632015834, 0.1557332013897854;
	(state1, 3) 0.2325210531043483, 0.5592798368738505, 0.052465908632015834, 0.1557332013897854;
}

probability ( scm6post | variable114, scm21fsv ) {
	(state0, 0) 0.8046382772721048, 0.15474350082534777, 0.03790841611865347, 0.0027098057838939706;
	(state0, 1) 0.8046382772721048, 0.15474350082534777, 0.03790841611865347, 0.0027098057838939706;
	(state0, 2) 0.8046382772721048, 0.15474350082534777, 0.03790841611865347, 0.0027098057838939706;
	(state0, 3) 0.8046382772721048, 0.15474350082534777, 0.03790841611865347, 0.0027098057838939706;
	(state1, 0) 0.29148981034600974, 0.272634656988843, 0.32291517186866886, 0.11296036079647843;
	(state1, 1) 0.29148981034600974, 0.272634656988843, 0.32291517186866886, 0.11296036079647843;
	(state1, 2) 0.29148981034600974, 0.272634656988843, 0.32291517186866886, 0.11296036079647843;
	(state1, 3) 0.29148981034600974, 0.272634656988843, 0.32291517186866886, 0.11296036079647843;
}

probability ( scm7gait | scm16wal, variable114 ) {
	(0, state0) 0.4810679597621445, 0.5023100544901727, 0.014161674856057767, 0.0024603108916250727;
	(0, state1) 0.12033411779419582, 0.6910664296248438, 0.1730409764272144, 0.015558476153745938;
	(1, state0) 0.4810679597621445, 0.5023100544901727, 0.014161674856057767, 0.0024603108916250727;
	(1, state1) 0.12033411779419582, 0.6910664296248438, 0.1730409764272144, 0.015558476153745938;
	(2, state0) 0.4810679597621445, 0.5023100544901727, 0.014161674856057767, 0.0024603108916250727;
	(2, state1) 0.12033411779419582, 0.6910664296248438, 0.1730409764272144, 0.015558476153745938;
	(3, state0) 0.4810679597621445, 0.5023100544901727, 0.014161674856057767, 0.0024603108916250727;
	(3, state1) 0.12033411779419582, 0.6910664296248438, 0.1730409764272144, 0.015558476153745938;
}

probability ( scm8spee | variable114 ) {
	(state0) 0.5278207127463787, 0.4490345702958929, 0.014825084986696772, 0.008319631971031593;
	(state1) 0.1605895119994524, 0.635133437181695, 0.18595003486460485, 0.018327015954247832;
}

probability ( scm9free | variable114, scm7gait ) {
	(state0, 0) 0.8396929085055261, 0.11738823945119034, 0.020254534849339877, 0.022664317193943653;
	(state0, 1) 0.8396929085055261, 0.11738823945119034, 0.020254534849339877, 0.022664317193943653;
	(state0, 2) 0.8396929085055261, 0.11738823945119034, 0.020254534849339877, 0.022664317193943653;
	(state0, 3) 0.8396929085055261, 0.11738823945119034, 0.020254534849339877, 0.022664317193943653;
	(state1, 0) 0.29573696462413457, 0.35945644728210496, 0.2833015639327407, 0.06150502416101978;
	(state1, 1) 0.29573696462413457, 0.35945644728210496, 0.2833015639327407, 0.06150502416101978;
	(state1, 2) 0.29573696462413457, 0.35945644728210496, 0.2833015639327407, 0.06150502416101978;
	(state1, 3) 0.29573696462413457, 0.35945644728210496, 0.2833015639327407, 0.06150502416101978;
}

probability ( scm10swa | variable114, scm8spee ) {
	(state0, 0) 0.8627594167733375, 0.10641419984314289, 0.0255103084091181, 0.005316074974401605;
	(state0, 1) 0.8627594167733375, 0.10641419984314289, 0.0255103084091181, 0.005316074974401605;
	(state0, 2) 0.8627594167733375, 0.10641419984314289, 0.0255103084091181, 0.005316074974401605;
	(state0, 3) 0.8627594167733375, 0.10641419984314289, 0.0255103084091181, 0.005316074974401605;
	(state1, 0) 0.7518654515482506, 0.14276581785333317, 0.057501894769009465, 0.0478668358294068;
	(state1, 1) 0.7518654515482506, 0.14276581785333317, 0.057501894769009465, 0.0478668358294068;
	(state1, 2) 0.7518654515482506, 0.14276581785333317, 0.057501894769009465, 0.0478668358294068;
	(state1, 3) 0.7518654515482506, 0.14276581785333317, 0.057501894769009465, 0.0478668358294068;
}

probability ( scm11spe | variable114, scm17han ) {
	(state0, 0) 0.7119454721423351, 0.2754323807513708, 0.004252024620136187, 0.008370122486157972;
	(state0, 1) 0.7119454721423351, 0.2754323807513708, 0.004252024620136187, 0.008370122486157972;
	(state0, 2) 0.7119454721423351, 0.2754323807513708, 0.004252024620136187, 0.008370122486157972;
	(state0, 3) 0.7119454721423351, 0.2754323807513708, 0.004252024620136187, 0.008370122486157972;
	(state1, 0) 0.31668576104365825, 0.4700266672304575, 0.17764432020260015, 0.03564325152328424;
	(state1, 1) 0.31668576104365825, 0.4700266672304575, 0.17764432020260015, 0.03564325152328424;
	(state1, 2) 0.31668576104365825, 0.4700266672304575, 0.17764432020260015, 0.03564325152328424;
	(state1, 3) 0.31668576104365825, 0.4700266672304575, 0.17764432020260015, 0.03564325152328424;
}

probability ( scm12fee | scm19dsv, variable114 ) {
	(0, state0) 0.4779136894677238, 0.49818021929025663, 0.021500667441430036, 0.00240542380058945;
	(0, state1) 0.06416074198200086, 0.5657270866391824, 0.3254634614829419, 0.04464870989587484;
	(1, state0) 0.4779136894677238, 0.49818021929025663, 0.021500667441430036, 0.00240542380058945;
	(1, state1) 0.06416074198200086, 0.5657270866391824, 0.3254634614829419, 0.04464870989587484;
	(2, state0) 0.4779136894677238, 0.49818021929025663, 0.021500667441430036, 0.00240542380058945;
	(2, state1) 0.06416074198200086, 0.5657270866391824, 0.3254634614829419, 0.04464870989587484;
	(3, state0) 0.4779136894677238, 0.49818021929025663, 0.021500667441430036, 0.00240542380058945;
	(3, state1) 0.06416074198200086, 0.5657270866391824, 0.3254634614829419, 0.04464870989587484;
}

probability ( scm13dre | scm10swa, variable114 ) {
	(0, state0) 0.38671560236235925, 0.5898766990526657, 0.02104757892793355, 0.0023601196570413297;
	(0, state1) 0.014151697046730843, 0.4763183912224612, 0.45003778109892995, 0.059492130631878005;
	(1, state0) 0.38671560236235925, 0.5898766990526657, 0.02104757892793355, 0.0023601196570413297;
	(1, state1) 0.014151697046730843, 0.4763183912224612, 0.45003778109892995, 0.059492130631878005;
	(2, state0) 0.38671560236235925, 0.5898766990526657, 0.02104757892793355, 0.0023601196570413297;
	(2, state1) 0.014151697046730843, 0.4763183912224612, 0.45003778109892995, 0.059492130631878005;
	(3, state0) 0.38671560236235925, 0.5898766990526657, 0.02104757892793355, 0.0023601196570413297;
	(3, state1) 0.014151697046730843, 0.4763183912224612, 0.45003778109892995, 0.059492130631878005;
}

probability ( scm14hyg | variable114, scm6post ) {
	(state0, 0) 0.47124270519858824, 0.5191830391605556, 0.006918822404315596, 0.0026554332365405623;
	(state0, 1) 0.47124270519858824, 0.5191830391605556, 0.006918822404315596, 0.0026554332365405623;
	(state0, 2) 0.47124270519858824, 0.5191830391605556, 0.006918822404315596, 0.0026554332365405623;
	(state0, 3) 0.47124270519858824, 0.5191830391605556, 0.006918822404315596, 0.0026554332365405623;
	(state1, 0) 0.08501251200767522, 0.7218417132798678, 0.18318696595771128, 0.009958808754745696;
	(state1, 1) 0.08501251200767522, 0.7218417132798678, 0.18318696595771128, 0.009958808754745696;
	(state1, 2) 0.08501251200767522, 0.7218417132798678, 0.18318696595771128, 0.009958808754745696;
	(state1, 3) 0.08501251200767522, 0.7218417132798678, 0.18318696595771128, 0.009958808754745696;
}

probability ( scm15cha | variable114, scm11spe ) {
	(state0, 0) 0.5015985967611964, 0.4609627449879795, 0.015906102199258875, 0.021532556051565087;
	(state0, 1) 0.5015985967611964, 0.4609627449879795, 0.015906102199258875, 0.021532556051565087;
	(state0, 2) 0.5015985967611964, 0.4609627449879795, 0.015906102199258875, 0.021532556051565087;
	(state0, 3) 0.5015985967611964, 0.4609627449879795, 0.015906102199258875, 0.021532556051565087;
	(state1, 0) 0.0793135503285755, 0.4422105055040245, 0.40524896102771063, 0.07322698313968937;
	(state1, 1) 0.0793135503285755, 0.4422105055040245, 0.40524896102771063, 0.07322698313968937;
	(state1, 2) 0.0793135503285755, 0.4422105055040245, 0.40524896102771063, 0.07322698313968937;
	(state1, 3) 0.0793135503285755, 0.4422105055040245, 0.40524896102771063, 0.07322698313968937;
}

probability ( scm16wal | scm4lue, variable114 ) {
	(0, state0) 0.7418938234356258, 0.24416394078955841, 0.009294840217850762, 0.004647395556965082;
	(0, state1) 0.35329215432053274, 0.5145229292362958, 0.1057478772883103, 0.0264370391548611;
	(1, state0) 0.7418938234356258, 0.24416394078955841, 0.009294840217850762, 0.004647395556965082;
	(1, state1) 0.35329215432053274, 0.5145229292362958, 0.1057478772883103, 0.0264370391548611;
	(2, state0) 0.7418938234356258, 0.24416394078955841, 0.009294840217850762, 0.004647395556965082;
	(2, state1) 0.35329215432053274, 0.5145229292362958, 0.1057478772883103, 0.0264370391548611;
	(3, state0) 0.7418938234356258, 0.24416394078955841, 0.009294840217850762, 0.004647395556965082;
	(3, state1) 0.35329215432053274, 0.5145229292362958, 0.1057478772883103, 0.0264370391548611;
}

probability ( scm17han | scm5rise, variable114 ) {
	(0, state0) 0.35388859004285556, 0.5783587324746755, 0.056929842111306424, 0.010822835371162319;
	(0, state1) 0.1305024024635196, 0.5912000404146481, 0.23485653538562865, 0.04344102173620354;
	(1, state0) 0.35388859004285556, 0.5783587324746755, 0.056929842111306424, 0.010822835371162319;
	(1, state1) 0.1305024024635196, 0.5912000404146481, 0.23485653538562865, 0.04344102173620354;
	(2, state0) 0.35388859004285556, 0.5783587324746755, 0.056929842111306424, 0.010822835371162319;
	(2, state1) 0.1305024024635196, 0.5912000404146481, 0.23485653538562865, 0.04344102173620354;
	(3, state0) 0.35388859004285556, 0.5783587324746755, 0.056929842111306424, 0.010822835371162319;
	(3, state1) 0.1305024024635196, 0.5912000404146481, 0.23485653538562865, 0.04344102173620354;
}

probability ( scm18dpr | variable114, scm13dre ) {
	(state0, 0) 0.8836712650109247, 0.09532286260160894, 0.014383211325876779, 0.006622661061589508;
	(state0, 1) 0.8836712650109247, 0.09532286260160894, 0.014383211325876779, 0.006622661061589508;
	(state0, 2) 0.8836712650109247, 0.09532286260160894, 0.014383211325876779, 0.006622661061589508;
	(state0, 3) 0.8836712650109247, 0.09532286260160894, 0.014383211325876779, 0.006622661061589508;
	(state1, 0) 0.22538327480939285, 0.3839010200724389, 0.24461952393236586, 0.14609618118580237;
	(state1, 1) 0.22538327480939285, 0.3839010200724389, 0.24461952393236586, 0.14609618118580237;
	(state1, 2) 0.22538327480939285, 0.3839010200724389, 0.24461952393236586, 0.14609618118580237;
	(state1, 3) 0.22538327480939285, 0.3839010200724389, 0.24461952393236586, 0.14609618118580237;
}

probability ( scm19dsv | variable114, scm9free ) {
	(state0, 0) 0.8973528473498874, 0.08347681851127353, 0.015875039914071003, 0.0032952942247680517;
	(state0, 1) 0.8973528473498874, 0.08347681851127353, 0.015875039914071003, 0.0032952942247680517;
	(state0, 2) 0.8973528473498874, 0.08347681851127353, 0.015875039914071003, 0.0032952942247680517;
	(state0, 3) 0.8973528473498874, 0.08347681851127353, 0.015875039914071003, 0.0032952942247680517;
	(state1, 0) 0.42216762608943564, 0.3272773812401558, 0.17540273860621702, 0.07515225406419153;
	(state1, 1) 0.42216762608943564, 0.3272773812401558, 0.17540273860621702, 0.07515225406419153;
	(state1, 2) 0.42216762608943564, 0.3272773812401558, 0.17540273860621702, 0.07515225406419153;
	(state1, 3) 0.42216762608943564, 0.3272773812401558, 0.17540273860621702, 0.07515225406419153;
}

probability ( scm20fpr | variable114, scm4rue ) {
	(state0, 0) 0.7046202798964417, 0.22789427913659438, 0.0598367268045062, 0.007648714162457661;
	(state0, 1) 0.7046202798964417, 0.22789427913659438, 0.0598367268045062, 0.007648714162457661;
	(state0, 2) 0.7046202798964417, 0.22789427913659438, 0.0598367268045062, 0.007648714162457661;
	(state0, 3) 0.7046202798964417, 0.22789427913659438, 0.0598367268045062, 0.007648714162457661;
	(state1, 0) 0.07960424004185551, 0.5583714708789806, 0.2967266199090077, 0.06529766917015614;
	(state1, 1) 0.07960424004185551, 0.5583714708789806, 0.2967266199090077, 0.06529766917015614;
	(state1, 2) 0.07960424004185551, 0.5583714708789806, 0.2967266199090077, 0.06529766917015614;
	(state1, 3) 0.07960424004185551, 0.5583714708789806, 0.2967266199090077, 0.06529766917015614;
}

probability ( scm21fsv | variable114, scm12fee ) {
	(state0, 0) 0.8398313140913443, 0.13234996123537407, 0.02361174594192261, 0.004206978731359171;
	(state0, 1) 0.8398313140913443, 0.13234996123537407, 0.02361174594192261, 0.004206978731359171;
	(state0, 2) 0.8398313140913443, 0.13234996123537407, 0.02361174594192261, 0.004206978731359171;
	(state0, 3) 0.8398313140913443, 0.13234996123537407, 0.02361174594192261, 0.004206978731359171;
	(state1, 0) 0.05742644705340129, 0.46335459819575214, 0.4065755303211505, 0.07264342442969604;
	(state1, 1) 0.05742644705340129, 0.46335459819575214, 0.4065755303211505, 0.07264342442969604;
	(state1, 2) 0.05742644705340129, 0.46335459819575214, 0.4065755303211505, 0.07264342442969604;
	(state1, 3) 0.05742644705340129, 0.46335459819575214, 0.4065755303211505, 0.07264342442969604;
}

