network LCM {
}

variable e1 {
	type discrete[3] { 1, 2, 3 };
}

variable mnal4c {
	type discrete[3] { 1, 2, 3 };
}

variable h1 {
	type discrete[2] { 1, 2 };
}

variable h3 {
	type discrete[2] { 1, 2 };
}

variable h4a {
	type discrete[2] { 1, 2 };
}

variable h4b {
	type discrete[2] { 1, 2 };
}

variable h7 {
	type discrete[2] { 1, 2 };
}

variable h8 {
	type discrete[2] { 1, 2 };
}

variable bank {
	type discrete[2] { 1, 2 };
}

variable nonbank {
	type discrete[2] { 1, 2 };
}

variable other {
	type discrete[2] { 1, 2 };
}

variable mnaq53 {
	type discrete[2] { 1, 2 };
}

variable variable117 {
	type discrete[4] { state0, state1, state2, state3 };
}

probability ( e1 | variable117 ) {
	(state0) 0.41145540022780597, 0.42784857933429477, 0.1606960204378992;
	(state1) 0.4077441119767477, 0.5384429169751165, 0.053812971048135864;
	(state2) 0.22009687241808307, 0.6800777493948394, 0.09982537818707742;
	(state3) 0.19394314687597286, 0.49612587300612365, 0.3099309801179035;
}

probability ( mnal4c | variable117 ) {
	(state0) 0.8902216121105649, 0.012604467099587674, 0.09717392078984752;
	(state1) 0.7124662162422508, 0.03390232387445024, 0.253631459883299;
	(state2) 0.8243480610114444, 0.04775827706756441, 0.12789366192099128;
	(state3) 0.8263811991473454, 0.04643938522630145, 0.12717941562635318;
}

probability ( h1 | variable117 ) {
	(state0) 0.6957821643089759, 0.3042178356910241;
	(state1) 0.10707160167473039, 0.8929283983252696;
	(state2) 0.09718227516449544, 0.9028177248355046;
	(state3) 0.6936844495847616, 0.30631555041523845;
}

probability ( h3 | variable117 ) {
	(state0) 0.7222416001830143, 0.2777583998169857;
	(state1) 0.053441917256026546, 0.9465580827439735;
	(state2) 0.02844278988753879, 0.9715572101124612;
	(state3) 0.6689536595119776, 0.3310463404880224;
}

probability ( h4a | variable117 ) {
	(state0) 0.3753383640848583, 0.6246616359151418;
	(state1) 0.03762462318815762, 0.9623753768118424;
	(state2) 0.014456128124402895, 0.9855438718755971;
	(state3) 0.3583274439018768, 0.6416725560981232;
}

probability ( h4b | variable117 ) {
	(state0) 0.46030295372381136, 0.5396970462761886;
	(state1) 0.022192932245387494, 0.9778070677546126;
	(state2) 0.05212295009540555, 0.9478770499045944;
	(state3) 0.48243217721633985, 0.5175678227836602;
}

probability ( h7 | variable117 ) {
	(state0) 0.3019024126816208, 0.6980975873183792;
	(state1) 0.005656348595035974, 0.9943436514049641;
	(state2) 0.017309371519183322, 0.9826906284808167;
	(state3) 0.5577108222617689, 0.44228917773823107;
}

probability ( h8 | variable117 ) {
	(state0) 0.3612223240649266, 0.6387776759350734;
	(state1) 0.06608476189373594, 0.9339152381062641;
	(state2) 0.06179913609335569, 0.9382008639066444;
	(state3) 0.6577279967270065, 0.3422720032729934;
}

probability ( bank | variable117 ) {
	(state0) 0.10829114698197154, 0.8917088530180286;
	(state1) 0.058595950611604795, 0.9414040493883952;
	(state2) 0.9917744325421779, 0.008225567457822155;
	(state3) 0.9506834136084183, 0.04931658639158166;
}

probability ( nonbank | variable117 ) {
	(state0) 0.006556627017843881, 0.993443372982156;
	(state1) 0.006373426392472896, 0.993626573607527;
	(state2) 0.9615989699436339, 0.03840103005636601;
	(state3) 0.4712119493712646, 0.5287880506287354;
}

probability ( other | variable117 ) {
	(state0) 0.06795555922599159, 0.9320444407740084;
	(state1) 0.08236683950850551, 0.9176331604914945;
	(state2) 0.9579882941581586, 0.04201170584184131;
	(state3) 0.4813619643929561, 0.5186380356070439;
}

probability ( mnaq53 | variable117 ) {
	(state0) 0.05007775665289022, 0.9499222433471098;
	(state1) 0.028690239395661742, 0.9713097606043382;
	(state2) 0.030234889529177134, 0.9697651104708229;
	(state3) 0.26373018621704664, 0.7362698137829534;
}

probability ( variable117 ) {
	table 0.1542728909514093, 0.7455592316535263, 0.06788367979315567, 0.0322841976019088;
}

