network LCM {
}

variable e1 {
	type discrete[3] { 1, 2, 3 };
}

variable mnal4c {
	type discrete[3] { 1, 2, 3 };
}

variable h1 {
	type discrete[2] { 1, 2 };
}

variable h3 {
	type discrete[2] { 1, 2 };
}

variable h4a {
	type discrete[2] { 1, 2 };
}

variable h4b {
	type discrete[2] { 1, 2 };
}

variable h7 {
	type discrete[2] { 1, 2 };
}

variable h8 {
	type discrete[2] { 1, 2 };
}

variable bank {
	type discrete[2] { 1, 2 };
}

variable nonbank {
	type discrete[2] { 1, 2 };
}

variable other {
	type discrete[2] { 1, 2 };
}

variable mnaq53 {
	type discrete[2] { 1, 2 };
}

variable variable192 {
	type discrete[5] { state0, state1, state2, state3, state4 };
}

probability ( e1 | variable192 ) {
	(state0) 0.40828085975494166, 0.5380525510643036, 0.05366658918075476;
	(state1) 0.2775313374764094, 0.2984372684945673, 0.4240313940290233;
	(state2) 0.2253263474785, 0.598339798204523, 0.17633385431697698;
	(state3) 0.21641246617683188, 0.6788270994927083, 0.10476043433045977;
	(state4) 0.41017232749741206, 0.4515632210379186, 0.13826445146466937;
}

probability ( mnal4c | variable192 ) {
	(state0) 0.7131135427177941, 0.0333680295312899, 0.253518427750916;
	(state1) 0.7744864935510032, 0.06717401604199852, 0.1583394904069983;
	(state2) 0.7981536898550341, 0.07273016275927967, 0.12911614738568622;
	(state3) 0.8317941979763139, 0.042134551851798006, 0.12607125017188797;
	(state4) 0.8961297694841823, 0.010989088758653835, 0.09288114175716375;
}

probability ( h1 | variable192 ) {
	(state0) 0.1077258696291085, 0.8922741303708914;
	(state1) 0.5716607187250647, 0.4283392812749353;
	(state2) 0.8002644618241178, 0.19973553817588222;
	(state3) 0.09752774525821759, 0.9024722547417825;
	(state4) 0.7033009982738186, 0.2966990017261814;
}

probability ( h3 | variable192 ) {
	(state0) 0.05309816947843219, 0.9469018305215678;
	(state1) 0.4533698512730256, 0.5466301487269745;
	(state2) 0.914949360461361, 0.08505063953863899;
	(state3) 0.024276242604146375, 0.9757237573958536;
	(state4) 0.7450500945677284, 0.2549499054322716;
}

probability ( h4a | variable192 ) {
	(state0) 0.037057795594763875, 0.9629422044052361;
	(state1) 0.058780390902225386, 0.9412196090977747;
	(state2) 0.6103604444325846, 0.3896395555674154;
	(state3) 0.011820626253941181, 0.9881793737460589;
	(state4) 0.41487277574934056, 0.5851272242506594;
}

probability ( h4b | variable192 ) {
	(state0) 0.02193295952730541, 0.9780670404726947;
	(state1) 0.2914903909166304, 0.7085096090833696;
	(state2) 0.6343917300874828, 0.36560826991251727;
	(state3) 0.054428002713369145, 0.9455719972866308;
	(state4) 0.48012236137136843, 0.5198776386286315;
}

probability ( h7 | variable192 ) {
	(state0) 0.0046709033533031165, 0.9953290966466969;
	(state1) 0.7623976877077497, 0.23760231229225018;
	(state2) 0.3939720100086715, 0.6060279899913285;
	(state3) 0.022574362137729006, 0.9774256378622711;
	(state4) 0.2588605546439886, 0.7411394453560113;
}

probability ( h8 | variable192 ) {
	(state0) 0.06479588305474047, 0.9352041169452596;
	(state1) 0.8805269393422511, 0.11947306065774882;
	(state2) 0.4796061806338624, 0.5203938193661376;
	(state3) 0.0766646418626423, 0.9233353581373577;
	(state4) 0.3090479212969864, 0.6909520787030136;
}

probability ( bank | variable192 ) {
	(state0) 0.05760386247509319, 0.9423961375249068;
	(state1) 0.6176367406240324, 0.3823632593759677;
	(state2) 0.9596419373569669, 0.04035806264303299;
	(state3) 0.991865182585836, 0.00813481741416407;
	(state4) 0.10104340660918423, 0.8989565933908158;
}

probability ( nonbank | variable192 ) {
	(state0) 0.006404451358309231, 0.9935955486416909;
	(state1) 0.027597993616109463, 0.9724020063838905;
	(state2) 0.8913782540958032, 0.10862174590419688;
	(state3) 0.9566803575489654, 0.043319642451034535;
	(state4) 0.00721449662866955, 0.9927855033713305;
}

probability ( other | variable192 ) {
	(state0) 0.08234316905826228, 0.9176568309417377;
	(state1) 0.0796745616908556, 0.9203254383091444;
	(state2) 0.8202438828242237, 0.17975611717577633;
	(state3) 0.9547533502521552, 0.045246649747844876;
	(state4) 0.07340852549689825, 0.9265914745031018;
}

probability ( mnaq53 | variable192 ) {
	(state0) 0.028173403535892413, 0.9718265964641076;
	(state1) 0.2794569579711041, 0.720543042028896;
	(state2) 0.22410316934476135, 0.7758968306552386;
	(state3) 0.03000134841464849, 0.9699986515853515;
	(state4) 0.03819928040407558, 0.9618007195959243;
}

probability ( variable192 ) {
	table 0.7438638185300445, 0.028929111797236694, 0.01563534069293569, 0.0689550046823593, 0.14261672429742378;
}

