network LCM {
}

variable e1 {
	type discrete[3] { 1, 2, 3 };
}

variable mnal4c {
	type discrete[3] { 1, 2, 3 };
}

variable h1 {
	type discrete[2] { 1, 2 };
}

variable h3 {
	type discrete[2] { 1, 2 };
}

variable h4a {
	type discrete[2] { 1, 2 };
}

variable h4b {
	type discrete[2] { 1, 2 };
}

variable h7 {
	type discrete[2] { 1, 2 };
}

variable h8 {
	type discrete[2] { 1, 2 };
}

variable bank {
	type discrete[2] { 1, 2 };
}

variable nonbank {
	type discrete[2] { 1, 2 };
}

variable other {
	type discrete[2] { 1, 2 };
}

variable mnaq53 {
	type discrete[2] { 1, 2 };
}

variable variable231 {
	type discrete[4] { state0, state1, state2, state3 };
}

probability ( e1 | variable231 ) {
	(state0) 0.22020938157944356, 0.5911708433115045, 0.18861977510905195;
	(state1) 0.21554604699627947, 0.6782175002175262, 0.10623645278619424;
	(state2) 0.3883054341430657, 0.4233506270430052, 0.18834393881392916;
	(state3) 0.408417903682417, 0.5384903050152682, 0.053091791302314936;
}

probability ( mnal4c | variable231 ) {
	(state0) 0.7979415370052897, 0.07432115219348709, 0.12773731080122325;
	(state1) 0.8332580562773259, 0.0415659504533618, 0.1251759932693124;
	(state2) 0.882001578547268, 0.016008984386891936, 0.10198943706584002;
	(state3) 0.7128717094929248, 0.03376948588021876, 0.2533588046268565;
}

probability ( h1 | variable231 ) {
	(state0) 0.7921052155932224, 0.20789478440677764;
	(state1) 0.09678313046527018, 0.9032168695347299;
	(state2) 0.6892812325978581, 0.3107187674021419;
	(state3) 0.10783418812309581, 0.8921658118769042;
}

probability ( h3 | variable231 ) {
	(state0) 0.9122667846023385, 0.08773321539766164;
	(state1) 0.023884970084887117, 0.9761150299151129;
	(state2) 0.6882393452205048, 0.31176065477949516;
	(state3) 0.05680662507844562, 0.9431933749215544;
}

probability ( h4a | variable231 ) {
	(state0) 0.6017033559327432, 0.39829664406725684;
	(state1) 0.011443891316313159, 0.9885561086836868;
	(state2) 0.34929740044710883, 0.6507025995528912;
	(state3) 0.039059411866540585, 0.9609405881334594;
}

probability ( h4b | variable231 ) {
	(state0) 0.6206384966955532, 0.3793615033044469;
	(state1) 0.054044088109277216, 0.9459559118907227;
	(state2) 0.4534280732183761, 0.546571926781624;
	(state3) 0.022065981895172854, 0.9779340181048272;
}

probability ( h7 | variable231 ) {
	(state0) 0.4032590437371815, 0.5967409562628185;
	(state1) 0.025426488376648883, 0.974573511623351;
	(state2) 0.34563824592160797, 0.6543617540783921;
	(state3) 0.004680848629563078, 0.9953191513704369;
}

probability ( h8 | variable231 ) {
	(state0) 0.48638775296837583, 0.5136122470316241;
	(state1) 0.08126799851491369, 0.9187320014850864;
	(state2) 0.4105211319538035, 0.5894788680461966;
	(state3) 0.0640869999430437, 0.9359130000569563;
}

probability ( bank | variable231 ) {
	(state0) 0.9615050813873229, 0.03849491861267704;
	(state1) 0.9918737855252072, 0.008126214474792698;
	(state2) 0.19306623231279743, 0.8069337676872025;
	(state3) 0.05601622194457176, 0.9439837780554282;
}

probability ( nonbank | variable231 ) {
	(state0) 0.9051966220396381, 0.0948033779603619;
	(state1) 0.9493711804419498, 0.05062881955805011;
	(state2) 0.007023341710144328, 0.9929766582898556;
	(state3) 0.006383216555243192, 0.9936167834447569;
}

probability ( other | variable231 ) {
	(state0) 0.8314514686022567, 0.16854853139774328;
	(state1) 0.9542483192072045, 0.04575168079279542;
	(state2) 0.06801629312696457, 0.9319837068730354;
	(state3) 0.08247034299114105, 0.917529657008859;
}

probability ( mnaq53 | variable231 ) {
	(state0) 0.22886157255474449, 0.7711384274452555;
	(state1) 0.029847132773069777, 0.9701528672269303;
	(state2) 0.07730013611381338, 0.9226998638861866;
	(state3) 0.02812330145525404, 0.9718766985447459;
}

probability ( variable231 ) {
	table 0.01554711575178756, 0.06953289176492894, 0.16924787366417995, 0.7456721188191036;
}

