network LCM {
}

variable e1 {
	type discrete[3] { 1, 2, 3 };
}

variable mnal4c {
	type discrete[3] { 1, 2, 3 };
}

variable h1 {
	type discrete[2] { 1, 2 };
}

variable h3 {
	type discrete[2] { 1, 2 };
}

variable h4a {
	type discrete[2] { 1, 2 };
}

variable h4b {
	type discrete[2] { 1, 2 };
}

variable h7 {
	type discrete[2] { 1, 2 };
}

variable h8 {
	type discrete[2] { 1, 2 };
}

variable bank {
	type discrete[2] { 1, 2 };
}

variable nonbank {
	type discrete[2] { 1, 2 };
}

variable other {
	type discrete[2] { 1, 2 };
}

variable mnaq53 {
	type discrete[2] { 1, 2 };
}

variable variable267 {
	type discrete[5] { state0, state1, state2, state3, state4 };
}

probability ( e1 | variable267 ) {
	(state0) 0.2775995825279287, 0.29840673315435257, 0.42399368431771883;
	(state1) 0.40828066905984045, 0.5380523363758697, 0.05366699456428965;
	(state2) 0.22532075297647966, 0.5983310847713048, 0.17634816225221536;
	(state3) 0.41016849705000313, 0.45158361157647803, 0.13824789137351895;
	(state4) 0.21641208551678529, 0.6788263607908368, 0.1047615536923779;
}

probability ( mnal4c | variable267 ) {
	(state0) 0.7745284595519194, 0.0671523247508388, 0.15831921569724178;
	(state1) 0.7131126338627006, 0.03336824849918775, 0.25351911763811164;
	(state2) 0.7981562908781099, 0.07272925746395416, 0.12911445165793597;
	(state3) 0.8961263855158441, 0.010989896526102591, 0.09288371795805339;
	(state4) 0.8317948836574783, 0.042134395524716976, 0.12607072081780465;
}

probability ( h1 | variable267 ) {
	(state0) 0.571748590511618, 0.4282514094883821;
	(state1) 0.10772462058722669, 0.8922753794127734;
	(state2) 0.8002517598783764, 0.1997482401216236;
	(state3) 0.7032795041930098, 0.29672049580699006;
	(state4) 0.0975274817457503, 0.9024725182542498;
}

probability ( h3 | variable267 ) {
	(state0) 0.45346841987841685, 0.5465315801215831;
	(state1) 0.053095444473215646, 0.9469045555267843;
	(state2) 0.9149495270704552, 0.08505047292954482;
	(state3) 0.7450391340162446, 0.2549608659837555;
	(state4) 0.024275951424799668, 0.9757240485752003;
}

probability ( h4a | variable267 ) {
	(state0) 0.05882707806974671, 0.9411729219302534;
	(state1) 0.0370555325996513, 0.9629444674003487;
	(state2) 0.6103485151806504, 0.38965148481934964;
	(state3) 0.41488532454131277, 0.5851146754586873;
	(state4) 0.011820701684947458, 0.9881792983150526;
}

probability ( h4b | variable267 ) {
	(state0) 0.2915358994696563, 0.7084641005303437;
	(state1) 0.021931126417690773, 0.9780688735823093;
	(state2) 0.63437878268536, 0.3656212173146401;
	(state3) 0.4801203570802047, 0.5198796429197953;
	(state4) 0.054427806099056376, 0.9455721939009435;
}

probability ( h7 | variable267 ) {
	(state0) 0.7624059367846342, 0.23759406321536575;
	(state1) 0.004670646904225742, 0.9953293530957743;
	(state2) 0.3939785542553599, 0.6060214457446401;
	(state3) 0.2588202157513782, 0.7411797842486217;
	(state4) 0.02257499298456752, 0.9774250070154326;
}

probability ( h8 | variable267 ) {
	(state0) 0.8804859686300534, 0.11951403136994665;
	(state1) 0.0647962549617252, 0.9352037450382749;
	(state2) 0.47961196262033506, 0.5203880373796649;
	(state3) 0.3090097087677328, 0.6909902912322673;
	(state4) 0.07666732956868778, 0.9233326704313122;
}

probability ( bank | variable267 ) {
	(state0) 0.6175032961487362, 0.3824967038512638;
	(state1) 0.05760415753003923, 0.9423958424699608;
	(state2) 0.9596419616683807, 0.04035803833161931;
	(state3) 0.10103354399626736, 0.8989664560037326;
	(state4) 0.9918651788710606, 0.008134821128939373;
}

probability ( nonbank | variable267 ) {
	(state0) 0.027580901454032462, 0.9724190985459675;
	(state1) 0.006404421632912437, 0.9935955783670876;
	(state2) 0.8913848533572294, 0.1086151466427706;
	(state3) 0.007214776166654366, 0.9927852238333457;
	(state4) 0.9566766384204026, 0.043323361579597354;
}

probability ( other | variable267 ) {
	(state0) 0.0796458713150636, 0.9203541286849364;
	(state1) 0.08234282440927794, 0.917657175590722;
	(state2) 0.8202503398795336, 0.1797496601204665;
	(state3) 0.07341279635807765, 0.9265872036419224;
	(state4) 0.9547528612762003, 0.04524713872379974;
}

probability ( mnaq53 | variable267 ) {
	(state0) 0.2794061475676042, 0.7205938524323958;
	(state1) 0.02817375670836159, 0.9718262432916384;
	(state2) 0.22411232351159013, 0.7758876764884098;
	(state3) 0.03819174583281307, 0.9618082541671868;
	(state4) 0.030001241050303145, 0.9699987589496968;
}

probability ( variable267 ) {
	table 0.0289377713091524, 0.7438588709273745, 0.01563553149321192, 0.14261251811741027, 0.06895530815285093;
}

