network LCM {
}

variable e1 {
	type discrete[3] { 1, 2, 3 };
}

variable mnal4c {
	type discrete[3] { 1, 2, 3 };
}

variable h1 {
	type discrete[2] { 1, 2 };
}

variable h3 {
	type discrete[2] { 1, 2 };
}

variable h4a {
	type discrete[2] { 1, 2 };
}

variable h4b {
	type discrete[2] { 1, 2 };
}

variable h7 {
	type discrete[2] { 1, 2 };
}

variable h8 {
	type discrete[2] { 1, 2 };
}

variable bank {
	type discrete[2] { 1, 2 };
}

variable nonbank {
	type discrete[2] { 1, 2 };
}

variable other {
	type discrete[2] { 1, 2 };
}

variable mnaq53 {
	type discrete[2] { 1, 2 };
}

variable variable156 {
	type discrete[4] { state0, state1, state2, state3 };
}

probability ( e1 | variable156 ) {
	(state0) 0.21554604827198134, 0.6782175004888521, 0.10623645123916656;
	(state1) 0.40841789810095974, 0.5384903109240253, 0.05309179097501491;
	(state2) 0.22020938104641888, 0.5911708403209781, 0.18861977863260312;
	(state3) 0.38830547080108796, 0.42335067524426395, 0.188343853954648;
}

probability ( mnal4c | variable156 ) {
	(state0) 0.8332580539662148, 0.04156595255573477, 0.12517599347805045;
	(state1) 0.7128716956010199, 0.03376948742511273, 0.2533588169738673;
	(state2) 0.7979415492221087, 0.07432114328171949, 0.1277373074961717;
	(state3) 0.8820015309164942, 0.016008989029864244, 0.10198948005364145;
}

probability ( h1 | variable156 ) {
	(state0) 0.09678313265634961, 0.9032168673436505;
	(state1) 0.10783414897166554, 0.8921658510283345;
	(state2) 0.7921052223627562, 0.20789477763724376;
	(state3) 0.689281029695538, 0.31071897030446205;
}

probability ( h3 | variable156 ) {
	(state0) 0.02388497108213285, 0.9761150289178672;
	(state1) 0.05680657481348823, 0.9431934251865117;
	(state2) 0.9122667993439604, 0.08773320065603961;
	(state3) 0.6882391588720888, 0.31176084112791114;
}

probability ( h4a | variable156 ) {
	(state0) 0.011443892188420969, 0.9885561078115791;
	(state1) 0.03905938421183603, 0.960940615788164;
	(state2) 0.6017033666007087, 0.3982966333992913;
	(state3) 0.34929732150905607, 0.6507026784909439;
}

probability ( h4b | variable156 ) {
	(state0) 0.05404408862475212, 0.9459559113752479;
	(state1) 0.022065954215329635, 0.9779340457846704;
	(state2) 0.6206385123876113, 0.37936148761238875;
	(state3) 0.4534279162224263, 0.5465720837775737;
}

probability ( h7 | variable156 ) {
	(state0) 0.02542648341257568, 0.9745735165874243;
	(state1) 0.004680838199097635, 0.9953191618009023;
	(state2) 0.40325906727422434, 0.5967409327257757;
	(state3) 0.34563807261519786, 0.6543619273848021;
}

probability ( h8 | variable156 ) {
	(state0) 0.08126799391014877, 0.9187320060898513;
	(state1) 0.06408698031141902, 0.935913019688581;
	(state2) 0.48638777715881415, 0.5136122228411858;
	(state3) 0.41052099537345627, 0.5894790046265437;
}

probability ( bank | variable156 ) {
	(state0) 0.9918737854907111, 0.008126214509288854;
	(state1) 0.05601621044362561, 0.9439837895563744;
	(state2) 0.9615050813375665, 0.03849491866243358;
	(state3) 0.19306619588531473, 0.8069338041146852;
}

probability ( nonbank | variable156 ) {
	(state0) 0.9493711855434427, 0.05062881445655727;
	(state1) 0.006383216282728535, 0.9936167837172715;
	(state2) 0.9051966076252737, 0.09480339237472639;
	(state3) 0.007023342895443523, 0.9929766571045564;
}

probability ( other | variable156 ) {
	(state0) 0.9542483188851283, 0.045751681114871726;
	(state1) 0.08247033941006893, 0.9175296605899311;
	(state2) 0.8314514553451384, 0.1685485446548616;
	(state3) 0.06801632054448596, 0.931983679455514;
}

probability ( mnaq53 | variable156 ) {
	(state0) 0.02984713280011104, 0.970152867199889;
	(state1) 0.028123301120375362, 0.9718766988796246;
	(state2) 0.228861589610481, 0.771138410389519;
	(state3) 0.07730010448168366, 0.9226998955183163;
}

probability ( variable156 ) {
	table 0.0695328916778745, 0.7456720098509363, 0.015547115627768813, 0.16924798284342038;
}

