// estudios/synthetic/15MVs_v2/olcmHC/olcm_iter_1.obif
// Produced at Tue Apr 24 13:21:01 CEST 2018
network "olcm - egypt_15_v2" {
}

variable "MV_bank" {
	type discrete[2] { "1" "2" };
}

variable "MV_other" {
	type discrete[2] { "1" "2" };
}

variable "MV_k15d" {
	type discrete[2] { "1" "2" };
}

variable "MV_h1" {
	type discrete[2] { "1" "2" };
}

variable "MV_h5" {
	type discrete[2] { "1" "2" };
}

variable "MV_h3" {
	type discrete[2] { "1" "2" };
}

variable "MV_mnaf3" {
	type discrete[2] { "1" "2" };
}

variable "MV_a7a" {
	type discrete[2] { "1" "2" };
}

variable "MV_mnaq53" {
	type discrete[2] { "1" "2" };
}

variable "MV_e6" {
	type discrete[2] { "1" "2" };
}

variable "MV_j30c" {
	type discrete[5] { "1" "2" "3" "4" "5" };
}

variable "MV_d30b" {
	type discrete[5] { "1" "2" "3" "4" "5" };
}

variable "MV_d30a" {
	type discrete[5] { "1" "2" "3" "4" "5" };
}

variable "MV_l30a" {
	type discrete[5] { "1" "2" "3" "4" "5" };
}

variable "MV_l30b" {
	type discrete[5] { "1" "2" "3" "4" "5" };
}

variable "LV_variable297" {
	type discrete[2] { "state0" "state1" };
}

variable "LV_variable394" {
	type discrete[2] { "state0" "state1" };
}

variable "LV_variable542" {
	type discrete[4] { "state0" "state1" "state2" "state3" };
}

probability ( "MV_bank" | "LV_variable297" ) {
	table 0.6444763409901284 0.031787715504966764 0.3555236590098716 0.9682122844950333;
}
probability ( "MV_other" | "LV_variable297" ) {
	table 0.6163901142863615 0.03127426060752168 0.38360988571363863 0.9687257393924783;
}
probability ( "MV_k15d"  ) {
	table 0.04510108864696734 0.9548989113530326;
}
probability ( "MV_h1" | "LV_variable394" ) {
	table 0.8553931563125676 0.1140529216383228 0.14460684368743237 0.8859470783616772;
}
probability ( "MV_h5"  ) {
	table 0.1104199066874028 0.8895800933125972;
}
probability ( "MV_h3" | "LV_variable394" ) {
	table 0.8567159748616006 0.0658109153340191 0.14328402513839955 0.9341890846659808;
}
probability ( "MV_mnaf3"  ) {
	table 0.7729393468118196 0.22706065318818042;
}
probability ( "MV_a7a"  ) {
	table 0.8019699326075687 0.1980300673924313;
}
probability ( "MV_mnaq53" | "LV_variable394" ) {
	table 0.08531271128513311 0.03143439379508017 0.9146872887148669 0.9685656062049198;
}
probability ( "MV_e6"  ) {
	table 0.07153965785381027 0.9284603421461898;
}
probability ( "MV_j30c" | "LV_variable542" ) {
	table 0.07683556754022805 0.17621321798558842 0.5020066584786932 0.8481042838005857 0.04043167281093371 0.3458196637316134 0.05628117026593627 0.06082410180840642 0.050064644980251115 0.3634460668783835 0.13134808420274097 0.051781376344583 0.6990006842101997 0.08228189374944847 0.058205518669645746 0.017352069637420846 0.13366743045838747 0.032239157654966426 0.2521585683829838 0.021938168409004106;
}
probability ( "MV_d30b" | "LV_variable542" ) {
	table 0.7282942839805825 0.3232588551132274 0.5170482388643703 0.927467056220085 0.018157103116416013 0.2862900547073277 0.0457776281403702 0.040633788180070594 0.07709037628666224 0.27664520544209886 0.09910178719839827 0.015760957489535425 0.1487288246589307 0.1000457228174378 0.11844960978760301 0.01013606383602469 0.027729411957408537 0.013760161919908222 0.21962273600925813 0.006002134274284299;
}
probability ( "MV_d30a" | "LV_variable542" ) {
	table 0.7124776139467753 0.16055493808102547 0.15676333423579963 0.7598921655898125 0.017124743181398398 0.337364016678531 0.10243355200233824 0.09167627942464164 0.08781436068672097 0.29057233975327906 0.1590322651768781 0.08341668354526036 0.16644406267402043 0.1946481462855182 0.14245451131476225 0.047475915727475726 0.01613921951108478 0.01686055920164605 0.43931633727022185 0.017538955712809636;
}
probability ( "MV_l30a" | "LV_variable542" ) {
	table 0.2645701042448486 0.2677724294004077 0.38366860908255257 0.8677612350522621 0.06307785472926206 0.27437406993518026 0.04761478328571946 0.06220737286498552 0.07791009341496802 0.36355745053230043 0.16269991283466637 0.028097312311803055 0.5459531133394181 0.07709222363307847 0.10916617046850088 0.02581926304989066 0.0484888342715031 0.017203826499033126 0.29685052432856074 0.01611481672105878;
}
probability ( "MV_l30b" | "LV_variable297" ) {
	table 0.6030551251742433 0.6153582771210641 0.16070715806589533 0.14422902245379163 0.1391831724942366 0.10751814050435167 0.07913462555715735 0.08220759526874968 0.01791991870846744 0.05068696465204309;
}
probability ( "LV_variable297"  ) {
	table 0.20645580306855366 0.7935441969314464;
}
probability ( "LV_variable394"  ) {
	table 0.13707430550816477 0.8629256944918352;
}
probability ( "LV_variable542"  ) {
	table 0.11105844214486683 0.28652511059886754 0.08821682228729505 0.5141996249689705;
}
