// estudios/synthetic/15MVs_v2/olcmHC/olcm_iter_2.obif
// Produced at Tue Apr 24 14:43:01 CEST 2018
network "olcm - egypt_15_v2" {
}

variable "MV_bank" {
	type discrete[2] { "1" "2" };
}

variable "MV_other" {
	type discrete[2] { "1" "2" };
}

variable "MV_k15d" {
	type discrete[2] { "1" "2" };
}

variable "MV_h1" {
	type discrete[2] { "1" "2" };
}

variable "MV_h5" {
	type discrete[2] { "1" "2" };
}

variable "MV_h3" {
	type discrete[2] { "1" "2" };
}

variable "MV_mnaf3" {
	type discrete[2] { "1" "2" };
}

variable "MV_a7a" {
	type discrete[2] { "1" "2" };
}

variable "MV_mnaq53" {
	type discrete[2] { "1" "2" };
}

variable "MV_e6" {
	type discrete[2] { "1" "2" };
}

variable "MV_j30c" {
	type discrete[5] { "1" "2" "3" "4" "5" };
}

variable "MV_d30b" {
	type discrete[5] { "1" "2" "3" "4" "5" };
}

variable "MV_d30a" {
	type discrete[5] { "1" "2" "3" "4" "5" };
}

variable "MV_l30a" {
	type discrete[5] { "1" "2" "3" "4" "5" };
}

variable "MV_l30b" {
	type discrete[5] { "1" "2" "3" "4" "5" };
}

variable "LV_variable542" {
	type discrete[4] { "state0" "state1" "state2" "state3" };
}

variable "LV_variable297" {
	type discrete[2] { "state0" "state1" };
}

variable "LV_variable394" {
	type discrete[3] { "state0" "state1" "state2" };
}

probability ( "MV_bank" | "LV_variable394", "LV_variable297" ) {
	table 0.6471129165042764 0.03725779248074002 0.3408226311294033 0.8192594406107695 0.7598738790395635 0.021038579383978896 0.35288708349572356 0.9627422075192599 0.6591773688705966 0.18074055938923053 0.2401261209604365 0.9789614206160211;
}
probability ( "MV_other" | "LV_variable297" ) {
	table 0.8988396478490107 0.03089848821691949 0.10116035215098933 0.9691015117830805;
}
probability ( "MV_k15d" | "LV_variable394" ) {
	table 0.01875420466456218 0.39714798769021786 0.06660130084222517 0.9812457953354378 0.6028520123097821 0.9333986991577748;
}
probability ( "MV_h1" | "LV_variable394" ) {
	table 0.09799971504610383 0.5234240827560293 0.9003817697500155 0.9020002849538962 0.47657591724397075 0.09961823024998452;
}
probability ( "MV_h5" | "LV_variable394" ) {
	table 0.05982310889925896 0.35311834876114445 0.3555309453694679 0.940176891100741 0.6468816512388555 0.6444690546305321;
}
probability ( "MV_h3" | "LV_variable394" ) {
	table 0.06495769269188137 0.4220939328526252 0.8294693750911176 0.9350423073081185 0.5779060671473748 0.17053062490888238;
}
probability ( "MV_mnaf3" | "LV_variable542" ) {
	table 0.8739511587449592 0.7612296453653267 0.48685348334844675 0.8228166595884661 0.1260488412550407 0.2387703546346734 0.5131465166515532 0.17718334041153405;
}
probability ( "MV_a7a"  ) {
	table 0.8019699326075687 0.1980300673924313;
}
probability ( "MV_mnaq53" | "LV_variable394" ) {
	table 0.025387678185538116 0.20688961419968405 0.05552163367115092 0.974612321814462 0.7931103858003159 0.9444783663288491;
}
probability ( "MV_e6" | "LV_variable394" ) {
	table 0.04227277870624609 0.3048942797918806 0.17135163565911782 0.9577272212937539 0.6951057202081194 0.8286483643408822;
}
probability ( "MV_j30c" | "LV_variable542" ) {
	table 0.18037377691022602 0.8385044445994624 0.13202543052423635 0.5176879227029069 0.3564505077350805 0.061621262122960395 0.037255121544270325 0.06810821426481177 0.34786059211066195 0.054522661122418915 0.0413108505789715 0.15877166045235908 0.08675272154520515 0.02420301942314501 0.6885022631920724 0.056391117739866436 0.028562401698826255 0.021148612732013312 0.10090633416044936 0.19904108484005584;
}
probability ( "MV_d30b" | "LV_variable542" ) {
	table 0.3353211743364013 0.9147083273872588 0.7562358046996278 0.6058865996417081 0.284286420100325 0.04885064836158583 0.02056463561588429 0.04472631828956935 0.2712822276942985 0.01948997080553305 0.06491421515508757 0.10306105225107709 0.10095151670475846 0.010274643475791323 0.13544879246944874 0.09842855170474865 0.008158661164216577 0.006676409969830881 0.022836552059951533 0.14789747811289683;
}
probability ( "MV_d30a" | "LV_variable542" ) {
	table 0.17671091688844404 0.7591209723186042 0.728101943086129 0.29250650757796604 0.32474389856519525 0.09848603197124628 0.0181260356789307 0.12164390365874095 0.30251582463347665 0.08756980710157652 0.0813296737842474 0.12095348185087093 0.18150165752195924 0.04299733684118921 0.15342841901029866 0.17311226216910122 0.014527702390925018 0.01182585176738379 0.019013928440394186 0.2917838447433207;
}
probability ( "MV_l30a" | "LV_variable542" ) {
	table 0.2272427749767806 0.9368593964095457 0.2491248580542778 0.3492655454676307 0.31167560712769543 0.0424250568011567 0.05519988143469978 0.07721564010379482 0.3744392448436248 0.005229104337940907 0.06302934929478672 0.2111364264448293 0.07774458855843204 0.00613641223660028 0.586613882038981 0.1372542154227562 0.00889778449346711 0.009350030214756383 0.046032029177254734 0.22512817256098897;
}
probability ( "MV_l30b" | "LV_variable542" ) {
	table 0.27723013449539535 0.8916921215365678 0.642142638158678 0.29627924944052186 0.37142437501558584 0.04997725917828191 0.06252432751786285 0.1154097932560627 0.24442642099823553 0.03098756215199592 0.09061578747907048 0.162475208818796 0.10098263848918211 0.02450664860805731 0.17435455401136407 0.16683451100013555 0.005936431001601065 0.0028364085250970053 0.03036269283302466 0.25900123748448395;
}
probability ( "LV_variable542"  ) {
	table 0.27046049879833445 0.47719196476008535 0.10444699855016513 0.14790053789141505;
}
probability ( "LV_variable297"  ) {
	table 0.13944506091595188 0.8605549390840481;
}
probability ( "LV_variable394"  ) {
	table 0.8264674008079624 0.05689590290143863 0.11663669629059892;
}
