network olcm - olcm_15MVs_egypt_train_5000 {
}

variable bank {
	type discrete[2] { 1, 2 };
}

variable other {
	type discrete[2] { 1, 2 };
}

variable nonbank {
	type discrete[2] { 1, 2 };
}

variable k15d {
	type discrete[2] { 1, 2 };
}

variable h1 {
	type discrete[2] { 1, 2 };
}

variable h5 {
	type discrete[2] { 1, 2 };
}

variable h3 {
	type discrete[2] { 1, 2 };
}

variable mnaf3 {
	type discrete[2] { 1, 2 };
}

variable mnaq53 {
	type discrete[2] { 1, 2 };
}

variable e6 {
	type discrete[2] { 1, 2 };
}

variable j30c {
	type discrete[5] { 1, 2, 3, 4, 5 };
}

variable d30b {
	type discrete[5] { 1, 2, 3, 4, 5 };
}

variable d30a {
	type discrete[5] { 1, 2, 3, 4, 5 };
}

variable l30a {
	type discrete[5] { 1, 2, 3, 4, 5 };
}

variable l30b {
	type discrete[5] { 1, 2, 3, 4, 5 };
}

variable variable686 {
	type discrete[2] { state0, state1 };
}

variable variable786 {
	type discrete[2] { state0, state1 };
}

variable variable859 {
	type discrete[4] { state0, state1, state2, state3 };
}

variable variable1285 {
	type discrete[2] { state0, state1 };
}

variable variable1461 {
	type discrete[2] { state0, state1 };
}

variable variable1689 {
	type discrete[2] { state0, state1 };
}

variable variable1797 {
	type discrete[2] { state0, state1 };
}

probability ( bank | variable786, variable686, variable1689 ) {
	(state0, state0, state0) 0.7617574511843144, 0.23824254881568568;
	(state0, state0, state1) 0.9871641783261339, 0.012835821673866106;
	(state0, state1, state0) 0.31109010792590364, 0.6889098920740964;
	(state0, state1, state1) 0.035692799450627456, 0.9643072005493726;
	(state1, state0, state0) 0.6420883524206176, 0.35791164757938254;
	(state1, state0, state1) 0.9790277953982274, 0.02097220460177257;
	(state1, state1, state0) 0.5170403474496275, 0.48295965255037254;
	(state1, state1, state1) 0.35046103427741654, 0.6495389657225835;
}

probability ( other | variable686, variable859 ) {
	(state0, state0) 0.7205519841247328, 0.2794480158752673;
	(state0, state1) 0.8281062485116999, 0.1718937514883001;
	(state0, state2) 0.9877956587342163, 0.012204341265783703;
	(state0, state3) 0.8415059455632206, 0.15849405443677955;
	(state1, state0) 0.03544111146244052, 0.9645588885375594;
	(state1, state1) 0.14901455705234823, 0.8509854429476517;
	(state1, state2) 0.076537175184399, 0.9234628248156009;
	(state1, state3) 0.03893819190873728, 0.9610618080912627;
}

probability ( nonbank | variable686 ) {
	(state0) 0.9599158276828909, 0.040084172317109146;
	(state1) 0.006895325113215146, 0.9931046748867848;
}

probability ( k15d | variable786, variable1797 ) {
	(state0, state0) 0.029797298713705254, 0.9702027012862948;
	(state0, state1) 0.017187933096965893, 0.9828120669030341;
	(state1, state0) 0.33331613096662194, 0.6666838690333781;
	(state1, state1) 0.15004378482612502, 0.849956215173875;
}

probability ( h1 | variable786, variable859, variable1461 ) {
	(state0, state0, state0) 0.0176390372276122, 0.9823609627723878;
	(state0, state0, state1) 0.054192561577122406, 0.9458074384228776;
	(state0, state1, state0) 0.04496206033625437, 0.9550379396637456;
	(state0, state1, state1) 0.14256375984799244, 0.8574362401520076;
	(state0, state2, state0) 0.09288817523229141, 0.9071118247677086;
	(state0, state2, state1) 0.11538859438721615, 0.884611405612784;
	(state0, state3, state0) 0.41996738844156495, 0.5800326115584349;
	(state0, state3, state1) 0.7002645096616226, 0.2997354903383775;
	(state1, state0, state0) 0.2721814956012624, 0.7278185043987376;
	(state1, state0, state1) 0.5685650534057399, 0.43143494659426007;
	(state1, state1, state0) 0.4755883095996206, 0.5244116904003794;
	(state1, state1, state1) 0.6428096171357275, 0.3571903828642725;
	(state1, state2, state0) 0.7303403196145029, 0.2696596803854971;
	(state1, state2, state1) 0.48373163070089226, 0.5162683692991078;
	(state1, state3, state0) 0.8819968760558272, 0.1180031239441728;
	(state1, state3, state1) 0.8455337730369769, 0.15446622696302312;
}

probability ( h5 | variable1285, variable786, variable1461 ) {
	(state0, state0, state0) 0.6142073969786392, 0.38579260302136076;
	(state0, state0, state1) 0.5785472062730689, 0.4214527937269311;
	(state0, state1, state0) 0.5176938287835114, 0.4823061712164885;
	(state0, state1, state1) 0.5085333808813237, 0.4914666191186763;
	(state1, state0, state0) 0.02453910909456328, 0.9754608909054368;
	(state1, state0, state1) 0.12144813026273621, 0.878551869737264;
	(state1, state1, state0) 0.26103450227499636, 0.7389654977250036;
	(state1, state1, state1) 0.641862259539123, 0.358137740460877;
}

probability ( h3 | variable786, variable1285, variable859 ) {
	(state0, state0, state0) 0.5951154708066964, 0.40488452919330364;
	(state0, state0, state1) 0.2418138997282312, 0.7581861002717688;
	(state0, state0, state2) 0.16310830754034739, 0.8368916924596526;
	(state0, state0, state3) 0.6468693544204813, 0.3531306455795187;
	(state0, state1, state0) 0.015521491242846141, 0.9844785087571539;
	(state0, state1, state1) 0.011144325308257392, 0.9888556746917425;
	(state0, state1, state2) 0.05219721047569341, 0.9478027895243066;
	(state0, state1, state3) 0.44438450179927347, 0.5556154982007265;
	(state1, state0, state0) 0.46622105711830814, 0.5337789428816919;
	(state1, state0, state1) 0.4901642503492858, 0.5098357496507142;
	(state1, state0, state2) 0.5116327954203505, 0.48836720457964944;
	(state1, state0, state3) 0.5609643767966164, 0.43903562320338363;
	(state1, state1, state0) 0.0914932252033872, 0.9085067747966128;
	(state1, state1, state1) 0.5209922042944853, 0.4790077957055147;
	(state1, state1, state2) 0.4597516719610824, 0.5402483280389176;
	(state1, state1, state3) 0.9030533378832001, 0.09694666211679984;
}

probability ( mnaf3 | variable859 ) {
	(state0) 0.3900462861202791, 0.6099537138797209;
	(state1) 0.8878186852513097, 0.11218131474869034;
	(state2) 0.7449415905057185, 0.25505840949428155;
	(state3) 0.8873244319214683, 0.11267556807853168;
}

probability ( mnaq53 | variable786, variable1797 ) {
	(state0, state0) 0.030841742618904485, 0.9691582573810954;
	(state0, state1) 0.017812091483993764, 0.9821879085160062;
	(state1, state0) 0.2292012112816792, 0.7707987887183207;
	(state1, state1) 0.09257696858037806, 0.9074230314196219;
}

probability ( e6 | variable786, variable1689 ) {
	(state0, state0) 0.20621060742426264, 0.7937893925757374;
	(state0, state1) 0.03087828117310127, 0.9691217188268987;
	(state1, state0) 0.4966458008589664, 0.5033541991410336;
	(state1, state1) 0.2817513301053017, 0.7182486698946983;
}

probability ( j30c | variable859 ) {
	(state0) 0.16697159238945175, 0.05673348541257513, 0.06241499235675266, 0.6378353587006562, 0.07604457114056427;
	(state1) 0.18816916005155657, 0.37996094399332825, 0.3384902020492036, 0.06863194935348825, 0.02474774455242326;
	(state2) 0.8210078954603285, 0.07281381361301818, 0.048223710829814345, 0.03782731720631972, 0.020127262890519245;
	(state3) 0.4372722698712, 0.04331455488945816, 0.1662616781198538, 0.15427190271388563, 0.1988795944056025;
}

probability ( d30b | variable859 ) {
	(state0) 0.8282865502967839, 0.020995821969790752, 0.03982182654028088, 0.08175445921231092, 0.029141341980833638;
	(state1) 0.3480825393911003, 0.294551489330179, 0.2495671528642485, 0.10107318677266082, 0.006725631641811497;
	(state2) 0.904914191164397, 0.0501692547297046, 0.0201180913104969, 0.012012842520657175, 0.01278562027474443;
	(state3) 0.5457814991564662, 0.06149383296036552, 0.14127242966912637, 0.13057836990854918, 0.1208738683054928;
}

probability ( d30a | variable859 ) {
	(state0) 0.8349078306802594, 0.01004759095370874, 0.051162499628594114, 0.08367571203552683, 0.02020636670191101;
	(state1) 0.18394533609887723, 0.341649194126188, 0.29588643970713085, 0.15895957241040098, 0.019559457657402846;
	(state2) 0.7703792018183839, 0.09313248368070841, 0.08662762483587974, 0.03014132270156404, 0.019719366963463863;
	(state3) 0.23442915134123984, 0.13771397810710947, 0.1581603682893955, 0.27475135803468653, 0.1949451442275687;
}

probability ( l30a | variable859 ) {
	(state0) 0.13866478432243665, 0.05491425395426575, 0.11154568693344642, 0.6210497893707764, 0.07382548541907474;
	(state1) 0.20540674589832836, 0.29466497132588304, 0.4091370520049184, 0.07574417934656603, 0.015047051424304117;
	(state2) 0.9424115356793171, 0.034704225734757954, 0.005436824564597745, 0.0033977817891388306, 0.014049632232188634;
	(state3) 0.390708943265256, 0.08725186660796228, 0.22170802698901726, 0.1454210594721907, 0.1549101036655737;
}

probability ( l30b | variable859 ) {
	(state0) 0.6053201583350797, 0.07085003899499914, 0.13083974801960427, 0.17122416208805405, 0.021765892562262936;
	(state1) 0.28433622549357396, 0.4172667237694696, 0.226000160147431, 0.058904181854166925, 0.01349270873535861;
	(state2) 0.8810336389059594, 0.06016595659467922, 0.029947562166862333, 0.024829083953442334, 0.004023758379056606;
	(state3) 0.37039975614745, 0.06287927393348985, 0.1988054311130372, 0.1760012146539922, 0.19191432415203075;
}

probability ( variable686 ) {
	table 0.08213594924523251, 0.9178640507547674;
}

probability ( variable786 ) {
	table 0.8549808219531291, 0.14501917804687095;
}

probability ( variable859 ) {
	table 0.09642450892599583, 0.2343431200881298, 0.4796184857003866, 0.18961388528548767;
}

probability ( variable1285 ) {
	table 0.044620324946124626, 0.9553796750538753;
}

probability ( variable1461 ) {
	table 0.7361313192317304, 0.26386868076826975;
}

probability ( variable1689 ) {
	table 0.024331388582495464, 0.9756686114175045;
}

probability ( variable1797 ) {
	table 0.30453720967760606, 0.695462790322394;
}

