network olcm - egypt_12 {
}

variable d30b {
	type discrete[5] { 1, 2, 3, 4, 5 };
}

variable g30a {
	type discrete[5] { 1, 2, 3, 4, 5 };
}

variable j30a {
	type discrete[5] { 1, 2, 3, 4, 5 };
}

variable j30b {
	type discrete[5] { 1, 2, 3, 4, 5 };
}

variable j30c {
	type discrete[5] { 1, 2, 3, 4, 5 };
}

variable j30e {
	type discrete[5] { 1, 2, 3, 4, 5 };
}

variable j30f {
	type discrete[5] { 1, 2, 3, 4, 5 };
}

variable l30a {
	type discrete[5] { 1, 2, 3, 4, 5 };
}

variable l30b {
	type discrete[5] { 1, 2, 3, 4, 5 };
}

variable i30 {
	type discrete[5] { 1, 2, 3, 4, 5 };
}

variable d30a {
	type discrete[5] { 1, 2, 3, 4, 5 };
}

variable c30a {
	type discrete[5] { 1, 2, 3, 4, 5 };
}

variable variable83 {
	type discrete[6] { state0, state1, state2, state3, state4, state5 };
}

probability ( d30b | variable83 ) {
	(state0) 0.4120849692220472, 0.39261970451790373, 0.15661188448195, 0.02922483994489809, 0.009458601833201047;
	(state1) 0.9185983095184326, 0.040309972929618604, 0.020971725479034635, 0.011277949914347909, 0.008842042158566423;
	(state2) 0.669488409627895, 0.05956453534827882, 0.09627099715953771, 0.06448253961364359, 0.11019351825064494;
	(state3) 0.8118011911922587, 0.007622104663340529, 0.023344007292198377, 0.15030585325137702, 0.0069268436008253385;
	(state4) 0.6752373052298551, 0.11796458667062913, 0.08833794452512778, 0.07315689897612361, 0.04530326459826425;
	(state5) 0.33183637201514116, 0.15272939687644, 0.35118045834498607, 0.1486885011413709, 0.015565271622061986;
}

probability ( g30a | variable83 ) {
	(state0) 0.5070031784104344, 0.27142737349348495, 0.15782396521801997, 0.05673831154094041, 0.007007171337120241;
	(state1) 0.915112371058129, 0.040158868255477785, 0.03180131211633241, 0.008266312709724855, 0.00466113586033579;
	(state2) 0.5695513595670081, 0.08809988741505936, 0.10988668325479577, 0.12403786531782794, 0.10842420444530883;
	(state3) 0.8336114145832287, 0.021118576521189737, 0.01582261183196074, 0.10893364673673663, 0.020513750326884066;
	(state4) 0.6573441471340683, 0.06770079879898613, 0.0921615552957788, 0.09047399326534117, 0.09231950550582567;
	(state5) 0.3888839586893926, 0.20873765129996974, 0.2610323165586171, 0.10717817559114479, 0.03416789786087576;
}

probability ( j30a | variable83 ) {
	(state0) 0.15140982557614713, 0.5577076261463294, 0.22074591452873252, 0.05163948159205865, 0.018497152156732248;
	(state1) 0.5356521327041228, 0.1458878330286296, 0.18956429623317023, 0.11541323281331194, 0.013482505220765481;
	(state2) 0.004824694691001784, 0.013153386554001962, 0.05940994213923668, 0.35539550058548436, 0.567216476030275;
	(state3) 0.732316644972009, 0.0074653889517237075, 0.03746804949778118, 0.18954198015198462, 0.03320793642650151;
	(state4) 0.42898478861192824, 0.20750434192264752, 0.23816942794914103, 0.10582692478762933, 0.01951451672865386;
	(state5) 0.007357882255483359, 0.07550751431035699, 0.527149515671198, 0.37474930116680555, 0.015235786596156018;
}

probability ( j30b | variable83 ) {
	(state0) 0.3732312554427659, 0.5437874166553002, 0.06094202597053726, 0.009071529833834135, 0.012967772097562532;
	(state1) 0.7222588742026677, 0.10385258852245621, 0.1343085406403905, 0.03546555386912507, 0.004114442765360579;
	(state2) 0.07161155527219251, 0.03153125086558446, 0.07233052390501106, 0.3459102904194969, 0.47861637953771496;
	(state3) 0.7190035369190142, 0.015715187122793243, 0.06340010214947644, 0.17405084387710443, 0.02783032993161169;
	(state4) 0.6409780130962875, 0.20188321156512146, 0.13027350312223188, 0.023091182718401933, 0.003774089497957105;
	(state5) 0.029395535278641312, 0.17234791702693184, 0.5544901919437378, 0.22303161976979863, 0.020734735980890383;
}

probability ( j30c | variable83 ) {
	(state0) 0.28270219653933853, 0.4996935384066794, 0.16585878479873004, 0.0355473472525936, 0.01619813300265852;
	(state1) 0.8832821139960448, 0.036977598883134365, 0.04923443405927647, 0.020453145131703675, 0.010052707929840452;
	(state2) 0.47087332611535165, 0.055807647257712936, 0.11987727200959937, 0.1440882060424928, 0.20935354857484315;
	(state3) 0.24809958770252113, 0.016057649474458795, 0.06970908148572867, 0.6492665996321081, 0.016867081705183185;
	(state4) 0.4839480156134062, 0.16791236555019515, 0.15546623751348185, 0.09823703022449866, 0.09443635109841814;
	(state5) 0.16009442241667887, 0.22978837111907227, 0.44345449415024757, 0.1280354540562035, 0.03862725825779776;
}

probability ( j30e | variable83 ) {
	(state0) 0.013390613211829383, 0.2185855404068014, 0.29300465341901644, 0.32449797409929104, 0.15052121886306166;
	(state1) 0.07843467404657657, 0.04959975052203401, 0.12609803479446538, 0.39052945411718354, 0.3553380865197404;
	(state2) 0.0073679179035411714, 0.008057620005711762, 0.023954254989308716, 0.07969806035660369, 0.8809221467448346;
	(state3) 0.018572606625939476, 0.011949160284194082, 0.01631820037295989, 0.900048804115603, 0.05311122860130353;
	(state4) 0.01865678889472942, 0.004308025989959374, 0.009230816790897848, 0.11570462365254425, 0.852099744671869;
	(state5) 0.014202608985338126, 0.022695085693684773, 0.23325160502324602, 0.4463146263732515, 0.28353607392447966;
}

probability ( j30f | variable83 ) {
	(state0) 0.16381703826440683, 0.2325628051925919, 0.3229739462458109, 0.2013943640283936, 0.07925184626879675;
	(state1) 0.398905220045076, 0.1705405036133689, 0.22302675517900716, 0.14084050887804125, 0.06668701228450664;
	(state2) 0.025132414839246654, 0.0038457941438148555, 0.021142735295370193, 0.11104004595627415, 0.8388390097652942;
	(state3) 0.030254731174774865, 0.008636785496497906, 0.042712262927074425, 0.8937789973793607, 0.024617223022291898;
	(state4) 0.03387313403868901, 0.024439374977533856, 0.03881451030627833, 0.1842563136253667, 0.7186166670521321;
	(state5) 0.024176046526947416, 0.042944463862015406, 0.23464836485640944, 0.46306840609418554, 0.23516271866044225;
}

probability ( l30a | variable83 ) {
	(state0) 0.3715916798675979, 0.3530672262123001, 0.21156603415941008, 0.05261933773839876, 0.011155722022293167;
	(state1) 0.9523508451322531, 0.028937639036247544, 0.012637093879217957, 0.0018129805889935536, 0.004261441363287956;
	(state2) 0.36576483992037634, 0.03452008379900696, 0.1706411234316945, 0.1815379765463872, 0.24753597630253504;
	(state3) 0.31277803228835355, 0.05158940612538712, 0.0472356619192514, 0.5616071305101801, 0.026789769156827976;
	(state4) 0.6640039472077243, 0.16148347990768838, 0.08490348537890016, 0.06205550816059764, 0.027553579345089552;
	(state5) 0.08578880400653, 0.24841917423207313, 0.5080404402164865, 0.14870115897713473, 0.009050422567775645;
}

probability ( l30b | variable83 ) {
	(state0) 0.357484837833273, 0.414349871374476, 0.14684115563747213, 0.07199225489800735, 0.009331880256771586;
	(state1) 0.9128165665873752, 0.0388723284953353, 0.023134524815628037, 0.021147997938322505, 0.004028582163338862;
	(state2) 0.4598735819697892, 0.08812589034643957, 0.12891770033609007, 0.15967989364306684, 0.16340293370461434;
	(state3) 0.6532378302638903, 0.03620491397169683, 0.12032429117528314, 0.1507328189319024, 0.03950014565722728;
	(state4) 0.5310725054328198, 0.16976993249711306, 0.1387229967848365, 0.07694953277629037, 0.08348503250894018;
	(state5) 0.2720979564616386, 0.30486598014316757, 0.2717507204012167, 0.13874178210948784, 0.012543560884489264;
}

probability ( i30 | variable83 ) {
	(state0) 0.14675900292465463, 0.34829896904719876, 0.37586820753535083, 0.07933833115836406, 0.049735489334431705;
	(state1) 0.5476351504190374, 0.24495147016919244, 0.13128009358084433, 0.06210035728093022, 0.01403292854999556;
	(state2) 0.13008405498838002, 0.10618560162778332, 0.12391355368441, 0.22421448616227962, 0.4156023035371471;
	(state3) 0.3361205035376053, 0.05654516470718387, 0.13328404872486355, 0.45461015840167246, 0.019440124628674886;
	(state4) 0.1483077036989595, 0.06852071229491653, 0.1472451004549962, 0.22886073424840006, 0.4070657493027276;
	(state5) 0.04795969654735908, 0.16292659367288195, 0.3476142432371347, 0.33665121152306965, 0.10484825501955444;
}

probability ( d30a | variable83 ) {
	(state0) 0.2829430096248446, 0.4656578618806416, 0.20634784141086823, 0.03743359437023807, 0.007617692713407542;
	(state1) 0.8245067947699445, 0.08447696925512758, 0.06767932694323382, 0.015015117852810714, 0.008321791178883306;
	(state2) 0.37319304808836, 0.12322691749371288, 0.1194758586359231, 0.1673649023652032, 0.21673927341680077;
	(state3) 0.8028946099922607, 0.02347337105370673, 0.05237922513778745, 0.11104408707253849, 0.010208706743706714;
	(state4) 0.3913022498907428, 0.12045439086538327, 0.17767246688312677, 0.21875078318499097, 0.09182010917575607;
	(state5) 0.159808444231734, 0.23343690495861083, 0.36082940056644847, 0.21853263541197496, 0.027392614831231777;
}

probability ( c30a | variable83 ) {
	(state0) 0.22477394802636763, 0.29019010361455283, 0.19079135959145505, 0.21479628357918715, 0.07944830518843736;
	(state1) 0.4658483828517115, 0.11730185960989022, 0.18190724497862762, 0.18444492008695734, 0.05049759247281327;
	(state2) 0.16474300736031566, 0.08212420661953178, 0.09926862197563585, 0.15739894412426547, 0.4964652199202511;
	(state3) 0.16935316266372447, 0.11860085761458361, 0.09469150948630305, 0.5386227347662471, 0.07873173546914171;
	(state4) 0.19689530690344553, 0.11498112328961323, 0.15902401964816432, 0.1830631623485327, 0.3460363878102442;
	(state5) 0.055442988952661997, 0.13710490323406194, 0.2440587698550888, 0.42856599923320127, 0.13482733872498598;
}

probability ( variable83 ) {
	table 0.10974788758802666, 0.3525642935339533, 0.1408449614559097, 0.07472064587103286, 0.18247695592806926, 0.1396452556230083;
}

