// estudios/condiciones_vida/facets/lcm/db100.obif
// Produced at Mon Apr 09 19:40:41 CEST 2018
network "LCM" {
}

variable "MV_hh010" {
	type discrete[4] { "1" "2" "3" "4" };
}

variable "MV_db100" {
	type discrete[3] { "1" "2" "3" };
}

variable "MV_hs170" {
	type discrete[2] { "1" "2" };
}

variable "MV_hs180" {
	type discrete[2] { "1" "2" };
}

variable "MV_hh040" {
	type discrete[2] { "1" "2" };
}

variable "MV_hs060" {
	type discrete[2] { "1" "2" };
}

variable "MV_hs040" {
	type discrete[2] { "1" "2" };
}

variable "MV_hs090" {
	type discrete[3] { "1" "2" "3" };
}

variable "MV_hs110" {
	type discrete[3] { "1" "2" "3" };
}

variable "LV_variable96" {
	type discrete[9] { "state0" "state1" "state2" "state3" "state4" "state5" "state6" "state7" "state8" };
}

probability ( "MV_hh010" | "LV_variable96" ) {
	table 0.026703481078636244 0.01444506003471208 0.005732256714443409 0.2734754427296394 0.28123972496387645 0.03079551830446455 0.32842257206561204 0.04013858960524556 0.03577636676498439 0.044573747806844366 0.008254405431012907 0.0059335692096964985 0.4931582725714222 0.6226748535283195 0.06308289413232708 0.39585520272122937 0.16068173070094854 0.08864967156357871 0.1687887554909843 0.23902227966032463 0.2633895792518784 0.1854714962543083 0.0862197522640942 0.30864681058736604 0.1912797282619048 0.29525977633802736 0.22749419267181936 0.7599340156235349 0.7382782548739505 0.7249445948239817 0.0478947884446301 0.009865669243709754 0.5974747769758423 0.08444249695125393 0.5039199033557784 0.6480797689996176;
}
probability ( "MV_db100" | "LV_variable96" ) {
	table 0.8146134271900158 0.8025866596010802 0.7087574473523173 0.14356064607676272 0.09449042337785372 0.7347629771283573 0.11453382803784093 0.6959255475086247 0.7011395311385529 0.16792245160181438 0.15105222366809243 0.22364868697480622 0.2606899386494089 0.15369148964586 0.1965991087225488 0.2851689740118454 0.20244231749757402 0.21826392989330645 0.017464121208169786 0.04636111673082735 0.06759386567287644 0.5957494152738283 0.7518180869762864 0.06863791414909397 0.6002971979503137 0.10163213499380114 0.08059653896814077;
}
probability ( "MV_hs170" | "LV_variable96" ) {
	table 0.09586495845312487 0.12095358476764329 0.13914732690201218 0.052849387652500926 0.03843953215364899 0.12298439715380058 0.06408360472307294 0.6998423209092439 0.753942496650807 0.9041350415468751 0.8790464152323566 0.8608526730979877 0.9471506123474991 0.961560467846351 0.8770156028461994 0.935916395276927 0.30015767909075614 0.24605750334919305;
}
probability ( "MV_hs180" | "LV_variable96" ) {
	table 0.047206108704879166 0.08350705022484779 0.025021438541808154 0.03467850961964567 0.022600057653056484 0.08664183292861585 0.024635845266048426 0.6469305114488839 0.5239878894863662 0.9527938912951208 0.9164929497751523 0.974978561458192 0.9653214903803543 0.9773999423469435 0.9133581670713842 0.9753641547339517 0.3530694885511161 0.47601211051363373;
}
probability ( "MV_hh040" | "LV_variable96" ) {
	table 0.04529010324823862 0.049957096376265275 0.09943937877158009 0.30157044631368146 0.24018145351488332 0.07508006392738154 0.15408549340609876 0.5203972349913923 0.27219285008671573 0.9547098967517613 0.9500429036237348 0.9005606212284198 0.6984295536863185 0.7598185464851167 0.9249199360726186 0.8459145065939012 0.47960276500860766 0.7278071499132843;
}
probability ( "MV_hs060" | "LV_variable96" ) {
	table 0.924812713558734 0.8323649266366301 0.10143830883165535 0.06480127447454805 0.48807771570448943 0.0233653589251541 0.9499442634623527 0.07199431170105403 0.8725218133917748 0.07518728644126615 0.1676350733633698 0.8985616911683446 0.935198725525452 0.5119222842955106 0.976634641074846 0.05005573653764721 0.9280056882989459 0.12747818660822524;
}
probability ( "MV_hs040" | "LV_variable96" ) {
	table 0.935054614572164 0.7793980676283733 0.15797874979296223 0.08053256687529158 0.35153785209209115 0.0549868744433559 0.8266953773362641 0.11604987964170049 0.87379828418985 0.06494538542783587 0.22060193237162684 0.8420212502070379 0.9194674331247085 0.6484621479079089 0.9450131255566441 0.17330462266373597 0.8839501203582995 0.12620171581015016;
}
probability ( "MV_hs090" | "LV_variable96" ) {
	table 0.9248361247146141 0.12649116137656333 0.7470361401203066 0.6189729579909635 0.012428357003538797 0.10023474345531944 0.8141657791610976 0.6067747346973612 0.9306131672204719 0.001382281806524993 0.01337896331364869 0.1950616289521189 0.18283802167242091 0.02053271068293645 0.03831423035105407 0.011909526421170937 0.2532311368917941 0.011917995182408199 0.07378159347886094 0.860129875309788 0.057902230927574405 0.19818902033661553 0.9670389323135248 0.8614510261936266 0.17392469441773145 0.13999412841084452 0.05746883759711981;
}
probability ( "MV_hs110" | "LV_variable96" ) {
	table 0.9159850360719936 0.20617802675844685 0.6874477088639834 0.89030448454619 0.2878536630869434 0.14646623011279689 0.9834040375203236 0.6049703772407409 0.8793239391392891 0.010743567329961913 0.009680267530072655 0.23395896732447977 0.08150211171606488 0.015908998260164182 0.05931047419094001 0.004940132026029446 0.2647194846469892 0.02788695157356306 0.07327139659804449 0.7841417057114806 0.07859332381153672 0.02819340373774505 0.6962373386528925 0.794223295696263 0.011655830453647003 0.13031013811227005 0.09278910928714781;
}
probability ( "LV_variable96"  ) {
	table 0.2979438356425158 0.07403958397301336 0.10219481562530197 0.09421495445442424 0.06073837119436297 0.042980977828354056 0.22356903785441903 0.046097395535066504 0.058221027892542035;
}
