// estudios/condiciones_vida/facets/lcm/family_size.obif
// Produced at Mon Apr 09 19:42:01 CEST 2018
network "LCM" {
}

variable "MV_family_size" {
	type discrete[5] { "1" "2" "3" "4" "5" };
}

variable "MV_hc190" {
	type discrete[2] { "1" "2" };
}

variable "MV_hs090" {
	type discrete[3] { "1" "2" "3" };
}

variable "MV_hs110" {
	type discrete[3] { "1" "2" "3" };
}

variable "LV_variable198" {
	type discrete[6] { "state0" "state1" "state2" "state3" "state4" "state5" };
}

probability ( "MV_family_size" | "LV_variable198" ) {
	table 0.291497531449284 0.04188988454178984 0.012121302689222667 0.8773924000523688 0.060929381485112774 0.29698211173010214 0.24239768045276236 0.1362662810395787 0.3250911525083171 0.10862912863715612 0.7857346981998223 0.5664732198980847 0.19434405534575902 0.344040138403128 0.3435923400418175 0.007820439658866496 0.13671749551098444 0.11464025500969575 0.1290496497585944 0.39693824730999583 0.13554202263224888 0.0038097197938263207 0.01398210314470341 0.013476552345770184 0.14271108299360022 0.08086544870550758 0.18365318212839407 0.002348311857782298 0.0026363216593771697 0.008427861016347215;
}
probability ( "MV_hc190" | "LV_variable198" ) {
	table 0.11965270246096701 0.0750418404668894 0.5872086556357816 0.2580174107319451 0.7935648326389195 0.02184508013345299 0.8803472975390331 0.9249581595331106 0.4127913443642183 0.7419825892680548 0.20643516736108045 0.978154919866547;
}
probability ( "MV_hs090" | "LV_variable198" ) {
	table 0.4559871162304149 0.963998402658498 0.8002019014040864 0.15477036218713486 0.16435160170063326 0.6647444208134288 0.5256963825966129 0.022657910910182395 0.10933222406226661 0.026012448667449013 0.027219134434177256 0.016640376891314534 0.018316501172972153 0.013343686431319661 0.0904658745336468 0.8192171891454162 0.8084292638651894 0.3186152022952567;
}
probability ( "MV_hs110" | "LV_variable198" ) {
	table 0.40988541720186616 0.9790340118050086 0.8897261610676752 0.026653793467592047 0.5083259292789852 0.8721237031902843 0.5502394036669114 0.008207143391245885 0.0771317762808961 0.03540622597545662 0.028297776305452937 0.029749346732454576 0.03987517913122255 0.012758844803745647 0.03314206265142859 0.9379399805569513 0.4633762944155618 0.09812695007726113;
}
probability ( "LV_variable198"  ) {
	table 0.05322318149037069 0.3961702833319456 0.0897793913956283 0.11980044768660916 0.06849238407281356 0.2725343120226326;
}
