// estudios/condiciones_vida/facets/lcm/h79_u.obif
// Produced at Mon Apr 09 19:56:39 CEST 2018
network "LCM" {
}

variable "MV_hs160" {
	type discrete[2] { "1" "2" };
}

variable "MV_hs060" {
	type discrete[2] { "1" "2" };
}

variable "MV_hh050" {
	type discrete[2] { "1" "2" };
}

variable "MV_h79_u" {
	type discrete[2] { "1" "2" };
}

variable "MV_h80_u" {
	type discrete[2] { "1" "2" };
}

variable "MV_hs080" {
	type discrete[3] { "1" "2" "3" };
}

variable "MV_hs090" {
	type discrete[3] { "1" "2" "3" };
}

variable "MV_hd080" {
	type discrete[3] { "1" "2" "3" };
}

variable "LV_variable296" {
	type discrete[4] { "state0" "state1" "state2" "state3" };
}

probability ( "MV_hs160" | "LV_variable296" ) {
	table 0.052717039962751455 0.1688032221254266 0.057047551580335434 0.029129911113827636 0.9472829600372485 0.8311967778745735 0.9429524484196645 0.9708700888861724;
}
probability ( "MV_hs060" | "LV_variable296" ) {
	table 0.12634694016073833 0.018433658338921216 0.5247763928890298 0.9593026767642934 0.8736530598392617 0.9815663416610788 0.4752236071109703 0.04069732323570653;
}
probability ( "MV_hh050" | "LV_variable296" ) {
	table 0.8171353632642397 0.4450875334335737 0.9414269265245792 0.9872580712914142 0.18286463673576023 0.5549124665664263 0.0585730734754209 0.012741928708585945;
}
probability ( "MV_h79_u" | "LV_variable296" ) {
	table 0.09301963392001138 0.6699724903775295 0.031713179380785946 0.0010848992535660127 0.9069803660799887 0.3300275096224705 0.968286820619214 0.998915100746434;
}
probability ( "MV_h80_u" | "LV_variable296" ) {
	table 0.011652283538850429 0.42280585629041456 0.004582440833783482 7.894649572603868E-4 0.9883477164611496 0.5771941437095855 0.9954175591662165 0.9992105350427397;
}
probability ( "MV_hs080" | "LV_variable296" ) {
	table 0.9935538818379479 0.976090182397975 0.9940753302011334 0.9952553548526094 4.973497587235272E-4 0.015841795628419163 7.633922717234179E-4 1.1960740557655546E-4 0.005948768403328588 0.008068021973605913 0.005161277527143174 0.004625037741814174;
}
probability ( "MV_hs090" | "LV_variable296" ) {
	table 0.576875183870213 0.4259552661882182 0.47068077162986593 0.8000711269103093 0.10032176329473604 0.40520330000778904 0.03714846243441428 0.005974256069360388 0.322803052835051 0.1688414338039927 0.4921707659357198 0.1939546170203304;
}
probability ( "MV_hd080" | "LV_variable296" ) {
	table 0.05414136105441466 0.020257262029088438 0.14882630644867292 0.8316334320939548 0.8935586280163271 0.9253917428731719 0.2511856809057436 0.09416602320402409 0.05230001092925823 0.05435099509773954 0.5999880126455835 0.07420054470202125;
}
probability ( "LV_variable296"  ) {
	table 0.2524130344788067 0.05831684379368244 0.09971957429230989 0.589550547435201;
}
