network LCM {
}

variable hs160 {
	type discrete[2] { 1, 2 };
}

variable hs060 {
	type discrete[2] { 1, 2 };
}

variable hh050 {
	type discrete[2] { 1, 2 };
}

variable h79_u {
	type discrete[2] { 1, 2 };
}

variable h80_u {
	type discrete[2] { 1, 2 };
}

variable hs080 {
	type discrete[3] { 1, 2, 3 };
}

variable hs090 {
	type discrete[3] { 1, 2, 3 };
}

variable hd080 {
	type discrete[3] { 1, 2, 3 };
}

variable variable296 {
	type discrete[4] { state0, state1, state2, state3 };
}

probability ( hs160 | variable296 ) {
	(state0) 0.052717039962751455, 0.9472829600372485;
	(state1) 0.1688032221254266, 0.8311967778745735;
	(state2) 0.057047551580335434, 0.9429524484196645;
	(state3) 0.029129911113827636, 0.9708700888861724;
}

probability ( hs060 | variable296 ) {
	(state0) 0.12634694016073833, 0.8736530598392617;
	(state1) 0.018433658338921216, 0.9815663416610788;
	(state2) 0.5247763928890298, 0.4752236071109703;
	(state3) 0.9593026767642934, 0.04069732323570653;
}

probability ( hh050 | variable296 ) {
	(state0) 0.8171353632642397, 0.18286463673576023;
	(state1) 0.4450875334335737, 0.5549124665664263;
	(state2) 0.9414269265245792, 0.0585730734754209;
	(state3) 0.9872580712914142, 0.012741928708585945;
}

probability ( h79_u | variable296 ) {
	(state0) 0.09301963392001138, 0.9069803660799887;
	(state1) 0.6699724903775295, 0.3300275096224705;
	(state2) 0.031713179380785946, 0.968286820619214;
	(state3) 0.0010848992535660127, 0.998915100746434;
}

probability ( h80_u | variable296 ) {
	(state0) 0.011652283538850429, 0.9883477164611496;
	(state1) 0.42280585629041456, 0.5771941437095855;
	(state2) 0.004582440833783482, 0.9954175591662165;
	(state3) 7.894649572603868E-4, 0.9992105350427397;
}

probability ( hs080 | variable296 ) {
	(state0) 0.9935538818379479, 4.973497587235272E-4, 0.005948768403328588;
	(state1) 0.976090182397975, 0.015841795628419163, 0.008068021973605913;
	(state2) 0.9940753302011334, 7.633922717234179E-4, 0.005161277527143174;
	(state3) 0.9952553548526094, 1.1960740557655546E-4, 0.004625037741814174;
}

probability ( hs090 | variable296 ) {
	(state0) 0.576875183870213, 0.10032176329473604, 0.322803052835051;
	(state1) 0.4259552661882182, 0.40520330000778904, 0.1688414338039927;
	(state2) 0.47068077162986593, 0.03714846243441428, 0.4921707659357198;
	(state3) 0.8000711269103093, 0.005974256069360388, 0.1939546170203304;
}

probability ( hd080 | variable296 ) {
	(state0) 0.05414136105441466, 0.8935586280163271, 0.05230001092925823;
	(state1) 0.020257262029088438, 0.9253917428731719, 0.05435099509773954;
	(state2) 0.14882630644867292, 0.2511856809057436, 0.5999880126455835;
	(state3) 0.8316334320939548, 0.09416602320402409, 0.07420054470202125;
}

probability ( variable296 ) {
	table 0.2524130344788067, 0.05831684379368244, 0.09971957429230989, 0.589550547435201;
}

