// estudios/condiciones_vida/facets/lcm/h80_u.obif
// Produced at Mon Apr 09 19:56:45 CEST 2018
network "LCM" {
}

variable "MV_hs050" {
	type discrete[2] { "1" "2" };
}

variable "MV_hs060" {
	type discrete[2] { "1" "2" };
}

variable "MV_hh050" {
	type discrete[2] { "1" "2" };
}

variable "MV_h79_u" {
	type discrete[2] { "1" "2" };
}

variable "MV_h80_u" {
	type discrete[2] { "1" "2" };
}

variable "MV_hs040" {
	type discrete[2] { "1" "2" };
}

variable "MV_hs090" {
	type discrete[3] { "1" "2" "3" };
}

variable "LV_variable306" {
	type discrete[5] { "state0" "state1" "state2" "state3" "state4" };
}

probability ( "MV_hs050" | "LV_variable306" ) {
	table 0.9988977248715424 0.48778627766692195 0.34871589142053055 0.9976666278049194 0.974242069008166 0.001102275128457538 0.5122137223330782 0.6512841085794696 0.0023333721950805886 0.025757930991834023;
}
probability ( "MV_hs060" | "LV_variable306" ) {
	table 0.9388227751870579 0.2167796223650668 0.009431811933217899 0.2773157673157512 0.03026226227624803 0.061177224812942105 0.7832203776349332 0.990568188066782 0.7226842326842488 0.9697377377237519;
}
probability ( "MV_hh050" | "LV_variable306" ) {
	table 0.9907195414302151 0.27744800244885703 0.11474662185533997 0.8921595290997323 0.6879726048401618 0.00928045856978481 0.7225519975511431 0.8852533781446601 0.10784047090026772 0.3120273951598381;
}
probability ( "MV_h79_u" | "LV_variable306" ) {
	table 0.00261812705521139 0.09326653462044629 0.7441839732693444 0.034764126486069254 0.5158817149091073 0.9973818729447887 0.9067334653795537 0.25581602673065573 0.9652358735139308 0.4841182850908926;
}
probability ( "MV_h80_u" | "LV_variable306" ) {
	table 5.148115453829897E-4 0.015583765801356066 0.5362981529057528 0.0027148399360625982 0.2278250663219308 0.9994851884546171 0.9844162341986439 0.4637018470942472 0.9972851600639374 0.7721749336780692;
}
probability ( "MV_hs040" | "LV_variable306" ) {
	table 0.9346773975721479 0.14406798533460594 0.02174420748801081 0.17604371995853937 0.11220420628979003 0.06532260242785219 0.855932014665394 0.9782557925119891 0.8239562800414606 0.88779579371021;
}
probability ( "MV_hs090" | "LV_variable306" ) {
	table 0.7993381432500083 0.38012267501615027 0.29425467507160985 0.5385889605132211 0.5549986695835445 0.006063974602819314 0.19735395459104385 0.4877720889533795 0.06571215341535475 0.2726089139026466 0.19459788214717227 0.42252337039280596 0.2179732359750107 0.39569888607142417 0.17239241651380893;
}
probability ( "LV_variable306"  ) {
	table 0.6027067539958317 0.02231956469911023 0.01806754003760887 0.2802861636365315 0.07661997763091768;
}
