network LCM {
}

variable hh021 {
	type discrete[5] { 1, 2, 3, 4, 5 };
}

variable family_size {
	type discrete[5] { 1, 2, 3, 4, 5 };
}

variable hc190 {
	type discrete[2] { 1, 2 };
}

variable hs040 {
	type discrete[2] { 1, 2 };
}

variable hs090 {
	type discrete[3] { 1, 2, 3 };
}

variable hs110 {
	type discrete[3] { 1, 2, 3 };
}

variable variable214 {
	type discrete[9] { state0, state1, state2, state3, state4, state5, state6, state7, state8 };
}

probability ( hh021 | variable214 ) {
	(state0) 0.8660331447243724, 0.04361741945467426, 0.03677178636524848, 0.02112975235973851, 0.03244789709596626;
	(state1) 0.8325983264048341, 0.09799306157184272, 0.015800589420886885, 0.010025393487406727, 0.043582629115029435;
	(state2) 0.17734631586036717, 0.1326551696255709, 0.4436596218567055, 0.11328706006210325, 0.13305183259525316;
	(state3) 0.7776201079235242, 0.16970399008261072, 0.014388957601180667, 0.009707181767184514, 0.028579762625499855;
	(state4) 0.8124644136725006, 0.017380752925832087, 0.05337741649721257, 0.03906960982442532, 0.0777078070800297;
	(state5) 0.7109608466659143, 0.13804673310327256, 0.09659826077170557, 0.010519487022240568, 0.043874672436866866;
	(state6) 0.35495185505535687, 0.32830456641213857, 0.20238511473933712, 0.06311104576381242, 0.05124741802935503;
	(state7) 0.38085909196234774, 0.518487425892545, 0.048815410992392186, 0.005549568166636706, 0.04628850298607838;
	(state8) 0.3644717011271427, 0.19401209512468073, 0.35311610052666126, 0.014182043932164393, 0.07421805928935085;
}

probability ( family_size | variable214 ) {
	(state0) 0.015175329696964012, 0.8286129499556337, 0.1445855585132169, 0.009036290604025823, 0.0025898712301597195;
	(state1) 0.26984178294851735, 0.6298089759216426, 0.094499741953693, 0.003770050181221237, 0.002079448994925727;
	(state2) 0.282293081108566, 0.2854163258119403, 0.1995725749626475, 0.11315887190974644, 0.11955914620709975;
	(state3) 0.009290996114004815, 0.22371435449155347, 0.38287035708555944, 0.2167266360664762, 0.1673976562424061;
	(state4) 0.8549352588069079, 0.1354863052316581, 0.006493420255764962, 0.002158721168322642, 9.262945373463416E-4;
	(state5) 0.06542829097157622, 0.5654382221232328, 0.2497390335831974, 0.06973715933322318, 0.04965729398877031;
	(state6) 0.04550834498571922, 0.20578198844606857, 0.32942974039708817, 0.23631716365997224, 0.1829627625111518;
	(state7) 0.0898831739603222, 0.12389780795469486, 0.3042744912299254, 0.4197920246694522, 0.062152502185605425;
	(state8) 0.5578819043415081, 0.26367506699405086, 0.11720458794791004, 0.04329200491264667, 0.017946435803884206;
}

probability ( hc190 | variable214 ) {
	(state0) 0.8174571891367921, 0.18254281086320795;
	(state1) 0.0857214230538519, 0.914278576946148;
	(state2) 0.17543654148362295, 0.824563458516377;
	(state3) 0.8765561871173434, 0.12344381288265664;
	(state4) 0.288844448945542, 0.7111555510544579;
	(state5) 0.07492938377800704, 0.9250706162219929;
	(state6) 0.22394628175267017, 0.7760537182473299;
	(state7) 0.03543279783683095, 0.964567202163169;
	(state8) 0.03171155242249466, 0.9682884475775053;
}

probability ( hs040 | variable214 ) {
	(state0) 0.4075318844251078, 0.5924681155748922;
	(state1) 0.6570902809618285, 0.34290971903817147;
	(state2) 0.13135283184460694, 0.8686471681553931;
	(state3) 0.6065876830141073, 0.3934123169858928;
	(state4) 0.47088551948711205, 0.5291144805128879;
	(state5) 0.9238511060856056, 0.07614889391439443;
	(state6) 0.034383740689025215, 0.9656162593109747;
	(state7) 0.7403685116472352, 0.25963148835276484;
	(state8) 0.83323337591932, 0.16676662408068008;
}

probability ( hs090 | variable214 ) {
	(state0) 0.18854535560563546, 0.03741641796545766, 0.7740382264289069;
	(state1) 0.05633115331081761, 0.02482052497217006, 0.9188483217170123;
	(state2) 0.46071562363964746, 0.4171370219639498, 0.12214735439640269;
	(state3) 0.8871046339722191, 0.021703638081779806, 0.09119172794600125;
	(state4) 0.059903730365101965, 0.018181197716402434, 0.9219150719184956;
	(state5) 0.9908399545024029, 0.0028699336513824127, 0.006290111846214731;
	(state6) 0.6582711721664265, 0.25471740771727014, 0.08701142011630343;
	(state7) 0.979729092825355, 0.005918120906699959, 0.014352786267945174;
	(state8) 0.9193213130435415, 0.02205335610154664, 0.05862533085491175;
}

probability ( hs110 | variable214 ) {
	(state0) 0.46720487486494583, 0.03779208437080893, 0.4950030407642453;
	(state1) 0.9227914998173932, 0.005814064505006531, 0.0713944356776002;
	(state2) 0.2904596255011445, 0.5890545223841132, 0.12048585211474244;
	(state3) 0.964535868572605, 0.016673734612059232, 0.01879039681533582;
	(state4) 0.02567035791384837, 0.019588804854516768, 0.9547408372316348;
	(state5) 0.979554266688077, 0.002570231524441528, 0.01787550178748141;
	(state6) 0.9046867332111477, 0.06792770695005913, 0.02738555983879329;
	(state7) 0.9957592078322255, 0.002446396596850269, 0.0017943955709241578;
	(state8) 0.5542396845086751, 0.0871350415868189, 0.35862527390450594;
}

probability ( variable214 ) {
	table 0.05598761887066296, 0.08996465349883898, 0.058568029147866234, 0.04649296612865463, 0.10846037088550181, 0.16917980401015337, 0.08088841577242063, 0.3076588138235597, 0.08279932786234169;
}

