// estudios/condiciones_vida/facets/lcm/hc190.obif
// Produced at Mon Apr 09 19:42:45 CEST 2018
network "LCM" {
}

variable "MV_hh021" {
	type discrete[5] { "1" "2" "3" "4" "5" };
}

variable "MV_family_size" {
	type discrete[5] { "1" "2" "3" "4" "5" };
}

variable "MV_hc190" {
	type discrete[2] { "1" "2" };
}

variable "MV_hs040" {
	type discrete[2] { "1" "2" };
}

variable "MV_hs090" {
	type discrete[3] { "1" "2" "3" };
}

variable "MV_hs110" {
	type discrete[3] { "1" "2" "3" };
}

variable "LV_variable214" {
	type discrete[9] { "state0" "state1" "state2" "state3" "state4" "state5" "state6" "state7" "state8" };
}

probability ( "MV_hh021" | "LV_variable214" ) {
	table 0.8660331447243724 0.8325983264048341 0.17734631586036717 0.7776201079235242 0.8124644136725006 0.7109608466659143 0.35495185505535687 0.38085909196234774 0.3644717011271427 0.04361741945467426 0.09799306157184272 0.1326551696255709 0.16970399008261072 0.017380752925832087 0.13804673310327256 0.32830456641213857 0.518487425892545 0.19401209512468073 0.03677178636524848 0.015800589420886885 0.4436596218567055 0.014388957601180667 0.05337741649721257 0.09659826077170557 0.20238511473933712 0.048815410992392186 0.35311610052666126 0.02112975235973851 0.010025393487406727 0.11328706006210325 0.009707181767184514 0.03906960982442532 0.010519487022240568 0.06311104576381242 0.005549568166636706 0.014182043932164393 0.03244789709596626 0.043582629115029435 0.13305183259525316 0.028579762625499855 0.0777078070800297 0.043874672436866866 0.05124741802935503 0.04628850298607838 0.07421805928935085;
}
probability ( "MV_family_size" | "LV_variable214" ) {
	table 0.015175329696964012 0.26984178294851735 0.282293081108566 0.009290996114004815 0.8549352588069079 0.06542829097157622 0.04550834498571922 0.0898831739603222 0.5578819043415081 0.8286129499556337 0.6298089759216426 0.2854163258119403 0.22371435449155347 0.1354863052316581 0.5654382221232328 0.20578198844606857 0.12389780795469486 0.26367506699405086 0.1445855585132169 0.094499741953693 0.1995725749626475 0.38287035708555944 0.006493420255764962 0.2497390335831974 0.32942974039708817 0.3042744912299254 0.11720458794791004 0.009036290604025823 0.003770050181221237 0.11315887190974644 0.2167266360664762 0.002158721168322642 0.06973715933322318 0.23631716365997224 0.4197920246694522 0.04329200491264667 0.0025898712301597195 0.002079448994925727 0.11955914620709975 0.1673976562424061 9.262945373463416E-4 0.04965729398877031 0.1829627625111518 0.062152502185605425 0.017946435803884206;
}
probability ( "MV_hc190" | "LV_variable214" ) {
	table 0.8174571891367921 0.0857214230538519 0.17543654148362295 0.8765561871173434 0.288844448945542 0.07492938377800704 0.22394628175267017 0.03543279783683095 0.03171155242249466 0.18254281086320795 0.914278576946148 0.824563458516377 0.12344381288265664 0.7111555510544579 0.9250706162219929 0.7760537182473299 0.964567202163169 0.9682884475775053;
}
probability ( "MV_hs040" | "LV_variable214" ) {
	table 0.4075318844251078 0.6570902809618285 0.13135283184460694 0.6065876830141073 0.47088551948711205 0.9238511060856056 0.034383740689025215 0.7403685116472352 0.83323337591932 0.5924681155748922 0.34290971903817147 0.8686471681553931 0.3934123169858928 0.5291144805128879 0.07614889391439443 0.9656162593109747 0.25963148835276484 0.16676662408068008;
}
probability ( "MV_hs090" | "LV_variable214" ) {
	table 0.18854535560563546 0.05633115331081761 0.46071562363964746 0.8871046339722191 0.059903730365101965 0.9908399545024029 0.6582711721664265 0.979729092825355 0.9193213130435415 0.03741641796545766 0.02482052497217006 0.4171370219639498 0.021703638081779806 0.018181197716402434 0.0028699336513824127 0.25471740771727014 0.005918120906699959 0.02205335610154664 0.7740382264289069 0.9188483217170123 0.12214735439640269 0.09119172794600125 0.9219150719184956 0.006290111846214731 0.08701142011630343 0.014352786267945174 0.05862533085491175;
}
probability ( "MV_hs110" | "LV_variable214" ) {
	table 0.46720487486494583 0.9227914998173932 0.2904596255011445 0.964535868572605 0.02567035791384837 0.979554266688077 0.9046867332111477 0.9957592078322255 0.5542396845086751 0.03779208437080893 0.005814064505006531 0.5890545223841132 0.016673734612059232 0.019588804854516768 0.002570231524441528 0.06792770695005913 0.002446396596850269 0.0871350415868189 0.4950030407642453 0.0713944356776002 0.12048585211474244 0.01879039681533582 0.9547408372316348 0.01787550178748141 0.02738555983879329 0.0017943955709241578 0.35862527390450594;
}
probability ( "LV_variable214"  ) {
	table 0.05598761887066296 0.08996465349883898 0.058568029147866234 0.04649296612865463 0.10846037088550181 0.16917980401015337 0.08088841577242063 0.3076588138235597 0.08279932786234169;
}
