network LCM {
}

variable hs160 {
	type discrete[2] { 1, 2 };
}

variable hs060 {
	type discrete[2] { 1, 2 };
}

variable hh050 {
	type discrete[2] { 1, 2 };
}

variable h79_u {
	type discrete[2] { 1, 2 };
}

variable hs040 {
	type discrete[2] { 1, 2 };
}

variable hd080 {
	type discrete[3] { 1, 2, 3 };
}

variable variable405 {
	type discrete[3] { state0, state1, state2 };
}

probability ( hs160 | variable405 ) {
	(state0) 0.11770412133513376, 0.8822958786648663;
	(state1) 0.048901372572229755, 0.9510986274277702;
	(state2) 0.03093645187309467, 0.9690635481269053;
}

probability ( hs060 | variable405 ) {
	(state0) 0.015702308538978405, 0.9842976914610215;
	(state1) 0.26355978154069565, 0.7364402184593045;
	(state2) 0.9670151870730741, 0.032984812926925976;
}

probability ( hh050 | variable405 ) {
	(state0) 0.5071699690911773, 0.49283003090882266;
	(state1) 0.8992842830979662, 0.10071571690203393;
	(state2) 0.9882607388793571, 0.011739261120642995;
}

probability ( h79_u | variable405 ) {
	(state0) 0.45312390935594077, 0.5468760906440593;
	(state1) 0.05001019248498584, 0.9499898075150143;
	(state2) 0.0016775348469918044, 0.9983224651530082;
}

probability ( hs040 | variable405 ) {
	(state0) 0.05683469100383053, 0.9431653089961695;
	(state1) 0.25788878064981857, 0.7421112193501814;
	(state2) 0.918027608570512, 0.08197239142948799;
}

probability ( hd080 | variable405 ) {
	(state0) 0.007215229830627608, 0.9580116561272837, 0.0347731140420888;
	(state1) 0.10814885625980551, 0.7085989065477284, 0.18325223719246617;
	(state2) 0.8254859731173656, 0.07062527106182774, 0.10388875582080678;
}

probability ( variable405 ) {
	table 0.11113327866632638, 0.2991459085323814, 0.5897208128012922;
}

