// estudios/condiciones_vida/facets/lcm/hd080.obif
// Produced at Mon Apr 09 20:12:47 CEST 2018
network "LCM" {
}

variable "MV_hs160" {
	type discrete[2] { "1" "2" };
}

variable "MV_hs060" {
	type discrete[2] { "1" "2" };
}

variable "MV_hh050" {
	type discrete[2] { "1" "2" };
}

variable "MV_h79_u" {
	type discrete[2] { "1" "2" };
}

variable "MV_hs040" {
	type discrete[2] { "1" "2" };
}

variable "MV_hd080" {
	type discrete[3] { "1" "2" "3" };
}

variable "LV_variable405" {
	type discrete[3] { "state0" "state1" "state2" };
}

probability ( "MV_hs160" | "LV_variable405" ) {
	table 0.11770412133513376 0.048901372572229755 0.03093645187309467 0.8822958786648663 0.9510986274277702 0.9690635481269053;
}
probability ( "MV_hs060" | "LV_variable405" ) {
	table 0.015702308538978405 0.26355978154069565 0.9670151870730741 0.9842976914610215 0.7364402184593045 0.032984812926925976;
}
probability ( "MV_hh050" | "LV_variable405" ) {
	table 0.5071699690911773 0.8992842830979662 0.9882607388793571 0.49283003090882266 0.10071571690203393 0.011739261120642995;
}
probability ( "MV_h79_u" | "LV_variable405" ) {
	table 0.45312390935594077 0.05001019248498584 0.0016775348469918044 0.5468760906440593 0.9499898075150143 0.9983224651530082;
}
probability ( "MV_hs040" | "LV_variable405" ) {
	table 0.05683469100383053 0.25788878064981857 0.918027608570512 0.9431653089961695 0.7421112193501814 0.08197239142948799;
}
probability ( "MV_hd080" | "LV_variable405" ) {
	table 0.007215229830627608 0.10814885625980551 0.8254859731173656 0.9580116561272837 0.7085989065477284 0.07062527106182774 0.0347731140420888 0.18325223719246617 0.10388875582080678;
}
probability ( "LV_variable405"  ) {
	table 0.11113327866632638 0.2991459085323814 0.5897208128012922;
}
