// estudios/condiciones_vida/facets/lcm/hh010.obif
// Produced at Mon Apr 09 19:37:11 CEST 2018
network "LCM" {
}

variable "MV_hh010" {
	type discrete[4] { "1" "2" "3" "4" };
}

variable "MV_hh030" {
	type discrete[6] { "1" "2" "3" "4" "5" "6" };
}

variable "MV_db100" {
	type discrete[3] { "1" "2" "3" };
}

variable "MV_hs160" {
	type discrete[2] { "1" "2" };
}

variable "MV_hs170" {
	type discrete[2] { "1" "2" };
}

variable "MV_hh040" {
	type discrete[2] { "1" "2" };
}

variable "MV_hs060" {
	type discrete[2] { "1" "2" };
}

variable "MV_hs110" {
	type discrete[3] { "1" "2" "3" };
}

variable "LV_variable51" {
	type discrete[6] { "state0" "state1" "state2" "state3" "state4" "state5" };
}

probability ( "MV_hh010" | "LV_variable51" ) {
	table 0.07839602344622758 0.004259738706654951 0.4300204225023978 0.025434012431524752 0.23685594232617715 0.0099290115630191 0.2214321254340751 0.012747983894150225 0.5005702340555674 0.054990054036592524 0.6527000402149575 0.021465298726220265 0.2662887935265962 0.16336443716597726 0.05869034503139634 0.5128444231811762 0.09997447645597163 0.31204586212146657 0.43388305759310114 0.8196278402332177 0.010718998410638442 0.4067315103507065 0.01046954100289377 0.656559827589294;
}
probability ( "MV_hh030" | "LV_variable51" ) {
	table 0.007751035506156193 0.0015837021627701307 7.50369189503241E-4 0.003586574180308609 0.0033609088769266196 0.015375849186998356 0.03634204934657834 0.013559684328535214 0.0016546355929603423 0.012900665622097088 0.02253706205828382 0.06054402681327329 0.16781802988753727 0.07566722810711221 0.024636436914366035 0.08676780799886885 0.12417235596096872 0.18380420347098028 0.320810977430826 0.26383307577607984 0.09651216722427083 0.2651882244070914 0.2675706642981162 0.42843373380324773 0.3414916590888887 0.4261857456232996 0.2738080498990168 0.5202425192759149 0.3662171849765494 0.25697002065531993 0.12578624874001362 0.21917056400220292 0.6026383411798828 0.11131420851571908 0.21614182382915523 0.05487216607018045;
}
probability ( "MV_db100" | "LV_variable51" ) {
	table 0.5621284778503577 0.8686319580658316 0.18036775623258638 0.06838610956289608 0.1235341153704145 0.8042189163768518 0.2963572341111997 0.12452677175359245 0.2367570898683495 0.4897808395645112 0.19711698317642407 0.1506200944980379 0.14151428803844276 0.006841270180575793 0.5828751538990641 0.4418330508725927 0.6793489014531614 0.045160989125110226;
}
probability ( "MV_hs160" | "LV_variable51" ) {
	table 0.32983536833367433 0.02414882501245463 0.012588538986436956 0.017179116760607724 0.0420078532720339 0.06166113557279767 0.6701646316663257 0.9758511749875454 0.987411461013563 0.9828208832393923 0.9579921467279661 0.9383388644272023;
}
probability ( "MV_hs170" | "LV_variable51" ) {
	table 0.6087400076467858 0.153165178048592 0.06206855954801583 0.12033705775459863 0.02875739440852129 0.22467801343690183 0.3912599923532142 0.8468348219514079 0.9379314404519842 0.8796629422454013 0.9712426055914787 0.7753219865630981;
}
probability ( "MV_hh040" | "LV_variable51" ) {
	table 0.7248453329672049 0.0426372329764676 0.15946332677935926 0.07861213681368674 0.306581935580528 0.10365770893765178 0.2751546670327951 0.9573627670235323 0.8405366732206409 0.9213878631863133 0.6934180644194721 0.8963422910623482;
}
probability ( "MV_hs060" | "LV_variable51" ) {
	table 0.38086952053635353 0.8514556409389897 0.8311799515545434 0.702576583561464 0.21910399281746182 0.2134960187262083 0.6191304794636464 0.14854435906101027 0.1688200484454566 0.297423416438536 0.780896007182538 0.7865039812737916;
}
probability ( "MV_hs110" | "LV_variable51" ) {
	table 0.7556980152874636 0.8233409750041618 0.9287715026570682 0.9008519213392303 0.586665881239102 0.37408328725564766 0.12814226347611926 0.003233297075179266 0.0012805525615991401 0.007264103574814175 0.08041402639918946 0.25136225951821434 0.1161597212364172 0.17342572792065888 0.06994794478133265 0.09188397508595543 0.3329200923617085 0.37455445322613806;
}
probability ( "LV_variable51"  ) {
	table 0.05996419163719107 0.361111443438591 0.22892135097831054 0.11238091968960705 0.09303767218016437 0.14458442207613598;
}
