network LCM {
}

variable hh021 {
	type discrete[5] { 1, 2, 3, 4, 5 };
}

variable hh030 {
	type discrete[6] { 1, 2, 3, 4, 5, 6 };
}

variable hc190 {
	type discrete[2] { 1, 2 };
}

variable hs060 {
	type discrete[2] { 1, 2 };
}

variable hs040 {
	type discrete[2] { 1, 2 };
}

variable hs090 {
	type discrete[3] { 1, 2, 3 };
}

variable hs110 {
	type discrete[3] { 1, 2, 3 };
}

variable variable67 {
	type discrete[7] { state0, state1, state2, state3, state4, state5, state6 };
}

probability ( hh021 | variable67 ) {
	(state0) 0.4088873654821869, 0.470983571846486, 0.06148588044327014, 0.005963103418093001, 0.05268007880996384;
	(state1) 0.17940358457830077, 0.1288134944891566, 0.44552155333135934, 0.1331927726729771, 0.11306859492820627;
	(state2) 0.9086381596567104, 0.05159119393138739, 0.0034409152987212896, 0.005783586092806784, 0.0305461450203743;
	(state3) 0.4322456202447873, 0.42910488047573664, 0.0777753677073235, 0.011641678791082058, 0.04923245278107035;
	(state4) 0.7551840340205086, 0.03866784729920246, 0.06175648488435471, 0.041271228660353654, 0.1031204051355807;
	(state5) 0.9204193225356848, 0.008305396784678922, 0.022188488979961944, 0.019575062593577237, 0.02951172910609703;
	(state6) 0.10563060118835557, 0.20952769730968568, 0.5906153359647706, 0.03318428668826167, 0.061042078848926415;
}

probability ( hh030 | variable67 ) {
	(state0) 4.41442851878372E-4, 0.006047108772500736, 0.0636379257520668, 0.23257965237196343, 0.39984871602233296, 0.2974451542292577;
	(state1) 0.01763952739581883, 0.06843201302996302, 0.19119501599705427, 0.399642490376725, 0.24971654941726873, 0.07337440378317013;
	(state2) 7.773861932992003E-4, 0.001935467325619122, 0.02863223297267932, 0.11514823050702815, 0.38116940004467764, 0.4723372829566966;
	(state3) 9.547758128102641E-4, 0.004059554465351309, 0.07107595829584559, 0.27132726427516746, 0.4130293636154386, 0.23955308353538685;
	(state4) 0.003463983679346812, 0.03010173257871048, 0.164036605383793, 0.3147554049176214, 0.32004490501745486, 0.16759736842307346;
	(state5) 0.0010664570962636278, 0.017346267401569346, 0.08284984180847779, 0.31098691938029555, 0.3808591747572335, 0.20689133955616015;
	(state6) 0.030916608863210224, 0.10913310976923556, 0.24446955867188494, 0.341171996577652, 0.22738445677592375, 0.04692426934209348;
}

probability ( hc190 | variable67 ) {
	(state0) 0.0523543497006521, 0.947645650299348;
	(state1) 0.1874021003997411, 0.8125978996002589;
	(state2) 0.22326992490886194, 0.776730075091138;
	(state3) 0.20351302900593313, 0.7964869709940668;
	(state4) 0.4404643895655209, 0.5595356104344792;
	(state5) 0.30307191611709877, 0.6969280838829012;
	(state6) 0.03897194868891884, 0.9610280513110812;
}

probability ( hs060 | variable67 ) {
	(state0) 0.9313423650671568, 0.06865763493284312;
	(state1) 0.03952817787578768, 0.9604718221242123;
	(state2) 0.9809095976662716, 0.01909040233372836;
	(state3) 0.16071502683276717, 0.8392849731672328;
	(state4) 0.1325108112492836, 0.8674891887507165;
	(state5) 0.8575318126674398, 0.14246818733256014;
	(state6) 0.6742039535409562, 0.3257960464590438;
}

probability ( hs040 | variable67 ) {
	(state0) 0.9349203532750944, 0.06507964672490557;
	(state1) 0.1047561381090418, 0.8952438618909582;
	(state2) 0.8463269995591727, 0.1536730004408273;
	(state3) 0.0978018311473288, 0.9021981688526711;
	(state4) 0.07419743051135444, 0.9258025694886455;
	(state5) 0.8106234672309042, 0.18937653276909588;
	(state6) 0.8791108087153073, 0.12088919128469268;
}

probability ( hs090 | variable67 ) {
	(state0) 0.9736107408457877, 0.0032730441288537407, 0.023116215025358603;
	(state1) 0.5136686317646257, 0.4014921344189949, 0.08483923381637938;
	(state2) 0.765296620162225, 0.0072388516829164674, 0.22746452815485863;
	(state3) 0.7819774101646619, 0.10296191595627037, 0.11506067387906772;
	(state4) 0.05166743431162115, 0.03350832229591909, 0.9148242433924598;
	(state5) 0.15045971799535848, 0.015014675121724863, 0.8345256068829167;
	(state6) 0.8690195073991277, 0.02616664497174546, 0.10481384762912672;
}

probability ( hs110 | variable67 ) {
	(state0) 0.9836555452854994, 0.002357827547582626, 0.01398662716691815;
	(state1) 0.436172415263935, 0.45157921895324765, 0.11224836578281727;
	(state2) 0.9446578347344151, 0.005769631488933607, 0.04957253377665117;
	(state3) 0.9369215417847061, 0.032969060790604146, 0.030109397424689842;
	(state4) 0.23920912695166985, 0.03770871350853284, 0.7230821595397974;
	(state5) 0.32739058527545795, 0.010654231750263168, 0.6619551829742789;
	(state6) 0.6308082843927949, 0.11417099618242171, 0.25502071942478344;
}

probability ( variable67 ) {
	table 0.31247147069070824, 0.0770495422721633, 0.1836084647668589, 0.16285686411420366, 0.08850660256430433, 0.11117193464129096, 0.06433512095047046;
}

