// estudios/condiciones_vida/facets/lcm/hh030.obif
// Produced at Mon Apr 09 19:38:17 CEST 2018
network "LCM" {
}

variable "MV_hh010" {
	type discrete[4] { "1" "2" "3" "4" };
}

variable "MV_hh021" {
	type discrete[5] { "1" "2" "3" "4" "5" };
}

variable "MV_hh030" {
	type discrete[6] { "1" "2" "3" "4" "5" "6" };
}

variable "MV_hh081" {
	type discrete[3] { "1" "2" "3" };
}

variable "LV_variable86" {
	type discrete[4] { "state0" "state1" "state2" "state3" };
}

probability ( "MV_hh010" | "LV_variable86" ) {
	table 0.0052232715078288855 0.2931386397913286 0.25992343563512177 0.00722125799107879 0.08370084672326922 0.356770553165037 0.37287703621261925 0.04350628163253359 0.2476813373221749 0.09878640786587098 0.31854772189150626 0.3828845133415899 0.663394544446727 0.25130439917776337 0.04865180626075279 0.5663879470347978;
}
probability ( "MV_hh021" | "LV_variable86" ) {
	table 0.5296986334644049 0.6966297890379403 0.3340515366068144 0.022443071904763575 0.2986580760967587 0.23995675101390787 0.05024317610216621 0.14146599625498685 0.11151633970367998 0.022878756967676966 0.10414897105267827 0.700298198291631 0.023068849122877037 0.003653702655530428 0.07895883219269287 0.10205446945646726 0.037058101612279314 0.03688100032494448 0.4325974840456483 0.03373826409215119;
}
probability ( "MV_hh030" | "LV_variable86" ) {
	table 5.734275039292506E-4 9.439181060468725E-4 0.00717096663715818 0.04849424465245022 0.011423811235033256 0.003515704313832159 0.049633195154470566 0.16508129915365366 0.09382568371596096 0.03445322592605661 0.22461412818122012 0.3264355926119513 0.35285990726508654 0.11022845909419023 0.3233056626483261 0.31780645939494406 0.4808828166915347 0.285591837243698 0.26680687511451234 0.05001800863319346 0.06043435358845528 0.565266855316176 0.12846917226431273 0.09216439555380723;
}
probability ( "MV_hh081" | "LV_variable86" ) {
	table 0.9985840742866648 0.9975250344549988 0.9691147472865831 0.9682913907728935 1.760774526246751E-4 1.8054368223817337E-4 0.001555168859676823 0.02688043331709849 0.001239848260710445 0.0022944218627629943 0.02933008385374011 0.004828175910008005;
}
probability ( "LV_variable86"  ) {
	table 0.4964204246520063 0.3956593759164556 0.045820820432135055 0.062099378999402904;
}
