// estudios/condiciones_vida/facets/lcm/hh040.obif
// Produced at Mon Apr 09 19:41:57 CEST 2018
network "LCM" {
}

variable "MV_hh010" {
	type discrete[4] { "1" "2" "3" "4" };
}

variable "MV_db100" {
	type discrete[3] { "1" "2" "3" };
}

variable "MV_hs160" {
	type discrete[2] { "1" "2" };
}

variable "MV_hs170" {
	type discrete[2] { "1" "2" };
}

variable "MV_hs180" {
	type discrete[2] { "1" "2" };
}

variable "MV_hs190" {
	type discrete[2] { "1" "2" };
}

variable "MV_hh040" {
	type discrete[2] { "1" "2" };
}

variable "MV_hs060" {
	type discrete[2] { "1" "2" };
}

variable "LV_variable179" {
	type discrete[7] { "state0" "state1" "state2" "state3" "state4" "state5" "state6" };
}

probability ( "MV_hh010" | "LV_variable179" ) {
	table 0.3112020251928406 0.013274047848841926 0.07855501198709192 0.027244133241920022 0.3402879099214582 0.00939472887722121 0.19695518511536833 0.4379647055024038 0.0475181926360932 0.2579652116890143 0.03282731665799068 0.6005122512518825 0.03809807657232205 0.33809850775391753 0.17929461115031042 0.20096042027516267 0.28362837193335194 0.15377260274877516 0.032185418920073136 0.5359194583876461 0.2824966335297944 0.07153865815444525 0.7382473392399023 0.37985140439054177 0.7861559473513142 0.02701441990658616 0.41658773616281053 0.1824496736009197;
}
probability ( "MV_db100" | "LV_variable179" ) {
	table 0.10829781847991464 0.8667904668982482 0.6944228426327975 0.8232529347368533 0.16510394006325388 0.49814387602604004 0.053992673500569514 0.23506689272114162 0.1212901625169151 0.15398187954889234 0.15476634974640002 0.21585845616146376 0.3841772499063695 0.48633604674745984 0.6566352887989437 0.011919370584836584 0.1515952778183101 0.021980715516746675 0.6190376037752825 0.11767887406759057 0.45967127975197064;
}
probability ( "MV_hs160" | "LV_variable179" ) {
	table 0.0046865745306635155 0.11764932754154474 0.40461063665279245 0.015445110976384778 0.09111957813380657 0.0897819696522909 0.049597370112550346 0.9953134254693364 0.8823506724584552 0.5953893633472076 0.9845548890236152 0.9088804218661933 0.910218030347709 0.9504026298874496;
}
probability ( "MV_hs170" | "LV_variable179" ) {
	table 0.013017733980443442 0.6317356581260594 0.6940096427711212 0.075908727192191 0.043301659070273286 0.16297058153479932 0.5949395460303479 0.9869822660195566 0.36826434187394064 0.30599035722887874 0.924091272807809 0.9566983409297267 0.8370294184652007 0.40506045396965207;
}
probability ( "MV_hs180" | "LV_variable179" ) {
	table 0.009765538024518476 0.4975835043133054 0.6891272448128154 0.031113822356875296 0.04130010333377887 0.04706036415866191 0.2229815385008359 0.9902344619754816 0.5024164956866946 0.31087275518718455 0.9688861776431247 0.9586998966662211 0.952939635841338 0.7770184614991641;
}
probability ( "MV_hs190" | "LV_variable179" ) {
	table 0.03225223194266548 0.404231832183861 0.5864113605498429 0.04704486423790103 0.08940287932799379 0.06722441174373302 0.22795471465245876 0.9677477680573345 0.5957681678161391 0.4135886394501572 0.9529551357620989 0.9105971206720062 0.9327755882562669 0.7720452853475414;
}
probability ( "MV_hh040" | "LV_variable179" ) {
	table 0.04513049945754341 0.13954509643258678 0.8684090933772843 0.03690067663185255 0.6879814120029845 0.2166327162592111 0.35121552177440324 0.9548695005424567 0.8604549035674132 0.13159090662271558 0.9630993233681475 0.3120185879970155 0.7833672837407888 0.6487844782255967;
}
probability ( "MV_hs060" | "LV_variable179" ) {
	table 0.7023593243145171 0.5833691490304918 0.23571208670115348 0.7489626374231613 0.4572324353719562 0.3800466169511291 0.7421665633088801 0.29764067568548286 0.4166308509695083 0.7642879132988465 0.2510373625768387 0.5427675646280439 0.6199533830488709 0.25783343669111985;
}
probability ( "LV_variable179"  ) {
	table 0.2657652566059446 0.0972939605334332 0.02469965559691165 0.40351793716826817 0.07489247204342984 0.09460685343241516 0.03922386461959749;
}
