// estudios/condiciones_vida/facets/lcm/hh050.obif
// Produced at Mon Apr 09 19:56:32 CEST 2018
network "LCM" {
}

variable "MV_hs050" {
	type discrete[2] { "1" "2" };
}

variable "MV_hs060" {
	type discrete[2] { "1" "2" };
}

variable "MV_hh050" {
	type discrete[2] { "1" "2" };
}

variable "MV_h79_u" {
	type discrete[2] { "1" "2" };
}

variable "MV_h80_u" {
	type discrete[2] { "1" "2" };
}

variable "MV_hs040" {
	type discrete[2] { "1" "2" };
}

variable "MV_hs090" {
	type discrete[3] { "1" "2" "3" };
}

variable "MV_hd080" {
	type discrete[3] { "1" "2" "3" };
}

variable "LV_variable277" {
	type discrete[7] { "state0" "state1" "state2" "state3" "state4" "state5" "state6" };
}

probability ( "MV_hs050" | "LV_variable277" ) {
	table 0.9956332746891687 0.9980686632618909 0.976334980815197 0.9990156133864242 0.34679900352944604 0.7121100794038643 0.5379169477521034 0.004366725310831264 0.0019313367381090828 0.02366501918480304 9.843866135757647E-4 0.653200996470554 0.2878899205961357 0.4620830522478966;
}
probability ( "MV_hs060" | "LV_variable277" ) {
	table 0.21924279386683782 0.84060461134621 0.028759206652596025 0.9692701775983673 0.012721919523017811 0.051215587605764314 0.86303622909437 0.7807572061331621 0.15939538865379002 0.971240793347404 0.030729822401632682 0.9872780804769822 0.9487844123942357 0.13696377090563003;
}
probability ( "MV_hh050" | "LV_variable277" ) {
	table 0.9109468589796016 0.9578244673736211 0.7325974975131037 0.9944345999051415 0.09416957644495358 0.28916580882814136 0.12965150598170563 0.08905314102039845 0.04217553262637885 0.26740250248689634 0.005565400094858511 0.9058304235550464 0.7108341911718586 0.8703484940182943;
}
probability ( "MV_h79_u" | "LV_variable277" ) {
	table 0.04842032325550231 0.014417931178952719 0.5679734388746827 0.0010075603866666052 0.7516116921136907 0.2687291758598546 0.025898696152288413 0.9515796767444976 0.9855820688210473 0.43202656112531734 0.9989924396133334 0.24838830788630933 0.7312708241401453 0.9741013038477115;
}
probability ( "MV_h80_u" | "LV_variable277" ) {
	table 0.0025493744245763048 0.006484486955173533 0.3192432960825931 3.542514294556038E-4 0.6904935849245687 0.02619064152813976 0.018095119318698297 0.9974506255754236 0.9935155130448264 0.680756703917407 0.9996457485705443 0.30950641507543125 0.9738093584718602 0.9819048806813018;
}
probability ( "MV_hs040" | "LV_variable277" ) {
	table 0.2345450271006879 0.6129283563349757 0.09549027600889358 0.9463217920926249 0.030834207563809415 0.05078106593631104 0.4455325819434753 0.7654549728993121 0.3870716436650243 0.9045097239911064 0.05367820790737512 0.9691657924361906 0.949218934063689 0.5544674180565247;
}
probability ( "MV_hs090" | "LV_variable277" ) {
	table 0.5912878504249889 0.39351636223054753 0.543825350095987 0.8376244797109391 0.2727452929874492 0.40661266065801865 0.6243149479149109 0.06972436997111153 0.03132026089933098 0.30889012637082813 0.003241113064256291 0.5457469969370421 0.20720261892841058 0.072702233222202 0.33898777960389964 0.5751633768701214 0.14728452353318489 0.15913440722480454 0.18150771007550867 0.3861847204135709 0.302982818862887;
}
probability ( "MV_hd080" | "LV_variable277" ) {
	table 0.08029419103027516 0.5618602959648197 0.033917796384284375 0.8440051894688544 0.00759161885352404 0.008891315046345388 0.6297550371161116 0.7773105252505773 0.08658657594486265 0.9118251117007244 0.07482922123784763 0.9513443910104438 0.9156850897319785 0.11723416937082344 0.14239528371914764 0.35155312809031775 0.05425709191499127 0.08116558929329794 0.04106399013603219 0.07542359522167608 0.2530107935130649;
}
probability ( "LV_variable277"  ) {
	table 0.2737315175577336 0.08718955364104809 0.05181414611606013 0.52583276657807 0.01372766442177097 0.04309107706902765 0.004613274616289504;
}
