// estudios/condiciones_vida/facets/lcm/hh081.obif
// Produced at Mon Apr 09 19:40:41 CEST 2018
network "LCM" {
}

variable "MV_hh030" {
	type discrete[6] { "1" "2" "3" "4" "5" "6" };
}

variable "MV_hh081" {
	type discrete[3] { "1" "2" "3" };
}

variable "MV_hh091" {
	type discrete[3] { "1" "2" "3" };
}

variable "LV_variable121" {
	type discrete[3] { "state0" "state1" "state2" };
}

probability ( "MV_hh030" | "LV_variable121" ) {
	table 0.0028195487640847723 0.24834674137809395 0.06618128182835203 0.019147704433995504 0.049673011054831115 0.2464780218619999 0.09025604261996921 0.15094673795749305 0.34506369974639745 0.2541055214434633 0.12580617111712242 0.13072255342465636 0.3677562452406989 0.270884990461586 0.1055288078319602 0.2659149374977883 0.15434234803087338 0.10602563530663406;
}
probability ( "MV_hh081" | "LV_variable121" ) {
	table 0.9998166656438235 0.02078710870859565 0.27823839284984786 7.084222933609118E-5 0.4159579105904696 0.07721690415010572 1.1249212684040453E-4 0.5632549807009348 0.6445447030000465;
}
probability ( "MV_hh091" | "LV_variable121" ) {
	table 0.9998459542372354 0.023176702067061333 0.6220664141252507 7.084222933609118E-5 0.41595791059046955 0.07721690415010571 8.320353342849812E-5 0.5608653873424693 0.30071668172464366;
}
probability ( "LV_variable121"  ) {
	table 0.9951346340491821 0.0038888580453066684 9.765079055111621E-4;
}
