// estudios/condiciones_vida/facets/lcm/hs040.obif
// Produced at Mon Apr 09 19:59:10 CEST 2018
network "LCM" {
}

variable "MV_hh021" {
	type discrete[5] { "1" "2" "3" "4" "5" };
}

variable "MV_db100" {
	type discrete[3] { "1" "2" "3" };
}

variable "MV_hc190" {
	type discrete[2] { "1" "2" };
}

variable "MV_hs050" {
	type discrete[2] { "1" "2" };
}

variable "MV_hs060" {
	type discrete[2] { "1" "2" };
}

variable "MV_hh050" {
	type discrete[2] { "1" "2" };
}

variable "MV_h80_u" {
	type discrete[2] { "1" "2" };
}

variable "MV_hs040" {
	type discrete[2] { "1" "2" };
}

variable "MV_hs090" {
	type discrete[3] { "1" "2" "3" };
}

variable "MV_hd080" {
	type discrete[3] { "1" "2" "3" };
}

variable "LV_variable319" {
	type discrete[8] { "state0" "state1" "state2" "state3" "state4" "state5" "state6" "state7" };
}

probability ( "MV_hh021" | "LV_variable319" ) {
	table 0.19425810299281043 0.8141369312818008 0.2539472655863413 0.25147672601971555 0.5346227157284216 0.7356910960333658 0.9223870384220483 0.3637405086182166 0.12563255659162068 0.05778289518779368 0.5108643342549263 0.17869552366519026 0.31681925923437027 0.10790778518075732 0.020024025452146443 0.5007608827902477 0.6084159290102917 0.021283294928843795 0.14991513093349987 0.33789438799514354 0.11569074982336032 0.08148560386489688 0.014011808059417956 0.03532747946392491 0.03899718087592756 0.02905448741678659 0.02105933671437243 0.1300851824995547 0.011366619294040056 0.014669742227961321 0.013137734457493009 0.0013290665834799768 0.032696230529349495 0.07774239118477522 0.06421393251086017 0.10184817982039594 0.02150065591980775 0.060245772693018645 0.030439393608894385 0.0988420625441309;
}
probability ( "MV_db100" | "LV_variable319" ) {
	table 0.7403770104371675 0.43723779992523004 0.45534500349861706 0.5407133905008549 0.7616223229885296 0.28676578148002296 0.47221267559007574 0.28196917013371553 0.20232150722954975 0.17499564709902785 0.2693877509466905 0.24366274922149977 0.1690079733145269 0.23763368094445086 0.16860606695059874 0.31334408733603786 0.05730148233328275 0.3877665529757422 0.27526724555469245 0.21562386027764527 0.06936970369694348 0.47560053757552617 0.3591812574593255 0.40468674253024656;
}
probability ( "MV_hc190" | "LV_variable319" ) {
	table 0.052080805831339 0.40099258742345406 0.12086884715834763 0.2679113681434124 0.07692132538932896 0.17578831300149303 0.2867991936324204 0.05171438823837627 0.947919194168661 0.5990074125765459 0.8791311528416523 0.7320886318565876 0.9230786746106711 0.824211686998507 0.7132008063675795 0.9482856117616236;
}
probability ( "MV_hs050" | "LV_variable319" ) {
	table 0.9942548581453345 0.9862244101277904 0.9948234891201582 0.6915452210414244 0.9988207981031629 0.5063649548038939 0.9989284499874763 0.9986916578413253 0.005745141854665567 0.013775589872209554 0.00517651087984176 0.30845477895857565 0.0011792018968370462 0.4936350451961061 0.0010715500125236307 0.0013083421586747694;
}
probability ( "MV_hs060" | "LV_variable319" ) {
	table 0.3268758529030979 0.2268821573331449 0.1531533747130205 0.007833255761859878 0.9698117688891166 0.6808844883115268 0.9628468900322982 0.9636889698105484 0.6731241470969022 0.773117842666855 0.8468466252869795 0.9921667442381401 0.030188231110883337 0.31911551168847324 0.03715310996770182 0.03631103018945154;
}
probability ( "MV_hh050" | "LV_variable319" ) {
	table 0.936207784239654 0.8950077711773475 0.8363419590690846 0.38031885673005167 0.9946018541783535 0.061960689097025685 0.9844676418769396 0.9932218156885804 0.06379221576034606 0.1049922288226524 0.16365804093091546 0.6196811432699484 0.005398145821646516 0.9380393109029743 0.015532358123060365 0.006778184311419651;
}
probability ( "MV_h80_u" | "LV_variable319" ) {
	table 0.043863282737358844 0.004041134131210602 0.026108549664602333 0.34504788636545874 4.510169571090475E-4 0.012852375115673026 0.0011567005925437097 7.263577875143443E-4 0.9561367172626413 0.9959588658687893 0.9738914503353976 0.6549521136345413 0.999548983042891 0.9871476248843271 0.9988432994074563 0.9992736422124856;
}
probability ( "MV_hs040" | "LV_variable319" ) {
	table 0.6187040638205357 0.14587398470414295 0.19621846428599657 0.032020009048952004 0.986695294712362 0.3480225685023943 0.8488143238045708 0.8616515536359344 0.38129593617946433 0.8541260152958571 0.8037815357140035 0.967979990951048 0.013304705287638127 0.6519774314976056 0.1511856761954292 0.1383484463640655;
}
probability ( "MV_hs090" | "LV_variable319" ) {
	table 0.7741889067323833 0.2956814482828168 0.8566454149584928 0.3319002011450732 0.9682726981781313 0.5464501845995836 0.4149402615365562 0.9519073578562075 0.07493693883142491 0.05488731411896495 0.09779452521177706 0.426987040308813 7.966627834173545E-4 0.05633333791740346 0.011997089773066835 0.008072572336863917 0.15087415443619165 0.6494312375982183 0.04556005982973005 0.2411127585461137 0.030930639038451346 0.39721647748301286 0.5730626486903768 0.040020069806928585;
}
probability ( "MV_hd080" | "LV_variable319" ) {
	table 0.18450783676092813 0.08932922418829828 0.06083985857674366 0.005956399554896294 0.8780006567732657 0.40373691611370477 0.7630551604279172 0.7860061559428122 0.4678346837899919 0.7285133286150915 0.8756174365232878 0.9421882345659393 0.042499959179524746 0.318644060273842 0.08506911641871172 0.13411458468979942 0.34765747944907993 0.18215744719661012 0.06354270489996852 0.05185536587916431 0.07949938404720942 0.2776190236124533 0.15187572315337108 0.07987925936738831;
}
probability ( "LV_variable319"  ) {
	table 0.05057909318404037 0.15114909074778107 0.13321467204263743 0.06362334614047184 0.24785479278445713 0.00675686012931462 0.19397222221446275 0.15284992275683476;
}
