network LCM {
}

variable hh021 {
	type discrete[5] { 1, 2, 3, 4, 5 };
}

variable db100 {
	type discrete[3] { 1, 2, 3 };
}

variable hc190 {
	type discrete[2] { 1, 2 };
}

variable hs050 {
	type discrete[2] { 1, 2 };
}

variable hs060 {
	type discrete[2] { 1, 2 };
}

variable hh050 {
	type discrete[2] { 1, 2 };
}

variable h80_u {
	type discrete[2] { 1, 2 };
}

variable hs040 {
	type discrete[2] { 1, 2 };
}

variable hs090 {
	type discrete[3] { 1, 2, 3 };
}

variable hd080 {
	type discrete[3] { 1, 2, 3 };
}

variable variable319 {
	type discrete[8] { state0, state1, state2, state3, state4, state5, state6, state7 };
}

probability ( hh021 | variable319 ) {
	(state0) 0.19425810299281043, 0.12563255659162068, 0.6084159290102917, 0.03899718087592756, 0.032696230529349495;
	(state1) 0.8141369312818008, 0.05778289518779368, 0.021283294928843795, 0.02905448741678659, 0.07774239118477522;
	(state2) 0.2539472655863413, 0.5108643342549263, 0.14991513093349987, 0.02105933671437243, 0.06421393251086017;
	(state3) 0.25147672601971555, 0.17869552366519026, 0.33789438799514354, 0.1300851824995547, 0.10184817982039594;
	(state4) 0.5346227157284216, 0.31681925923437027, 0.11569074982336032, 0.011366619294040056, 0.02150065591980775;
	(state5) 0.7356910960333658, 0.10790778518075732, 0.08148560386489688, 0.014669742227961321, 0.060245772693018645;
	(state6) 0.9223870384220483, 0.020024025452146443, 0.014011808059417956, 0.013137734457493009, 0.030439393608894385;
	(state7) 0.3637405086182166, 0.5007608827902477, 0.03532747946392491, 0.0013290665834799768, 0.0988420625441309;
}

probability ( db100 | variable319 ) {
	(state0) 0.7403770104371675, 0.20232150722954975, 0.05730148233328275;
	(state1) 0.43723779992523004, 0.17499564709902785, 0.3877665529757422;
	(state2) 0.45534500349861706, 0.2693877509466905, 0.27526724555469245;
	(state3) 0.5407133905008549, 0.24366274922149977, 0.21562386027764527;
	(state4) 0.7616223229885296, 0.1690079733145269, 0.06936970369694348;
	(state5) 0.28676578148002296, 0.23763368094445086, 0.47560053757552617;
	(state6) 0.47221267559007574, 0.16860606695059874, 0.3591812574593255;
	(state7) 0.28196917013371553, 0.31334408733603786, 0.40468674253024656;
}

probability ( hc190 | variable319 ) {
	(state0) 0.052080805831339, 0.947919194168661;
	(state1) 0.40099258742345406, 0.5990074125765459;
	(state2) 0.12086884715834763, 0.8791311528416523;
	(state3) 0.2679113681434124, 0.7320886318565876;
	(state4) 0.07692132538932896, 0.9230786746106711;
	(state5) 0.17578831300149303, 0.824211686998507;
	(state6) 0.2867991936324204, 0.7132008063675795;
	(state7) 0.05171438823837627, 0.9482856117616236;
}

probability ( hs050 | variable319 ) {
	(state0) 0.9942548581453345, 0.005745141854665567;
	(state1) 0.9862244101277904, 0.013775589872209554;
	(state2) 0.9948234891201582, 0.00517651087984176;
	(state3) 0.6915452210414244, 0.30845477895857565;
	(state4) 0.9988207981031629, 0.0011792018968370462;
	(state5) 0.5063649548038939, 0.4936350451961061;
	(state6) 0.9989284499874763, 0.0010715500125236307;
	(state7) 0.9986916578413253, 0.0013083421586747694;
}

probability ( hs060 | variable319 ) {
	(state0) 0.3268758529030979, 0.6731241470969022;
	(state1) 0.2268821573331449, 0.773117842666855;
	(state2) 0.1531533747130205, 0.8468466252869795;
	(state3) 0.007833255761859878, 0.9921667442381401;
	(state4) 0.9698117688891166, 0.030188231110883337;
	(state5) 0.6808844883115268, 0.31911551168847324;
	(state6) 0.9628468900322982, 0.03715310996770182;
	(state7) 0.9636889698105484, 0.03631103018945154;
}

probability ( hh050 | variable319 ) {
	(state0) 0.936207784239654, 0.06379221576034606;
	(state1) 0.8950077711773475, 0.1049922288226524;
	(state2) 0.8363419590690846, 0.16365804093091546;
	(state3) 0.38031885673005167, 0.6196811432699484;
	(state4) 0.9946018541783535, 0.005398145821646516;
	(state5) 0.061960689097025685, 0.9380393109029743;
	(state6) 0.9844676418769396, 0.015532358123060365;
	(state7) 0.9932218156885804, 0.006778184311419651;
}

probability ( h80_u | variable319 ) {
	(state0) 0.043863282737358844, 0.9561367172626413;
	(state1) 0.004041134131210602, 0.9959588658687893;
	(state2) 0.026108549664602333, 0.9738914503353976;
	(state3) 0.34504788636545874, 0.6549521136345413;
	(state4) 4.510169571090475E-4, 0.999548983042891;
	(state5) 0.012852375115673026, 0.9871476248843271;
	(state6) 0.0011567005925437097, 0.9988432994074563;
	(state7) 7.263577875143443E-4, 0.9992736422124856;
}

probability ( hs040 | variable319 ) {
	(state0) 0.6187040638205357, 0.38129593617946433;
	(state1) 0.14587398470414295, 0.8541260152958571;
	(state2) 0.19621846428599657, 0.8037815357140035;
	(state3) 0.032020009048952004, 0.967979990951048;
	(state4) 0.986695294712362, 0.013304705287638127;
	(state5) 0.3480225685023943, 0.6519774314976056;
	(state6) 0.8488143238045708, 0.1511856761954292;
	(state7) 0.8616515536359344, 0.1383484463640655;
}

probability ( hs090 | variable319 ) {
	(state0) 0.7741889067323833, 0.07493693883142491, 0.15087415443619165;
	(state1) 0.2956814482828168, 0.05488731411896495, 0.6494312375982183;
	(state2) 0.8566454149584928, 0.09779452521177706, 0.04556005982973005;
	(state3) 0.3319002011450732, 0.426987040308813, 0.2411127585461137;
	(state4) 0.9682726981781313, 7.966627834173545E-4, 0.030930639038451346;
	(state5) 0.5464501845995836, 0.05633333791740346, 0.39721647748301286;
	(state6) 0.4149402615365562, 0.011997089773066835, 0.5730626486903768;
	(state7) 0.9519073578562075, 0.008072572336863917, 0.040020069806928585;
}

probability ( hd080 | variable319 ) {
	(state0) 0.18450783676092813, 0.4678346837899919, 0.34765747944907993;
	(state1) 0.08932922418829828, 0.7285133286150915, 0.18215744719661012;
	(state2) 0.06083985857674366, 0.8756174365232878, 0.06354270489996852;
	(state3) 0.005956399554896294, 0.9421882345659393, 0.05185536587916431;
	(state4) 0.8780006567732657, 0.042499959179524746, 0.07949938404720942;
	(state5) 0.40373691611370477, 0.318644060273842, 0.2776190236124533;
	(state6) 0.7630551604279172, 0.08506911641871172, 0.15187572315337108;
	(state7) 0.7860061559428122, 0.13411458468979942, 0.07987925936738831;
}

probability ( variable319 ) {
	table 0.05057909318404037, 0.15114909074778107, 0.13321467204263743, 0.06362334614047184, 0.24785479278445713, 0.00675686012931462, 0.19397222221446275, 0.15284992275683476;
}

