network LCM {
}

variable hs050 {
	type discrete[2] { 1, 2 };
}

variable hh050 {
	type discrete[2] { 1, 2 };
}

variable h80_u {
	type discrete[2] { 1, 2 };
}

variable hs040 {
	type discrete[2] { 1, 2 };
}

variable variable239 {
	type discrete[3] { state0, state1, state2 };
}

probability ( hs050 | variable239 ) {
	(state0) 0.449795102313198, 0.5502048976868019;
	(state1) 0.9986669825171998, 0.0013330174828001039;
	(state2) 0.9843228387413434, 0.015677161258656522;
}

probability ( hh050 | variable239 ) {
	(state0) 0.11168768246343388, 0.888312317536566;
	(state1) 0.981781183501807, 0.01821881649819295;
	(state2) 0.837082188189412, 0.16291781181058793;
}

probability ( h80_u | variable239 ) {
	(state0) 0.3168493379333458, 0.6831506620666542;
	(state1) 0.0019154842807343902, 0.9980845157192656;
	(state2) 0.05397313335595938, 0.9460268666440406;
}

probability ( hs040 | variable239 ) {
	(state0) 0.07550053602564856, 0.9244994639743513;
	(state1) 0.8892195821846863, 0.11078041781531364;
	(state2) 0.04900452331884886, 0.9509954766811511;
}

probability ( variable239 ) {
	table 0.03841648671217756, 0.6841529621887327, 0.27743055109908976;
}

