// estudios/condiciones_vida/facets/lcm/hs060.obif
// Produced at Mon Apr 09 19:56:14 CEST 2018
network "LCM" {
}

variable "MV_hh010" {
	type discrete[4] { "1" "2" "3" "4" };
}

variable "MV_hh021" {
	type discrete[5] { "1" "2" "3" "4" "5" };
}

variable "MV_db100" {
	type discrete[3] { "1" "2" "3" };
}

variable "MV_hs160" {
	type discrete[2] { "1" "2" };
}

variable "MV_hh040" {
	type discrete[2] { "1" "2" };
}

variable "MV_hs060" {
	type discrete[2] { "1" "2" };
}

variable "MV_hh050" {
	type discrete[2] { "1" "2" };
}

variable "MV_h79_u" {
	type discrete[2] { "1" "2" };
}

variable "MV_h80_u" {
	type discrete[2] { "1" "2" };
}

variable "MV_hs040" {
	type discrete[2] { "1" "2" };
}

variable "MV_hs090" {
	type discrete[3] { "1" "2" "3" };
}

variable "MV_hs110" {
	type discrete[3] { "1" "2" "3" };
}

variable "MV_hd080" {
	type discrete[3] { "1" "2" "3" };
}

variable "LV_variable246" {
	type discrete[11] { "state0" "state1" "state2" "state3" "state4" "state5" "state6" "state7" "state8" "state9" "state10" };
}

probability ( "MV_hh010" | "LV_variable246" ) {
	table 0.3468564025310464 0.2881475478803592 0.006681550659345676 0.29632344264902233 0.018887820102184694 0.022154223174153696 0.3080128609848496 0.009826706524272538 0.18813834052053907 0.010333018280120053 0.009630943175194957 0.48839469296451715 0.47701473634274283 0.03163808603629218 0.6216208338139178 0.016082544636983387 0.03831100303199674 0.37647636698070075 0.04286689618207325 0.5746334199316453 0.014497318252127947 0.023616516994091372 0.14366748730704113 0.18896611129441937 0.30811401342585565 0.06954519033565218 0.19842056776910413 0.16567392757053756 0.20505382748046064 0.2120454919242224 0.18062710169682578 0.30516466577177254 0.36070145404395354 0.021081417197395407 0.04587160448247856 0.6535663498785065 0.01251053320140753 0.7666090674917277 0.773860846223312 0.110456944553989 0.7352609053694319 0.056601137850989774 0.6700049976959795 0.60605108578676;
}
probability ( "MV_hh021" | "LV_variable246" ) {
	table 0.9430024199328498 0.481474914458371 0.10329537915310166 0.8488883914872232 0.8782859329697905 0.5406779928578537 0.5482254071940592 0.3898986903502256 0.3150624650156949 0.7313304548332427 0.1394963125743473 0.010606352251585387 0.3577042950253152 0.12128809729298677 0.025197129382252114 0.015437358075630797 0.33499507362173425 0.338865087121586 0.43400628414941217 0.17656598251806388 0.03933850054527923 0.23720389773991837 0.007320167455533225 0.0738688386114231 0.6897590290175311 0.010258132920019062 0.048010123099816455 0.08732184258988439 0.03574150347289053 0.11210543822706259 0.18052481702384976 0.10662119634244642 0.43573452643278454 0.006222356487390538 0.013670796981189467 0.026931079915192942 0.01654921837702071 0.028695314038114584 0.009600645635476936 0.003064688201567412 0.023836921100699578 0.10693626659735124 0.05053290044532224 0.12742712807723988 0.032848703872640994 0.07328115492370121 0.05872641462118752 0.09910712783348474 0.02957127181664758 0.027404445295050844 0.0741033140098968 0.040152666172599924 0.22091046884504015 0.07217694783370937 0.06013813517570997;
}
probability ( "MV_db100" | "LV_variable246" ) {
	table 0.06994957810952666 0.12795443719892777 0.7613358028672584 0.1515601315574394 0.8248775998265734 0.8234400978524575 0.15752838552538273 0.6847788565203616 0.31086053681865217 0.7661660831408452 0.678640045671205 0.16504183096791308 0.26704291640222033 0.16773717625559295 0.17284490669264127 0.14314424379165205 0.16289323860839572 0.3047151822562435 0.2397663017681356 0.25572443990461863 0.17887496305103393 0.23629945364659344 0.7650085909225602 0.605002646398852 0.07092702087714862 0.6755949617499193 0.03197815638177465 0.013666663539146742 0.5377564322183739 0.0754548417115027 0.43341502327672915 0.054958953808120964 0.08506050068220168;
}
probability ( "MV_hs160" | "LV_variable246" ) {
	table 0.02042722310600255 0.036292869493871865 0.143242497716664 0.038557667152696345 0.031266184243778944 0.0320212787422627 0.023871859443166922 0.04976013287573201 0.2343990862607591 0.04229950640148077 0.1197022468094073 0.9795727768939975 0.9637071305061281 0.856757502283336 0.9614423328473037 0.9687338157562212 0.9679787212577373 0.9761281405568331 0.9502398671242681 0.765600913739241 0.9577004935985193 0.8802977531905927;
}
probability ( "MV_hh040" | "LV_variable246" ) {
	table 0.17687207269898916 0.2669855034192825 0.17141848464439738 0.27309050745135255 0.05136818361317123 0.06315959782153241 0.1508643168327829 0.12486631684188108 0.6547525944605568 0.05549488500523749 0.2765079693257836 0.8231279273010108 0.7330144965807174 0.8285815153556026 0.7269094925486473 0.9486318163868288 0.9368404021784676 0.8491356831672171 0.875133683158119 0.3452474055394432 0.9445051149947625 0.7234920306742165;
}
probability ( "MV_hs060" | "LV_variable246" ) {
	table 0.9382352071431661 0.24872608297926682 0.44797262389020526 0.18315763164136217 0.9470041693033164 0.9674082058791302 0.974322123185029 0.19741974151509412 0.008094571530737013 0.13976478884708962 0.025532299498731457 0.06176479285683383 0.7512739170207332 0.5520273761097948 0.8168423683586378 0.05299583069668361 0.03259179412086975 0.025677876814970947 0.8025802584849058 0.991905428469263 0.8602352111529105 0.9744677005012685;
}
probability ( "MV_hh050" | "LV_variable246" ) {
	table 0.9644121647136737 0.8283038527121912 0.9501438341000954 0.8654770073707866 0.9799034546461054 0.9914845345681303 0.992044856432762 0.8672156412516991 0.48895576640189775 0.8202435930803736 0.4999499478063994 0.03558783528632624 0.17169614728780885 0.04985616589990464 0.1345229926292134 0.02009654535389456 0.008515465431869628 0.00795514356723804 0.13278435874830086 0.5110442335981022 0.17975640691962635 0.5000500521936005;
}
probability ( "MV_h79_u" | "LV_variable246" ) {
	table 0.004534838669015828 0.07973606749209051 0.04318663490511304 0.05807851348862359 0.0021925543876179956 0.0017178301485622353 0.0011300793499091721 0.08665610351865038 0.5891036783801873 0.10322761358941238 0.49802218980643687 0.9954651613309842 0.9202639325079095 0.9568133650948869 0.9419214865113764 0.997807445612382 0.9982821698514377 0.9988699206500907 0.9133438964813496 0.4108963216198127 0.8967723864105877 0.5019778101935631;
}
probability ( "MV_h80_u" | "LV_variable246" ) {
	table 0.002455663761695533 0.008794420809268864 0.026731053674539252 0.00874020445004769 0.0013449136644418983 3.852580421298186E-4 7.745292249238571E-4 0.0019604069432992326 0.3769475371683313 0.013970806369665958 0.31304936799231803 0.9975443362383044 0.991205579190731 0.9732689463254607 0.9912597955499524 0.9986550863355581 0.9996147419578701 0.9992254707750761 0.9980395930567006 0.6230524628316687 0.986029193630334 0.686950632007682;
}
probability ( "MV_hs040" | "LV_variable246" ) {
	table 0.7600952101812686 0.14951201016355836 0.6735533264804688 0.11868156599334054 0.8663327549223402 0.9567990828927418 0.8940536708868058 0.2524006838395187 0.05618891687074944 0.181879410118458 0.07896746665266724 0.23990478981873145 0.8504879898364417 0.32644667351953127 0.8813184340066594 0.13366724507765992 0.04320091710725813 0.10594632911319432 0.7475993161604813 0.9438110831292505 0.818120589881542 0.9210325333473327;
}
probability ( "MV_hs090" | "LV_variable246" ) {
	table 0.08712021925606285 0.7944305881221038 0.8911581840873715 0.024507202998330018 0.19947488997057453 0.9694751176439383 0.9371361827702642 0.8564078586366016 0.30181087192059713 0.12326024680650881 0.5079914783659535 0.025525938719969075 0.11508048439922616 0.06715477318971125 0.016072844146112424 0.013128406005168626 0.0012640186474591926 0.005506372235378523 0.06480651024196381 0.4165194587336585 0.035901119141844455 0.3987427889525281 0.887353842023968 0.09048892747867013 0.04168704272291728 0.9594199528555576 0.7873967040242568 0.02926086370860241 0.057357444994357146 0.07878563112143457 0.28166966934574433 0.8408386340516467 0.09326573268151844;
}
probability ( "MV_hs110" | "LV_variable246" ) {
	table 0.6344564421475153 0.96386673269608 0.5348119069538912 0.41006367031529045 0.3816117069363135 0.9385826813844381 0.9930488697467006 0.9044847279214338 0.5419547821669536 0.15322712715782716 0.45014286833036565 0.007629738892185839 0.026607056847464738 0.22378829257461966 0.021884709779235432 0.013058321942594289 0.0067973389067829066 0.0038070911861083924 0.05782309838257846 0.2858561419666013 0.041023037625241524 0.43952371396042583 0.3579138189602989 0.009526210456455088 0.24139980047148898 0.5680516199054743 0.6053299711210922 0.05461997970877892 0.003144039067191169 0.037692173695987874 0.1721890758664451 0.8057498352169313 0.11033341770920838;
}
probability ( "MV_hd080" | "LV_variable246" ) {
	table 0.712541756768836 0.08030546762699306 0.28813681253255274 0.06847051747373638 0.7274760291394404 0.865346808978977 0.8086943707424894 0.09385682928097397 0.02497930469983764 0.05377829736775929 0.01748853296811748 0.08080545134802833 0.795398117255592 0.3849525072785535 0.7392233475760253 0.10846557029864802 0.057250827805003374 0.09522170213195102 0.8126831492711312 0.9490009855479549 0.7584566798873685 0.9248768525679709 0.20665279188313573 0.12429641511741488 0.3269106801888937 0.1923061349502385 0.16405840056191145 0.0774023632160197 0.09608392712555971 0.0934600214478949 0.02601970975220745 0.18776502274487222 0.057634614463911625;
}
probability ( "LV_variable246"  ) {
	table 0.0559481175906159 0.08943397281676055 0.03942474309920066 0.04778398840850183 0.08270634649884995 0.26925917982665 0.18724760960310127 0.09668305831185707 0.023010885180958226 0.05553099672621632 0.05297110193728821;
}
