network LCM {
}

variable variable341 {
	type discrete[2] { state0, state1 };
}

variable hs070 {
	type discrete[3] { 1, 2, 3 };
}

variable hs090 {
	type discrete[3] { 1, 2, 3 };
}

probability ( variable341 ) {
	table 0.9811760716455924, 0.018823928354407604;
}

probability ( hs070 | variable341 ) {
	(state0) 0.9960767890765898, 7.325996806900827E-4, 0.00319061124272004;
	(state1) 0.51149981217408, 0.08106060301003246, 0.4074395848158875;
}

probability ( hs090 | variable341 ) {
	(state0) 0.700472450677604, 0.05428074492344141, 0.24524680439895463;
	(state1) 0.10339165805922661, 0.1506414162385095, 0.7459669257022639;
}

