network LCM {
}

variable hh021 {
	type discrete[5] { 1, 2, 3, 4, 5 };
}

variable db100 {
	type discrete[3] { 1, 2, 3 };
}

variable hs100 {
	type discrete[3] { 1, 2, 3 };
}

variable family_size {
	type discrete[5] { 1, 2, 3, 4, 5 };
}

variable hc190 {
	type discrete[2] { 1, 2 };
}

variable hs060 {
	type discrete[2] { 1, 2 };
}

variable hh050 {
	type discrete[2] { 1, 2 };
}

variable h79_u {
	type discrete[2] { 1, 2 };
}

variable h80_u {
	type discrete[2] { 1, 2 };
}

variable hs040 {
	type discrete[2] { 1, 2 };
}

variable hs070 {
	type discrete[3] { 1, 2, 3 };
}

variable hs090 {
	type discrete[3] { 1, 2, 3 };
}

variable hs110 {
	type discrete[3] { 1, 2, 3 };
}

variable variable349 {
	type discrete[10] { state0, state1, state2, state3, state4, state5, state6, state7, state8, state9 };
}

probability ( hh021 | variable349 ) {
	(state0) 0.8274248264442267, 0.0932642024993122, 0.013487143167350488, 0.006373555704929906, 0.05945027218418086;
	(state1) 0.7310727485150934, 0.0367086317149296, 0.060819925648992273, 0.04537361429563129, 0.12602507982535327;
	(state2) 0.919089802134907, 0.02672487999505782, 0.025071724645447182, 0.015330956900533177, 0.013782636324054869;
	(state3) 0.32967630957801336, 0.44308209456233993, 0.13847753377545022, 0.024289794908836683, 0.0644742671753597;
	(state4) 0.1940195751925804, 0.1643845035236305, 0.4980274383782606, 0.058440377683113484, 0.08512810522241507;
	(state5) 0.4836608870347848, 0.42356304929791116, 0.04042113530757306, 0.0037893052653721893, 0.04856562309435866;
	(state6) 0.8891239862941178, 0.010528816648146408, 0.04275173010824505, 0.026520810986270064, 0.03107465596322071;
	(state7) 0.18564404004585983, 0.22124879527366556, 0.3181808134382054, 0.1638894145174148, 0.11103693672485439;
	(state8) 0.8248927122129096, 0.0901953832926085, 0.03730901067676265, 0.018963575008501283, 0.028639318809217967;
	(state9) 0.31914175706448533, 0.23722681629330697, 0.36082512452802373, 0.02038502665175181, 0.06242127546243215;
}

probability ( db100 | variable349 ) {
	(state0) 0.23317923134866317, 0.21130188915702638, 0.5555188794943104;
	(state1) 0.4818148619988172, 0.18260493769014, 0.3355802003110427;
	(state2) 0.6944448727357785, 0.14367308090507114, 0.16188204635915038;
	(state3) 0.3952231167179996, 0.27460333481907967, 0.3301735484629208;
	(state4) 0.756233858668011, 0.14314868195905703, 0.10061745937293193;
	(state5) 0.4839483176989475, 0.2510552481921884, 0.26499643410886414;
	(state6) 0.6171688760354115, 0.15365795758784445, 0.22917316637674415;
	(state7) 0.5231617565174013, 0.26862187191648557, 0.20821637156611328;
	(state8) 0.38975512779278504, 0.18794551010599542, 0.4222993621012196;
	(state9) 0.7869119832986855, 0.15235716930505563, 0.06073084739625892;
}

probability ( hs100 | variable349 ) {
	(state0) 0.9884411993156658, 0.001785746597315978, 0.0097730540870183;
	(state1) 0.9737915131708926, 0.00668737624085766, 0.019521110588249586;
	(state2) 0.9980200472585611, 8.498318060546316E-4, 0.0011301209353843042;
	(state3) 0.9973202023008638, 9.323831017592433E-4, 0.0017474145973769264;
	(state4) 0.988558700303806, 0.007466688490508112, 0.003974611205685906;
	(state5) 0.9993231333261838, 2.4774822219835894E-4, 4.2911845161778E-4;
	(state6) 0.9838815009661097, 9.233001908851843E-4, 0.01519519884300529;
	(state7) 0.9718353739848773, 0.023193426536270375, 0.004971199478852291;
	(state8) 0.9952360927820336, 0.0030056337150999902, 0.0017582735028664265;
	(state9) 0.9954956125410644, 9.613083635312995E-4, 0.0035430790954042754;
}

probability ( family_size | variable349 ) {
	(state0) 0.31778472998365054, 0.5796345352988093, 0.08596236697420774, 0.011383418585556363, 0.005234949157776303;
	(state1) 0.7314365551715678, 0.25132915752618823, 0.00943375233152339, 0.006182906155751279, 0.0016176288149693124;
	(state2) 0.04369833030899972, 0.7328528051255935, 0.19476293525747765, 0.009893182395962647, 0.01879274691196651;
	(state3) 0.08496614824516874, 0.16531256617363124, 0.3001585665445456, 0.3350462138327183, 0.11451650520393593;
	(state4) 0.31618338632063486, 0.28735445853537844, 0.24718716150565564, 0.08275472751068444, 0.06652026612764671;
	(state5) 0.06873948060991543, 0.18985567037424464, 0.3176844031144403, 0.3506982402285475, 0.07302220567285209;
	(state6) 0.7255717734351497, 0.2522245802156584, 0.019793116631356654, 0.0013522811936194992, 0.0010582485242156712;
	(state7) 0.18569839205266703, 0.24686877491016118, 0.17826120783470042, 0.1736886132044054, 0.21548301199806585;
	(state8) 0.007360104225944671, 0.6291249813817681, 0.27681015055469155, 0.0283877051684976, 0.05831705866909814;
	(state9) 0.4832284913507739, 0.30619076171130494, 0.1223979830169397, 0.06365534282837229, 0.02452742109260904;
}

probability ( hc190 | variable349 ) {
	(state0) 0.16146292659154296, 0.8385370734084571;
	(state1) 0.3925434726968837, 0.6074565273031162;
	(state2) 0.24512565437706646, 0.7548743456229335;
	(state3) 0.1450072331711873, 0.8549927668288128;
	(state4) 0.12371588396182821, 0.8762841160381718;
	(state5) 0.09034629039757981, 0.9096537096024202;
	(state6) 0.30042571115418226, 0.6995742888458177;
	(state7) 0.23792704270500345, 0.7620729572949966;
	(state8) 0.5298795955873837, 0.4701204044126162;
	(state9) 0.030949292262645936, 0.9690507077373541;
}

probability ( hs060 | variable349 ) {
	(state0) 0.86237435777215, 0.13762564222784993;
	(state1) 0.09689214630148807, 0.903107853698512;
	(state2) 0.9611410691440205, 0.038858930855979405;
	(state3) 0.12941944595321134, 0.8705805540467886;
	(state4) 0.1113389645653314, 0.8886610354346685;
	(state5) 0.950312137367949, 0.04968786263205099;
	(state6) 0.8392431300599311, 0.1607568699400689;
	(state7) 0.006992897557078172, 0.9930071024429219;
	(state8) 0.28620522501600304, 0.7137947749839969;
	(state9) 0.8320570056918105, 0.16794299430818946;
}

probability ( hh050 | variable349 ) {
	(state0) 0.9492722759055351, 0.050727724094464965;
	(state1) 0.7760078183646782, 0.22399218163532164;
	(state2) 0.9939814854828866, 0.006018514517113475;
	(state3) 0.8094482992155891, 0.1905517007844109;
	(state4) 0.7331140560702099, 0.2668859439297902;
	(state5) 0.9916387274163984, 0.008361272583601673;
	(state6) 0.9756858842287766, 0.02431411577122343;
	(state7) 0.4295374628049043, 0.5704625371950957;
	(state8) 0.8562582733581218, 0.14374172664187823;
	(state9) 0.9795467184668499, 0.020453281533149965;
}

probability ( h79_u | variable349 ) {
	(state0) 0.007171601414170624, 0.9928283985858294;
	(state1) 0.16543699064305079, 0.8345630093569492;
	(state2) 0.0014152631974284101, 0.9985847368025716;
	(state3) 0.1425335230879531, 0.8574664769120469;
	(state4) 0.1865734667017622, 0.8134265332982378;
	(state5) 0.0018170840721143812, 0.9981829159278857;
	(state6) 0.0051168533893986385, 0.9948831466106013;
	(state7) 0.6737597282348793, 0.3262402717651207;
	(state8) 0.014905747143746696, 0.9850942528562533;
	(state9) 0.008617303685885026, 0.991382696314115;
}

probability ( h80_u | variable349 ) {
	(state0) 0.0029911121223694993, 0.9970088878776304;
	(state1) 0.033632793855392806, 0.9663672061446072;
	(state2) 8.990650380597678E-4, 0.9991009349619402;
	(state3) 0.018661604068978474, 0.9813383959310215;
	(state4) 0.05714255526055383, 0.9428574447394462;
	(state5) 3.899791595410639E-4, 0.9996100208404589;
	(state6) 0.0011732378885571406, 0.998826762111443;
	(state7) 0.5386521353398239, 0.46134786466017597;
	(state8) 0.005376399039842393, 0.9946236009601576;
	(state9) 0.0021797572577342953, 0.9978202427422657;
}

probability ( hs040 | variable349 ) {
	(state0) 0.7572293137758016, 0.24277068622419834;
	(state1) 0.04432128827800334, 0.9556787117219966;
	(state2) 0.9879577393578615, 0.012042260642138475;
	(state3) 0.13701619866298717, 0.8629838013370129;
	(state4) 0.2492729326131558, 0.7507270673868441;
	(state5) 0.8833471854304987, 0.11665281456950133;
	(state6) 0.7902360680697778, 0.20976393193022225;
	(state7) 0.039785053462391536, 0.9602149465376084;
	(state8) 0.062213595063951146, 0.9377864049360489;
	(state9) 0.9649516014889331, 0.035048398511066836;
}

probability ( hs070 | variable349 ) {
	(state0) 0.9776920418654642, 0.0012652641790756986, 0.02104269395546005;
	(state1) 0.9383919924416184, 0.007815138885692454, 0.05379286867268918;
	(state2) 0.997225084841893, 7.11763937350251E-4, 0.00206315122075688;
	(state3) 0.9951627746060946, 0.0017222215420513748, 0.003115003851854005;
	(state4) 0.9581809661355852, 0.014516706812495065, 0.027302327051919574;
	(state5) 0.9976752758551611, 3.019092272871186E-4, 0.0020228149175516275;
	(state6) 0.9663088765652779, 9.097660804677368E-4, 0.032781357354254304;
	(state7) 0.9685884852558885, 0.022999379700219924, 0.0084121350438916;
	(state8) 0.9887298135220972, 0.0022431277241537536, 0.009027058753749071;
	(state9) 0.9891218073779391, 8.41434414999258E-4, 0.010036758207061633;
}

probability ( hs090 | variable349 ) {
	(state0) 0.1225087344084376, 0.03301427878917139, 0.844476986802391;
	(state1) 0.03137076746037903, 0.02434060924027365, 0.9442886232993473;
	(state2) 0.7650120054025012, 0.004549282810310348, 0.23043871178718844;
	(state3) 0.8549989853010147, 0.09956651987988502, 0.045434494819100314;
	(state4) 0.6671634661720898, 0.2279396299470753, 0.10489690388083485;
	(state5) 0.9874640155306357, 0.002417512115073068, 0.01011847235429116;
	(state6) 0.10586735972202188, 0.012400620730703995, 0.8817320195472742;
	(state7) 0.3504267001817379, 0.5293493864130625, 0.1202239134051995;
	(state8) 0.3797806492857742, 0.08692454075107243, 0.5332948099631534;
	(state9) 0.9412046282900909, 0.010508526515667593, 0.04828684519424164;
}

probability ( hs110 | variable349 ) {
	(state0) 0.9757679407611097, 0.00965488497823041, 0.014577174260659886;
	(state1) 0.10835409942754703, 0.029747098660389444, 0.8618988019120636;
	(state2) 0.9206400853581437, 0.0064153172371679956, 0.07294459740468838;
	(state3) 0.981957477055349, 0.014182101096525769, 0.003860421848125279;
	(state4) 0.251477434831073, 0.4975053189767374, 0.25101724619218957;
	(state5) 0.9979562286401649, 0.001278212235704452, 7.655591241308022E-4;
	(state6) 0.02535662314735453, 0.008135350533540106, 0.9665080263191054;
	(state7) 0.5114384379680315, 0.411404151396423, 0.07715741063554557;
	(state8) 0.7735444078672187, 0.05307325395858513, 0.17338233817419624;
	(state9) 0.7137006598932989, 0.052478635453163995, 0.23382070465353708;
}

probability ( variable349 ) {
	table 0.06156536176571, 0.05877820063769576, 0.098981889545528, 0.13147494403493, 0.048960885262836894, 0.3341600615018213, 0.07745498319575127, 0.03837242357714967, 0.061328759742274114, 0.0889224907363028;
}

