// estudios/condiciones_vida/facets/lcm/hs110.obif
// Produced at Mon Apr 09 20:12:45 CEST 2018
network "LCM" {
}

variable "MV_hh010" {
	type discrete[4] { "1" "2" "3" "4" };
}

variable "MV_hh021" {
	type discrete[5] { "1" "2" "3" "4" "5" };
}

variable "MV_db100" {
	type discrete[3] { "1" "2" "3" };
}

variable "MV_family_size" {
	type discrete[5] { "1" "2" "3" "4" "5" };
}

variable "MV_hc190" {
	type discrete[2] { "1" "2" };
}

variable "MV_hs060" {
	type discrete[2] { "1" "2" };
}

variable "MV_hs090" {
	type discrete[3] { "1" "2" "3" };
}

variable "MV_hs110" {
	type discrete[3] { "1" "2" "3" };
}

variable "LV_variable377" {
	type discrete[10] { "state0" "state1" "state2" "state3" "state4" "state5" "state6" "state7" "state8" "state9" };
}

probability ( "MV_hh010" | "LV_variable377" ) {
	table 0.04028258075941608 0.04323312566040559 0.014722069971561167 0.015178472380665485 0.007263185949579686 0.23859544316324957 0.3785770282561579 0.01144931097469901 0.36784448341297105 0.20541138321305416 0.18967816096036397 0.02732638839079829 0.04769530387433131 0.017905040482651898 0.02573305211955989 0.5913177775374027 0.466048703242522 0.015156655902507626 0.4455113886171383 0.556631403382869 0.3818397271818518 0.17137199108962983 0.1507096820068623 0.22134002517642817 0.3099267446521755 0.1419240875680006 0.12651509481493506 0.2529034143564894 0.16885378849226115 0.190456653168685 0.38819953109836813 0.7580684948591663 0.7868729441472453 0.7455764619602544 0.657077017278685 0.028162691731347163 0.028859173686385034 0.7204906187663039 0.01779033947762962 0.047500560235391766;
}
probability ( "MV_hh021" | "LV_variable377" ) {
	table 0.025175743201993617 0.8832807016821176 0.48283999357755863 0.3765931877279877 0.177669566027379 0.8314036298489346 0.8635304068437231 0.8072635749743932 0.5931832667363215 0.3763990940970929 0.6762517477346538 0.06048373145720709 0.4307399542747745 0.2509464709050078 0.19125955493834812 0.01755579476161752 0.06654147829077767 0.025124818089681783 0.3125241985499272 0.23465539920561468 0.19912146084102417 0.025648731118323245 0.057760590689869704 0.3012309870120357 0.4581183398027658 0.02636973720478935 0.006314291954179578 0.07054417700277722 0.02360726562935113 0.18286546368458728 0.011749019704111833 0.016919606359348048 0.006843779846053145 0.010375441657207586 0.107181863839553 0.02216538193319171 0.0033939416395091116 0.04473015354640177 0.0034642300613700657 0.07306030146848995 0.08770202851821661 0.013667229383004074 0.021815681611744027 0.0608539126977612 0.06577067539195412 0.10250545625146695 0.06021988127181039 0.05233727638674608 0.06722103902302999 0.13301974154421545;
}
probability ( "MV_db100" | "LV_variable377" ) {
	table 0.24514168010875756 0.7952984536638631 0.7733178358276711 0.8557666459519413 0.7464843067213031 0.13986518793675756 0.09134657596541008 0.815839983902729 0.15089415303634915 0.21585928592257375 0.4514620052590858 0.16990006656418993 0.18275048091510868 0.1009009839618733 0.19684913051976782 0.19258382038401523 0.18877970939104335 0.15298651263603627 0.28126112698588046 0.21720595331344275 0.30339631463215666 0.0348014797719469 0.04393168325722019 0.04333237008618536 0.05666656275892905 0.6675509916792273 0.7198737146435465 0.031173503461234646 0.5678447199777704 0.5669347607639835;
}
probability ( "MV_family_size" | "LV_variable377" ) {
	table 0.19101283128508986 0.10431063224069244 0.026270131805604346 0.5414647138274662 0.2105159676298546 0.6911612306981332 0.21031416549802376 0.703943539500798 0.05721077168896032 0.10108466044894285 0.19870691299553805 0.7473954886414643 0.16012689655103754 0.2910192678382122 0.28926107668584267 0.2766767399876305 0.5991138008346674 0.26592251905122866 0.2231400277402277 0.22323352041473846 0.2323383755696567 0.1364488988074353 0.3694463546348797 0.11631737154156638 0.24614273957655505 0.02542597862258288 0.15526426692154027 0.026923387853618416 0.30400247846612943 0.2442798079218511 0.3456364785198257 0.008660389203001372 0.37190404150016254 0.035584279156686834 0.13064458187434888 0.004548952069457407 0.017772494347078147 0.0021863004481602606 0.30991809777479856 0.206586260252846 0.03230540162988974 0.0031845911074066726 0.07225257550831606 0.015614367636068289 0.12343563423339879 0.0021870986221961 0.017535272398690332 0.0010242531461944354 0.10572862432988396 0.22481575096162165;
}
probability ( "MV_hc190" | "LV_variable377" ) {
	table 0.016490152101674073 0.22824510058657482 0.11833265763159022 0.025738172018727343 0.1945939574432144 0.3784108854125578 0.28619769605646067 0.3492820688060327 0.12832471199148615 0.3187520345201872 0.9835098478983259 0.7717548994134251 0.8816673423684097 0.9742618279812727 0.8054060425567857 0.6215891145874421 0.7138023039435393 0.6507179311939674 0.8716752880085139 0.6812479654798128;
}
probability ( "MV_hs060" | "LV_variable377" ) {
	table 0.5509706715212421 0.8348572336045533 0.8131417566525444 0.8480352829191371 0.0644199731877425 0.4312571799372103 0.6878722130289774 0.5551019294753748 0.8167765083613099 0.0194672337724871 0.4490293284787578 0.16514276639544662 0.18685824334745554 0.15196471708086295 0.9355800268122575 0.5687428200627898 0.3121277869710227 0.4448980705246251 0.18322349163869017 0.9805327662275128;
}
probability ( "MV_hs090" | "LV_variable377" ) {
	table 0.8758054883603729 0.6545405177094028 0.9950222985840628 0.9415998248543809 0.5778608247638619 0.02815080335040243 0.1786652657220674 0.10871899769016334 0.9870201960844831 0.46192742681761867 0.036403562363243866 0.010663948163159881 0.0013710782181192175 0.008221717325394092 0.3153240403975717 0.0229568379400599 0.03522631237321934 0.021971385996019586 0.009142608346685907 0.4133431328183654 0.08779094927638323 0.3347955341274373 0.003606623197818017 0.050178457820225085 0.10681513483856654 0.9488923587095376 0.7861084219047132 0.8693096163138171 0.0038371955688310116 0.12472944036401609;
}
probability ( "MV_hs110" | "LV_variable377" ) {
	table 0.9784752401377156 0.9177633618440072 0.9937544383673882 0.675852719814382 0.4563278029809951 0.05372364237124655 0.9261420384835999 0.04318427069672505 0.9968622323550024 0.7741017211000847 0.0159143222899929 0.008728578014153282 0.0025932382330337875 0.05594603206183659 0.3974387982775479 0.033839543630754663 0.01060353757924649 0.02334480777223722 0.0010332784481632028 0.18904943051049328 0.005610437572291616 0.07350806014183953 0.0036523233995780988 0.2682012481237814 0.14623339874145685 0.9124368139979987 0.06325442393715384 0.9334709215310378 0.0021044891968342084 0.036848848389422165;
}
probability ( "LV_variable377"  ) {
	table 0.07117645445227987 0.1145253210899699 0.20410571846458034 0.08254936749153112 0.08566854098183671 0.05141358675208048 0.08182092797621106 0.08879766908530513 0.17856764694791594 0.041374766758289376;
}
