// estudios/condiciones_vida/facets/lcm/hs160.obif
// Produced at Mon Apr 09 19:40:57 CEST 2018
network "LCM" {
}

variable "MV_hh010" {
	type discrete[4] { "1" "2" "3" "4" };
}

variable "MV_hs160" {
	type discrete[2] { "1" "2" };
}

variable "MV_hs170" {
	type discrete[2] { "1" "2" };
}

variable "MV_hh040" {
	type discrete[2] { "1" "2" };
}

variable "MV_hs060" {
	type discrete[2] { "1" "2" };
}

variable "MV_h79_u" {
	type discrete[2] { "1" "2" };
}

variable "MV_hd080" {
	type discrete[3] { "1" "2" "3" };
}

variable "LV_variable136" {
	type discrete[6] { "state0" "state1" "state2" "state3" "state4" "state5" };
}

probability ( "MV_hh010" | "LV_variable136" ) {
	table 0.011609070276716194 0.29825030838391353 0.15074754262784595 0.06947546496552191 0.3445430064549102 0.007184446366955814 0.05154344647152306 0.5291070485293803 0.18755303501338924 0.24816491523484355 0.47442624734718675 0.04491452924272154 0.291791815556989 0.12038129906898151 0.17697732714948747 0.28101532074700963 0.13604454577665365 0.23122839435970485 0.6450556676947717 0.05226134401772459 0.4847220952092774 0.4013442990526249 0.044986200421249296 0.7166726300306179;
}
probability ( "MV_hs160" | "LV_variable136" ) {
	table 0.03605578878571038 0.019494832993325342 0.005179071203126205 0.26462034764036424 0.10255475698081659 0.12959505782311467 0.9639442112142896 0.9805051670066747 0.9948209287968738 0.7353796523596358 0.8974452430191835 0.8704049421768852;
}
probability ( "MV_hs170" | "LV_variable136" ) {
	table 0.1930734102494635 0.017296038529207466 0.047372333420262897 0.45856113819718597 0.19533698924836848 0.516824668780372 0.8069265897505365 0.9827039614707925 0.9526276665797371 0.5414388618028141 0.8046630107516314 0.4831753312196279;
}
probability ( "MV_hh040" | "LV_variable136" ) {
	table 0.025349220253109244 0.2621921991706392 0.030333232905866005 0.7101001034975636 0.8168289898991287 0.17480771025523026 0.9746507797468906 0.7378078008293607 0.969666767094134 0.2898998965024363 0.18317101010087142 0.8251922897447698;
}
probability ( "MV_hs060" | "LV_variable136" ) {
	table 0.0644525321621499 0.15473936138512354 0.9397366321141447 0.03707867177487073 0.8893347282867333 0.9354360229791323 0.9355474678378501 0.8452606386148764 0.06026336788585526 0.9629213282251292 0.11066527171326675 0.0645639770208677;
}
probability ( "MV_h79_u" | "LV_variable136" ) {
	table 0.16932297422578763 0.10773506440447407 0.0012229261852392743 0.42699710446386585 0.009434827879960521 0.004119345698574021 0.8306770257742123 0.892264935595526 0.9987770738147608 0.5730028955361341 0.9905651721200396 0.995880654301426;
}
probability ( "MV_hd080" | "LV_variable136" ) {
	table 0.02401220981981659 0.019568015365668184 0.7966952372649778 0.03824505746933591 0.6277292569296357 0.7181409402161016 0.8328521082997096 0.8196078483550809 0.09775810237839219 0.9205711215801692 0.20289902282853442 0.15235929325565783 0.14313568188047393 0.16082413627925096 0.10554666035663 0.04118382095049498 0.16937172024182995 0.12949976652824047;
}
probability ( "LV_variable136"  ) {
	table 0.16769363479546512 0.1113261375173505 0.49873886522433547 0.057538520943910806 0.045873049574451964 0.11882979194448612;
}
