network LCM {
}

variable hh010 {
	type discrete[4] { 1, 2, 3, 4 };
}

variable hs160 {
	type discrete[2] { 1, 2 };
}

variable hs170 {
	type discrete[2] { 1, 2 };
}

variable hh040 {
	type discrete[2] { 1, 2 };
}

variable hs060 {
	type discrete[2] { 1, 2 };
}

variable h79_u {
	type discrete[2] { 1, 2 };
}

variable hd080 {
	type discrete[3] { 1, 2, 3 };
}

variable variable136 {
	type discrete[6] { state0, state1, state2, state3, state4, state5 };
}

probability ( hh010 | variable136 ) {
	(state0) 0.011609070276716194, 0.05154344647152306, 0.291791815556989, 0.6450556676947717;
	(state1) 0.29825030838391353, 0.5291070485293803, 0.12038129906898151, 0.05226134401772459;
	(state2) 0.15074754262784595, 0.18755303501338924, 0.17697732714948747, 0.4847220952092774;
	(state3) 0.06947546496552191, 0.24816491523484355, 0.28101532074700963, 0.4013442990526249;
	(state4) 0.3445430064549102, 0.47442624734718675, 0.13604454577665365, 0.044986200421249296;
	(state5) 0.007184446366955814, 0.04491452924272154, 0.23122839435970485, 0.7166726300306179;
}

probability ( hs160 | variable136 ) {
	(state0) 0.03605578878571038, 0.9639442112142896;
	(state1) 0.019494832993325342, 0.9805051670066747;
	(state2) 0.005179071203126205, 0.9948209287968738;
	(state3) 0.26462034764036424, 0.7353796523596358;
	(state4) 0.10255475698081659, 0.8974452430191835;
	(state5) 0.12959505782311467, 0.8704049421768852;
}

probability ( hs170 | variable136 ) {
	(state0) 0.1930734102494635, 0.8069265897505365;
	(state1) 0.017296038529207466, 0.9827039614707925;
	(state2) 0.047372333420262897, 0.9526276665797371;
	(state3) 0.45856113819718597, 0.5414388618028141;
	(state4) 0.19533698924836848, 0.8046630107516314;
	(state5) 0.516824668780372, 0.4831753312196279;
}

probability ( hh040 | variable136 ) {
	(state0) 0.025349220253109244, 0.9746507797468906;
	(state1) 0.2621921991706392, 0.7378078008293607;
	(state2) 0.030333232905866005, 0.969666767094134;
	(state3) 0.7101001034975636, 0.2898998965024363;
	(state4) 0.8168289898991287, 0.18317101010087142;
	(state5) 0.17480771025523026, 0.8251922897447698;
}

probability ( hs060 | variable136 ) {
	(state0) 0.0644525321621499, 0.9355474678378501;
	(state1) 0.15473936138512354, 0.8452606386148764;
	(state2) 0.9397366321141447, 0.06026336788585526;
	(state3) 0.03707867177487073, 0.9629213282251292;
	(state4) 0.8893347282867333, 0.11066527171326675;
	(state5) 0.9354360229791323, 0.0645639770208677;
}

probability ( h79_u | variable136 ) {
	(state0) 0.16932297422578763, 0.8306770257742123;
	(state1) 0.10773506440447407, 0.892264935595526;
	(state2) 0.0012229261852392743, 0.9987770738147608;
	(state3) 0.42699710446386585, 0.5730028955361341;
	(state4) 0.009434827879960521, 0.9905651721200396;
	(state5) 0.004119345698574021, 0.995880654301426;
}

probability ( hd080 | variable136 ) {
	(state0) 0.02401220981981659, 0.8328521082997096, 0.14313568188047393;
	(state1) 0.019568015365668184, 0.8196078483550809, 0.16082413627925096;
	(state2) 0.7966952372649778, 0.09775810237839219, 0.10554666035663;
	(state3) 0.03824505746933591, 0.9205711215801692, 0.04118382095049498;
	(state4) 0.6277292569296357, 0.20289902282853442, 0.16937172024182995;
	(state5) 0.7181409402161016, 0.15235929325565783, 0.12949976652824047;
}

probability ( variable136 ) {
	table 0.16769363479546512, 0.1113261375173505, 0.49873886522433547, 0.057538520943910806, 0.045873049574451964, 0.11882979194448612;
}

