// estudios/condiciones_vida/facets/lcm/hs170.obif
// Produced at Mon Apr 09 19:41:12 CEST 2018
network "LCM" {
}

variable "MV_hh010" {
	type discrete[4] { "1" "2" "3" "4" };
}

variable "MV_db100" {
	type discrete[3] { "1" "2" "3" };
}

variable "MV_hs160" {
	type discrete[2] { "1" "2" };
}

variable "MV_hs170" {
	type discrete[2] { "1" "2" };
}

variable "MV_hs180" {
	type discrete[2] { "1" "2" };
}

variable "MV_hs190" {
	type discrete[2] { "1" "2" };
}

variable "MV_hh040" {
	type discrete[2] { "1" "2" };
}

variable "LV_variable152" {
	type discrete[5] { "state0" "state1" "state2" "state3" "state4" };
}

probability ( "MV_hh010" | "LV_variable152" ) {
	table 0.2013946926842703 0.014716689734681165 0.08919150408314148 0.0105882556723008 0.3756358123800648 0.4368742135871795 0.018346061086718553 0.12793113911866857 0.043944608496390605 0.5565814437095367 0.24055014075075548 0.16451513610090585 0.5049097551627624 0.23387378868345599 0.04633312028044836 0.12118095297779469 0.8024221130776945 0.2779676016354276 0.7115933471478526 0.021449623629950246;
}
probability ( "MV_db100" | "LV_variable152" ) {
	table 0.31113287889884644 0.8349840058756633 0.23620047684888826 0.8280992678993012 0.13129236465815058 0.3427405199425767 0.14834782541705047 0.38432105687118606 0.14695820574758697 0.20482352615372124 0.3461266011585769 0.01666816870728622 0.3794784662799256 0.02494252635311172 0.6638841091881282;
}
probability ( "MV_hs160" | "LV_variable152" ) {
	table 0.2397344152644431 0.023239338976404456 0.020126367435722815 0.15979247746692635 0.012710654583485663 0.7602655847355569 0.9767606610235956 0.9798736325642773 0.8402075225330736 0.9872893454165144;
}
probability ( "MV_hs170" | "LV_variable152" ) {
	table 0.4289469232311756 0.08753549412735197 0.1089485857088131 0.6864405608917654 0.021312764936419277 0.5710530767688243 0.912464505872648 0.8910514142911868 0.3135594391082347 0.9786872350635807;
}
probability ( "MV_hs180" | "LV_variable152" ) {
	table 0.3302911881726792 0.035615057339533344 0.02510085491591053 0.5461439752556297 0.011543174613887913 0.6697088118273207 0.9643849426604666 0.9748991450840895 0.4538560247443703 0.988456825386112;
}
probability ( "MV_hs190" | "LV_variable152" ) {
	table 0.31772863782342453 0.05406682675447098 0.03972226439851027 0.44005463091432323 0.042566400803500146 0.6822713621765756 0.9459331732455291 0.9602777356014898 0.5599453690856768 0.9574335991964998;
}
probability ( "MV_hh040" | "LV_variable152" ) {
	table 0.6836935281598769 0.048901497319147245 0.0887339643067668 0.2499245266206005 0.1884841569533519 0.31630647184012317 0.9510985026808528 0.9112660356932332 0.7500754733793995 0.811515843046648;
}
probability ( "LV_variable152"  ) {
	table 0.055093735796050564 0.41722557088778883 0.162787583400086 0.10369337144209845 0.2611997384739761;
}
