network LCM {
}

variable db100 {
	type discrete[3] { 1, 2, 3 };
}

variable hs170 {
	type discrete[2] { 1, 2 };
}

variable hs180 {
	type discrete[2] { 1, 2 };
}

variable hs190 {
	type discrete[2] { 1, 2 };
}

variable hh040 {
	type discrete[2] { 1, 2 };
}

variable variable165 {
	type discrete[4] { state0, state1, state2, state3 };
}

probability ( db100 | variable165 ) {
	(state0) 0.23683292679229312, 0.4247736454446562, 0.33839342776305076;
	(state1) 0.7550437876605012, 0.20876856561568774, 0.03618764672381105;
	(state2) 0.8398907820569609, 0.10843928644304071, 0.051669931499998455;
	(state3) 0.2496283286912468, 0.20250079324389356, 0.5478708780648596;
}

probability ( hs170 | variable165 ) {
	(state0) 0.4605577195687094, 0.5394422804312905;
	(state1) 0.10748237612136065, 0.8925176238786393;
	(state2) 0.6590456389426533, 0.34095436105734667;
	(state3) 0.024403736911031027, 0.975596263088969;
}

probability ( hs180 | variable165 ) {
	(state0) 0.23901536192425452, 0.7609846380757455;
	(state1) 0.0376580743724267, 0.9623419256275733;
	(state2) 0.5999924595191098, 0.40000754048089004;
	(state3) 0.009599042310094336, 0.9904009576899058;
}

probability ( hs190 | variable165 ) {
	(state0) 0.2395421109564488, 0.7604578890435513;
	(state1) 0.06138356912367827, 0.9386164308763217;
	(state2) 0.48435515552465647, 0.5156448444753436;
	(state3) 0.028901513528378612, 0.9710984864716213;
}

probability ( hh040 | variable165 ) {
	(state0) 0.5064324574714836, 0.49356754252851637;
	(state1) 0.03469351391873687, 0.9653064860812631;
	(state2) 0.2941778752297845, 0.7058221247702154;
	(state3) 0.16742062347958028, 0.8325793765204197;
}

probability ( variable165 ) {
	table 0.07275999497130739, 0.42947118296555215, 0.09889674805756878, 0.39887207400557156;
}

