network LCM {
}

variable hs180 {
	type discrete[2] { 1, 2 };
}

variable hs190 {
	type discrete[2] { 1, 2 };
}

variable hh081 {
	type discrete[3] { 1, 2, 3 };
}

variable db100 {
	type discrete[3] { 1, 2, 3 };
}

variable hs050 {
	type discrete[2] { 1, 2 };
}

variable h79_u {
	type discrete[2] { 1, 2 };
}

variable hs060 {
	type discrete[2] { 1, 2 };
}

variable hs070 {
	type discrete[3] { 1, 2, 3 };
}

variable hs100 {
	type discrete[3] { 1, 2, 3 };
}

variable hs040 {
	type discrete[2] { 1, 2 };
}

variable family_size {
	type discrete[5] { 1, 2, 3, 4, 5 };
}

variable hc190 {
	type discrete[2] { 1, 2 };
}

variable variable140 {
	type discrete[6] { state0, state1, state2, state3, state4, state5 };
}

probability ( hs180 | variable140 ) {
	(state0) 0.04027403078065515, 0.9597259692193448;
	(state1) 0.511992913802658, 0.4880070861973421;
	(state2) 0.6132269812915575, 0.3867730187084424;
	(state3) 0.03085248430317786, 0.9691475156968221;
	(state4) 0.03994332204443759, 0.9600566779555625;
	(state5) 0.06074073212923249, 0.9392592678707675;
}

probability ( hs190 | variable140 ) {
	(state0) 0.047074679914965466, 0.9529253200850345;
	(state1) 0.4313775773594531, 0.568622422640547;
	(state2) 0.5997539692027246, 0.4002460307972754;
	(state3) 0.04662522224890177, 0.9533747777510982;
	(state4) 0.08789832105854907, 0.9121016789414509;
	(state5) 0.0802405189745244, 0.9197594810254756;
}

probability ( hh081 | variable140 ) {
	(state0) 0.9956943476248271, 0.0023701548598521168, 0.0019354975153208396;
	(state1) 0.9958938054439339, 0.0028310978924787145, 0.0012750966635873841;
	(state2) 0.9900356467457958, 0.003968690553594688, 0.005995662700609496;
	(state3) 0.9969028879938041, 6.18926737530349E-4, 0.002478185268665584;
	(state4) 0.9911622981169738, 0.0018145099605844548, 0.007023191922441714;
	(state5) 0.9800556079561478, 0.008545808129171984, 0.011398583914680424;
}

probability ( db100 | variable140 ) {
	(state0) 0.3753736753259253, 0.22249481592104203, 0.4021315087530327;
	(state1) 0.7931173055234176, 0.1567321274400025, 0.05015056703657994;
	(state2) 0.7690442190353499, 0.15156062975375947, 0.07939515121089058;
	(state3) 0.5362951882770977, 0.21721933339091612, 0.2464854783319863;
	(state4) 0.5000865984791795, 0.15937599546092035, 0.3405374060599001;
	(state5) 0.5124020905326974, 0.25827336120895356, 0.2293245482583491;
}

probability ( hs050 | variable140 ) {
	(state0) 0.9812438222609606, 0.018756177739039342;
	(state1) 0.9941374960532982, 0.0058625039467018044;
	(state2) 0.8504839300704218, 0.14951606992957825;
	(state3) 0.9985978186007137, 0.0014021813992863357;
	(state4) 0.9829719596037919, 0.01702804039620805;
	(state5) 0.8247414249380403, 0.1752585750619598;
}

probability ( h79_u | variable140 ) {
	(state0) 0.028206509550786702, 0.9717934904492133;
	(state1) 0.011503831434559231, 0.9884961685654406;
	(state2) 0.3724581125082246, 0.6275418874917753;
	(state3) 0.0032812639102396597, 0.9967187360897604;
	(state4) 0.007040149721501871, 0.9929598502784981;
	(state5) 0.5140787021467882, 0.48592129785321186;
}

probability ( hs060 | variable140 ) {
	(state0) 0.3263320369803523, 0.6736679630196477;
	(state1) 0.8077920470136719, 0.19220795298632817;
	(state2) 0.020809571467061985, 0.9791904285329379;
	(state3) 0.9011345083343771, 0.09886549166562295;
	(state4) 0.922477010553059, 0.07752298944694093;
	(state5) 0.019693494882300704, 0.9803065051176993;
}

probability ( hs070 | variable140 ) {
	(state0) 0.984695342080088, 7.940165414095306E-4, 0.014510641378502328;
	(state1) 0.986019942417571, 0.0016840801325836564, 0.012295977449845251;
	(state2) 0.981634738517963, 0.009259242292594866, 0.009106019189442118;
	(state3) 0.9933599158343075, 1.7270242720132393E-4, 0.0064673817384912295;
	(state4) 0.9793861213960164, 0.001772386856507887, 0.01884149174747556;
	(state5) 0.952567937180899, 0.020523745273418503, 0.02690831754568238;
}

probability ( hs100 | variable140 ) {
	(state0) 0.9953631374888151, 4.1952473930272814E-4, 0.004217337771882168;
	(state1) 0.9946809684511521, 0.001822906219369666, 0.0034961253294782304;
	(state2) 0.9755834139787485, 0.016477602826604043, 0.007938983194647422;
	(state3) 0.9970963050758616, 1.6612913296822957E-4, 0.0027375657911702096;
	(state4) 0.9959398803030347, 0.0018246073679963704, 0.002235512328968731;
	(state5) 0.9769670604428851, 0.012877743513172411, 0.010155196043942544;
}

probability ( hs040 | variable140 ) {
	(state0) 0.02326122338328472, 0.9767387766167153;
	(state1) 0.8547964316719854, 0.14520356832801457;
	(state2) 0.05199761426591203, 0.9480023857340879;
	(state3) 0.9707672285247717, 0.029232771475228254;
	(state4) 0.8438601938410434, 0.15613980615895665;
	(state5) 0.118355289685213, 0.8816447103147871;
}

probability ( family_size | variable140 ) {
	(state0) 0.21865726520748965, 0.29814363016554307, 0.2340415676178553, 0.18092770176051695, 0.06822983524859515;
	(state1) 0.25929982605585983, 0.29869054782070725, 0.23746923459488656, 0.16997295755972922, 0.03456743396881712;
	(state2) 0.1653364624860048, 0.3387317447989775, 0.2134341457722977, 0.14704011266518838, 0.13545753427753157;
	(state3) 0.21316207161292994, 0.32114014799792995, 0.21977409833795927, 0.20245490932981397, 0.04346877272136694;
	(state4) 0.08595905076441372, 0.5988774021621204, 0.19419582382847214, 0.03087819791349623, 0.09008952533149754;
	(state5) 0.3644696603559203, 0.21735775677498442, 0.16758535359514082, 0.1499076929353077, 0.10067953633864699;
}

probability ( hc190 | variable140 ) {
	(state0) 0.2563367838966704, 0.7436632161033296;
	(state1) 0.1353071604870223, 0.8646928395129777;
	(state2) 0.34460175840089274, 0.6553982415991071;
	(state3) 0.08031487489159471, 0.9196851251084053;
	(state4) 0.8981238810536756, 0.10187611894632442;
	(state5) 0.20171042071036488, 0.7982895792896352;
}

probability ( variable140 ) {
	table 0.23802832885022207, 0.07894430943789538, 0.03937129808575482, 0.5210996128050774, 0.04048217277759061, 0.0820742780434598;
}

