network LCM {
}

variable hs180 {
	type discrete[2] { 1, 2 };
}

variable hs190 {
	type discrete[2] { 1, 2 };
}

variable hh081 {
	type discrete[3] { 1, 2, 3 };
}

variable db100 {
	type discrete[3] { 1, 2, 3 };
}

variable hs050 {
	type discrete[2] { 1, 2 };
}

variable h79_u {
	type discrete[2] { 1, 2 };
}

variable hs060 {
	type discrete[2] { 1, 2 };
}

variable hs070 {
	type discrete[3] { 1, 2, 3 };
}

variable hs100 {
	type discrete[3] { 1, 2, 3 };
}

variable hs040 {
	type discrete[2] { 1, 2 };
}

variable family_size {
	type discrete[5] { 1, 2, 3, 4, 5 };
}

variable hc190 {
	type discrete[2] { 1, 2 };
}

variable variable218 {
	type discrete[5] { state0, state1, state2, state3, state4 };
}

probability ( hs180 | variable218 ) {
	(state0) 0.06114305907239341, 0.9388569409276066;
	(state1) 0.03172887629798474, 0.9682711237020153;
	(state2) 0.5020803927292399, 0.49791960727076023;
	(state3) 0.618545017685912, 0.3814549823140881;
	(state4) 0.040152797344309814, 0.9598472026556902;
}

probability ( hs190 | variable218 ) {
	(state0) 0.07828747152308743, 0.9217125284769125;
	(state1) 0.0479459841339008, 0.9520540158660992;
	(state2) 0.4333726650169105, 0.5666273349830895;
	(state3) 0.6041932901033207, 0.39580670989667943;
	(state4) 0.04907594170908456, 0.9509240582909154;
}

probability ( hh081 | variable218 ) {
	(state0) 0.9802880908912293, 0.008975953378069999, 0.01073595573070063;
	(state1) 0.9968146940633769, 5.486074679940929E-4, 0.0026366984686290967;
	(state2) 0.9958149572929912, 0.0029235294236237405, 0.0012615132833851165;
	(state3) 0.9899237816669504, 0.003984490779381611, 0.0060917275536679465;
	(state4) 0.9957870564108185, 0.002050784478967224, 0.002162159110214191;
}

probability ( db100 | variable218 ) {
	(state0) 0.5076172587207151, 0.25772642161712733, 0.23465631966215758;
	(state1) 0.5350154470175177, 0.21321645896746352, 0.2517680940150188;
	(state2) 0.7920666996080407, 0.15793817493701034, 0.04999512545494895;
	(state3) 0.769579575616087, 0.15144965567928306, 0.0789707687046299;
	(state4) 0.38093901356871424, 0.22078751947081335, 0.3982734669604724;
}

probability ( hs050 | variable218 ) {
	(state0) 0.8307503507571439, 0.16924964924285615;
	(state1) 0.9978498200460154, 0.00215017995398462;
	(state2) 0.9939477192845845, 0.006052280715415519;
	(state3) 0.8473059490990276, 0.15269405090097254;
	(state4) 0.9822406719667661, 0.017759328033233872;
}

probability ( h79_u | variable218 ) {
	(state0) 0.5021408828080732, 0.4978591171919268;
	(state1) 0.0033674525694230243, 0.9966325474305769;
	(state2) 0.011366164255424506, 0.9886338357445755;
	(state3) 0.37821108956074734, 0.6217889104392526;
	(state4) 0.023327464367195027, 0.976672535632805;
}

probability ( hs060 | variable218 ) {
	(state0) 0.021902101670489584, 0.9780978983295104;
	(state1) 0.9030679713722943, 0.09693202862770561;
	(state2) 0.8062212426961777, 0.19377875730382232;
	(state3) 0.020821757758775945, 0.9791782422412241;
	(state4) 0.3621279833358673, 0.6378720166641326;
}

probability ( hs070 | variable218 ) {
	(state0) 0.9532370036631939, 0.019726299055427342, 0.027036697281378905;
	(state1) 0.9927583334758244, 1.563036867827304E-4, 0.007085362837392821;
	(state2) 0.9854001955274826, 0.0016402246471080247, 0.012959579825409252;
	(state3) 0.9813835369186958, 0.009446137046127089, 0.009170326035177173;
	(state4) 0.9853378468970396, 7.3155786527662E-4, 0.013930595237683694;
}

probability ( hs100 | variable218 ) {
	(state0) 0.9779139322154673, 0.012269770309135232, 0.009816297475397483;
	(state1) 0.9972737965588497, 1.5934762850305042E-4, 0.0025668558126471907;
	(state2) 0.9946926548630162, 0.0017949779016671794, 0.003512367235316469;
	(state3) 0.9748323250837534, 0.016953575190410484, 0.008214099725836213;
	(state4) 0.9954827211905874, 3.903738191637178E-4, 0.004126904990248805;
}

probability ( hs040 | variable218 ) {
	(state0) 0.11690702689763072, 0.8830929731023692;
	(state1) 0.9864797914163063, 0.013520208583693757;
	(state2) 0.851456951567371, 0.14854304843262894;
	(state3) 0.05202931531893773, 0.9479706846810623;
	(state4) 0.021827384176320585, 0.9781726158236794;
}

probability ( family_size | variable218 ) {
	(state0) 0.3643894692200697, 0.2132812484466383, 0.16902117462150945, 0.153412736282888, 0.09989537142889454;
	(state1) 0.20495917885752657, 0.3389239759329238, 0.21808497729250606, 0.19153868147813302, 0.04649318643891055;
	(state2) 0.2580720315875637, 0.30074464765177583, 0.23726340384634664, 0.16885518859649135, 0.03506472831782241;
	(state3) 0.16473488111862036, 0.3387017100093726, 0.21342188228377154, 0.1465123555488911, 0.13662917103934435;
	(state4) 0.21330108271639586, 0.308333270460734, 0.2332925060134415, 0.17780270585799807, 0.06727043495143072;
}

probability ( hc190 | variable218 ) {
	(state0) 0.19558112989865334, 0.8044188701013466;
	(state1) 0.13134412302726328, 0.8686558769727367;
	(state2) 0.14326522021290844, 0.8567347797870917;
	(state3) 0.345185173167065, 0.654814826832935;
	(state4) 0.2678550944813054, 0.7321449055186946;
}

probability ( variable218 ) {
	table 0.08612671782468083, 0.5463978265390531, 0.08024354213877559, 0.03862978809712859, 0.24860212540036208;
}

