network LCM {
}

variable hs180 {
	type discrete[2] { 1, 2 };
}

variable hs190 {
	type discrete[2] { 1, 2 };
}

variable hh081 {
	type discrete[3] { 1, 2, 3 };
}

variable db100 {
	type discrete[3] { 1, 2, 3 };
}

variable hs050 {
	type discrete[2] { 1, 2 };
}

variable h79_u {
	type discrete[2] { 1, 2 };
}

variable hs060 {
	type discrete[2] { 1, 2 };
}

variable hs070 {
	type discrete[3] { 1, 2, 3 };
}

variable hs100 {
	type discrete[3] { 1, 2, 3 };
}

variable hs040 {
	type discrete[2] { 1, 2 };
}

variable family_size {
	type discrete[5] { 1, 2, 3, 4, 5 };
}

variable hc190 {
	type discrete[2] { 1, 2 };
}

variable variable254 {
	type discrete[5] { state0, state1, state2, state3, state4 };
}

probability ( hs180 | variable254 ) {
	(state0) 0.04015480725705734, 0.9598451927429428;
	(state1) 0.06114351954812178, 0.9388564804518782;
	(state2) 0.502127691534951, 0.4978723084650491;
	(state3) 0.6185438857560909, 0.38145611424390913;
	(state4) 0.031733558019015146, 0.9682664419809849;
}

probability ( hs190 | variable254 ) {
	(state0) 0.04907691811206151, 0.9509230818879384;
	(state1) 0.07828701451793797, 0.9217129854820622;
	(state2) 0.43340623851659643, 0.5665937614834036;
	(state3) 0.604197424403175, 0.3958025755968249;
	(state4) 0.04795058602077245, 0.9520494139792275;
}

probability ( hh081 | variable254 ) {
	(state0) 0.9957872238623658, 0.002050645243306766, 0.0021621308943273773;
	(state1) 0.9802876505358672, 0.008976537579271252, 0.010735811884861715;
	(state2) 0.9958145925166167, 0.0029237804453324597, 0.0012616270380508797;
	(state3) 0.9899237775119673, 0.003984429892827516, 0.00609179259520518;
	(state4) 0.9968147398992454, 5.486163011775475E-4, 0.00263664379957707;
}

probability ( db100 | variable254 ) {
	(state0) 0.38093223152784966, 0.2207880244774826, 0.3982797439946677;
	(state1) 0.5076237222956628, 0.25772478227178086, 0.23465149543255637;
	(state2) 0.7920841809700541, 0.15792729012152582, 0.049988528908419934;
	(state3) 0.7695798232893356, 0.1514498336050007, 0.07897034310566377;
	(state4) 0.5350181289227652, 0.2132166500254679, 0.25176522105176696;
}

probability ( hs050 | variable254 ) {
	(state0) 0.9822396432783179, 0.01776035672168216;
	(state1) 0.8307546162439851, 0.16924538375601494;
	(state2) 0.9939470727532832, 0.006052927246716828;
	(state3) 0.8473037193733138, 0.15269628062668622;
	(state4) 0.9978498016031155, 0.0021501983968844948;
}

probability ( h79_u | variable254 ) {
	(state0) 0.023329918708227478, 0.9766700812917726;
	(state1) 0.502126619892627, 0.497873380107373;
	(state2) 0.01136732350243418, 0.9886326764975658;
	(state3) 0.3782158405896571, 0.6217841594103428;
	(state4) 0.003367485032803445, 0.9966325149671965;
}

probability ( hs060 | variable254 ) {
	(state0) 0.3621058762406785, 0.6378941237593215;
	(state1) 0.02190253126718048, 0.9780974687328194;
	(state2) 0.8062115575698412, 0.19378844243015886;
	(state3) 0.020821551926512076, 0.979178448073488;
	(state4) 0.903066342799278, 0.096933657200722;
}

probability ( hs070 | variable254 ) {
	(state0) 0.9853375121695594, 7.315705951235124E-4, 0.013930917235316961;
	(state1) 0.953237334639744, 0.019726019758025546, 0.027036645602230257;
	(state2) 0.9853990948068169, 0.0016404963015079444, 0.012960408891675282;
	(state3) 0.9813836632662961, 0.009446099370573665, 0.009170237363130334;
	(state4) 0.9927583481109384, 1.5630014459818152E-4, 0.007085351744463368;
}

probability ( hs100 | variable254 ) {
	(state0) 0.995482572979288, 3.903989405197469E-4, 0.004127028080192298;
	(state1) 0.977914607945108, 0.012269450043261132, 0.00981594201163094;
	(state2) 0.994691955264956, 0.0017952802491393006, 0.0035127644859046132;
	(state3) 0.9748317647237212, 0.016953952282898633, 0.008214282993379987;
	(state4) 0.9972738338500996, 1.5933964018275402E-4, 0.002566826509717676;
}

probability ( hs040 | variable254 ) {
	(state0) 0.02182323717910429, 0.9781767628208957;
	(state1) 0.11690915679570411, 0.8830908432042959;
	(state2) 0.851451658117733, 0.14854834188226687;
	(state3) 0.05202718502812453, 0.9479728149718756;
	(state4) 0.9864582784683026, 0.013541721531697434;
}

probability ( family_size | variable254 ) {
	(state0) 0.21329890982828625, 0.30833455679113364, 0.23329297141486016, 0.17780165711001567, 0.06727190485570439;
	(state1) 0.3643930112526292, 0.21327891808343521, 0.16902097829529647, 0.15341306154710346, 0.09989403082153561;
	(state2) 0.25807583016613456, 0.30074505677243024, 0.23726546655694003, 0.16884981524604015, 0.03506383125845512;
	(state3) 0.16473292366687978, 0.3387028299270366, 0.2134216914542071, 0.1465126392129864, 0.13662991573889025;
	(state4) 0.20496014193334533, 0.33892236527201886, 0.21808550063155155, 0.19153906771047843, 0.04649292445260591;
}

probability ( hc190 | variable254 ) {
	(state0) 0.2678632459972693, 0.7321367540027307;
	(state1) 0.19557619712143298, 0.804423802878567;
	(state2) 0.14326725713697716, 0.8567327428630227;
	(state3) 0.3451856446743447, 0.6548143553256552;
	(state4) 0.13134435746693002, 0.8686556425330699;
}

probability ( variable254 ) {
	table 0.24858937995239233, 0.08612853822481926, 0.08022981809174382, 0.03862920296735278, 0.5464230607636918;
}

