network LCM {
}

variable hs180 {
	type discrete[2] { 1, 2 };
}

variable hs190 {
	type discrete[2] { 1, 2 };
}

variable hh081 {
	type discrete[3] { 1, 2, 3 };
}

variable db100 {
	type discrete[3] { 1, 2, 3 };
}

variable hs050 {
	type discrete[2] { 1, 2 };
}

variable h79_u {
	type discrete[2] { 1, 2 };
}

variable hs060 {
	type discrete[2] { 1, 2 };
}

variable hs070 {
	type discrete[3] { 1, 2, 3 };
}

variable hs100 {
	type discrete[3] { 1, 2, 3 };
}

variable hs040 {
	type discrete[2] { 1, 2 };
}

variable family_size {
	type discrete[5] { 1, 2, 3, 4, 5 };
}

variable hc190 {
	type discrete[2] { 1, 2 };
}

variable variable293 {
	type discrete[5] { state0, state1, state2, state3, state4 };
}

probability ( hs180 | variable293 ) {
	(state0) 0.4372327756124101, 0.5627672243875899;
	(state1) 0.026295037200897233, 0.9737049627991027;
	(state2) 0.5000244967585507, 0.49997550324144935;
	(state3) 0.03632894251241553, 0.9636710574875845;
	(state4) 0.03665129765847089, 0.9633487023415291;
}

probability ( hs190 | variable293 ) {
	(state0) 0.46859564258726966, 0.5314043574127304;
	(state1) 0.06620943114785731, 0.9337905688521427;
	(state2) 0.449160139730595, 0.550839860269405;
	(state3) 0.04693048533299834, 0.9530695146670016;
	(state4) 0.03403436870687114, 0.9659656312931288;
}

probability ( hh081 | variable293 ) {
	(state0) 0.9871323670493292, 0.0030780581805798296, 0.00978957477009109;
	(state1) 0.9924411325343957, 0.0016007855764261637, 0.005958081889178291;
	(state2) 0.9958690712121597, 0.0028321464203900403, 0.0012987823674502407;
	(state3) 0.9973128409866794, 5.77247477868518E-4, 0.002109911535452103;
	(state4) 0.9916872266888697, 0.004631147686429355, 0.0036816256247010153;
}

probability ( db100 | variable293 ) {
	(state0) 0.7148616176886995, 0.18146234290238053, 0.10367603940891996;
	(state1) 0.22930205157653136, 0.1889338096496806, 0.581764138773788;
	(state2) 0.7971162572164142, 0.1568732292554911, 0.04601051352809469;
	(state3) 0.5608687479852871, 0.21683506248489529, 0.22229618952981758;
	(state4) 0.41509926017730714, 0.23658640429533512, 0.34831433552735774;
}

probability ( hs050 | variable293 ) {
	(state0) 0.802535773514197, 0.197464226485803;
	(state1) 0.9765511944816965, 0.023448805518303615;
	(state2) 0.9932940884592797, 0.006705911540720245;
	(state3) 0.9993418090580809, 6.58190941919121E-4;
	(state4) 0.9519772248133203, 0.04802277518667972;
}

probability ( h79_u | variable293 ) {
	(state0) 0.4317569084444417, 0.5682430915555584;
	(state1) 0.012732980543566103, 0.9872670194564338;
	(state2) 0.012683432624029784, 0.9873165673759702;
	(state3) 0.0026349839650712174, 0.9973650160349288;
	(state4) 0.15256399736526916, 0.8474360026347308;
}

probability ( hs060 | variable293 ) {
	(state0) 0.013836387337861099, 0.9861636126621388;
	(state1) 0.964060358227314, 0.03593964177268609;
	(state2) 0.7905997471305228, 0.2094002528694772;
	(state3) 0.9172920959122743, 0.08270790408772564;
	(state4) 0.058612759401428766, 0.9413872405985712;
}

probability ( hs070 | variable293 ) {
	(state0) 0.9668832031426344, 0.019465774182876653, 0.013651022674488866;
	(state1) 0.9736331666835603, 0.0010045652974558217, 0.025362268018983964;
	(state2) 0.9840537768334132, 0.0016186762951939102, 0.014327546871393015;
	(state3) 0.9951794064080778, 1.7250988111633492E-4, 0.004648083710805861;
	(state4) 0.9779011062766896, 0.004028447818296387, 0.018070445905014023;
}

probability ( hs100 | variable293 ) {
	(state0) 0.9667265917165621, 0.021488812137157115, 0.011784596146280845;
	(state1) 0.9846425135543492, 9.295074318177018E-4, 0.014427979013833015;
	(state2) 0.994692413008456, 0.0018141233874200565, 0.0034934636041239683;
	(state3) 0.9982810201113128, 1.5092661113993769E-4, 0.0015680532775472098;
	(state4) 0.9951638562466584, 0.0017566903273212929, 0.003079453426020432;
}

probability ( hs040 | variable293 ) {
	(state0) 0.05463015879930193, 0.9453698412006981;
	(state1) 0.45739094248264717, 0.5426090575173528;
	(state2) 0.8223446789776792, 0.17765532102232093;
	(state3) 0.9281421068738704, 0.07185789312612956;
	(state4) 0.09701901522018223, 0.9029809847798177;
}

probability ( family_size | variable293 ) {
	(state0) 0.23788252068454463, 0.29673075779351715, 0.19327381857272477, 0.1416107851749554, 0.1305021177742581;
	(state1) 0.1843001145360724, 0.3512084938916228, 0.22956437198727242, 0.14992782425189846, 0.08499919533313405;
	(state2) 0.2563555380160065, 0.305724688134577, 0.2387465805063952, 0.16186213482991146, 0.037311058513109965;
	(state3) 0.20742849312289302, 0.33209441998470285, 0.21997842926148062, 0.19910195337735379, 0.04139670425356969;
	(state4) 0.25929682000577503, 0.2812541265998972, 0.21281342963725153, 0.17030289568055662, 0.0763327280765196;
}

probability ( hc190 | variable293 ) {
	(state0) 0.3005798717511648, 0.6994201282488351;
	(state1) 0.3335466344665407, 0.6664533655334594;
	(state2) 0.16123098645449596, 0.838769013545504;
	(state3) 0.11276573354062146, 0.8872342664593785;
	(state4) 0.24617819323390347, 0.7538218067660966;
}

probability ( variable293 ) {
	table 0.06105180531052797, 0.09065674226655841, 0.07938534461184625, 0.5295660556733108, 0.23934005213775647;
}

