network LCM {
}

variable hs180 {
	type discrete[2] { 1, 2 };
}

variable hs190 {
	type discrete[2] { 1, 2 };
}

variable hh081 {
	type discrete[3] { 1, 2, 3 };
}

variable db100 {
	type discrete[3] { 1, 2, 3 };
}

variable hs050 {
	type discrete[2] { 1, 2 };
}

variable h79_u {
	type discrete[2] { 1, 2 };
}

variable hs060 {
	type discrete[2] { 1, 2 };
}

variable hs070 {
	type discrete[3] { 1, 2, 3 };
}

variable hs100 {
	type discrete[3] { 1, 2, 3 };
}

variable hs040 {
	type discrete[2] { 1, 2 };
}

variable family_size {
	type discrete[5] { 1, 2, 3, 4, 5 };
}

variable hc190 {
	type discrete[2] { 1, 2 };
}

variable variable179 {
	type discrete[5] { state0, state1, state2, state3, state4 };
}

probability ( hs180 | variable179 ) {
	(state0) 0.2573438910113606, 0.7426561089886393;
	(state1) 0.050766022277074274, 0.9492339777229257;
	(state2) 0.026241934354726323, 0.9737580656452737;
	(state3) 0.04352698769762722, 0.9564730123023728;
	(state4) 0.5957058855269775, 0.4042941144730225;
}

probability ( hs190 | variable179 ) {
	(state0) 0.2620527990892015, 0.7379472009107985;
	(state1) 0.07123175404732499, 0.928768245952675;
	(state2) 0.03576413203365521, 0.9642358679663448;
	(state3) 0.04912643421008689, 0.9508735657899132;
	(state4) 0.5528516396172566, 0.4471483603827433;
}

probability ( hh081 | variable179 ) {
	(state0) 0.9865240023787736, 0.004765928866822508, 0.008710068754403924;
	(state1) 0.9951232080672269, 0.0022328867515868317, 0.0026439051811864584;
	(state2) 0.9945337788694405, 0.0029935318579620137, 0.0024726892725974708;
	(state3) 0.9970551316410353, 2.428633909369967E-4, 0.002702004968027627;
	(state4) 0.9955329587474419, 0.0029850772969390958, 0.0014819639556190515;
}

probability ( db100 | variable179 ) {
	(state0) 0.6250157069203373, 0.22475691784995677, 0.15022737522970608;
	(state1) 0.5304909599103592, 0.24934842845613953, 0.2201606116335011;
	(state2) 0.36105438234858817, 0.21998628057253974, 0.4189593370788721;
	(state3) 0.5511782733188904, 0.19691784900173664, 0.25190387767937295;
	(state4) 0.8196638447950785, 0.13424966885139664, 0.04608648635352487;
}

probability ( hs050 | variable179 ) {
	(state0) 0.8308131620956136, 0.1691868379043865;
	(state1) 0.9981363968464525, 0.001863603153547467;
	(state2) 0.9767333361199156, 0.023266663880084273;
	(state3) 0.997719873467708, 0.0022801265322920177;
	(state4) 0.9915563954238575, 0.008443604576142464;
}

probability ( h79_u | variable179 ) {
	(state0) 0.45356200744422803, 0.5464379925557721;
	(state1) 0.010464059758161576, 0.9895359402418384;
	(state2) 0.04928635349438777, 0.9507136465056122;
	(state3) 8.443596768747015E-4, 0.9991556403231253;
	(state4) 0.013920267482106528, 0.9860797325178935;
}

probability ( hs060 | variable179 ) {
	(state0) 0.008119634921645857, 0.9918803650783542;
	(state1) 0.8812084760828344, 0.11879152391716565;
	(state2) 0.31985118344453795, 0.680148816555462;
	(state3) 0.9197637349399611, 0.08023626506003884;
	(state4) 0.7423401618772653, 0.2576598381227348;
}

probability ( hs070 | variable179 ) {
	(state0) 0.9669162188084143, 0.01675464784417599, 0.016329133347409663;
	(state1) 0.987535194439215, 7.361557717263041E-4, 0.011728649789058812;
	(state2) 0.9821808662557899, 9.860912037839833E-4, 0.01683304254042609;
	(state3) 0.9943702076638316, 2.0354562881238117E-4, 0.005426246707356025;
	(state4) 0.986116292287235, 0.001941732439914744, 0.011941975272850293;
}

probability ( hs100 | variable179 ) {
	(state0) 0.9779834628444436, 0.013831384481447577, 0.008185152674108846;
	(state1) 0.9927443440626317, 3.9225544433040704E-4, 0.00686340049303783;
	(state2) 0.9947930267515166, 6.719250302814163E-4, 0.004535048218201956;
	(state3) 0.9990149576199014, 2.3163641043767703E-4, 7.534059696609262E-4;
	(state4) 0.9934770868068444, 0.0026142248268469044, 0.003908688366308689;
}

probability ( hs040 | variable179 ) {
	(state0) 0.08426013151382089, 0.9157398684861792;
	(state1) 0.9083132221164479, 0.09168677788355194;
	(state2) 0.058831460541104996, 0.941168539458895;
	(state3) 0.9817564989341918, 0.018243501065808198;
	(state4) 0.7539488864272714, 0.2460511135727286;
}

probability ( family_size | variable179 ) {
	(state0) 0.2866597990467852, 0.2562691262105465, 0.18807363329011792, 0.15319972297011217, 0.11579771848243828;
	(state1) 0.3781153100491947, 0.049989210892219894, 0.20784067085612917, 0.35066876923884943, 0.013386038963606944;
	(state2) 0.21861666611682656, 0.316902331284983, 0.22727666781883715, 0.16613882899914292, 0.07106550578021036;
	(state3) 0.13130161449488134, 0.46314242198446653, 0.22309108943613443, 0.12265442390992858, 0.05981045017458928;
	(state4) 0.2354749815553889, 0.3335413684770475, 0.25252838333814376, 0.1397092849666884, 0.03874598166273129;
}

probability ( hc190 | variable179 ) {
	(state0) 0.2499226873351729, 0.750077312664827;
	(state1) 0.02262381807468807, 0.977376181925312;
	(state2) 0.2747487566442159, 0.7252512433557841;
	(state3) 0.17507039125356283, 0.8249296087464372;
	(state4) 0.189838462609719, 0.8101615373902811;
}

probability ( variable179 ) {
	table 0.11265438662852105, 0.19031561036993927, 0.24774741274267587, 0.39118973014899733, 0.05809286010986658;
}

