network olcm - egypt_12 {
}

variable d30b {
	type discrete[5] { 1, 2, 3, 4, 5 };
}

variable g30a {
	type discrete[5] { 1, 2, 3, 4, 5 };
}

variable j30a {
	type discrete[5] { 1, 2, 3, 4, 5 };
}

variable j30b {
	type discrete[5] { 1, 2, 3, 4, 5 };
}

variable j30c {
	type discrete[5] { 1, 2, 3, 4, 5 };
}

variable j30e {
	type discrete[5] { 1, 2, 3, 4, 5 };
}

variable j30f {
	type discrete[5] { 1, 2, 3, 4, 5 };
}

variable l30a {
	type discrete[5] { 1, 2, 3, 4, 5 };
}

variable l30b {
	type discrete[5] { 1, 2, 3, 4, 5 };
}

variable i30 {
	type discrete[5] { 1, 2, 3, 4, 5 };
}

variable d30a {
	type discrete[5] { 1, 2, 3, 4, 5 };
}

variable c30a {
	type discrete[5] { 1, 2, 3, 4, 5 };
}

variable variable83 {
	type discrete[6] { state0, state1, state2, state3, state4, state5 };
}

variable variable267 {
	type discrete[4] { state0, state1, state2, state3 };
}

variable variable619 {
	type discrete[2] { state0, state1 };
}

probability ( d30b | variable267 ) {
	(state0) 0.29800781009735067, 0.3439649351611014, 0.28616960320918683, 0.06147793669895565, 0.01037971483340538;
	(state1) 0.6363714378805956, 0.10066236800998912, 0.1148291831039622, 0.0728413179646177, 0.07529569304083565;
	(state2) 0.9143401055605849, 0.05118158046781906, 0.01735813981706619, 0.0101244683821001, 0.006995705772429872;
	(state3) 0.6463008530576037, 0.02106800859759277, 0.13163668319313168, 0.1936881549283938, 0.007306300223277986;
}

probability ( g30a | variable619, variable267 ) {
	(state0, state0) 0.28268114433247393, 0.32821507225805757, 0.2786711108592086, 0.09277060017596687, 0.017662072374293025;
	(state0, state1) 0.5232963213648285, 0.10129637739181384, 0.1436349724677269, 0.1282925971465289, 0.1034797316291019;
	(state0, state2) 0.9347577047058505, 0.02904788452056224, 0.013481957579574867, 0.017056269711539066, 0.005656183482473433;
	(state0, state3) 0.797031496719457, 0.02763664497830053, 0.08466816960638723, 0.07845480048055302, 0.012208888215302102;
	(state1, state0) 0.5188243557175863, 0.218211988746392, 0.1925191761811319, 0.03441509275143922, 0.03602938660345045;
	(state1, state1) 0.7433900049706561, 0.054306748702384264, 0.03657149129794512, 0.08701547246705987, 0.07871628256195455;
	(state1, state2) 0.7962674468395445, 0.11164634071467251, 0.0660303422135678, 0.015087052605536186, 0.01096881762667895;
	(state1, state3) 0.5906310956457905, 0.0623229904527572, 0.13856826768229985, 0.12925524428093862, 0.07922240193821377;
}

probability ( j30a | variable83 ) {
	(state0) 0.08471192553252917, 0.28867826925570467, 0.4064137159854591, 0.19219713049051054, 0.02799895873579656;
	(state1) 0.00856533964637012, 0.01041707571862857, 0.03173170747216051, 0.07318879245904396, 0.8760970847037969;
	(state2) 0.012635541566549658, 0.08044268958918387, 0.6568867291233865, 0.23913102496318533, 0.01090401475769468;
	(state3) 0.01255650873346502, 0.0105514041025067, 0.03633818945872828, 0.8361322626165867, 0.10442163508871333;
	(state4) 0.3225104679834597, 0.5340136290883536, 0.0852028410230496, 0.03846548307285553, 0.019807578832281604;
	(state5) 0.8386574905100534, 0.0660448019019151, 0.06281304679323749, 0.02451481979172655, 0.007969841003067317;
}

probability ( j30b | variable83 ) {
	(state0) 0.40843081531090836, 0.3129039243089903, 0.23500715689912535, 0.032843900179147435, 0.010814203301828704;
	(state1) 0.060160628747184586, 0.024216527281418317, 0.05375164825932917, 0.019984926675670915, 0.8418862690363971;
	(state2) 0.05173729752800962, 0.23351156534099288, 0.6310406528905895, 0.07177498725203071, 0.011935496988377294;
	(state3) 0.0644593003032376, 0.022941997951546087, 0.06265242921326743, 0.8360070829555697, 0.01393918957637935;
	(state4) 0.5258709348723375, 0.43945778894944737, 0.01290654933249802, 0.016072245781073122, 0.005692481064643854;
	(state5) 0.920901399725494, 0.011526964913322522, 0.05527340889159616, 0.00799252006822252, 0.004305706401364795;
}

probability ( j30c | variable267 ) {
	(state0) 0.1612937750269405, 0.441686234979471, 0.31950291927188645, 0.06268698556947401, 0.014830085152228091;
	(state1) 0.43777539448611247, 0.13518928303803526, 0.16318254094768914, 0.11380307552598314, 0.15004970600218004;
	(state2) 0.8596853691792578, 0.05361277959469467, 0.048366176655025475, 0.029246013661912533, 0.009089660909109515;
	(state3) 0.2432463275069916, 0.0493812867946161, 0.2123566822664069, 0.468267213202269, 0.026748490229716478;
}

probability ( j30e | variable267 ) {
	(state0) 0.011284850492747142, 0.13865127527255922, 0.3833037342031343, 0.3378671803533326, 0.12889295967822675;
	(state1) 0.011182159015322712, 0.0031178686200516513, 0.0064058731244244225, 0.07928631009250672, 0.9000077891476945;
	(state2) 0.0742379748296761, 0.05968314686128183, 0.12846152012200696, 0.39116146731911755, 0.3464558908679176;
	(state3) 0.009210074507587871, 0.004909852612367752, 0.022033214268842364, 0.8373656128195345, 0.12648124579166758;
}

probability ( j30f | variable267 ) {
	(state0) 0.10685983757210123, 0.16857327941101852, 0.35100834516680524, 0.28896181142988525, 0.08459672642018977;
	(state1) 0.020558398268418408, 0.007203234674068487, 0.02444815470950426, 0.10094732801428098, 0.8468428843337279;
	(state2) 0.36672031973607605, 0.16986356236248104, 0.23481675362565396, 0.16715706447318415, 0.061442299802604794;
	(state3) 0.036292489131039794, 0.006368183546290221, 0.0353817119918716, 0.891143969927607, 0.030813645403191297;
}

probability ( l30a | variable83 ) {
	(state0) 0.8757718546492246, 0.07659809713316702, 0.027239790325222946, 0.004614983713839526, 0.015775274178545896;
	(state1) 0.289247501145871, 0.03575684804490556, 0.12797178143464996, 0.17317110204250977, 0.37385276733206374;
	(state2) 0.07143982989251922, 0.23642021626858498, 0.4870507002565683, 0.18839158614475146, 0.01669766743757603;
	(state3) 0.397117488710852, 0.10808332606575013, 0.25192671017271817, 0.20693136050025202, 0.0359411145504278;
	(state4) 0.2806078720347463, 0.4111357306431877, 0.249590566334453, 0.036622656938289797, 0.022043174049323176;
	(state5) 0.8290425937176225, 0.029794211792228846, 0.01048695771244188, 0.1205875606282312, 0.010088676149475536;
}

probability ( l30b | variable83 ) {
	(state0) 0.8902026764436081, 0.05026843784942623, 0.0356065831275566, 0.011269637766890515, 0.012652664812518588;
	(state1) 0.3869322746435981, 0.09533904825861586, 0.14641134448334822, 0.16724015256285785, 0.20407718005158001;
	(state2) 0.1739235503875529, 0.3165437730879013, 0.30662212144736145, 0.17792766272321708, 0.02498289235396709;
	(state3) 0.5581578953664577, 0.12821653917502132, 0.13891714151589288, 0.11465943349392861, 0.06004899044869951;
	(state4) 0.15898468111175076, 0.48163117888728024, 0.18678226316478688, 0.10631291404372718, 0.06628896279245486;
	(state5) 0.822591547144241, 0.047591193450300336, 0.05035830433083215, 0.0538659236432137, 0.025593031431412713;
}

probability ( i30 | variable619, variable267 ) {
	(state0, state0) 0.027123022564051937, 0.250313885571782, 0.5167677664366283, 0.16671539180573125, 0.03907993362180656;
	(state0, state1) 0.03314026871824475, 0.08889026333654639, 0.16741437709282028, 0.2850843291310237, 0.4254707617213649;
	(state0, state2) 0.7140767380989972, 0.1851974396914866, 0.042303987982914036, 0.0396427814723251, 0.018779052754277246;
	(state0, state3) 0.26264073242253033, 0.053844504759353824, 0.12739232284510757, 0.5410278142927736, 0.01509462568023472;
	(state1, state0) 0.27042880818529086, 0.36825880536383593, 0.23937558922127797, 0.03335304174298883, 0.08858375548660644;
	(state1, state1) 0.3254961522799664, 0.06788399431222694, 0.08689238301956878, 0.12415557918444521, 0.3955718912037927;
	(state1, state2) 0.0781905670299162, 0.40146497262774794, 0.36751882019954174, 0.13056864827740378, 0.022256991865390246;
	(state1, state3) 0.0615601381577419, 0.06734324352869922, 0.25781384278723823, 0.4337910941908048, 0.17949168133551577;
}

probability ( d30a | variable267 ) {
	(state0) 0.14504179238289094, 0.45196973103677157, 0.32856737549882387, 0.06674139776599723, 0.00767970331551647;
	(state1) 0.3633920550514897, 0.12562254112337012, 0.1742964507395752, 0.19301881303385093, 0.14367014005171402;
	(state2) 0.8059418873189547, 0.09345634190745455, 0.07444070273950638, 0.015801388083654697, 0.010359679950429686;
	(state3) 0.55782924541377, 0.05442301059623586, 0.1044658369560951, 0.25979384024990093, 0.023488066783998007;
}

probability ( c30a | variable619, variable267 ) {
	(state0, state0) 0.06513499404174035, 0.20949055764412847, 0.3108561029529065, 0.3588532863101743, 0.055665059051050285;
	(state0, state1) 0.04878289391245109, 0.08552892490653738, 0.1671942262974272, 0.23333874911537453, 0.4651552057682098;
	(state0, state2) 0.577846779652076, 0.11397865830197046, 0.12598338692975622, 0.12303546090005425, 0.05915571421614312;
	(state0, state3) 0.10014443538876826, 0.1256895903963114, 0.06186257671656711, 0.6427448300914479, 0.06955856740690547;
	(state1, state0) 0.2694447168630013, 0.3034527202111197, 0.046988457543031326, 0.12769146011073146, 0.25242264527211616;
	(state1, state1) 0.4388385008213852, 0.12705839937258614, 0.0625326224309453, 0.10841771903502888, 0.2631527583400545;
	(state1, state2) 0.17366822201683993, 0.14120306146231057, 0.318149063628829, 0.34288155600521775, 0.02409809688680284;
	(state1, state3) 0.1166773325840588, 0.14500163192549495, 0.30546036696542905, 0.15056837583408628, 0.282292292690931;
}

probability ( variable83 ) {
	table 0.22867989267631067, 0.0802935942695024, 0.13554233735259522, 0.10385443428894911, 0.11714137426710051, 0.33448836714554214;
}

probability ( variable267 ) {
	table 0.15396979052822904, 0.3261265573764679, 0.3976534894290999, 0.12225016266620316;
}

probability ( variable619 ) {
	table 0.6875293246730624, 0.3124706753269376;
}

