// estudios/synthetic/15MVs_v2/olcmHC/intermidiate/olcm_expansion_iter_1.obif
// Produced at Tue Apr 24 14:33:21 CEST 2018
network "olcm - egypt_15_v2" {
}

variable "MV_bank" {
	type discrete[2] { "1" "2" };
}

variable "MV_other" {
	type discrete[2] { "1" "2" };
}

variable "MV_k15d" {
	type discrete[2] { "1" "2" };
}

variable "MV_h1" {
	type discrete[2] { "1" "2" };
}

variable "MV_h5" {
	type discrete[2] { "1" "2" };
}

variable "MV_h3" {
	type discrete[2] { "1" "2" };
}

variable "MV_mnaf3" {
	type discrete[2] { "1" "2" };
}

variable "MV_a7a" {
	type discrete[2] { "1" "2" };
}

variable "MV_mnaq53" {
	type discrete[2] { "1" "2" };
}

variable "MV_e6" {
	type discrete[2] { "1" "2" };
}

variable "MV_j30c" {
	type discrete[5] { "1" "2" "3" "4" "5" };
}

variable "MV_d30b" {
	type discrete[5] { "1" "2" "3" "4" "5" };
}

variable "MV_d30a" {
	type discrete[5] { "1" "2" "3" "4" "5" };
}

variable "MV_l30a" {
	type discrete[5] { "1" "2" "3" "4" "5" };
}

variable "MV_l30b" {
	type discrete[5] { "1" "2" "3" "4" "5" };
}

variable "LV_variable542" {
	type discrete[4] { "state0" "state1" "state2" "state3" };
}

variable "LV_variable297" {
	type discrete[2] { "state0" "state1" };
}

variable "LV_variable394" {
	type discrete[3] { "state0" "state1" "state2" };
}

probability ( "MV_bank" | "LV_variable297", "LV_variable394" ) {
	table 0.8171456539422118 0.03940376444590882 0.02103257318979669 0.3470743887243673 0.5763250384174587 0.7055377232542311 0.18285434605778814 0.9605962355540912 0.9789674268102033 0.6529256112756326 0.42367496158254125 0.29446227674576886;
}
probability ( "MV_other" | "LV_variable297" ) {
	table 0.012143960300689951 0.9195919757537697 0.98785603969931 0.08040802424623024;
}
probability ( "MV_k15d" | "LV_variable394" ) {
	table 0.3954908384017622 0.01875974066146536 0.06577548666085518 0.6045091615982378 0.9812402593385346 0.9342245133391448;
}
probability ( "MV_h1" | "LV_variable394" ) {
	table 0.5240364053466524 0.09837574863346193 0.9012294650441419 0.47596359465334764 0.9016242513665381 0.09877053495585805;
}
probability ( "MV_h5" | "LV_variable394" ) {
	table 0.3518714564901193 0.059903757731089205 0.356278165983855 0.6481285435098807 0.9400962422689108 0.643721834016145;
}
probability ( "MV_h3" | "LV_variable394" ) {
	table 0.4211734636587316 0.06500847869404446 0.833466652094848 0.5788265363412685 0.9349915213059555 0.16653334790515195;
}
probability ( "MV_mnaf3" | "LV_variable542" ) {
	table 0.8736685097361945 0.48865620898100365 0.7607191480533749 0.8250147123592717 0.12633149026380547 0.5113437910189963 0.23928085194662507 0.1749852876407283;
}
probability ( "MV_a7a"  ) {
	table 0.8019699326075687 0.1980300673924313;
}
probability ( "MV_mnaq53" | "LV_variable394" ) {
	table 0.20422148238786017 0.025388071311993495 0.056130476713441325 0.7957785176121398 0.9746119286880065 0.9438695232865587;
}
probability ( "MV_e6" | "LV_variable394" ) {
	table 0.3032731485082888 0.042227024675156745 0.17208896138154633 0.6967268514917113 0.9577729753248433 0.8279110386184537;
}
probability ( "MV_j30c" | "LV_variable542" ) {
	table 0.17798714407979516 0.13457508730730847 0.8324019016628378 0.5167859361905748 0.3556183372396164 0.04314810676500364 0.062367229682356334 0.06638065584768378 0.3507018116170923 0.04011107383613312 0.05602795695127253 0.1561187568731029 0.08636191241246878 0.682888310308862 0.027239152942650672 0.05802108370688344 0.02933079465102748 0.09927742178269268 0.021963758760882607 0.20269356738175529;
}
probability ( "MV_d30b" | "LV_variable542" ) {
	table 0.3317792866878903 0.7513201231600497 0.9140868563608753 0.5997899482662328 0.28469911963737726 0.020962309458134182 0.04917064124799034 0.045010699121388255 0.2736551476276469 0.06770368084619023 0.01960595797881063 0.10232708722647679 0.10138461015785913 0.13753303873693545 0.010211147923344897 0.10130608411781378 0.00848183588922621 0.022480847798690216 0.006925396488978917 0.1515661812680884;
}
probability ( "MV_d30a" | "LV_variable542" ) {
	table 0.1717858275484658 0.7292339399711707 0.7571853335291909 0.2847142122218727 0.3264139124161 0.018597519500476997 0.09758597950920028 0.1240149322491798 0.30290779308634863 0.07900185204729175 0.08849484233338392 0.12240616647548527 0.1841914661668632 0.15374469101665647 0.04416659424435796 0.1707729239617443 0.014701000782222409 0.01942199746440394 0.012567250383866822 0.29809176509171803;
}
probability ( "MV_l30a" | "LV_variable542" ) {
	table 0.22403323515133589 0.2300181892217435 0.9342203863708544 0.3446550133311204 0.3117137775191649 0.05560620389908371 0.04388961170487523 0.07636911458310171 0.37747033814633224 0.06349220370369309 0.006412575946704495 0.21283903732881693 0.07759756760680883 0.6032563950209815 0.006225523851617998 0.13490301339530775 0.009185081576358072 0.047627008154498204 0.009251902125947889 0.2312338213616531;
}
probability ( "MV_l30b" | "LV_variable542", "LV_variable297" ) {
	table 0.3005793954828097 0.1859307146216599 0.660646113304088 0.24729991902631202 0.8668686002456973 0.9499696415516712 0.2975550012490314 0.25608169230052386 0.3704961495482896 0.36010664065053494 0.05850596144211994 0.18506572163837398 0.0582379023378033 0.021902643547121663 0.11313422848054507 0.15417769192157973 0.23386597104246432 0.2848224846967577 0.07828805491362549 0.22191337254422475 0.040582390525261 0.007989267926076177 0.15142586059083352 0.248257836515686 0.08702053126892577 0.15213878090688912 0.1702618972888346 0.260981427574993 0.030188810915306112 0.013505555898076237 0.17080327685289864 0.1578639087145746 0.008037952657510594 0.01700137912415843 0.03229797305133215 0.08473955921609629 0.004122295975932225 0.006632891077054761 0.26708163282669134 0.1836188705476359;
}
probability ( "LV_variable542"  ) {
	table 0.2687493984300416 0.10331063618835812 0.4848747124634307 0.14306525291816966;
}
probability ( "LV_variable297"  ) {
	table 0.8459596607783052 0.1540403392216948;
}
probability ( "LV_variable394"  ) {
	table 0.05750248765732518 0.8267372411092877 0.11576027123338704;
}
