// estudios/synthetic/15MVs_v2/olcmHC/intermidiate/olcm_simplification_iter_2.obif
// Produced at Tue Apr 24 15:07:12 CEST 2018
network "olcm - egypt_15_v2" {
}

variable "MV_bank" {
	type discrete[2] { "1" "2" };
}

variable "MV_other" {
	type discrete[2] { "1" "2" };
}

variable "MV_k15d" {
	type discrete[2] { "1" "2" };
}

variable "MV_h1" {
	type discrete[2] { "1" "2" };
}

variable "MV_h5" {
	type discrete[2] { "1" "2" };
}

variable "MV_h3" {
	type discrete[2] { "1" "2" };
}

variable "MV_mnaf3" {
	type discrete[2] { "1" "2" };
}

variable "MV_a7a" {
	type discrete[2] { "1" "2" };
}

variable "MV_mnaq53" {
	type discrete[2] { "1" "2" };
}

variable "MV_e6" {
	type discrete[2] { "1" "2" };
}

variable "MV_j30c" {
	type discrete[5] { "1" "2" "3" "4" "5" };
}

variable "MV_d30b" {
	type discrete[5] { "1" "2" "3" "4" "5" };
}

variable "MV_d30a" {
	type discrete[5] { "1" "2" "3" "4" "5" };
}

variable "MV_l30a" {
	type discrete[5] { "1" "2" "3" "4" "5" };
}

variable "MV_l30b" {
	type discrete[5] { "1" "2" "3" "4" "5" };
}

variable "LV_variable542" {
	type discrete[4] { "state0" "state1" "state2" "state3" };
}

variable "LV_variable297" {
	type discrete[2] { "state0" "state1" };
}

variable "LV_variable394" {
	type discrete[3] { "state0" "state1" "state2" };
}

probability ( "MV_bank" | "LV_variable394", "LV_variable297" ) {
	table 0.4109718386702771 0.83052884538569 0.7803534921003805 0.019204512306446632 0.8698751125214975 0.020428798411851565 0.5890281613297229 0.16947115461430995 0.21964650789961943 0.9807954876935534 0.13012488747850243 0.9795712015881485;
}
probability ( "MV_other" | "LV_variable297", "LV_variable542" ) {
	table 0.5629040082446907 0.5978009023841935 0.5577091115113065 0.9165640904121707 0.020471259762928743 0.023994192840412456 0.15348914595807794 0.05238764446505346 0.43709599175530917 0.4021990976158066 0.44229088848869347 0.08343590958782938 0.9795287402370711 0.9760058071595876 0.8465108540419221 0.9476123555349465;
}
probability ( "MV_k15d" | "LV_variable394" ) {
	table 0.3904338236438263 0.07065162770504792 0.01908041918894103 0.6095661763561738 0.929348372294952 0.9809195808110589;
}
probability ( "MV_h1" | "LV_variable394" ) {
	table 0.5300580133908518 0.8907654526052957 0.09563950392849517 0.4699419866091483 0.10923454739470433 0.9043604960715048;
}
probability ( "MV_h5" | "LV_variable394" ) {
	table 0.3629819669954661 0.34921521046767307 0.05911633662933439 0.6370180330045339 0.650784789532327 0.9408836633706656;
}
probability ( "MV_h3" | "LV_variable394" ) {
	table 0.4333094315643887 0.8120909507449827 0.06349621819742036 0.5666905684356113 0.18790904925501725 0.9365037818025796;
}
probability ( "MV_mnaf3" | "LV_variable542" ) {
	table 0.4755190405363847 0.8269394924191494 0.8738839569091764 0.7609457392183392 0.5244809594636153 0.17306050758085048 0.12611604309082353 0.23905426078166078;
}
probability ( "MV_a7a"  ) {
	table 0.8019699326075687 0.1980300673924313;
}
probability ( "MV_mnaq53" | "LV_variable394" ) {
	table 0.21913264119006404 0.050250338395605484 0.025521734087878424 0.780867358809936 0.9497496616043944 0.9744782659121215;
}
probability ( "MV_e6" | "LV_variable394" ) {
	table 0.3031090131120479 0.16775909812446643 0.04275405120847527 0.6968909868879521 0.8322409018755336 0.9572459487915247;
}
probability ( "MV_j30c" | "LV_variable542" ) {
	table 0.12835499060953057 0.5180876514918265 0.16400570292200295 0.8372103334007605 0.039043740789528804 0.06540362979386578 0.3708263277186201 0.06275496157858601 0.04022064268770812 0.1650917457256781 0.3513769979072483 0.05473507715925169 0.697807091603582 0.05533870480409377 0.09280691328567559 0.024524132567669537 0.09457353430965063 0.19607826818453583 0.02098405816645292 0.02077549529373218;
}
probability ( "MV_d30b" | "LV_variable542" ) {
	table 0.7630795462460529 0.6169520555705117 0.31704032202163374 0.914120653310221 0.021546931868287336 0.044571606984000034 0.2961961175187992 0.04924095487137614 0.06232532237788667 0.10664487492921532 0.2766047637598308 0.020103783923665065 0.13116240605591314 0.0970834307103428 0.10366707269506314 0.009997781120187383 0.02188579345185985 0.13474803180593017 0.006491724004673226 0.00653682677455041;
}
probability ( "MV_d30a" | "LV_variable542" ) {
	table 0.7361107684983357 0.3052881075039503 0.1683439486091231 0.7599525573290247 0.018653072944966573 0.1289796916608213 0.3282927579489922 0.09899588278420192 0.07746784246242151 0.12604463865551235 0.3107001298414985 0.08707083892586188 0.14808139252792943 0.17872142734254495 0.17899360475915124 0.0427959248434647 0.019686923566346843 0.2609661348371712 0.01366955884123508 0.01118479611744675;
}
probability ( "MV_l30a" | "LV_variable542" ) {
	table 0.24377931094799954 0.3456095431784034 0.22579279480800074 0.9394484118605533 0.05405747036009395 0.09596546802341349 0.31176710595824286 0.042531010983996476 0.05989411944690932 0.21961340675102065 0.37573073171017624 0.004688244263174036 0.5952884200921162 0.13680112027692698 0.07803514576384102 0.004886590600559754 0.046980679152880934 0.2020104617702355 0.008674221759739233 0.008445742291716383;
}
probability ( "MV_l30b" | "LV_variable542" ) {
	table 0.6520570194230542 0.30853070323214976 0.270261500968394 0.8945986087099334 0.059594236640517335 0.11763568744031573 0.38365764386786233 0.05003355843768559 0.0870656554787226 0.1690976111498715 0.24552488434839953 0.02989185823885195 0.16998776627772083 0.17427988626820368 0.09569611820498138 0.022843411263701388 0.031295322179985 0.23045611190945925 0.00485985261036282 0.00263256334982775;
}
probability ( "LV_variable542"  ) {
	table 0.10102797494817517 0.16854108870515466 0.2562369783782829 0.4741939579683873;
}
probability ( "LV_variable297"  ) {
	table 0.12086328365619282 0.8791367163438072;
}
probability ( "LV_variable394"  ) {
	table 0.055340539800132794 0.120879113794105 0.8237803464057621;
}
