network olcm - egypt_15_v2 {
}

variable bank {
	type discrete[2] { 1, 2 };
}

variable other {
	type discrete[2] { 1, 2 };
}

variable k15d {
	type discrete[2] { 1, 2 };
}

variable h1 {
	type discrete[2] { 1, 2 };
}

variable h5 {
	type discrete[2] { 1, 2 };
}

variable h3 {
	type discrete[2] { 1, 2 };
}

variable mnaf3 {
	type discrete[2] { 1, 2 };
}

variable a7a {
	type discrete[2] { 1, 2 };
}

variable mnaq53 {
	type discrete[2] { 1, 2 };
}

variable e6 {
	type discrete[2] { 1, 2 };
}

variable j30c {
	type discrete[5] { 1, 2, 3, 4, 5 };
}

variable d30b {
	type discrete[5] { 1, 2, 3, 4, 5 };
}

variable d30a {
	type discrete[5] { 1, 2, 3, 4, 5 };
}

variable l30a {
	type discrete[5] { 1, 2, 3, 4, 5 };
}

variable l30b {
	type discrete[5] { 1, 2, 3, 4, 5 };
}

variable variable542 {
	type discrete[4] { state0, state1, state2, state3 };
}

variable variable297 {
	type discrete[2] { state0, state1 };
}

variable variable394 {
	type discrete[3] { state0, state1, state2 };
}

probability ( bank | variable394, variable297 ) {
	(state0, state0) 0.4109718386702771, 0.5890281613297229;
	(state0, state1) 0.83052884538569, 0.16947115461430995;
	(state1, state0) 0.7803534921003805, 0.21964650789961943;
	(state1, state1) 0.019204512306446632, 0.9807954876935534;
	(state2, state0) 0.8698751125214975, 0.13012488747850243;
	(state2, state1) 0.020428798411851565, 0.9795712015881485;
}

probability ( other | variable542, variable297 ) {
	(state0, state0) 0.5629040082446907, 0.43709599175530917;
	(state0, state1) 0.020471259762928743, 0.9795287402370711;
	(state1, state0) 0.5978009023841935, 0.4021990976158066;
	(state1, state1) 0.023994192840412456, 0.9760058071595876;
	(state2, state0) 0.5577091115113065, 0.44229088848869347;
	(state2, state1) 0.15348914595807794, 0.8465108540419221;
	(state3, state0) 0.9165640904121707, 0.08343590958782938;
	(state3, state1) 0.05238764446505346, 0.9476123555349465;
}

probability ( k15d | variable394 ) {
	(state0) 0.3904338236438263, 0.6095661763561738;
	(state1) 0.07065162770504792, 0.929348372294952;
	(state2) 0.01908041918894103, 0.9809195808110589;
}

probability ( h1 | variable394 ) {
	(state0) 0.5300580133908518, 0.4699419866091483;
	(state1) 0.8907654526052957, 0.10923454739470433;
	(state2) 0.09563950392849517, 0.9043604960715048;
}

probability ( h5 | variable394 ) {
	(state0) 0.3629819669954661, 0.6370180330045339;
	(state1) 0.34921521046767307, 0.650784789532327;
	(state2) 0.05911633662933439, 0.9408836633706656;
}

probability ( h3 | variable394 ) {
	(state0) 0.4333094315643887, 0.5666905684356113;
	(state1) 0.8120909507449827, 0.18790904925501725;
	(state2) 0.06349621819742036, 0.9365037818025796;
}

probability ( mnaf3 | variable542 ) {
	(state0) 0.4755190405363847, 0.5244809594636153;
	(state1) 0.8269394924191494, 0.17306050758085048;
	(state2) 0.8738839569091764, 0.12611604309082353;
	(state3) 0.7609457392183392, 0.23905426078166078;
}

probability ( a7a ) {
	table 0.8019699326075687, 0.1980300673924313;
}

probability ( mnaq53 | variable394 ) {
	(state0) 0.21913264119006404, 0.780867358809936;
	(state1) 0.050250338395605484, 0.9497496616043944;
	(state2) 0.025521734087878424, 0.9744782659121215;
}

probability ( e6 | variable394 ) {
	(state0) 0.3031090131120479, 0.6968909868879521;
	(state1) 0.16775909812446643, 0.8322409018755336;
	(state2) 0.04275405120847527, 0.9572459487915247;
}

probability ( j30c | variable542 ) {
	(state0) 0.12835499060953057, 0.039043740789528804, 0.04022064268770812, 0.697807091603582, 0.09457353430965063;
	(state1) 0.5180876514918265, 0.06540362979386578, 0.1650917457256781, 0.05533870480409377, 0.19607826818453583;
	(state2) 0.16400570292200295, 0.3708263277186201, 0.3513769979072483, 0.09280691328567559, 0.02098405816645292;
	(state3) 0.8372103334007605, 0.06275496157858601, 0.05473507715925169, 0.024524132567669537, 0.02077549529373218;
}

probability ( d30b | variable542 ) {
	(state0) 0.7630795462460529, 0.021546931868287336, 0.06232532237788667, 0.13116240605591314, 0.02188579345185985;
	(state1) 0.6169520555705117, 0.044571606984000034, 0.10664487492921532, 0.0970834307103428, 0.13474803180593017;
	(state2) 0.31704032202163374, 0.2961961175187992, 0.2766047637598308, 0.10366707269506314, 0.006491724004673226;
	(state3) 0.914120653310221, 0.04924095487137614, 0.020103783923665065, 0.009997781120187383, 0.00653682677455041;
}

probability ( d30a | variable542 ) {
	(state0) 0.7361107684983357, 0.018653072944966573, 0.07746784246242151, 0.14808139252792943, 0.019686923566346843;
	(state1) 0.3052881075039503, 0.1289796916608213, 0.12604463865551235, 0.17872142734254495, 0.2609661348371712;
	(state2) 0.1683439486091231, 0.3282927579489922, 0.3107001298414985, 0.17899360475915124, 0.01366955884123508;
	(state3) 0.7599525573290247, 0.09899588278420192, 0.08707083892586188, 0.0427959248434647, 0.01118479611744675;
}

probability ( l30a | variable542 ) {
	(state0) 0.24377931094799954, 0.05405747036009395, 0.05989411944690932, 0.5952884200921162, 0.046980679152880934;
	(state1) 0.3456095431784034, 0.09596546802341349, 0.21961340675102065, 0.13680112027692698, 0.2020104617702355;
	(state2) 0.22579279480800074, 0.31176710595824286, 0.37573073171017624, 0.07803514576384102, 0.008674221759739233;
	(state3) 0.9394484118605533, 0.042531010983996476, 0.004688244263174036, 0.004886590600559754, 0.008445742291716383;
}

probability ( l30b | variable542 ) {
	(state0) 0.6520570194230542, 0.059594236640517335, 0.0870656554787226, 0.16998776627772083, 0.031295322179985;
	(state1) 0.30853070323214976, 0.11763568744031573, 0.1690976111498715, 0.17427988626820368, 0.23045611190945925;
	(state2) 0.270261500968394, 0.38365764386786233, 0.24552488434839953, 0.09569611820498138, 0.00485985261036282;
	(state3) 0.8945986087099334, 0.05003355843768559, 0.02989185823885195, 0.022843411263701388, 0.00263256334982775;
}

probability ( variable542 ) {
	table 0.10102797494817517, 0.16854108870515466, 0.2562369783782829, 0.4741939579683873;
}

probability ( variable297 ) {
	table 0.12086328365619282, 0.8791367163438072;
}

probability ( variable394 ) {
	table 0.055340539800132794, 0.120879113794105, 0.8237803464057621;
}

