// olcm_8MVs_v2.obif
// Produced at Tue Apr 17 17:14:59 CEST 2018
network "Discrete_Bayesian_network" {
}

variable "MV_c1" {
	type discrete[3] { "state0" "state1" "state2" };
}

variable "MV_c2" {
	type discrete[2] { "state0" "state1" };
}

variable "MV_mv1" {
	type discrete[2] { "state0" "state1" };
}

variable "MV_mv2" {
	type discrete[2] { "state0" "state1" };
}

variable "MV_mv3" {
	type discrete[2] { "state0" "state1" };
}

variable "MV_mv4" {
	type discrete[2] { "state0" "state1" };
}

variable "MV_mv5" {
	type discrete[2] { "state0" "state1" };
}

variable "MV_mv6" {
	type discrete[2] { "state0" "state1" };
}

variable "MV_mv7" {
	type discrete[2] { "state0" "state1" };
}

variable "MV_mv8" {
	type discrete[2] { "state0" "state1" };
}

probability ( "MV_c1"  ) {
	table 0.3919444512789833 0.376176193960575 0.2318793547604416;
}
probability ( "MV_c2"  ) {
	table 0.03984895107396084 0.9601510489260392;
}
probability ( "MV_mv1" | "MV_c1" ) {
	table 0.476578496911941 0.507973840022486 0.4321877950560167 0.5234215030880589 0.49202615997751403 0.5678122049439833;
}
probability ( "MV_mv2" | "MV_c1" ) {
	table 0.48243759296243055 0.42218002097175805 0.37459171095532745 0.5175624070375694 0.5778199790282419 0.6254082890446726;
}
probability ( "MV_mv3" | "MV_c1" ) {
	table 0.38920783215990384 0.2964773943213469 0.6636099036054048 0.6107921678400962 0.7035226056786531 0.3363900963945952;
}
probability ( "MV_mv4" | "MV_c1" ) {
	table 0.9069335389994985 0.15282644960789285 0.4561785195529064 0.0930664610005015 0.8471735503921072 0.5438214804470936;
}
probability ( "MV_mv5" | "MV_c1", "MV_c2" ) {
	table 0.16583003497357074 0.6603940918313268 0.745935717078099 0.4704691090202012 0.337956396334555 0.3846007353188301 0.8341699650264293 0.3396059081686732 0.254064282921901 0.5295308909797988 0.662043603665445 0.6153992646811699;
}
probability ( "MV_mv6" | "MV_c1", "MV_c2" ) {
	table 0.2220117039541155 0.5639899183177332 0.4057864560762438 0.22346286079034122 0.31054669327203205 0.29461655136536163 0.7779882960458845 0.4360100816822669 0.5942135439237562 0.7765371392096588 0.6894533067279679 0.7053834486346384;
}
probability ( "MV_mv7" | "MV_c2" ) {
	table 0.547687804421055 0.49842601828018057 0.4523121955789449 0.5015739817198194;
}
probability ( "MV_mv8" | "MV_c2" ) {
	table 0.2439639372929553 0.45256420149690857 0.7560360627070447 0.5474357985030914;
}
