network olcm - egypt_15_v3 {
}

variable bank {
	type discrete[2] { '1', '2' };
}

variable other {
	type discrete[2] { '1', '2' };
}

variable nonbank {
	type discrete[2] { '1', '2' };
}

variable k15d {
	type discrete[2] { '1', '2' };
}

variable h1 {
	type discrete[2] { '1', '2' };
}

variable h5 {
	type discrete[2] { '1', '2' };
}

variable h3 {
	type discrete[2] { '1', '2' };
}

variable mnaf3 {
	type discrete[2] { '1', '2' };
}

variable mnaq53 {
	type discrete[2] { '1', '2' };
}

variable e6 {
	type discrete[2] { '1', '2' };
}

variable j30c {
	type discrete[5] { '1', '2', '3', '4', '5' };
}

variable d30b {
	type discrete[5] { '1', '2', '3', '4', '5' };
}

variable d30a {
	type discrete[5] { '1', '2', '3', '4', '5' };
}

variable l30a {
	type discrete[5] { '1', '2', '3', '4', '5' };
}

variable l30b {
	type discrete[5] { '1', '2', '3', '4', '5' };
}

variable variable16 {
	type discrete[2] { state0, state1 };
}

variable variable98 {
	type discrete[2] { state0, state1 };
}

variable variable243 {
	type discrete[4] { state0, state1, state2, state3 };
}

probability ( bank | variable16, variable98 ) {
	(state0, state0) 0.0411285000139903, 0.9588714999860097;
	(state0, state1) 0.28387702416349503, 0.7161229758365051;
	(state1, state0) 0.9909006849514777, 0.009099315048522402;
	(state1, state1) 0.9628140178729753, 0.03718598212702475;
}

probability ( other | variable16, variable243 ) {
	(state0, state0) 0.1545498304754008, 0.8454501695245992;
	(state0, state1) 0.036501993858824903, 0.9634980061411751;
	(state0, state2) 0.02790874969763646, 0.9720912503023635;
	(state0, state3) 0.07220860661795912, 0.9277913933820409;
	(state1, state0) 0.7863626379123928, 0.2136373620876072;
	(state1, state1) 0.8681142278203202, 0.1318857721796798;
	(state1, state2) 0.8236786356415826, 0.17632136435841744;
	(state1, state3) 0.9895718482986727, 0.010428151701327241;
}

probability ( nonbank | variable16 ) {
	(state0) 0.005769378846576353, 0.9942306211534236;
	(state1) 0.9593190718292903, 0.040680928170709806;
}

probability ( k15d | variable98 ) {
	(state0) 0.01694194398813275, 0.9830580560118672;
	(state1) 0.183364695249961, 0.816635304750039;
}

probability ( h1 | variable98, variable243 ) {
	(state0, state0) 0.04899743937960792, 0.9510025606203921;
	(state0, state1) 0.4089457762531229, 0.5910542237468772;
	(state0, state2) 0.020447519806121448, 0.9795524801938786;
	(state0, state3) 0.08760665729127286, 0.9123933427087272;
	(state1, state0) 0.520472228684942, 0.479527771315058;
	(state1, state1) 0.9267066188887618, 0.07329338111123823;
	(state1, state2) 0.41531762436510256, 0.5846823756348976;
	(state1, state3) 0.6159009860635404, 0.3840990139364598;
}

probability ( h5 | variable98 ) {
	(state0) 0.05366812146334772, 0.9463318785366523;
	(state1) 0.3859014722118383, 0.6140985277881618;
}

probability ( h3 | variable98, variable243 ) {
	(state0, state0) 0.014255249208385536, 0.9857447507916145;
	(state0, state1) 0.3820417157112401, 0.61795828428876;
	(state0, state2) 0.011794471039502274, 0.9882055289604976;
	(state0, state3) 0.05344885953378435, 0.9465511404662157;
	(state1, state0) 0.5125250206579165, 0.4874749793420835;
	(state1, state1) 0.9062854276860293, 0.09371457231397066;
	(state1, state2) 0.2185337759759524, 0.7814662240240476;
	(state1, state3) 0.44441848937796397, 0.555581510622036;
}

probability ( mnaf3 | variable243 ) {
	(state0) 0.8627015760201094, 0.13729842397989048;
	(state1) 0.8630094104125425, 0.13699058958745755;
	(state2) 0.4158322815129521, 0.584167718487048;
	(state3) 0.759331311079124, 0.24066868892087592;
}

probability ( mnaq53 | variable98, variable243 ) {
	(state0, state0) 0.013344274275232295, 0.9866557257247678;
	(state0, state1) 0.00937085709759906, 0.9906291429024009;
	(state0, state2) 0.08902263474097057, 0.9109773652590294;
	(state0, state3) 0.023389714257334212, 0.9766102857426657;
	(state1, state0) 0.17176803218127878, 0.8282319678187213;
	(state1, state1) 0.1652622410766402, 0.8347377589233598;
	(state1, state2) 0.15495909282408304, 0.845040907175917;
	(state1, state3) 0.05308498765633432, 0.9469150123436657;
}

probability ( e6 | variable98 ) {
	(state0) 0.036456705125025086, 0.9635432948749749;
	(state1) 0.2429671275077037, 0.7570328724922963;
}

probability ( j30c | variable243 ) {
	(state0) 0.16971608115372408, 0.38395405389717313, 0.3490857299029955, 0.08292051813269542, 0.014323616913411772;
	(state1) 0.4526254798775807, 0.05138132981158245, 0.17758667150204924, 0.11821672492372197, 0.20018979388506555;
	(state2) 0.17517390668466265, 0.045845187786260455, 0.039777178628731785, 0.6524443876807697, 0.08675933921957528;
	(state3) 0.8429363479831321, 0.06263870975726508, 0.050395393009293875, 0.024338204229863068, 0.01969134502044581;
}

probability ( d30b | variable243 ) {
	(state0) 0.3305410209242071, 0.29765295870735126, 0.2701317754035799, 0.09274977734193264, 0.008924467622929099;
	(state1) 0.5650547205146598, 0.050610756113758704, 0.13198266475530082, 0.13411473549718808, 0.11823712311909279;
	(state2) 0.8206784308648978, 0.021809359907657293, 0.039060810454568134, 0.09299198371903251, 0.025459415053844178;
	(state3) 0.9168206762109108, 0.04834439083571752, 0.018808109217829983, 0.008992699893600593, 0.007034123841941035;
}

probability ( d30a | variable243 ) {
	(state0) 0.1883393795720762, 0.33131169350939965, 0.3064294073006379, 0.15525076312287223, 0.018668756495013997;
	(state1) 0.2397241710636071, 0.12658012114504116, 0.15067765011044537, 0.2630113872462207, 0.22000667043468572;
	(state2) 0.8224798164833225, 0.017556824532439525, 0.05095614894188696, 0.08586581634010636, 0.023141393702244627;
	(state3) 0.7659117747663539, 0.09872514785008324, 0.08594979002512795, 0.03353044676697412, 0.015882840591460987;
}

probability ( l30a | variable98, variable243 ) {
	(state0, state0) 0.21093985610479063, 0.3335166581617375, 0.3740115797823079, 0.07139183160533767, 0.010140074345826281;
	(state0, state1) 0.39750990581881684, 0.10326491629684115, 0.20041783792959145, 0.10669934573119552, 0.19210799422355504;
	(state0, state2) 0.18262464784648033, 0.05809680571465315, 0.06403047179539796, 0.6403057731562758, 0.054942301487192674;
	(state0, state3) 0.9414120561632174, 0.03942518169235773, 0.006051048407714222, 0.004166741481116435, 0.00894497225559414;
	(state1, state0) 0.2620998072618885, 0.20706694068253717, 0.40440883872467154, 0.08995071042286788, 0.036473702908035026;
	(state1, state1) 0.3297443110870014, 0.08242479016204242, 0.18370836561898357, 0.29514560703118675, 0.10897692610078573;
	(state1, state2) 0.30186356376207985, 0.1793685079883987, 0.11540665299898502, 0.3226490489197741, 0.08071222633076239;
	(state1, state3) 0.8815119475216421, 0.05261692234037608, 0.015048381971438742, 0.02842806417964111, 0.0223946839869021;
}

probability ( l30b | variable243 ) {
	(state0) 0.26242649487654157, 0.4022061946986698, 0.24669175226020895, 0.08073466569849869, 0.007940892466080872;
	(state1) 0.37290206335985865, 0.07979983778510018, 0.15913375937008442, 0.18619238678927627, 0.20197195269568036;
	(state2) 0.6282065560026519, 0.06888007740831509, 0.09053534164344088, 0.1759700590914409, 0.03640796585415133;
	(state3) 0.8872593695968478, 0.05452982047024881, 0.03105429911548212, 0.02301524002352693, 0.004141270793894299;
}

probability ( variable16 ) {
	table 0.9163281500298568, 0.08367184997014318;
}

probability ( variable98 ) {
	table 0.828306477728475, 0.171693522271525;
}

probability ( variable243 ) {
	table 0.2512822946417182, 0.18407029517409962, 0.0937422295564168, 0.4709051806277654;
}

