// estudios/synthetic/15MVs_v3/olcmHC/intermidiate/olcm_simplification_iter_2.obif
// Produced at Tue Apr 24 17:40:45 CEST 2018
network "olcm - egypt_15_v3" {
}

variable "MV_bank" {
	type discrete[2] { "'1'" "'2'" };
}

variable "MV_other" {
	type discrete[2] { "'1'" "'2'" };
}

variable "MV_nonbank" {
	type discrete[2] { "'1'" "'2'" };
}

variable "MV_k15d" {
	type discrete[2] { "'1'" "'2'" };
}

variable "MV_h1" {
	type discrete[2] { "'1'" "'2'" };
}

variable "MV_h5" {
	type discrete[2] { "'1'" "'2'" };
}

variable "MV_h3" {
	type discrete[2] { "'1'" "'2'" };
}

variable "MV_mnaf3" {
	type discrete[2] { "'1'" "'2'" };
}

variable "MV_mnaq53" {
	type discrete[2] { "'1'" "'2'" };
}

variable "MV_e6" {
	type discrete[2] { "'1'" "'2'" };
}

variable "MV_j30c" {
	type discrete[5] { "'1'" "'2'" "'3'" "'4'" "'5'" };
}

variable "MV_d30b" {
	type discrete[5] { "'1'" "'2'" "'3'" "'4'" "'5'" };
}

variable "MV_d30a" {
	type discrete[5] { "'1'" "'2'" "'3'" "'4'" "'5'" };
}

variable "MV_l30a" {
	type discrete[5] { "'1'" "'2'" "'3'" "'4'" "'5'" };
}

variable "MV_l30b" {
	type discrete[5] { "'1'" "'2'" "'3'" "'4'" "'5'" };
}

variable "LV_variable16" {
	type discrete[2] { "state0" "state1" };
}

variable "LV_variable98" {
	type discrete[2] { "state0" "state1" };
}

variable "LV_variable243" {
	type discrete[4] { "state0" "state1" "state2" "state3" };
}

probability ( "MV_bank" | "LV_variable16", "LV_variable98" ) {
	table 0.3422894177121688 0.03930419855508603 0.9546471688110557 0.9911861366217711 0.6577105822878312 0.960695801444914 0.045352831188944245 0.0088138633782288;
}
probability ( "MV_other" | "LV_variable243", "LV_variable16" ) {
	table 0.07212664386136866 0.989575905790351 0.15360524506327872 0.7886725601229312 0.03251165463075069 0.8683265505471331 0.03766115047509467 0.8373821564441216 0.9278733561386314 0.010424094209648958 0.8463947549367213 0.2113274398770689 0.9674883453692493 0.13167344945286694 0.9623388495249054 0.16261784355587838;
}
probability ( "MV_nonbank" | "LV_variable16" ) {
	table 0.0057220951101377105 0.9585808141298376 0.9942779048898622 0.04141918587016226;
}
probability ( "MV_k15d" | "LV_variable98" ) {
	table 0.22130421387370053 0.015978425044126044 0.7786957861262995 0.984021574955874;
}
probability ( "MV_h1" | "LV_variable243", "LV_variable98" ) {
	table 0.6080264358025154 0.0954672795229149 0.4616456837238884 0.05012277225603208 0.3970947116818349 0.020320426432038567 0.9072842967811999 0.5026670467715002 0.3919735641974847 0.9045327204770851 0.5383543162761115 0.9498772277439679 0.6029052883181651 0.9796795735679614 0.09271570321880003 0.4973329532284999;
}
probability ( "MV_h5" | "LV_variable98", "LV_variable243" ) {
	table 0.30125245411067414 0.3679202263816976 0.07536082307545702 0.5841755617482982 0.05384004287029455 0.04152571861686196 0.009376021834302655 0.18980002978986737 0.6987475458893259 0.6320797736183024 0.9246391769245429 0.4158244382517018 0.9461599571297055 0.9584742813831381 0.9906239781656974 0.8101999702101327;
}
probability ( "MV_h3" | "LV_variable243", "LV_variable98" ) {
	table 0.4485112769695444 0.05836148119675179 0.45500737543892156 0.01693526626885028 0.10838968869672301 0.010933309592489702 0.9049468308630134 0.47245442240116453 0.5514887230304556 0.9416385188032482 0.5449926245610783 0.9830647337311497 0.8916103113032771 0.9890666904075103 0.09505316913698669 0.5275455775988355;
}
probability ( "MV_mnaf3" | "LV_variable243" ) {
	table 0.7579299175850663 0.8615917495087528 0.413541960977675 0.881150600756436 0.24207008241493372 0.13840825049124722 0.5864580390223251 0.11884939924356398;
}
probability ( "MV_mnaq53" | "LV_variable98" ) {
	table 0.1349825594692747 0.022649266065107226 0.8650174405307253 0.9773507339348928;
}
probability ( "MV_e6" | "LV_variable98" ) {
	table 0.2831754648491133 0.03641802435125435 0.7168245351508866 0.9635819756487456;
}
probability ( "MV_j30c" | "LV_variable243" ) {
	table 0.8442250794529723 0.17408983180271195 0.20903601341028796 0.4396839289253084 0.0631824318160361 0.38836901469142665 0.05266655361627352 0.04628063022559768 0.04882431882404818 0.34114092724056816 0.042246641164204034 0.19470752864137905 0.025386877555873443 0.07953286716773353 0.6012932097998388 0.1275630006292948 0.018381292351069917 0.016867359097559535 0.0947575820093957 0.1917649115784201;
}
probability ( "MV_d30b" | "LV_variable243" ) {
	table 0.9146760066061684 0.342258541214662 0.8421180956918801 0.5401381445259994 0.048839394241984184 0.29784457486496174 0.014122734856666024 0.05815110181863015 0.01834358933724233 0.2637852091803958 0.03501027515434262 0.14612126843686452 0.010353372504068337 0.0885944793048747 0.08381246380470057 0.13868708092640572 0.007787637310536578 0.0075171954351058255 0.024936430492410705 0.11690240429210026;
}
probability ( "MV_d30a" | "LV_variable243" ) {
	table 0.7664831824042719 0.1857610556202526 0.815695893524219 0.2392279417174416 0.09826496503955008 0.33169280459690303 0.014655834326182685 0.13491149016871695 0.08345983425187542 0.3065442327892033 0.04160676314458807 0.1658779335971142 0.033915164153145695 0.15498358360808637 0.08699524475728204 0.2598991354471887 0.017876854151156772 0.021018323385554732 0.041046264247728136 0.2000834990695386;
}
probability ( "MV_l30a" | "LV_variable243" ) {
	table 0.9399666510726691 0.2137932916211785 0.19388286717435232 0.40727692088682343 0.04115436417399787 0.3178514801004014 0.06542821471741293 0.09171981402143196 0.005037806251802001 0.3797657599430614 0.08791543837042712 0.19450370243286277 0.0033389899067844515 0.07196583539749164 0.5788172019011006 0.1523973134968092 0.0105021885947467 0.016623632937867124 0.073956277836707 0.15410224916207252;
}
probability ( "MV_l30b" | "LV_variable243" ) {
	table 0.8909207397765626 0.2600330415506005 0.611104838025661 0.3794092236623955 0.05402899907683382 0.41012619396100347 0.06965477255841905 0.07498282077326977 0.03191389639607073 0.23946054474546066 0.09915792755310979 0.16229227779455216 0.01976858500445364 0.07811041160633765 0.16748980804843067 0.19681073859310602 0.00336777974607925 0.012269808136597652 0.05259265381437957 0.18650493917667674;
}
probability ( "LV_variable16"  ) {
	table 0.9162174242408327 0.08378257575916717;
}
probability ( "LV_variable98"  ) {
	table 0.14376206214337933 0.8562379378566207;
}
probability ( "LV_variable243"  ) {
	table 0.46607507438935925 0.2482506622595153 0.09983091879467623 0.18584334455644924;
}
