network olcm - egypt_12_v3 {
}

variable j30a {
	type discrete[5] { 1, 2, 3, 4, 5 };
}

variable d30b {
	type discrete[5] { 1, 2, 3, 4, 5 };
}

variable j30f {
	type discrete[5] { 1, 2, 3, 4, 5 };
}

variable l30b {
	type discrete[5] { 1, 2, 3, 4, 5 };
}

variable j30e {
	type discrete[5] { 1, 2, 3, 4, 5 };
}

variable e1 {
	type discrete[3] { 1, 2, 3 };
}

variable mnal4c {
	type discrete[3] { 1, 2, 3 };
}

variable bank {
	type discrete[2] { 1, 2 };
}

variable nonbank {
	type discrete[2] { 1, 2 };
}

variable other {
	type discrete[2] { 1, 2 };
}

variable mnaq53 {
	type discrete[2] { 1, 2 };
}

variable h7 {
	type discrete[2] { 1, 2 };
}

variable variable2164 {
	type discrete[2] { state0, state1 };
}

variable variable1963 {
	type discrete[2] { state0, state1 };
}

variable variable2075 {
	type discrete[4] { state0, state1, state2, state3 };
}

variable variable2377 {
	type discrete[2] { state0, state1 };
}

probability ( j30a | variable2075 ) {
	(state0) 0.20854592334876337, 0.11764901471706608, 0.19923370306141594, 0.23631103439237158, 0.2382603244803829;
	(state1) 0.5681002944158773, 0.18090203926375217, 0.15354009947529712, 0.08813943875932095, 0.009318128085752619;
	(state2) 0.057377907984030786, 0.3575762913663878, 0.3833703668485533, 0.18385790500499155, 0.017817528796036583;
	(state3) 0.48931080860327586, 0.05426011557470517, 0.19755812019680247, 0.21474923641041563, 0.04412171921480082;
}

probability ( d30b | variable2164, variable2075 ) {
	(state0, state0) 0.8000798745362373, 0.060400997286221225, 0.05682051701016299, 0.04044893763038947, 0.04224967353698895;
	(state0, state1) 0.9331929978684901, 0.0426310757992846, 0.009151896688132237, 0.006357355239020341, 0.00866667440507276;
	(state0, state2) 0.6101429646335577, 0.2329905616634562, 0.1290495482416519, 0.02008936488834033, 0.0077275605729939505;
	(state0, state3) 0.8901527721113754, 0.008655704561264617, 0.03835070239852507, 0.053257691453636735, 0.009583129475198276;
	(state1, state0) 0.15871018613580445, 0.2227853819223537, 0.3160794425568447, 0.1357873012014809, 0.1666376881835163;
	(state1, state1) 0.5810440703871294, 0.19442089380086264, 0.11897116342211037, 0.07818027416086444, 0.027383598229033197;
	(state1, state2) 0.03347311771856385, 0.45160869661933706, 0.4323225475358065, 0.06411261090954196, 0.018483027216750787;
	(state1, state3) 0.06940370113580228, 0.10682782602758484, 0.3328822802244003, 0.46223628910988945, 0.028649903502323156;
}

probability ( j30f | variable2075 ) {
	(state0) 0.018572293479280414, 0.0043306919013903315, 0.04493553846243863, 0.07005463181853079, 0.8621068443383598;
	(state1) 0.5331771916818843, 0.21377377676151446, 0.1975763683648082, 0.021768059178593088, 0.03370460401319987;
	(state2) 0.0813350336939401, 0.1998289156887255, 0.4238014093034263, 0.2641764536146497, 0.030858187699258473;
	(state3) 0.04044934809783275, 0.009234788152542596, 0.07357166917126173, 0.8033421587613728, 0.07340203581699005;
}

probability ( l30b | variable2164, variable2075 ) {
	(state0, state0) 0.580739360239517, 0.14412349998950832, 0.08324262307726933, 0.08174876257624303, 0.11014575411746232;
	(state0, state1) 0.9382822425264694, 0.030963436161821557, 0.011702802743102762, 0.016046728624844853, 0.003004789943761435;
	(state0, state2) 0.6058028112458307, 0.26652691231839465, 0.11073144942987055, 0.01064642113492062, 0.006292405870983718;
	(state0, state3) 0.6911259508732198, 0.05969854705214371, 0.10157680143764429, 0.1116868516488295, 0.03591184898816275;
	(state1, state0) 0.19182710946911732, 0.19267634926102753, 0.29489916532673477, 0.2088740490185746, 0.11172332692454581;
	(state1, state1) 0.45793028268499547, 0.28912110635123556, 0.14164466977589715, 0.09893545794226792, 0.012368483245603926;
	(state1, state2) 0.034000407632468775, 0.3932899196595558, 0.35218328668743404, 0.20917579192708052, 0.011350594093460904;
	(state1, state3) 0.29473327181341147, 0.2418910886228258, 0.285792265253293, 0.1615391049923171, 0.016044269318152636;
}

probability ( j30e | variable1963, variable2075 ) {
	(state0, state0) 0.019355600505489023, 0.036280066808444755, 0.019205816003964427, 0.045707613704874375, 0.8794509029772275;
	(state0, state1) 0.09446234406573034, 0.043104079239082, 0.10946449206629852, 0.10042719029237436, 0.6525418943365148;
	(state0, state2) 0.05086132864470927, 0.09543318601312858, 0.3015622733977993, 0.22463803982564604, 0.32750517211871677;
	(state0, state3) 0.036676517130307305, 0.025691737925121468, 0.031176851661571938, 0.3703041296685429, 0.5361507636144563;
	(state1, state0) 0.009372195081427556, 0.003247700756968056, 0.01393899726460436, 0.06539917418127698, 0.9080419327157231;
	(state1, state1) 0.11181305642262557, 0.10028427648347865, 0.08209852690930879, 0.432816045723602, 0.272988094460985;
	(state1, state2) 0.007167665572625084, 0.09259356866498046, 0.4735004281114758, 0.3026748120462329, 0.12406352560468581;
	(state1, state3) 0.010051028883813855, 0.018915318949934836, 0.026922570805525826, 0.728066087816436, 0.21604499354428958;
}

probability ( e1 | variable2164, variable2377 ) {
	(state0, state0) 0.3766793507912933, 0.22385256929325437, 0.39946807991545236;
	(state0, state1) 0.422785948913527, 0.5509134938571717, 0.02630055722930122;
	(state1, state0) 0.1346583129409954, 0.5320874069303065, 0.33325428012869807;
	(state1, state1) 0.2841111740499766, 0.5154123295414519, 0.20047649640857143;
}

probability ( mnal4c ) {
	table 0.7533678756476684, 0.030569948186528497, 0.21606217616580312;
}

probability ( bank | variable1963, variable2377 ) {
	(state0, state0) 0.8975527600729141, 0.10244723992708585;
	(state0, state1) 0.9923426554753781, 0.007657344524621861;
	(state1, state0) 0.5908309635296853, 0.4091690364703146;
	(state1, state1) 0.05279649165015094, 0.947203508349849;
}

probability ( nonbank | variable1963 ) {
	(state0) 0.9721040252317853, 0.027895974768214673;
	(state1) 0.0059604301284162265, 0.9940395698715838;
}

probability ( other | variable2164, variable1963 ) {
	(state0, state0) 0.9678968546637002, 0.03210314533629983;
	(state0, state1) 0.05860255266185066, 0.9413974473381493;
	(state1, state0) 0.8282311528666858, 0.17176884713331417;
	(state1, state1) 0.16718436928703145, 0.8328156307129686;
}

probability ( mnaq53 | variable2377 ) {
	(state0) 0.298430076643211, 0.7015699233567891;
	(state1) 0.023113952357672038, 0.9768860476423279;
}

probability ( h7 | variable2164, variable2377 ) {
	(state0, state0) 0.4754659870992261, 0.524534012900774;
	(state0, state1) 0.019342917557684636, 0.9806570824423153;
	(state1, state0) 0.5015350649873371, 0.49846493501266287;
	(state1, state1) 0.13977133229385014, 0.8602286677061498;
}

probability ( variable2164 ) {
	table 0.7850714730977759, 0.21492852690222417;
}

probability ( variable1963 ) {
	table 0.08237645953248884, 0.9176235404675112;
}

probability ( variable2075 ) {
	table 0.3325480774752592, 0.26932661165510174, 0.17724724555232352, 0.22087806531731538;
}

probability ( variable2377 ) {
	table 0.05666070966586342, 0.9433392903341365;
}

