network LCM {
}

variable j30a {
	type discrete[5] { 1, 2, 3, 4, 5 };
}

variable d30b {
	type discrete[5] { 1, 2, 3, 4, 5 };
}

variable j30f {
	type discrete[5] { 1, 2, 3, 4, 5 };
}

variable l30b {
	type discrete[5] { 1, 2, 3, 4, 5 };
}

variable j30e {
	type discrete[5] { 1, 2, 3, 4, 5 };
}

variable e1 {
	type discrete[3] { 1, 2, 3 };
}

variable mnal4c {
	type discrete[3] { 1, 2, 3 };
}

variable bank {
	type discrete[2] { 1, 2 };
}

variable nonbank {
	type discrete[2] { 1, 2 };
}

variable other {
	type discrete[2] { 1, 2 };
}

variable mnaq53 {
	type discrete[2] { 1, 2 };
}

variable h7 {
	type discrete[2] { 1, 2 };
}

variable variable280 {
	type discrete[5] { state0, state1, state2, state3, state4 };
}

probability ( j30a | variable280 ) {
	(state0) 0.19964168858784812, 0.11436856617682628, 0.19545011947459487, 0.24124144870901418, 0.2492981770517166;
	(state1) 0.44718114702356826, 0.21052111048116143, 0.19745888993481267, 0.13506438449860242, 0.009774468061855236;
	(state2) 0.10489572081658724, 0.3435444743193191, 0.40114273020866503, 0.13519637927740855, 0.015220695378020102;
	(state3) 0.503412653600828, 0.04039154324674503, 0.1614048448521197, 0.24137242074410917, 0.053418537556198124;
	(state4) 0.549091507690879, 0.10775282049807458, 0.1826478419260687, 0.09647036259400898, 0.06403746729096879;
}

probability ( d30b | variable280 ) {
	(state0) 0.6548469832794278, 0.08978913564597067, 0.11587897254032088, 0.06347061688866551, 0.07601429164561507;
	(state1) 0.9066440665664637, 0.06427074657198488, 0.012989503425507535, 0.006500215478235279, 0.009595467957808718;
	(state2) 0.22365306049084727, 0.358460877574698, 0.3120602695007636, 0.09474183503769144, 0.01108395739599961;
	(state3) 0.7923580838611637, 0.008200896586071227, 0.06576846403854536, 0.12649967454620611, 0.0071728809680135786;
	(state4) 0.696508967500602, 0.11115399215872826, 0.11428263770499437, 0.058854780060019596, 0.01919962257565583;
}

probability ( j30f | variable280 ) {
	(state0) 0.018037090820380058, 0.004393778874134847, 0.03885242898090272, 0.08290791812733958, 0.8558087831972429;
	(state1) 0.4403288459685859, 0.2144220498984495, 0.2140715162084259, 0.0803288735648853, 0.05084871435965332;
	(state2) 0.09947933316969289, 0.14899725172621056, 0.36202724814704235, 0.3346369268951628, 0.05485924006189149;
	(state3) 0.06910668509034401, 0.010161123887013542, 0.08440347049986054, 0.788609047753015, 0.047719672769766984;
	(state4) 0.11762403757789654, 0.0968126445455528, 0.206215112076177, 0.24629884383861317, 0.3330493619617604;
}

probability ( l30b | variable280 ) {
	(state0) 0.46013919415591237, 0.16286653779353835, 0.13669392820364346, 0.12265628864788064, 0.11764405119902521;
	(state1) 0.8996897786295931, 0.05687004303345608, 0.024863263748566105, 0.015720705770339696, 0.002856208818045181;
	(state2) 0.22440977704983647, 0.4192589780995035, 0.24280734228556772, 0.10920137513200354, 0.004322527433088817;
	(state3) 0.6402867630139358, 0.08001429541502024, 0.12297038307915406, 0.11883858242903823, 0.0378899760628515;
	(state4) 0.7270790192038873, 0.08380355935095116, 0.11644285975426345, 0.05348449766626915, 0.019190064024629;
}

probability ( j30e | variable280 ) {
	(state0) 0.007605328333185168, 0.003131420769569115, 0.012092836068167467, 0.06987806630510805, 0.9072923485239702;
	(state1) 0.08929902627224898, 0.0889253624373135, 0.1461416512119138, 0.38874180120993057, 0.28689215886859315;
	(state2) 0.01763619330671726, 0.10845021232609363, 0.36965066933877105, 0.3908896295732148, 0.11337329545520312;
	(state3) 0.00975590310207406, 0.01204125004041604, 0.043756545183916064, 0.7516132537636944, 0.1828330479098995;
	(state4) 0.03847724413175905, 0.020212176538027725, 0.07789943454999282, 0.148927382420609, 0.7144837623596113;
}

probability ( e1 | variable280 ) {
	(state0) 0.4653084739439648, 0.4492258841790507, 0.08546564187698448;
	(state1) 0.4866359860214542, 0.4594761161761758, 0.05388789780236993;
	(state2) 0.2292085706134687, 0.6031051251012856, 0.16768630428524584;
	(state3) 0.29341743186054525, 0.6678812400994968, 0.038701328039957864;
	(state4) 0.22108738511034343, 0.6627758237948117, 0.11613679109484482;
}

probability ( mnal4c | variable280 ) {
	(state0) 0.7866276925840705, 0.027226377113346845, 0.18614593030258256;
	(state1) 0.7077143004370494, 0.03577182242594813, 0.25651387713700247;
	(state2) 0.6202243474315984, 0.03744010552890587, 0.3423355470394957;
	(state3) 0.8364829725563326, 0.02577907228807705, 0.1377379551555903;
	(state4) 0.8311907361231502, 0.04497745236083132, 0.1238318115160184;
}

probability ( bank | variable280 ) {
	(state0) 0.0805871231469695, 0.9194128768530305;
	(state1) 0.07280618876961979, 0.9271938112303801;
	(state2) 0.16988977420315934, 0.8301102257968408;
	(state3) 0.057907003691198715, 0.9420929963088013;
	(state4) 0.9932398837948573, 0.006760116205142642;
}

probability ( nonbank | variable280 ) {
	(state0) 0.008260731418554134, 0.9917392685814459;
	(state1) 0.0033866088572490683, 0.9966133911427508;
	(state2) 0.03261016296806023, 0.9673898370319397;
	(state3) 0.0088324389864895, 0.9911675610135106;
	(state4) 0.9797970411143978, 0.02020295888560222;
}

probability ( other | variable280 ) {
	(state0) 0.047298587405199446, 0.9527014125948005;
	(state1) 0.09756866509933211, 0.9024313349006678;
	(state2) 0.2172823703082778, 0.7827176296917221;
	(state3) 0.00923891457771993, 0.9907610854222801;
	(state4) 0.9667905857405441, 0.03320941425945592;
}

probability ( mnaq53 | variable280 ) {
	(state0) 0.0504010887844474, 0.9495989112155526;
	(state1) 0.01775778452140801, 0.9822422154785919;
	(state2) 0.041687402334540366, 0.9583125976654596;
	(state3) 0.05239667005879922, 0.9476033299412008;
	(state4) 0.05792219599294616, 0.9420778040070539;
}

probability ( h7 | variable280 ) {
	(state0) 0.13833560705716202, 0.861664392942838;
	(state1) 0.02002518396975805, 0.9799748160302418;
	(state2) 0.07253279353235301, 0.9274672064676469;
	(state3) 0.029749271526974708, 0.9702507284730253;
	(state4) 0.0901119080225787, 0.9098880919774213;
}

probability ( variable280 ) {
	table 0.3030981602223312, 0.3004441444550347, 0.145771852050254, 0.17194930770691372, 0.07873653556546649;
}

