network LCM {
}

variable j30a {
	type discrete[5] { 1, 2, 3, 4, 5 };
}

variable d30b {
	type discrete[5] { 1, 2, 3, 4, 5 };
}

variable j30f {
	type discrete[5] { 1, 2, 3, 4, 5 };
}

variable l30b {
	type discrete[5] { 1, 2, 3, 4, 5 };
}

variable j30e {
	type discrete[5] { 1, 2, 3, 4, 5 };
}

variable e1 {
	type discrete[3] { 1, 2, 3 };
}

variable mnal4c {
	type discrete[3] { 1, 2, 3 };
}

variable bank {
	type discrete[2] { 1, 2 };
}

variable nonbank {
	type discrete[2] { 1, 2 };
}

variable other {
	type discrete[2] { 1, 2 };
}

variable mnaq53 {
	type discrete[2] { 1, 2 };
}

variable h7 {
	type discrete[2] { 1, 2 };
}

variable variable241 {
	type discrete[5] { state0, state1, state2, state3, state4 };
}

probability ( j30a | variable241 ) {
	(state0) 0.4483731213038995, 0.20926215902797396, 0.19714871594151503, 0.1353261659137882, 0.009889837812823252;
	(state1) 0.5490480309553059, 0.10772381309093085, 0.1826840153857451, 0.09651103561882601, 0.06403310494919233;
	(state2) 0.5016495863836529, 0.04032087751703172, 0.1620123798601541, 0.24257704840713526, 0.05344010783202594;
	(state3) 0.19958360539136916, 0.11439482833204166, 0.1954386678760933, 0.2412380434247952, 0.24934485497570066;
	(state4) 0.1050061970703705, 0.34497149717298614, 0.40083216658420445, 0.13399908561274657, 0.015191053559692228;
}

probability ( d30b | variable241 ) {
	(state0) 0.9071733810132828, 0.06362482255809677, 0.01304835899983621, 0.006577718136625027, 0.009575719292159453;
	(state1) 0.6964419581685124, 0.11116914805469429, 0.11430909552115143, 0.058881457024792354, 0.019198341230849705;
	(state2) 0.7893617205943316, 0.00837040893240014, 0.06701397884214817, 0.1280065389732468, 0.007247352657873446;
	(state3) 0.6547827372384929, 0.0898498433652961, 0.11592981390217949, 0.0634386191633404, 0.07599898633069122;
	(state4) 0.2253664209881831, 0.3590791704584941, 0.3107642892655612, 0.09373295827115796, 0.01105716101660357;
}

probability ( j30f | variable241 ) {
	(state0) 0.44085016380232467, 0.21336594091451885, 0.21360898299246409, 0.08134976757750001, 0.050825144713192334;
	(state1) 0.11759151833137634, 0.09681581977772896, 0.20617945903154608, 0.24635173004252434, 0.3330614728168242;
	(state2) 0.06501181807963666, 0.010028789735872476, 0.0835261025863108, 0.7934167616544734, 0.048016527943706575;
	(state3) 0.01809491495716506, 0.004410882670716572, 0.03891026863082433, 0.08276150972758019, 0.8558224240137138;
	(state4) 0.10041446401610851, 0.14981571434792684, 0.3629804429838112, 0.33223615709660226, 0.05455322155555125;
}

probability ( l30b | variable241 ) {
	(state0) 0.9004468017123459, 0.05619559573004363, 0.02466638519524887, 0.015834218528483966, 0.002856998833877638;
	(state1) 0.7270305638559417, 0.08377839437169901, 0.11646586377036976, 0.05353640849868706, 0.0191887695033025;
	(state2) 0.6369163866571006, 0.08108129767769755, 0.12424855508523212, 0.11966414907118104, 0.0380896115087887;
	(state3) 0.4600766202378922, 0.16293144893691242, 0.13667876482303296, 0.12265811377550408, 0.1176550522266584;
	(state4) 0.2250332725547175, 0.41947401468144346, 0.2424535647422134, 0.10871674454440484, 0.004322403477220805;
}

probability ( j30e | variable241 ) {
	(state0) 0.08905378310158257, 0.0882008740738051, 0.1454869856353551, 0.3902647146380226, 0.28699364255123466;
	(state1) 0.03847493298918054, 0.02019265789678465, 0.07788606266993915, 0.14899149744020734, 0.7144548490038882;
	(state2) 0.00968829706844347, 0.011991597665912396, 0.043661102152942353, 0.7526527750098634, 0.1820062281028384;
	(state3) 0.007612219202510153, 0.003137587648568033, 0.012101107846643967, 0.06980110031071138, 0.9073479849915664;
	(state4) 0.017630957743161542, 0.10944514802343369, 0.37037856691376275, 0.38923421456413243, 0.1133111127555096;
}

probability ( e1 | variable241 ) {
	(state0) 0.48595900204327935, 0.46048552794409187, 0.05355547001262887;
	(state1) 0.22110270342168728, 0.6627573794930316, 0.11613991708528093;
	(state2) 0.2932584698085069, 0.6675547037790123, 0.03918682641248076;
	(state3) 0.46521495735039387, 0.4492950660183307, 0.08548997663127551;
	(state4) 0.2295810712670032, 0.6027682534109241, 0.16765067532207262;
}

probability ( mnal4c | variable241 ) {
	(state0) 0.7085823131532057, 0.0358298801772796, 0.25558780666951475;
	(state1) 0.8311416448590551, 0.044983470867533445, 0.12387488427341135;
	(state2) 0.8361505388262418, 0.025489728084562575, 0.13835973308919564;
	(state3) 0.7866163398736357, 0.02723516115841157, 0.1861484989679528;
	(state4) 0.6197913938456463, 0.0375654883944414, 0.34264311775991246;
}

probability ( bank | variable241 ) {
	(state0) 0.07251514167720073, 0.9274848583227993;
	(state1) 0.9932404954682164, 0.006759504531783611;
	(state2) 0.05823553080676601, 0.941764469193234;
	(state3) 0.08056932286846577, 0.9194306771315341;
	(state4) 0.17000917193147302, 0.829990828068527;
}

probability ( nonbank | variable241 ) {
	(state0) 0.003380017921326207, 0.9966199820786739;
	(state1) 0.9797878253375542, 0.020212174662445858;
	(state2) 0.008936027767540359, 0.9910639722324596;
	(state3) 0.008261810647586333, 0.9917381893524138;
	(state4) 0.03251065367647046, 0.9674893463235295;
}

probability ( other | variable241 ) {
	(state0) 0.09701733567097952, 0.9029826643290205;
	(state1) 0.966803538941025, 0.03319646105897512;
	(state2) 0.00965712544055205, 0.9903428745594479;
	(state3) 0.047310817963323516, 0.9526891820366765;
	(state4) 0.21723684343495744, 0.7827631565650426;
}

probability ( mnaq53 | variable241 ) {
	(state0) 0.017719199037041024, 0.9822808009629591;
	(state1) 0.057921268470252946, 0.942078731529747;
	(state2) 0.05272373814729902, 0.9472762618527009;
	(state3) 0.05038411555555696, 0.9496158844444431;
	(state4) 0.04167114163126816, 0.9583288583687318;
}

probability ( h7 | variable241 ) {
	(state0) 0.019970618922642527, 0.9800293810773574;
	(state1) 0.09010542732569697, 0.9098945726743031;
	(state2) 0.03035184413379584, 0.9696481558662041;
	(state3) 0.1383260382345656, 0.8616739617654345;
	(state4) 0.07204286076606443, 0.9279571392339355;
}

probability ( variable241 ) {
	table 0.30151163277600257, 0.07874195722664729, 0.17089853610653039, 0.30308714484209237, 0.14576072904872736;
}

