network LCM {
}

variable j30a {
	type discrete[5] { 1, 2, 3, 4, 5 };
}

variable d30b {
	type discrete[5] { 1, 2, 3, 4, 5 };
}

variable j30f {
	type discrete[5] { 1, 2, 3, 4, 5 };
}

variable l30b {
	type discrete[5] { 1, 2, 3, 4, 5 };
}

variable j30e {
	type discrete[5] { 1, 2, 3, 4, 5 };
}

variable e1 {
	type discrete[3] { 1, 2, 3 };
}

variable mnal4c {
	type discrete[3] { 1, 2, 3 };
}

variable bank {
	type discrete[2] { 1, 2 };
}

variable nonbank {
	type discrete[2] { 1, 2 };
}

variable other {
	type discrete[2] { 1, 2 };
}

variable mnaq53 {
	type discrete[2] { 1, 2 };
}

variable h7 {
	type discrete[2] { 1, 2 };
}

variable variable127 {
	type discrete[5] { state0, state1, state2, state3, state4 };
}

probability ( j30a | variable127 ) {
	(state0) 0.19958360539136905, 0.1143948283320417, 0.19543866787609315, 0.24123804342479516, 0.24934485497570077;
	(state1) 0.44837312130389895, 0.20926215902797468, 0.19714871594151512, 0.13532616591378796, 0.009889837812823158;
	(state2) 0.5016495863836531, 0.04032087751703195, 0.1620123798601543, 0.24257704840713465, 0.05344010783202609;
	(state3) 0.10500619707037046, 0.3449714971729856, 0.40083216658420456, 0.13399908561274712, 0.015191053559692228;
	(state4) 0.549048030955306, 0.10772381309093085, 0.18268401538574505, 0.09651103561882596, 0.06403310494919232;
}

probability ( d30b | variable127 ) {
	(state0) 0.6547827372384927, 0.08984984336529611, 0.11592981390217948, 0.06343861916334036, 0.07599898633069128;
	(state1) 0.9071733810132823, 0.06362482255809714, 0.01304835899983614, 0.0065777181366249654, 0.009575719292159465;
	(state2) 0.7893617205943333, 0.008370408932400044, 0.06701397884214763, 0.12800653897324576, 0.007247352657873443;
	(state3) 0.22536642098818233, 0.3590791704584939, 0.3107642892655617, 0.09373295827115842, 0.01105716101660359;
	(state4) 0.6964419581685124, 0.11116914805469427, 0.11430909552115143, 0.05888145702479234, 0.019198341230849698;
}

probability ( j30f | variable127 ) {
	(state0) 0.01809491495716504, 0.004410882670716568, 0.03891026863082414, 0.08276150972757959, 0.8558224240137147;
	(state1) 0.44085016380232506, 0.21336594091451971, 0.21360898299246422, 0.0813497675774989, 0.05082514471319233;
	(state2) 0.06501181807963861, 0.01002878973587255, 0.08352610258631196, 0.79341676165447, 0.04801652794370683;
	(state3) 0.10041446401610807, 0.14981571434792645, 0.36298044298381077, 0.33223615709660326, 0.054553221555551486;
	(state4) 0.11759151833137638, 0.09681581977772896, 0.20617945903154608, 0.24635173004252428, 0.3330614728168242;
}

probability ( l30b | variable127 ) {
	(state0) 0.460076620237892, 0.16293144893691236, 0.13667876482303293, 0.12265811377550408, 0.11765505222665848;
	(state1) 0.9004468017123456, 0.056195595730043936, 0.024666385195248924, 0.01583421852848388, 0.0028569988338776305;
	(state2) 0.6369163866571026, 0.08108129767769706, 0.12424855508523146, 0.11966414907118042, 0.03808961150878855;
	(state3) 0.22503327255471717, 0.4194740146814434, 0.24245356474221355, 0.1087167445444051, 0.004322403477220801;
	(state4) 0.7270305638559417, 0.08377839437169902, 0.11646586377036973, 0.05353640849868702, 0.019188769503302498;
}

probability ( j30e | variable127 ) {
	(state0) 0.00761221920251016, 0.0031375876485680303, 0.01210110784664395, 0.06980110031071125, 0.9073479849915667;
	(state1) 0.0890537831015828, 0.08820087407380553, 0.1454869856353554, 0.3902647146380217, 0.2869936425512345;
	(state2) 0.00968829706844348, 0.011991597665912429, 0.04366110215294263, 0.7526527750098609, 0.1820062281028406;
	(state3) 0.017630957743161556, 0.10944514802343319, 0.3703785669137623, 0.38923421456413304, 0.11331111275550979;
	(state4) 0.03847493298918054, 0.020192657896784653, 0.07788606266993915, 0.14899149744020732, 0.7144548490038882;
}

probability ( e1 | variable127 ) {
	(state0) 0.4652149573503938, 0.44929506601833064, 0.08548997663127551;
	(state1) 0.4859590020432798, 0.46048552794409114, 0.053555470012629065;
	(state2) 0.2932584698085077, 0.6675547037790117, 0.03918682641248058;
	(state3) 0.2295810712670032, 0.6027682534109241, 0.16765067532207265;
	(state4) 0.22110270342168728, 0.6627573794930316, 0.11613991708528093;
}

probability ( mnal4c | variable127 ) {
	(state0) 0.7866163398736356, 0.02723516115841155, 0.18614849896795274;
	(state1) 0.7085823131532052, 0.03582988017727955, 0.2555878066695152;
	(state2) 0.8361505388262416, 0.025489728084562787, 0.13835973308919566;
	(state3) 0.6197913938456463, 0.03756548839444135, 0.3426431177599123;
	(state4) 0.8311416448590552, 0.044983470867533445, 0.12387488427341135;
}

probability ( bank | variable127 ) {
	(state0) 0.0805693228684658, 0.9194306771315343;
	(state1) 0.0725151416772009, 0.927484858322799;
	(state2) 0.05823553080676582, 0.9417644691932342;
	(state3) 0.1700091719314729, 0.8299908280685271;
	(state4) 0.9932404954682164, 0.006759504531783611;
}

probability ( nonbank | variable127 ) {
	(state0) 0.008261810647586344, 0.9917381893524138;
	(state1) 0.0033800179213262153, 0.9966199820786739;
	(state2) 0.008936027767540268, 0.9910639722324597;
	(state3) 0.03251065367647052, 0.9674893463235295;
	(state4) 0.9797878253375542, 0.020212174662445837;
}

probability ( other | variable127 ) {
	(state0) 0.047310817963323544, 0.9526891820366764;
	(state1) 0.09701733567097988, 0.9029826643290201;
	(state2) 0.009657125440551891, 0.9903428745594481;
	(state3) 0.21723684343495747, 0.7827631565650425;
	(state4) 0.966803538941025, 0.03319646105897512;
}

probability ( mnaq53 | variable127 ) {
	(state0) 0.05038411555555698, 0.949615884444443;
	(state1) 0.01771919903704105, 0.982280800962959;
	(state2) 0.05272373814729869, 0.9472762618527013;
	(state3) 0.04167114163126819, 0.9583288583687318;
	(state4) 0.057921268470252946, 0.942078731529747;
}

probability ( h7 | variable127 ) {
	(state0) 0.1383260382345657, 0.8616739617654342;
	(state1) 0.019970618922642566, 0.9800293810773574;
	(state2) 0.030351844133795533, 0.9696481558662046;
	(state3) 0.07204286076606467, 0.9279571392339353;
	(state4) 0.09010542732569699, 0.909894572674303;
}

probability ( variable127 ) {
	table 0.303087144842092, 0.3015116327760016, 0.17089853610653177, 0.1457607290487274, 0.0787419572266473;
}

