network LCM {
}

variable j30a {
	type discrete[5] { 1, 2, 3, 4, 5 };
}

variable d30b {
	type discrete[5] { 1, 2, 3, 4, 5 };
}

variable j30f {
	type discrete[5] { 1, 2, 3, 4, 5 };
}

variable l30b {
	type discrete[5] { 1, 2, 3, 4, 5 };
}

variable j30e {
	type discrete[5] { 1, 2, 3, 4, 5 };
}

variable e1 {
	type discrete[3] { 1, 2, 3 };
}

variable mnal4c {
	type discrete[3] { 1, 2, 3 };
}

variable bank {
	type discrete[2] { 1, 2 };
}

variable nonbank {
	type discrete[2] { 1, 2 };
}

variable other {
	type discrete[2] { 1, 2 };
}

variable mnaq53 {
	type discrete[2] { 1, 2 };
}

variable h7 {
	type discrete[2] { 1, 2 };
}

variable variable205 {
	type discrete[5] { state0, state1, state2, state3, state4 };
}

probability ( j30a | variable205 ) {
	(state0) 0.44837312130389917, 0.20926215902797446, 0.1971487159415151, 0.13532616591378802, 0.009889837812823193;
	(state1) 0.19958360539136907, 0.11439482833204173, 0.19543866787609315, 0.24123804342479516, 0.24934485497570077;
	(state2) 0.10500619707037044, 0.3449714971729859, 0.40083216658420445, 0.13399908561274687, 0.015191053559692226;
	(state3) 0.5016495863836529, 0.04032087751703189, 0.16201237986015435, 0.24257704840713484, 0.05344010783202604;
	(state4) 0.549048030955306, 0.10772381309093085, 0.18268401538574505, 0.09651103561882596, 0.06403310494919232;
}

probability ( d30b | variable205 ) {
	(state0) 0.9071733810132824, 0.06362482255809702, 0.013048358999836156, 0.006577718136624983, 0.009575719292159465;
	(state1) 0.6547827372384927, 0.08984984336529611, 0.11592981390217948, 0.06343861916334037, 0.07599898633069128;
	(state2) 0.22536642098818271, 0.35907917045849397, 0.3107642892655615, 0.09373295827115818, 0.011057161016603584;
	(state3) 0.7893617205943326, 0.008370408932400089, 0.06701397884214791, 0.1280065389732461, 0.007247352657873454;
	(state4) 0.6964419581685124, 0.11116914805469429, 0.11430909552115143, 0.05888145702479234, 0.019198341230849698;
}

probability ( j30f | variable205 ) {
	(state0) 0.4408501638023249, 0.2133659409145194, 0.2136089829924641, 0.08134976757749919, 0.05082514471319234;
	(state1) 0.01809491495716503, 0.00441088267071657, 0.038910268630824155, 0.08276150972757963, 0.8558224240137146;
	(state2) 0.10041446401610828, 0.14981571434792662, 0.36298044298381105, 0.3322361570966028, 0.05455322155555142;
	(state3) 0.06501181807963799, 0.010028789735872538, 0.08352610258631175, 0.793416761654471, 0.04801652794370687;
	(state4) 0.11759151833137636, 0.09681581977772896, 0.20617945903154608, 0.24635173004252434, 0.33306147281682424;
}

probability ( l30b | variable205 ) {
	(state0) 0.9004468017123458, 0.056195595730043804, 0.024666385195248892, 0.015834218528483903, 0.0028569988338776335;
	(state1) 0.46007662023789203, 0.1629314489369124, 0.13667876482303296, 0.12265811377550408, 0.11765505222665848;
	(state2) 0.2250332725547173, 0.4194740146814436, 0.24245356474221347, 0.10871674454440497, 0.004322403477220803;
	(state3) 0.6369163866571019, 0.0810812976776973, 0.12424855508523171, 0.11966414907118061, 0.03808961150878857;
	(state4) 0.7270305638559417, 0.08377839437169902, 0.11646586377036973, 0.05353640849868704, 0.019188769503302498;
}

probability ( j30e | variable205 ) {
	(state0) 0.08905378310158275, 0.08820087407380539, 0.14548698563535525, 0.390264714638022, 0.28699364255123455;
	(state1) 0.007612219202510155, 0.003137587648568031, 0.012101107846643947, 0.06980110031071124, 0.9073479849915667;
	(state2) 0.017630957743161556, 0.10944514802343344, 0.37037856691376253, 0.38923421456413276, 0.11331111275550983;
	(state3) 0.00968829706844348, 0.011991597665912417, 0.043661102152942555, 0.7526527750098614, 0.18200622810284012;
	(state4) 0.03847493298918054, 0.020192657896784653, 0.07788606266993915, 0.14899149744020732, 0.7144548490038882;
}

probability ( e1 | variable205 ) {
	(state0) 0.48595900204327974, 0.46048552794409126, 0.053555470012628996;
	(state1) 0.4652149573503938, 0.44929506601833064, 0.08548997663127551;
	(state2) 0.22958107126700325, 0.6027682534109241, 0.16765067532207265;
	(state3) 0.2932584698085076, 0.6675547037790118, 0.03918682641248069;
	(state4) 0.22110270342168728, 0.6627573794930316, 0.11613991708528093;
}

probability ( mnal4c | variable205 ) {
	(state0) 0.7085823131532053, 0.035829880177279574, 0.2555878066695151;
	(state1) 0.7866163398736357, 0.02723516115841155, 0.18614849896795274;
	(state2) 0.6197913938456462, 0.037565488394441376, 0.34264311775991235;
	(state3) 0.8361505388262415, 0.02548972808456273, 0.13835973308919575;
	(state4) 0.8311416448590552, 0.044983470867533445, 0.12387488427341135;
}

probability ( bank | variable205 ) {
	(state0) 0.07251514167720086, 0.9274848583227993;
	(state1) 0.0805693228684658, 0.9194306771315343;
	(state2) 0.17000917193147294, 0.829990828068527;
	(state3) 0.05823553080676588, 0.9417644691932341;
	(state4) 0.9932404954682164, 0.0067595045317836115;
}

probability ( nonbank | variable205 ) {
	(state0) 0.003380017921326213, 0.9966199820786739;
	(state1) 0.008261810647586344, 0.9917381893524138;
	(state2) 0.032510653676470484, 0.9674893463235295;
	(state3) 0.008936027767540296, 0.9910639722324597;
	(state4) 0.9797878253375542, 0.020212174662445855;
}

probability ( other | variable205 ) {
	(state0) 0.09701733567097978, 0.9029826643290201;
	(state1) 0.04731081796332354, 0.9526891820366764;
	(state2) 0.21723684343495753, 0.7827631565650426;
	(state3) 0.009657125440551969, 0.9903428745594481;
	(state4) 0.966803538941025, 0.03319646105897512;
}

probability ( mnaq53 | variable205 ) {
	(state0) 0.017719199037041042, 0.982280800962959;
	(state1) 0.05038411555555698, 0.949615884444443;
	(state2) 0.0416711416312682, 0.9583288583687318;
	(state3) 0.05272373814729876, 0.9472762618527013;
	(state4) 0.057921268470252946, 0.942078731529747;
}

probability ( h7 | variable205 ) {
	(state0) 0.01997061892264255, 0.9800293810773574;
	(state1) 0.13832603823456574, 0.8616739617654342;
	(state2) 0.07204286076606457, 0.9279571392339355;
	(state3) 0.03035184413379566, 0.9696481558662043;
	(state4) 0.09010542732569697, 0.9098945726743031;
}

probability ( variable205 ) {
	table 0.30151163277600185, 0.30308714484209204, 0.14576072904872736, 0.17089853610653155, 0.07874195722664729;
}

