network LCM {
}

variable j30a {
	type discrete[5] { 1, 2, 3, 4, 5 };
}

variable d30b {
	type discrete[5] { 1, 2, 3, 4, 5 };
}

variable j30f {
	type discrete[5] { 1, 2, 3, 4, 5 };
}

variable l30b {
	type discrete[5] { 1, 2, 3, 4, 5 };
}

variable j30e {
	type discrete[5] { 1, 2, 3, 4, 5 };
}

variable e1 {
	type discrete[3] { 1, 2, 3 };
}

variable mnal4c {
	type discrete[3] { 1, 2, 3 };
}

variable bank {
	type discrete[2] { 1, 2 };
}

variable nonbank {
	type discrete[2] { 1, 2 };
}

variable other {
	type discrete[2] { 1, 2 };
}

variable mnaq53 {
	type discrete[2] { 1, 2 };
}

variable h7 {
	type discrete[2] { 1, 2 };
}

variable variable166 {
	type discrete[5] { state0, state1, state2, state3, state4 };
}

probability ( j30a | variable166 ) {
	(state0) 0.10498122640292731, 0.344837212509955, 0.4008695745073991, 0.13412069135305277, 0.015191295226665678;
	(state1) 0.5017446840202018, 0.04035501392236041, 0.16203705770336294, 0.24240804877260846, 0.05345519558146653;
	(state2) 0.448235521767153, 0.20945411120116536, 0.1971654883150177, 0.13527726903777512, 0.00986760967888895;
	(state3) 0.19957283687701696, 0.11440256718787431, 0.19542590934662374, 0.24123620614679608, 0.24936248044168902;
	(state4) 0.5490524097382057, 0.10772610186881483, 0.18268072443437572, 0.09650722642825148, 0.06403353753035235;
}

probability ( d30b | variable166 ) {
	(state0) 0.22520450211959278, 0.3590255469948102, 0.31087754676560275, 0.0938312165959592, 0.011061187524035057;
	(state1) 0.7897682763923779, 0.00834664865377182, 0.06688684441732662, 0.12775612640015388, 0.0072421041363698;
	(state2) 0.9071134829785661, 0.06371692405479422, 0.013028042699513916, 0.00656146506596648, 0.00958008520115932;
	(state3) 0.65475905408959, 0.08985981389078708, 0.11593280541085796, 0.06343670254216445, 0.07601162406660057;
	(state4) 0.6964473551279836, 0.11116679860743818, 0.11430765788291876, 0.05887972181613372, 0.01919846656552592;
}

probability ( j30f | variable166 ) {
	(state0) 0.10030802172441125, 0.14973179255004657, 0.36288785834129494, 0.3324939740925183, 0.05457835329172886;
	(state1) 0.06559613585775875, 0.010050967659373519, 0.08382048776210385, 0.792515817950977, 0.04801659076978675;
	(state2) 0.4408751316827373, 0.21356187195317936, 0.21362174029590045, 0.08109919903607316, 0.050842057032109915;
	(state3) 0.018088383035449414, 0.004410386949160734, 0.03887158638658439, 0.08266760556366237, 0.855962038065143;
	(state4) 0.11759551297947851, 0.09681480194872329, 0.20618363517442767, 0.24634718601975691, 0.3330588638776137;
}

probability ( l30b | variable166 ) {
	(state0) 0.2249617588194072, 0.41945447452656553, 0.24249432447252695, 0.10876754425262293, 0.004321897928877399;
	(state1) 0.6374147343754808, 0.08096140846920521, 0.1240662098119556, 0.11951137004472266, 0.03804627729863567;
	(state2) 0.9003975351575068, 0.056264790834259164, 0.024671948182960483, 0.015809894385019608, 0.0028558314402538716;
	(state3) 0.4600580842938927, 0.1629349081404757, 0.13667801254986006, 0.12266063092979218, 0.1176683640859793;
	(state4) 0.7270343203414643, 0.08378113700289509, 0.116463363409875, 0.05353229929742508, 0.019188879948340388;
}

probability ( j30e | variable166 ) {
	(state0) 0.017632334301716946, 0.10933835515389338, 0.3703072082644491, 0.38939105197525153, 0.11333105030468917;
	(state1) 0.009701202180383159, 0.012000115579304886, 0.04372718846642419, 0.752145844379561, 0.18242564939432676;
	(state2) 0.08911140723788319, 0.08830916626911231, 0.14556466498526988, 0.3900473403956562, 0.2869674211120784;
	(state3) 0.007611776248852961, 0.0031369299363796046, 0.012096864449100993, 0.0697924796549165, 0.9073619497107499;
	(state4) 0.03847517471434709, 0.02019478988939273, 0.07788846139109158, 0.14898653950383578, 0.7144550345013329;
}

probability ( e1 | variable166 ) {
	(state0) 0.22956357107668685, 0.6027897321726216, 0.16764669675069155;
	(state1) 0.2934014204914845, 0.6674564490010045, 0.039142130507511086;
	(state2) 0.48607831824026526, 0.46032074862365, 0.0536009331360848;
	(state3) 0.4652188239657795, 0.4492878578062305, 0.08549331822798983;
	(state4) 0.22110022955834388, 0.6627602922268377, 0.11613947821481849;
}

probability ( mnal4c | variable166 ) {
	(state0) 0.6198235796460255, 0.03755746987904985, 0.3426189504749246;
	(state1) 0.836118393929528, 0.025547097298135393, 0.13833450877233663;
	(state2) 0.7084625903860837, 0.03581526447876099, 0.2557221451351553;
	(state3) 0.7866221200362458, 0.0272301073930944, 0.18614777257065993;
	(state4) 0.8311453608309316, 0.04498293043433034, 0.12387170873473809;
}

probability ( bank | variable166 ) {
	(state0) 0.16998878565567033, 0.8300112143443296;
	(state1) 0.05819309372326825, 0.9418069062767317;
	(state2) 0.07256006276590375, 0.9274399372340962;
	(state3) 0.08057641923079076, 0.9194235807692092;
	(state4) 0.9932404194177692, 0.006759580582230894;
}

probability ( nonbank | variable166 ) {
	(state0) 0.03251819463190612, 0.9674818053680938;
	(state1) 0.008917254053764687, 0.9910827459462352;
	(state2) 0.0033816906524422982, 0.9966183093475577;
	(state3) 0.008263349913043146, 0.9917366500869569;
	(state4) 0.9797910684137677, 0.02020893158623222;
}

probability ( other | variable166 ) {
	(state0) 0.21724762289742405, 0.782752377102576;
	(state1) 0.009616259023925204, 0.9903837409760748;
	(state2) 0.09711355987696116, 0.9028864401230389;
	(state3) 0.04731503551759653, 0.9526849644824034;
	(state4) 0.9668009793520722, 0.03319902064792777;
}

probability ( mnaq53 | variable166 ) {
	(state0) 0.04167794996125818, 0.9583220500387419;
	(state1) 0.052651918158842, 0.947348081841158;
	(state2) 0.017722423737506734, 0.9822775762624932;
	(state3) 0.050388829292723536, 0.9496111707072765;
	(state4) 0.05792142570513509, 0.9420785742948649;
}

probability ( h7 | variable166 ) {
	(state0) 0.07208801664347653, 0.9279119833565234;
	(state1) 0.03028624664803668, 0.9697137533519633;
	(state2) 0.019978913490063952, 0.9800210865099361;
	(state3) 0.13834680544953337, 0.8616531945504666;
	(state4) 0.09010521756136784, 0.9098947824386321;
}

probability ( variable166 ) {
	table 0.1457614866300807, 0.17121173642122764, 0.3012606155790271, 0.3030247837518988, 0.07874137761776578;
}

