<?xml version="1.0" encoding="US-ASCII"?>


<!--
	Bayesian network in XMLBIF v0.3 (BayesNet Interchange Format)
	Produced by JavaBayes (http://www.cs.cmu.edu/~javabayes/
	Output created Thu Apr 26 16:37:51 CEST 2018
-->



<!-- DTD for the XMLBIF 0.3 format -->
<!DOCTYPE BIF [
	<!ELEMENT BIF ( NETWORK )*>
	      <!ATTLIST BIF VERSION CDATA #REQUIRED>
	<!ELEMENT NETWORK ( NAME, ( PROPERTY | VARIABLE | DEFINITION )* )>
	<!ELEMENT NAME (#PCDATA)>
	<!ELEMENT VARIABLE ( NAME, ( OUTCOME |  PROPERTY )* ) >
	      <!ATTLIST VARIABLE TYPE (nature|decision|utility) "nature">
	<!ELEMENT OUTCOME (#PCDATA)>
	<!ELEMENT DEFINITION ( FOR | GIVEN | TABLE | PROPERTY )* >
	<!ELEMENT FOR (#PCDATA)>
	<!ELEMENT GIVEN (#PCDATA)>
	<!ELEMENT TABLE (#PCDATA)>
	<!ELEMENT PROPERTY (#PCDATA)>
]>


<BIF VERSION="0.3">
<NETWORK>
<NAME>olcm</NAME>

<!-- Variables -->
<VARIABLE TYPE="nature">
	<NAME>scm1lue</NAME>
	<OUTCOME>0</OUTCOME>
	<OUTCOME>1</OUTCOME>
	<OUTCOME>2</OUTCOME>
	<OUTCOME>3</OUTCOME>
	<PROPERTY>position = (100, 100)</PROPERTY>
</VARIABLE>

<VARIABLE TYPE="nature">
	<NAME>scm1rue</NAME>
	<OUTCOME>0</OUTCOME>
	<OUTCOME>1</OUTCOME>
	<OUTCOME>2</OUTCOME>
	<OUTCOME>3</OUTCOME>
	<PROPERTY>position = (100, 100)</PROPERTY>
</VARIABLE>

<VARIABLE TYPE="nature">
	<NAME>scm2lue</NAME>
	<OUTCOME>0</OUTCOME>
	<OUTCOME>1</OUTCOME>
	<OUTCOME>2</OUTCOME>
	<OUTCOME>3</OUTCOME>
	<PROPERTY>position = (100, 100)</PROPERTY>
</VARIABLE>

<VARIABLE TYPE="nature">
	<NAME>scm2rue</NAME>
	<OUTCOME>0</OUTCOME>
	<OUTCOME>1</OUTCOME>
	<OUTCOME>2</OUTCOME>
	<OUTCOME>3</OUTCOME>
	<PROPERTY>position = (100, 100)</PROPERTY>
</VARIABLE>

<VARIABLE TYPE="nature">
	<NAME>scm5rise</NAME>
	<OUTCOME>0</OUTCOME>
	<OUTCOME>1</OUTCOME>
	<OUTCOME>2</OUTCOME>
	<OUTCOME>3</OUTCOME>
	<PROPERTY>position = (100, 100)</PROPERTY>
</VARIABLE>

<VARIABLE TYPE="nature">
	<NAME>scm6post</NAME>
	<OUTCOME>0</OUTCOME>
	<OUTCOME>1</OUTCOME>
	<OUTCOME>2</OUTCOME>
	<OUTCOME>3</OUTCOME>
	<PROPERTY>position = (100, 100)</PROPERTY>
</VARIABLE>

<VARIABLE TYPE="nature">
	<NAME>scm7gait</NAME>
	<OUTCOME>0</OUTCOME>
	<OUTCOME>1</OUTCOME>
	<OUTCOME>2</OUTCOME>
	<OUTCOME>3</OUTCOME>
	<PROPERTY>position = (100, 100)</PROPERTY>
</VARIABLE>

<VARIABLE TYPE="nature">
	<NAME>scm16wal</NAME>
	<OUTCOME>0</OUTCOME>
	<OUTCOME>1</OUTCOME>
	<OUTCOME>2</OUTCOME>
	<OUTCOME>3</OUTCOME>
	<PROPERTY>position = (100, 100)</PROPERTY>
</VARIABLE>

<VARIABLE TYPE="nature">
	<NAME>scm11spe</NAME>
	<OUTCOME>0</OUTCOME>
	<OUTCOME>1</OUTCOME>
	<OUTCOME>2</OUTCOME>
	<OUTCOME>3</OUTCOME>
	<PROPERTY>position = (100, 100)</PROPERTY>
</VARIABLE>

<VARIABLE TYPE="nature">
	<NAME>scm10swa</NAME>
	<OUTCOME>0</OUTCOME>
	<OUTCOME>1</OUTCOME>
	<OUTCOME>2</OUTCOME>
	<OUTCOME>3</OUTCOME>
	<PROPERTY>position = (100, 100)</PROPERTY>
</VARIABLE>

<VARIABLE TYPE="nature">
	<NAME>scm8spee</NAME>
	<OUTCOME>0</OUTCOME>
	<OUTCOME>1</OUTCOME>
	<OUTCOME>2</OUTCOME>
	<OUTCOME>3</OUTCOME>
	<PROPERTY>position = (100, 100)</PROPERTY>
</VARIABLE>

<VARIABLE TYPE="nature">
	<NAME>scm14hyg</NAME>
	<OUTCOME>0</OUTCOME>
	<OUTCOME>1</OUTCOME>
	<OUTCOME>2</OUTCOME>
	<OUTCOME>3</OUTCOME>
	<PROPERTY>position = (100, 100)</PROPERTY>
</VARIABLE>

<VARIABLE TYPE="nature">
	<NAME>scm21fsv</NAME>
	<OUTCOME>0</OUTCOME>
	<OUTCOME>1</OUTCOME>
	<OUTCOME>2</OUTCOME>
	<OUTCOME>3</OUTCOME>
	<PROPERTY>position = (100, 100)</PROPERTY>
</VARIABLE>

<VARIABLE TYPE="nature">
	<NAME>scm18dpr</NAME>
	<OUTCOME>0</OUTCOME>
	<OUTCOME>1</OUTCOME>
	<OUTCOME>2</OUTCOME>
	<OUTCOME>3</OUTCOME>
	<PROPERTY>position = (100, 100)</PROPERTY>
</VARIABLE>

<VARIABLE TYPE="nature">
	<NAME>scm19dsv</NAME>
	<OUTCOME>0</OUTCOME>
	<OUTCOME>1</OUTCOME>
	<OUTCOME>2</OUTCOME>
	<OUTCOME>3</OUTCOME>
	<PROPERTY>position = (100, 100)</PROPERTY>
</VARIABLE>

<VARIABLE TYPE="nature">
	<NAME>variable673</NAME>
	<OUTCOME>state0</OUTCOME>
	<OUTCOME>state1</OUTCOME>
	<OUTCOME>state2</OUTCOME>
	<OUTCOME>state3</OUTCOME>
	<PROPERTY>position = (100, 100)</PROPERTY>
</VARIABLE>

<VARIABLE TYPE="nature">
	<NAME>variable16</NAME>
	<OUTCOME>state0</OUTCOME>
	<OUTCOME>state1</OUTCOME>
	<OUTCOME>state2</OUTCOME>
	<PROPERTY>position = (100, 100)</PROPERTY>
</VARIABLE>

<VARIABLE TYPE="nature">
	<NAME>variable101</NAME>
	<OUTCOME>state0</OUTCOME>
	<OUTCOME>state1</OUTCOME>
	<OUTCOME>state2</OUTCOME>
	<PROPERTY>position = (100, 100)</PROPERTY>
</VARIABLE>

<VARIABLE TYPE="nature">
	<NAME>variable369</NAME>
	<OUTCOME>state0</OUTCOME>
	<OUTCOME>state1</OUTCOME>
	<OUTCOME>state2</OUTCOME>
	<OUTCOME>state3</OUTCOME>
	<OUTCOME>state4</OUTCOME>
	<PROPERTY>position = (100, 100)</PROPERTY>
</VARIABLE>


<!-- Probability distributions -->
<DEFINITION>
	<FOR>scm1lue</FOR>
	<GIVEN>variable369</GIVEN>
	<TABLE>0.7555367213287711 0.21179328458860175 0.02158152175922537 0.011088472323401762 0.4212853794614108 0.38020002612078674 0.17633874209394992 0.0221758523238525 0.8375020530749325 0.12523534210185552 0.03446261288615923 0.0027999919370526797 0.02719911375961348 0.0367479835151058 0.6102804249298808 0.32577247779540003 0.14074305188336722 0.6669698330652393 0.1660296673176843 0.026257447733709163 </TABLE>
</DEFINITION>

<DEFINITION>
	<FOR>scm1rue</FOR>
	<GIVEN>variable369</GIVEN>
	<TABLE>0.03282397725648721 0.5148140453172374 0.35011980404425486 0.1022421733820205 0.8478256261274912 0.13097831011142633 0.01250824924866193 0.008687814512420405 0.8563983532409233 0.10866174046815655 0.032293395282591224 0.0026465110083290296 0.09844121715930476 0.15939526665945275 0.4629956957791611 0.2791678204020815 0.01314828085552475 0.6643678850384047 0.30092273956165866 0.021561094544411862 </TABLE>
</DEFINITION>

<DEFINITION>
	<FOR>scm2lue</FOR>
	<GIVEN>variable369</GIVEN>
	<TABLE>0.9062395099661096 0.0563305761767051 0.02587587344106943 0.011554040416115925 0.03181378086466755 0.8425671172718462 0.11228794290956919 0.013331158953917129 0.9800983159373219 0.012592982557887105 0.0043687103803714865 0.002939991124419641 0.015453673663718954 0.16147330458627496 0.6016523095319462 0.22142071221805995 0.02648370674246832 0.8965973226787063 0.07145103884655765 0.005467931732267651 </TABLE>
</DEFINITION>

<DEFINITION>
	<FOR>scm2rue</FOR>
	<GIVEN>variable369</GIVEN>
	<TABLE>0.08816255527540369 0.6389777333843631 0.21142128758818718 0.06143842375204598 0.5729876727006775 0.40058031369589053 0.019688200659362734 0.006743812944069409 0.9312543342515132 0.06295379453819196 0.0031165679728054957 0.0026753032374893914 0.09505063345752944 0.24582987728764308 0.4985332112293053 0.1605862780255222 0.03504380505156861 0.7997821182681617 0.15798160898681468 0.007192467693454975 </TABLE>
</DEFINITION>

<DEFINITION>
	<FOR>scm5rise</FOR>
	<GIVEN>variable673</GIVEN>
	<TABLE>0.024143852383409832 0.024359157057096775 0.10706907065065178 0.8444279199088416 0.9451067685240985 0.044007322903246486 0.007310776926086128 0.0035751316465687626 0.09561551572716147 0.27922031174080025 0.5390280348676283 0.08613613766441004 0.43390751882683626 0.5366099400671307 0.02703585996255383 0.0024466811434792524 </TABLE>
</DEFINITION>

<DEFINITION>
	<FOR>scm6post</FOR>
	<GIVEN>variable673</GIVEN>
	<TABLE>0.023851147440100202 0.024600443104357148 0.1972234882301059 0.7543249212254366 0.9104482596814366 0.07167543195835621 0.014225468379294582 0.003650839980912525 0.07370636781912046 0.23756650242116983 0.6666800757258523 0.022047054033857427 0.4706117343603825 0.4420970306575301 0.08344808613383772 0.003843148848249635 </TABLE>
</DEFINITION>

<DEFINITION>
	<FOR>scm7gait</FOR>
	<GIVEN>variable673</GIVEN>
	<TABLE>0.02367446126971705 0.024519616977668256 0.4083080926992986 0.543497829053316 0.7870612710551302 0.20269410637556307 0.006670167961355449 0.0035744546079513424 0.010182208327598358 0.18992430568519525 0.7933506133624376 0.006542872624768582 0.05996654413167817 0.8776653146040568 0.060083477378097785 0.0022846638861671893 </TABLE>
</DEFINITION>

<DEFINITION>
	<FOR>scm16wal</FOR>
	<GIVEN>variable673</GIVEN>
	<TABLE>0.023773989007196916 0.02386281567442215 0.2656942803831539 0.686668914935227 0.7312350021620366 0.2514306485598387 0.01375985072858833 0.003574498549536252 0.021575725674307277 0.2599821992052175 0.6992548353988852 0.019187239721590223 0.016256847039383775 0.9065862563243791 0.07486199656827242 0.002294900067964684 </TABLE>
</DEFINITION>

<DEFINITION>
	<FOR>scm11spe</FOR>
	<GIVEN>variable101</GIVEN>
	<TABLE>0.9042484792911215 0.0832838010965893 0.009622841878784736 0.002844877733504523 0.03994752709704194 0.9186415844065142 0.03901516818652582 0.002395720309918037 0.011029124195039139 0.0792606924079366 0.7844483095332041 0.12526187386382015 </TABLE>
</DEFINITION>

<DEFINITION>
	<FOR>scm10swa</FOR>
	<GIVEN>variable101</GIVEN>
	<TABLE>0.8888529467824834 0.08718349026746364 0.02116003035649525 0.0028035325935577234 0.5453812510659012 0.3839011050209946 0.06836036349227054 0.002357280420833756 0.3155365035748433 0.35958047884791605 0.2699808942203911 0.054902123356849505 </TABLE>
</DEFINITION>

<DEFINITION>
	<FOR>scm8spee</FOR>
	<GIVEN>variable101</GIVEN>
	<TABLE>0.7321868528552574 0.25215637136261937 0.01280666708592664 0.002850108696196428 0.012756045443044248 0.933225995993891 0.051609087423411686 0.002408871139653069 0.010551560050383924 0.07575715930795096 0.757108508544863 0.15658277209680208 </TABLE>
</DEFINITION>

<DEFINITION>
	<FOR>scm14hyg</FOR>
	<GIVEN>variable673</GIVEN>
	<TABLE>0.023804984309892557 0.0995121607893962 0.32153074032831036 0.5551521145724008 0.5431062533069964 0.43367933712402146 0.01963989969559172 0.0035745098733903995 0.03457005659948331 0.4007627952885299 0.5287680400963939 0.03589910801559269 0.16850466438136752 0.7517821451658723 0.07740831448192405 0.0023048759708360705 </TABLE>
</DEFINITION>

<DEFINITION>
	<FOR>scm21fsv</FOR>
	<GIVEN>variable16</GIVEN>
	<TABLE>0.6623814955425843 0.22077127788544132 0.0941946381692459 0.022652588402728432 0.053744555177342904 0.09217826743629051 0.5357487196965119 0.3183284576898546 0.18704016880632618 0.515672703229586 0.28104091072460013 0.01624621723948759 </TABLE>
</DEFINITION>

<DEFINITION>
	<FOR>scm18dpr</FOR>
	<GIVEN>variable16</GIVEN>
	<TABLE>0.9871130126929591 0.007847827423645178 0.001975929335091144 0.0030632305483043556 0.020835616680632628 0.09508521911510118 0.6139742557412484 0.27010490846301777 0.006691010604464625 0.8882825573950257 0.0829679081199648 0.022058523880544877 </TABLE>
</DEFINITION>

<DEFINITION>
	<FOR>scm19dsv</FOR>
	<GIVEN>variable16</GIVEN>
	<TABLE>0.9875025647200393 0.006629454968071967 0.0041166175845808416 0.0017513627273078832 0.01578144181911224 0.1040257415147088 0.5860661991808064 0.2941266174853725 0.03700616065514618 0.8153325468665387 0.140911671753411 0.006749620724904177 </TABLE>
</DEFINITION>

<DEFINITION>
	<FOR>variable673</FOR>
	<TABLE>0.04363358456201935 0.30717317258330656 0.16672727729876 0.48246596555591403 </TABLE>
</DEFINITION>

<DEFINITION>
	<FOR>variable16</FOR>
	<TABLE>0.633761061945575 0.13481474046916914 0.23142419758525584 </TABLE>
</DEFINITION>

<DEFINITION>
	<FOR>variable101</FOR>
	<TABLE>0.39310007384444073 0.4685973331102196 0.13830259304533965 </TABLE>
</DEFINITION>

<DEFINITION>
	<FOR>variable369</FOR>
	<TABLE>0.10598857872199048 0.1713381410961796 0.4257278340949389 0.08972484370327069 0.2072206023836202 </TABLE>
</DEFINITION>


</NETWORK>
</BIF>
