// estudios/synthetic/15MVs_v3/olcmHC/olcm_iter_2.obif
// Produced at Tue Apr 24 17:25:32 CEST 2018
network "olcm - egypt_15_v3" {
}

variable "MV_bank" {
	type discrete[2] { "'1'" "'2'" };
}

variable "MV_other" {
	type discrete[2] { "'1'" "'2'" };
}

variable "MV_nonbank" {
	type discrete[2] { "'1'" "'2'" };
}

variable "MV_k15d" {
	type discrete[2] { "'1'" "'2'" };
}

variable "MV_h1" {
	type discrete[2] { "'1'" "'2'" };
}

variable "MV_h5" {
	type discrete[2] { "'1'" "'2'" };
}

variable "MV_h3" {
	type discrete[2] { "'1'" "'2'" };
}

variable "MV_mnaf3" {
	type discrete[2] { "'1'" "'2'" };
}

variable "MV_mnaq53" {
	type discrete[2] { "'1'" "'2'" };
}

variable "MV_e6" {
	type discrete[2] { "'1'" "'2'" };
}

variable "MV_j30c" {
	type discrete[5] { "'1'" "'2'" "'3'" "'4'" "'5'" };
}

variable "MV_d30b" {
	type discrete[5] { "'1'" "'2'" "'3'" "'4'" "'5'" };
}

variable "MV_d30a" {
	type discrete[5] { "'1'" "'2'" "'3'" "'4'" "'5'" };
}

variable "MV_l30a" {
	type discrete[5] { "'1'" "'2'" "'3'" "'4'" "'5'" };
}

variable "MV_l30b" {
	type discrete[5] { "'1'" "'2'" "'3'" "'4'" "'5'" };
}

variable "LV_variable16" {
	type discrete[2] { "state0" "state1" };
}

variable "LV_variable98" {
	type discrete[2] { "state0" "state1" };
}

variable "LV_variable243" {
	type discrete[4] { "state0" "state1" "state2" "state3" };
}

probability ( "MV_bank" | "LV_variable16", "LV_variable98" ) {
	table 0.2981683825763938 0.048539377695199434 0.9589613305301823 0.9911550466527476 0.7018316174236063 0.9514606223048006 0.041038669469817754 0.008844953347252467;
}
probability ( "MV_other" | "LV_variable243", "LV_variable16" ) {
	table 0.07244312647078058 0.989595972511495 0.027419482917217654 0.8099468523346386 0.035671026593316724 0.8723455878669701 0.15342265661120608 0.788985412911999 0.9275568735292194 0.010404027488504958 0.9725805170827824 0.1900531476653614 0.9643289734066833 0.12765441213302978 0.846577343388794 0.21101458708800097;
}
probability ( "MV_nonbank" | "LV_variable16" ) {
	table 0.0057977368448778235 0.9619445579435824 0.9942022631551222 0.03805544205641754;
}
probability ( "MV_k15d" | "LV_variable98" ) {
	table 0.20238370878586295 0.020171157832015788 0.797616291214137 0.9798288421679842;
}
probability ( "MV_h1" | "LV_variable243", "LV_variable98" ) {
	table 0.680981993457258 0.09640200173580206 0.4301390400413827 0.020256719575377766 0.9030928689387819 0.45452242620647004 0.6269510612507715 0.04983663756816378 0.3190180065427421 0.903597998264198 0.5698609599586173 0.9797432804246223 0.09690713106121805 0.54547757379353 0.37304893874922856 0.9501633624318362;
}
probability ( "MV_h5" | "LV_variable98" ) {
	table 0.4276619497758945 0.0595003584464909 0.5723380502241056 0.9404996415535091;
}
probability ( "MV_h3" | "LV_variable243", "LV_variable98" ) {
	table 0.4977350893275689 0.05954181168056276 0.21085999327165286 0.01137702287184759 0.8917657584312194 0.4224391038810804 0.6123917804303077 0.018043249218220828 0.5022649106724312 0.9404581883194373 0.7891400067283472 0.9886229771281524 0.1082342415687806 0.5775608961189195 0.3876082195696922 0.9819567507817792;
}
probability ( "MV_mnaf3" | "LV_variable243" ) {
	table 0.7582856519590079 0.41327807606242467 0.8639372413446406 0.8630139496811398 0.24171434804099215 0.5867219239375753 0.13606275865535944 0.13698605031886016;
}
probability ( "MV_mnaq53" | "LV_variable98" ) {
	table 0.12695862317301815 0.02456609247687584 0.8730413768269819 0.9754339075231242;
}
probability ( "MV_e6" | "LV_variable98" ) {
	table 0.26958710834070926 0.03997462244568544 0.7304128916592908 0.9600253775543145;
}
probability ( "MV_j30c" | "LV_variable243" ) {
	table 0.8404529905323721 0.1720545031443102 0.4580638382922179 0.172133600793435 0.0629462124249242 0.050407515222274754 0.045333171977139264 0.3804143399773216 0.0510354910818233 0.041930877731275226 0.17096141147077396 0.34900859898127634 0.02667441477112533 0.6463083413783152 0.11957035237716121 0.084150601946379 0.018890891189754982 0.08929876252382468 0.20607122588270768 0.014292858301588138;
}
probability ( "MV_d30b" | "LV_variable243" ) {
	table 0.9141182437717883 0.8232242707044174 0.5652094066865078 0.3375174394930319 0.048884598299271075 0.018435222120885317 0.050214651712118454 0.2939636941576085 0.018697055602419025 0.04260225819272194 0.1323815501451776 0.26668921020691677 0.010761514297272935 0.09107457915441282 0.13212253972355015 0.0928523954515958 0.007538588029248786 0.024663669827562698 0.12007185173264598 0.008977260690847057;
}
probability ( "MV_d30a" | "LV_variable243" ) {
	table 0.7652626894044028 0.8235820229828399 0.24093984746511635 0.189045363878923 0.09829760792063563 0.018331003463020034 0.1268256768521661 0.3278357241820387 0.0853229469755178 0.049470184525896195 0.15370515655269051 0.30328252118561333 0.03444475904658397 0.08417821502524944 0.2585512813904441 0.15957325983164128 0.01667199665285967 0.02443857400299438 0.21997803773958288 0.020263130921783626;
}
probability ( "MV_l30a" | "LV_variable243" ) {
	table 0.9385513054109774 0.1900804005615287 0.38616907208149215 0.21844005858945095 0.041288375232345284 0.06618976375656681 0.09571747637800426 0.3086321946264234 0.005493471639008905 0.07249580612716744 0.1873118332465246 0.386072723113162 0.004488730843230335 0.6162119840346498 0.1560766615894254 0.0721017659893447 0.010178116874437976 0.055022045520087236 0.1747249567045535 0.014753257681618876;
}
probability ( "MV_l30b" | "LV_variable243" ) {
	table 0.8868563488098024 0.6275236254785753 0.3774089775017273 0.260185964901398 0.054326265931086165 0.06809701589880138 0.08005009163883806 0.3974953459557036 0.03240413611172987 0.0884669479465198 0.15282151111347267 0.24841306157019954 0.02242800247945367 0.17673660502749117 0.18838908389430237 0.08271669643607982 0.00398524666792792 0.03917580564861233 0.20133033585165955 0.011188931136618957;
}
probability ( "LV_variable16"  ) {
	table 0.9165865206780852 0.08341347932191487;
}
probability ( "LV_variable98"  ) {
	table 0.13902972555335297 0.860970274446647;
}
probability ( "LV_variable243"  ) {
	table 0.47257231335973376 0.09226921402661376 0.17964391726820292 0.2555145553454496;
}
