network olcm - egypt_15_v3 {
}

variable bank {
	type discrete[2] { '1', '2' };
}

variable other {
	type discrete[2] { '1', '2' };
}

variable nonbank {
	type discrete[2] { '1', '2' };
}

variable k15d {
	type discrete[2] { '1', '2' };
}

variable h1 {
	type discrete[2] { '1', '2' };
}

variable h5 {
	type discrete[2] { '1', '2' };
}

variable h3 {
	type discrete[2] { '1', '2' };
}

variable mnaf3 {
	type discrete[2] { '1', '2' };
}

variable mnaq53 {
	type discrete[2] { '1', '2' };
}

variable e6 {
	type discrete[2] { '1', '2' };
}

variable j30c {
	type discrete[5] { '1', '2', '3', '4', '5' };
}

variable d30b {
	type discrete[5] { '1', '2', '3', '4', '5' };
}

variable d30a {
	type discrete[5] { '1', '2', '3', '4', '5' };
}

variable l30a {
	type discrete[5] { '1', '2', '3', '4', '5' };
}

variable l30b {
	type discrete[5] { '1', '2', '3', '4', '5' };
}

variable variable243 {
	type discrete[2] { state0, state1 };
}

variable variable16 {
	type discrete[2] { state0, state1 };
}

variable variable98 {
	type discrete[2] { state0, state1 };
}

probability ( bank | variable16 ) {
	(state0) 0.9931534631189456, 0.006846536881054389;
	(state1) 0.08251314699145319, 0.9174868530085468;
}

probability ( other | variable16 ) {
	(state0) 0.9398894983876398, 0.06011050161236031;
	(state1) 0.08058012069009092, 0.9194198793099091;
}

probability ( nonbank | variable16 ) {
	(state0) 0.9639882479139009, 0.036011752086099184;
	(state1) 0.0060683983282931305, 0.9939316016717068;
}

probability ( k15d ) {
	table 0.04510108864696734, 0.9548989113530326;
}

probability ( h1 | variable98 ) {
	(state0) 0.8756046794782129, 0.12439532052178708;
	(state1) 0.0964324055781134, 0.9035675944218865;
}

probability ( h5 ) {
	table 0.1104199066874028, 0.8895800933125972;
}

probability ( h3 | variable98 ) {
	(state0) 0.7561551888859842, 0.2438448111140158;
	(state1) 0.06913899103212912, 0.9308610089678708;
}

probability ( mnaf3 ) {
	table 0.7729393468118196, 0.22706065318818042;
}

probability ( mnaq53 | variable243 ) {
	(state0) 0.05819943531248968, 0.9418005646875103;
	(state1) 0.03279553717685922, 0.9672044628231408;
}

probability ( e6 ) {
	table 0.07153965785381027, 0.9284603421461898;
}

probability ( j30c ) {
	table 0.5408902691511387, 0.13923395445134576, 0.14751552795031056, 0.11542443064182195, 0.056935817805383024;
}

probability ( d30b | variable243 ) {
	(state0) 0.08580816506536149, 0.31343689819353704, 0.3296484177268166, 0.20149945859870255, 0.06960706041558223;
	(state1) 0.8899785765260189, 0.04411592775897243, 0.03360627142260125, 0.01615177467877275, 0.016147449613634693;
}

probability ( d30a | variable243 ) {
	(state0) 0.08570641229664686, 0.2979402189624495, 0.28880593964286816, 0.24794003397595213, 0.07960739512208342;
	(state1) 0.6702824549842042, 0.1093334035089067, 0.10609454874545343, 0.0680479838347211, 0.04624160892671442;
}

probability ( l30a | variable98 ) {
	(state0) 0.48860455043474266, 0.09558536187523872, 0.18978030082244085, 0.13082598455931707, 0.09520380230826064;
	(state1) 0.6049635177070993, 0.12602319532645084, 0.13262783381513543, 0.10126812419416617, 0.03511732895714812;
}

probability ( l30b ) {
	table 0.6138716356107661, 0.14751552795031056, 0.11387163561076605, 0.08126293995859213, 0.043478260869565216;
}

probability ( variable243 ) {
	table 0.2376619339622303, 0.7623380660377697;
}

probability ( variable16 ) {
	table 0.08297528428284302, 0.917024715717157;
}

probability ( variable98 ) {
	table 0.15303146002606527, 0.8469685399739347;
}

