network olcm - parkinson_10_learn {
}

variable scm19dsv {
	type discrete[4] { 0, 1, 2, 3 };
}

variable scm18dpr {
	type discrete[4] { 0, 1, 2, 3 };
}

variable scm11spe {
	type discrete[4] { 0, 1, 2, 3 };
}

variable scm8spee {
	type discrete[4] { 0, 1, 2, 3 };
}

variable scm1lue {
	type discrete[4] { 0, 1, 2, 3 };
}

variable scm1rue {
	type discrete[4] { 0, 1, 2, 3 };
}

variable scm2rue {
	type discrete[4] { 0, 1, 2, 3 };
}

variable scm5rise {
	type discrete[4] { 0, 1, 2, 3 };
}

variable scm6post {
	type discrete[4] { 0, 1, 2, 3 };
}

variable scm7gait {
	type discrete[4] { 0, 1, 2, 3 };
}

variable variable284 {
	type discrete[4] { state0, state1, state2, state3 };
}

variable variable126 {
	type discrete[3] { state0, state1, state2 };
}

variable variable205 {
	type discrete[3] { state0, state1, state2 };
}

variable variable71 {
	type discrete[3] { state0, state1, state2 };
}

probability ( scm19dsv | variable71 ) {
	(state0) 0.9900177257154879, 0.00398847702014866, 0.0030135479197813428, 0.002980249344582106;
	(state1) 0.02121939651359032, 0.8020456336868674, 0.15979263358842377, 0.016942336211118594;
	(state2) 0.015729084289800046, 0.09903876762930275, 0.5849193744932651, 0.300312773587632;
}

probability ( scm18dpr | variable71 ) {
	(state0) 0.9790737193539414, 0.013029766761546864, 0.002371077630250991, 0.005525436254260787;
	(state1) 0.009727460309127356, 0.845488095611784, 0.11220768569431704, 0.03257675838477159;
	(state2) 0.015426572004743939, 0.07196314237992986, 0.6043027422655898, 0.3083075433497366;
}

probability ( scm11spe | variable126 ) {
	(state0) 0.9249661781234018, 0.06479191484340066, 0.006219510948942451, 0.004022396084255151;
	(state1) 0.05550610516084224, 0.901344580636206, 0.040782829102506524, 0.0023664851004452482;
	(state2) 0.01651812291950029, 0.03583665933710433, 0.8301985587328061, 0.11744665901058934;
}

probability ( scm8spee | variable126 ) {
	(state0) 0.7574468044844613, 0.2322492442258161, 0.0067414654047213375, 0.0035624858850011494;
	(state1) 0.029228930944087787, 0.9042702909324593, 0.064564498914909, 0.0019362792085440186;
	(state2) 0.014170556389299767, 0.05118149163451097, 0.7543151276461523, 0.1803328243300369;
}

probability ( scm1lue ) {
	table 0.5517585931254996, 0.2797761790567546, 0.13029576338928858, 0.038169464428457235;
}

probability ( scm1rue | variable205 ) {
	(state0) 0.8794358838583066, 0.08938835032616085, 0.028072080142843275, 0.0031036856726892876;
	(state1) 0.02466457812347733, 0.03159505060451721, 0.5753443393776158, 0.36839603189438974;
	(state2) 0.0623960798251274, 0.683296324960558, 0.24058126625003112, 0.013726328964283498;
}

probability ( scm2rue | variable205 ) {
	(state0) 0.8639206163858635, 0.12803517223783326, 0.005625226751458266, 0.002418984624845041;
	(state1) 0.034289336645678264, 0.0937959355238327, 0.6490282453299024, 0.22288648250058657;
	(state2) 0.08357540985781434, 0.8147519357287051, 0.09824838533354315, 0.0034242690799374063;
}

probability ( scm5rise | variable284 ) {
	(state0) 0.2600731125827981, 0.6752835260225144, 0.06031818451221101, 0.00432517688247656;
	(state1) 0.035146015121344874, 0.02934428401646085, 0.07825481650024976, 0.8572548843619445;
	(state2) 0.9386834122120149, 0.04256455902130267, 0.014024525008778951, 0.004727503757903442;
	(state3) 0.08099145945997414, 0.20127784180572764, 0.6534003650482404, 0.06433033368605784;
}

probability ( scm6post | variable284 ) {
	(state0) 0.3034766844941377, 0.5814647040771708, 0.11138684567095324, 0.0036717657577381452;
	(state1) 0.012759857830675776, 0.025855685156653933, 0.2532300223489327, 0.7081544346637376;
	(state2) 0.9015521418556158, 0.07194537016652487, 0.022873649137817465, 0.0036288388400418656;
	(state3) 0.0540993783890663, 0.13959433881111794, 0.7570789778258515, 0.04922730497396432;
}

probability ( scm7gait | variable284 ) {
	(state0) 0.04560107679935754, 0.8393584375202198, 0.10885524475973235, 0.006185240920690251;
	(state1) 0.009055575726765339, 0.04799391422901113, 0.3797506433446208, 0.5631998666996028;
	(state2) 0.5906250293627162, 0.394925781371348, 0.012374499842588484, 0.002074689423347573;
	(state3) 0.018531642149436305, 0.06546896104843292, 0.909388469114785, 0.006610927687345895;
}

probability ( variable284 ) {
	table 0.38842382659563524, 0.04946946728974599, 0.4303573724451847, 0.13174933366943412;
}

probability ( variable126 ) {
	table 0.3680434720983793, 0.505616284054879, 0.12634024384674158;
}

probability ( variable205 ) {
	table 0.5785379436969218, 0.10026864864236693, 0.3211934076607114;
}

probability ( variable71 ) {
	table 0.635892154659985, 0.24229431034870136, 0.12181353499131362;
}

